{"learner":{"attributes":{"best_iteration":"299","best_ntree_limit":"300"},"feature_names":["objective","ssl_mode","is_stopgrad","is_ema","architecture_exact","architecture","family","patch_size","n_parameters","z_dim","z_layer","epochs","batch_size","optimizer","learning_rate","weight_decay","scheduler","pretraining_data","img_size","is_aug_invariant","year","is_official","is_industry","n_classes","pred_dim","projection_hid_width","projection_hid_depth","projection1_arch","projection2_arch","projection_same","n_negatives","finetuning_data","other","nviews","n_augmentations","projection_nparameters_hidden","is_aug_autoaug","is_aug_blur","is_aug_color","is_aug_crop","is_aug_erasing","is_aug_flip","is_aug_gray","is_aug_jigsaw","is_aug_masking","is_aug_normalize","is_aug_photometric","is_aug_rotate","is_aug_solarize","is_aug_anygeometric","is_aug_anycolor"],"feature_types":["c","c","int","int","c","c","c","int","float","int","c","float","int","c","float","float","c","c","int","int","int","int","int","float","float","float","float","c","c","float","float","c","c","int","float","float","int","int","int","int","int","int","int","int","int","int","int","int","int","int","int"],"gradient_booster":{"model":{"gbtree_model_param":{"num_parallel_tree":"1","num_trees":"300","size_leaf_vector":"0"},"tree_info":[0,0,0,0,0,0,0,0,0,0,0,0,0,0,0,0,0,0,0,0,0,0,0,0,0,0,0,0,0,0,0,0,0,0,0,0,0,0,0,0,0,0,0,0,0,0,0,0,0,0,0,0,0,0,0,0,0,0,0,0,0,0,0,0,0,0,0,0,0,0,0,0,0,0,0,0,0,0,0,0,0,0,0,0,0,0,0,0,0,0,0,0,0,0,0,0,0,0,0,0,0,0,0,0,0,0,0,0,0,0,0,0,0,0,0,0,0,0,0,0,0,0,0,0,0,0,0,0,0,0,0,0,0,0,0,0,0,0,0,0,0,0,0,0,0,0,0,0,0,0,0,0,0,0,0,0,0,0,0,0,0,0,0,0,0,0,0,0,0,0,0,0,0,0,0,0,0,0,0,0,0,0,0,0,0,0,0,0,0,0,0,0,0,0,0,0,0,0,0,0,0,0,0,0,0,0,0,0,0,0,0,0,0,0,0,0,0,0,0,0,0,0,0,0,0,0,0,0,0,0,0,0,0,0,0,0,0,0,0,0,0,0,0,0,0,0,0,0,0,0,0,0,0,0,0,0,0,0,0,0,0,0,0,0,0,0,0,0,0,0,0,0,0,0,0,0,0,0,0,0,0,0,0,0,0,0,0,0,0,0,0,0,0,0,0,0,0,0,0,0],"trees":[{"base_weights":[2.7707344E1],"categories":[],"categories_nodes":[],"categories_segments":[],"categories_sizes":[],"default_left":[0],"id":0,"left_children":[-1],"loss_changes":[0E0],"parents":[2147483647],"right_children":[-1],"split_conditions":[2.4088738E0],"split_indices":[0],"split_type":[0],"sum_hessian":[9.4E1],"tree_param":{"num_deleted":"0","num_feature":"51","num_nodes":"1","size_leaf_vector":"0"}},{"base_weights":[2.528741E1],"categories":[],"categories_nodes":[],"categories_segments":[],"categories_sizes":[],"default_left":[0],"id":1,"left_children":[-1],"loss_changes":[0E0],"parents":[2147483647],"right_children":[-1],"split_conditions":[2.198485E0],"split_indices":[0],"split_type":[0],"sum_hessian":[8.5E1],"tree_param":{"num_deleted":"0","num_feature":"51","num_nodes":"1","size_leaf_vector":"0"}},{"base_weights":[2.4178051E1],"categories":[],"categories_nodes":[],"categories_segments":[],"categories_sizes":[],"default_left":[0],"id":2,"left_children":[-1],"loss_changes":[0E0],"parents":[2147483647],"right_children":[-1],"split_conditions":[2.1020374E0],"split_indices":[0],"split_type":[0],"sum_hessian":[9.9E1],"tree_param":{"num_deleted":"0","num_feature":"51","num_nodes":"1","size_leaf_vector":"0"}},{"base_weights":[2.0972588E1],"categories":[],"categories_nodes":[],"categories_segments":[],"categories_sizes":[],"default_left":[0],"id":3,"left_children":[-1],"loss_changes":[0E0],"parents":[2147483647],"right_children":[-1],"split_conditions":[1.8233547E0],"split_indices":[0],"split_type":[0],"sum_hessian":[9.7E1],"tree_param":{"num_deleted":"0","num_feature":"51","num_nodes":"1","size_leaf_vector":"0"}},{"base_weights":[2.0096672E1,1.1366076E1,2.2778957E1],"categories":[],"categories_nodes":[],"categories_segments":[],"categories_sizes":[],"default_left":[1,0,0],"id":4,"left_children":[1,-1,-1],"loss_changes":[3.8798438E2,0E0,0E0],"parents":[2147483647,0,0],"right_children":[2,-1,-1],"split_conditions":[5.5E-3,9.8816556E-1,1.9804003E0],"split_indices":[14,0,0],"split_type":[0,0,0],"sum_hessian":[9.8E1,3.3E1,6.5E1],"tree_param":{"num_deleted":"0","num_feature":"51","num_nodes":"3","size_leaf_vector":"0"}},{"base_weights":[1.8079319E1],"categories":[],"categories_nodes":[],"categories_segments":[],"categories_sizes":[],"default_left":[0],"id":5,"left_children":[-1],"loss_changes":[0E0],"parents":[2147483647],"right_children":[-1],"split_conditions":[1.5718142E0],"split_indices":[0],"split_type":[0],"sum_hessian":[9.3E1],"tree_param":{"num_deleted":"0","num_feature":"51","num_nodes":"1","size_leaf_vector":"0"}},{"base_weights":[1.6298195E1],"categories":[],"categories_nodes":[],"categories_segments":[],"categories_sizes":[],"default_left":[0],"id":6,"left_children":[-1],"loss_changes":[0E0],"parents":[2147483647],"right_children":[-1],"split_conditions":[1.4169635E0],"split_indices":[0],"split_type":[0],"sum_hessian":[9.5E1],"tree_param":{"num_deleted":"0","num_feature":"51","num_nodes":"1","size_leaf_vector":"0"}},{"base_weights":[1.6271309E1,9.525384E0,1.8412392E1],"categories":[],"categories_nodes":[],"categories_segments":[],"categories_sizes":[],"default_left":[1,0,0],"id":7,"left_children":[1,-1,-1],"loss_changes":[9.7728516E1,0E0,0E0],"parents":[2147483647,0,0],"right_children":[2,-1,-1],"split_conditions":[5.5E-3,8.2813597E-1,1.6007715E0],"split_indices":[14,0,0],"split_type":[0,0,0],"sum_hessian":[9.7E1,3.4E1,6.3E1],"tree_param":{"num_deleted":"0","num_feature":"51","num_nodes":"3","size_leaf_vector":"0"}},{"base_weights":[1.3025823E1],"categories":[],"categories_nodes":[],"categories_segments":[],"categories_sizes":[],"default_left":[0],"id":8,"left_children":[-1],"loss_changes":[0E0],"parents":[2147483647],"right_children":[-1],"split_conditions":[1.1324637E0],"split_indices":[0],"split_type":[0],"sum_hessian":[8.1E1],"tree_param":{"num_deleted":"0","num_feature":"51","num_nodes":"1","size_leaf_vector":"0"}},{"base_weights":[1.34545765E1,1.4123785E1,3.4383485E0,1.6255058E1,8.224275E0],"categories":[],"categories_nodes":[],"categories_segments":[],"categories_sizes":[],"default_left":[1,1,0,0,0],"id":9,"left_children":[1,3,-1,-1,-1],"loss_changes":[2.9108398E2,8.797461E1,0E0,0E0,0E0],"parents":[2147483647,0,0,1,1],"right_children":[2,4,-1,-1,-1],"split_conditions":[9.216E3,5E-1,2.989297E-1,1.4132131E0,7.150176E-1],"split_indices":[12,48,0,0,0],"split_type":[0,0,0,0,0],"sum_hessian":[9.4E1,8.5E1,9E0,5.2E1,3.3E1],"tree_param":{"num_deleted":"0","num_feature":"51","num_nodes":"5","size_leaf_vector":"0"}},{"base_weights":[1.2607884E1,5.722654E0,1.4819682E1],"categories":[],"categories_nodes":[],"categories_segments":[],"categories_sizes":[],"default_left":[1,0,0],"id":10,"left_children":[1,-1,-1],"loss_changes":[6.8529395E2,0E0,0E0],"parents":[2147483647,0,0],"right_children":[2,-1,-1],"split_conditions":[1.5E0,4.9752697E-1,1.2884218E0],"split_indices":[13,0,0],"split_type":[0,0,0],"sum_hessian":[8.2E1,2.7E1,5.5E1],"tree_param":{"num_deleted":"0","num_feature":"51","num_nodes":"3","size_leaf_vector":"0"}},{"base_weights":[1.1392373E1,1.3130326E1,5.929591E0],"categories":[],"categories_nodes":[],"categories_segments":[],"categories_sizes":[],"default_left":[1,0,0],"id":11,"left_children":[1,-1,-1],"loss_changes":[4.0528613E2,0E0,0E0],"parents":[2147483647,0,0],"right_children":[2,-1,-1],"split_conditions":[1.45E1,1.1415492E0,5.1551807E-1],"split_indices":[4,0,0],"split_type":[0,0,0],"sum_hessian":[1.01E2,6.8E1,3.3E1],"tree_param":{"num_deleted":"0","num_feature":"51","num_nodes":"3","size_leaf_vector":"0"}},{"base_weights":[1.0500386E1,4.762289E0,1.2433558E1,1.4954923E0,5.3564825E0],"categories":[],"categories_nodes":[],"categories_segments":[],"categories_sizes":[],"default_left":[1,1,0,0,0],"id":12,"left_children":[1,3,-1,-1,-1],"loss_changes":[6.1975684E2,9.074646E0,0E0,0E0,0E0],"parents":[2147483647,0,0,1,1],"right_children":[2,4,-1,-1,-1],"split_conditions":[1.5E0,2.5E2,1.0809723E0,1.3001795E-1,4.6569207E-1],"split_indices":[13,11,0,0,0],"split_type":[0,0,0,0,0],"sum_hessian":[9.1E1,3E1,6.1E1,9E0,2.1E1],"tree_param":{"num_deleted":"0","num_feature":"51","num_nodes":"5","size_leaf_vector":"0"}},{"base_weights":[9.877967E0,5.732669E0,1.126593E1],"categories":[],"categories_nodes":[],"categories_segments":[],"categories_sizes":[],"default_left":[1,0,0],"id":13,"left_children":[1,-1,-1],"loss_changes":[6.4416016E1,0E0,0E0],"parents":[2147483647,0,0],"right_children":[2,-1,-1],"split_conditions":[1.5E0,4.9839768E-1,9.7945887E-1],"split_indices":[13,0,0],"split_type":[0,0,0],"sum_hessian":[9.4E1,3.4E1,6E1],"tree_param":{"num_deleted":"0","num_feature":"51","num_nodes":"3","size_leaf_vector":"0"}},{"base_weights":[8.571736E0,1.0348426E1,3.8676107E0,1.1033379E1,3.119726E0],"categories":[],"categories_nodes":[],"categories_segments":[],"categories_sizes":[],"default_left":[1,1,0,0,0],"id":14,"left_children":[1,3,-1,-1,-1],"loss_changes":[5.0411475E2,5.346924E1,0E0,0E0,0E0],"parents":[2147483647,0,0,1,1],"right_children":[2,4,-1,-1,-1],"split_conditions":[1.45E1,2.4E1,3.3624968E-1,9.5924085E-1,2.7122867E-1],"split_indices":[4,0,0,0,0],"split_type":[0,0,0,0,0],"sum_hessian":[9.1E1,5.9E1,3.2E1,5E1,9E0],"tree_param":{"num_deleted":"0","num_feature":"51","num_nodes":"5","size_leaf_vector":"0"}},{"base_weights":[8.849106E0,9.517737E0,2.5855343E0,1.0203794E1,2.1169567E0],"categories":[],"categories_nodes":[],"categories_segments":[],"categories_sizes":[],"default_left":[1,1,0,0,0],"id":15,"left_children":[1,3,-1,-1,-1],"loss_changes":[1.9060547E2,2.3682568E2,0E0,0E0,0E0],"parents":[2147483647,0,0,1,1],"right_children":[2,4,-1,-1,-1],"split_conditions":[3E0,5.5E-2,2.247861E-1,8.871168E-1,1.8404801E-1],"split_indices":[33,15,0,0,0],"split_type":[0,0,0,0,0],"sum_hessian":[8.5E1,7.3E1,1.2E1,6.4E1,9E0],"tree_param":{"num_deleted":"0","num_feature":"51","num_nodes":"5","size_leaf_vector":"0"}},{"base_weights":[8.037339E0,9.482222E0,3.329119E0,1.0421143E1,2.5269403E0],"categories":[],"categories_nodes":[],"categories_segments":[],"categories_sizes":[],"default_left":[1,1,0,0,0],"id":16,"left_children":[1,3,-1,-1,-1],"loss_changes":[4.8653027E2,3.032837E2,0E0,0E0,0E0],"parents":[2147483647,0,0,1,1],"right_children":[2,4,-1,-1,-1],"split_conditions":[1.45E1,3E0,2.8943327E-1,9.0601313E-1,2.1969195E-1],"split_indices":[4,33,0,0,0],"split_type":[0,0,0,0,0],"sum_hessian":[1.01E2,7.1E1,3E1,5.9E1,1.2E1],"tree_param":{"num_deleted":"0","num_feature":"51","num_nodes":"5","size_leaf_vector":"0"}},{"base_weights":[7.4017286E0,8.879671E0,3.2426503E0,9.717128E0,2.3037267E0,4.0053616E0,1.1090109E1,1.426759E1,5.740005E0],"categories":[],"categories_nodes":[],"categories_segments":[],"categories_sizes":[],"default_left":[1,1,0,1,0,0,1,0,0],"id":17,"left_children":[1,3,-1,5,-1,-1,7,-1,-1],"loss_changes":[4.312827E2,2.3227832E2,0E0,1.4294238E2,0E0,0E0,1.3745508E2,0E0,0E0],"parents":[2147483647,0,0,1,1,3,3,6,6],"right_children":[2,4,-1,6,-1,-1,8,-1,-1],"split_conditions":[1.3E1,3E0,2.819157E-1,4E0,2.0028576E-1,3.4822574E-1,1.5E0,1.2404228E0,4.9903548E-1],"split_indices":[4,33,0,0,0,0,28,0,0],"split_type":[0,0,0,0,0,0,0,0,0],"sum_hessian":[1E2,6.7E1,3.3E1,5.6E1,1.1E1,1.7E1,3.9E1,1.6E1,2.3E1],"tree_param":{"num_deleted":"0","num_feature":"51","num_nodes":"9","size_leaf_vector":"0"}},{"base_weights":[6.138566E0,7.532432E0,2.8801746E0],"categories":[],"categories_nodes":[],"categories_segments":[],"categories_sizes":[],"default_left":[1,0,0],"id":18,"left_children":[1,-1,-1],"loss_changes":[3.2434473E2,0E0,0E0],"parents":[2147483647,0,0],"right_children":[2,-1,-1],"split_conditions":[4.5E0,6.548689E-1,2.504021E-1],"split_indices":[5,0,0],"split_type":[0,0,0],"sum_hessian":[1.02E2,6.4E1,3.8E1],"tree_param":{"num_deleted":"0","num_feature":"51","num_nodes":"3","size_leaf_vector":"0"}},{"base_weights":[6.2872467E0,1.1671214E1,4.395171E0,5.3649235E0,2.2475636E0,2.560372E0,6.140591E-1],"categories":[],"categories_nodes":[],"categories_segments":[],"categories_sizes":[],"default_left":[1,0,1,0,1,0,0],"id":19,"left_children":[1,-1,3,-1,5,-1,-1],"loss_changes":[5.635239E2,0E0,7.749255E1,0E0,7.752945E0,0E0,0E0],"parents":[2147483647,0,0,2,2,4,4],"right_children":[2,-1,4,-1,6,-1,-1],"split_conditions":[2.0195E3,1.0146942E0,4.5E0,4.6642593E-1,5.5E-4,2.225985E-1,5.3386237E-2],"split_indices":[20,0,5,0,14,0,0],"split_type":[0,0,0,0,0,0,0],"sum_hessian":[8.8E1,1.2E1,7.6E1,4.4E1,3.2E1,2.3E1,9E0],"tree_param":{"num_deleted":"0","num_feature":"51","num_nodes":"7","size_leaf_vector":"0"}},{"base_weights":[6.3318787E0,1.17365E1,4.654409E0,5.4231577E0,1.1897156E0,5.8937645E0,1.8073418E0],"categories":[],"categories_nodes":[],"categories_segments":[],"categories_sizes":[],"default_left":[1,0,1,1,0,0,0],"id":20,"left_children":[1,-1,3,5,-1,-1,-1],"loss_changes":[4.9231982E2,0E0,1.9304419E2,3.8116943E1,0E0,0E0,0E0],"parents":[2147483647,0,0,2,2,3,3],"right_children":[2,-1,4,6,-1,-1,-1],"split_conditions":[5E-1,1.0203701E0,8.5E7,3E0,1.0343376E-1,5.124033E-1,1.5713012E-1],"split_indices":[28,0,8,33,0,0,0],"split_type":[0,0,0,0,0,0,0],"sum_hessian":[9.5E1,1.1E1,8.4E1,6.5E1,1.9E1,5.3E1,1.2E1],"tree_param":{"num_deleted":"0","num_feature":"51","num_nodes":"7","size_leaf_vector":"0"}},{"base_weights":[5.622846E0,1.1023343E1,3.7385788E0,4.466194E0,1.3548545E0,1.7296301E0,3.2702872E-1],"categories":[],"categories_nodes":[],"categories_segments":[],"categories_sizes":[],"default_left":[1,0,1,0,0,0,0],"id":21,"left_children":[1,-1,3,-1,5,-1,-1],"loss_changes":[8.171384E2,0E0,1.17667114E2,0E0,8.551247E0,0E0,0E0],"parents":[2147483647,0,0,2,2,4,4],"right_children":[2,-1,4,-1,6,-1,-1],"split_conditions":[5E-1,9.5836836E-1,8.5E7,3.8829046E-1,4.735427E7,1.5037388E-1,2.8431844E-2],"split_indices":[28,0,8,0,35,0,0],"split_type":[0,0,0,0,0,0,0],"sum_hessian":[1.05E2,1.7E1,8.8E1,6.2E1,2.6E1,1.5E1,1.1E1],"tree_param":{"num_deleted":"0","num_feature":"51","num_nodes":"7","size_leaf_vector":"0"}},{"base_weights":[5.380398E0,7.3188376E0,2.3787837E0,2.67961E0,8.50006E-1],"categories":[],"categories_nodes":[],"categories_segments":[],"categories_sizes":[],"default_left":[1,0,1,0,0],"id":22,"left_children":[1,-1,3,-1,-1],"loss_changes":[4.2396362E2,0E0,4.5906982E0,0E0,0E0],"parents":[2147483647,0,0,2,2],"right_children":[2,-1,4,-1,-1],"split_conditions":[5E-1,6.36299E-1,5E-1,2.3296502E-1,7.389943E-2],"split_indices":[2,0,44,0,0],"split_type":[0,0,0,0,0],"sum_hessian":[8.9E1,4.7E1,4.2E1,3E1,1.2E1],"tree_param":{"num_deleted":"0","num_feature":"51","num_nodes":"5","size_leaf_vector":"0"}},{"base_weights":[4.7832184E0,7.7398357E0,2.9189835E0,3.3021135E0,1.2483878E0,3.8024726E0,9.732786E-1,2.638626E-1,1.6415752E0],"categories":[],"categories_nodes":[],"categories_segments":[],"categories_sizes":[],"default_left":[1,0,1,1,1,0,0,0,0],"id":23,"left_children":[1,-1,3,5,7,-1,-1,-1,-1],"loss_changes":[3.3017627E2,0E0,1.1478516E1,3.0731567E1,6.592243E0,0E0,0E0,0E0,0E0],"parents":[2147483647,0,0,2,2,3,3,4,4],"right_children":[2,-1,4,6,8,-1,-1,-1,-1],"split_conditions":[5E-1,6.7290056E-1,2.2E1,3E0,2.85E1,3.3058658E-1,8.461674E-2,2.2940189E-2,1.4271839E-1],"split_indices":[21,0,4,33,4,0,0,0,0],"split_type":[0,0,0,0,0,0,0,0,0],"sum_hessian":[8.5E1,2.3E1,6.2E1,4.4E1,1.8E1,3.2E1,1.2E1,9E0,9E0],"tree_param":{"num_deleted":"0","num_feature":"51","num_nodes":"9","size_leaf_vector":"0"}},{"base_weights":[4.0588045E0,2.6930425E0,7.0254073E0,3.1160016E0,1.081735E0,8.569357E-1,3.5636709E0,2.254393E-1,1.3604232E0],"categories":[],"categories_nodes":[],"categories_segments":[],"categories_sizes":[],"default_left":[1,1,0,0,1,0,0,0,0],"id":24,"left_children":[1,3,-1,5,7,-1,-1,-1,-1],"loss_changes":[2.726012E2,3.0694641E1,0E0,3.907617E1,4.6967163E0,0E0,0E0,0E0,0E0],"parents":[2147483647,0,0,1,1,3,3,4,4],"right_children":[2,4,-1,6,8,-1,-1,-1,-1],"split_conditions":[2.5E0,3.84E2,6.107882E-1,2.048E4,2.5E0,7.45019E-2,3.0982518E-1,1.959967E-2,1.1827506E-1],"split_indices":[13,24,0,23,17,0,0,0,0],"split_type":[0,0,0,0,0,0,0,0,0],"sum_hessian":[9.7E1,7.7E1,2E1,5.5E1,2.2E1,1.3E1,4.2E1,9E0,1.3E1],"tree_param":{"num_deleted":"0","num_feature":"51","num_nodes":"9","size_leaf_vector":"0"}},{"base_weights":[4.3377132E0,8.427147E0,2.0974634E0,1.035542E1,3.355699E0,2.5020761E0,-4.8368984E-1,2.862739E0,1.2343384E0,3.221556E0,9.893878E-1],"categories":[],"categories_nodes":[],"categories_segments":[],"categories_sizes":[],"default_left":[1,1,1,0,0,1,0,1,0,0,0],"id":25,"left_children":[1,3,5,-1,-1,7,-1,9,-1,-1,-1],"loss_changes":[7.8304456E2,4.2254395E1,8.927698E1,0E0,0E0,2.05896E0,0E0,5.169922E0,0E0,0E0,0E0],"parents":[2147483647,0,0,1,1,2,2,5,5,7,7],"right_children":[2,4,6,-1,-1,8,-1,10,-1,-1,-1],"split_conditions":[5E-1,1.5E0,5.5E-2,9.002992E-1,2.9174414E-1,2.5E0,-4.205195E-2,3E0,1.0731326E-1,2.8008175E-1,8.601728E-2],"split_indices":[21,28,15,0,0,10,0,33,0,0,0],"split_type":[0,0,0,0,0,0,0,0,0,0,0],"sum_hessian":[9.3E1,2.5E1,6.8E1,1.2E1,1.3E1,5.9E1,9E0,3.8E1,2.1E1,2.7E1,1.1E1],"tree_param":{"num_deleted":"0","num_feature":"51","num_nodes":"11","size_leaf_vector":"0"}},{"base_weights":[3.6382987E0,8.028808E0,2.4854567E0,3.090314E0,8.707353E-1,8.7384915E-1,3.297577E0,2.5978097E-1,1.1636779E0,1.0028938E0,3.5335488E0],"categories":[],"categories_nodes":[],"categories_segments":[],"categories_sizes":[],"default_left":[1,0,1,0,1,0,1,0,0,0,0],"id":26,"left_children":[1,-1,3,5,7,-1,9,-1,-1,-1,-1],"loss_changes":[4.1590552E2,0E0,7.792102E1,9.321472E0,4.5475025E0,0E0,4.921753E0,0E0,0E0,0E0,0E0],"parents":[2147483647,0,0,2,2,3,3,4,4,6,6],"right_children":[2,-1,4,6,8,-1,10,-1,-1,-1,-1],"split_conditions":[2.0195E3,6.9802374E-1,6.144E3,5.12E3,1.95E1,7.5972356E-2,1.15E1,2.2585332E-2,1.0117004E-1,8.7191485E-2,3.072064E-1],"split_indices":[20,0,30,23,4,0,4,0,0,0,0],"split_type":[0,0,0,0,0,0,0,0,0,0,0],"sum_hessian":[1.06E2,1.2E1,9.4E1,6.3E1,3.1E1,9E0,5.4E1,1.5E1,1.6E1,9E0,4.5E1],"tree_param":{"num_deleted":"0","num_feature":"51","num_nodes":"11","size_leaf_vector":"0"}},{"base_weights":[4.1873107E0,2.793258E0,7.3802166E0,3.3742661E0,1.0006784E0,8.8074875E-1,4.0454593E0],"categories":[],"categories_nodes":[],"categories_segments":[],"categories_sizes":[],"default_left":[1,1,0,0,0,0,0],"id":27,"left_children":[1,3,-1,5,-1,-1,-1],"loss_changes":[2.8749744E2,6.023938E1,0E0,7.1721924E1,0E0,0E0,0E0],"parents":[2147483647,0,0,1,1,3,3],"right_children":[2,4,-1,6,-1,-1,-1],"split_conditions":[2.5E0,1.6208544E7,6.416353E-1,1.2288E4,8.699888E-2,7.657221E-2,3.5171184E-1],"split_indices":[13,35,0,23,0,0,0],"split_type":[0,0,0,0,0,0,0],"sum_hessian":[9.4E1,7.6E1,1.8E1,5.2E1,2.4E1,1.5E1,3.7E1],"tree_param":{"num_deleted":"0","num_feature":"51","num_nodes":"7","size_leaf_vector":"0"}},{"base_weights":[3.3103075E0,2.3437839E0,6.9486456E0,3.0914257E0,6.899801E-1,8.918889E-1,3.3327441E0,-1.7522603E-1,9.95891E-1,3.713792E-1,1.2947552E0],"categories":[],"categories_nodes":[],"categories_segments":[],"categories_sizes":[],"default_left":[0,1,0,0,1,0,0,0,1,0,0],"id":28,"left_children":[1,3,-1,5,7,-1,-1,-1,9,-1,-1],"loss_changes":[2.2362048E2,9.65965E1,0E0,8.353943E0,1.1762505E1,0E0,0E0,0E0,1.7214279E0,0E0,0E0],"parents":[2147483647,0,0,1,1,3,3,4,4,8,8],"right_children":[2,4,-1,6,8,-1,-1,-1,10,-1,-1],"split_conditions":[2.000001E0,4.5E0,6.0411453E-1,5.12E3,2.5E2,7.754073E-2,2.8974843E-1,-1.5234134E-2,1E1,3.2287672E-2,1.1256589E-1],"split_indices":[29,5,0,23,11,0,0,0,5,0,0],"split_type":[0,0,0,0,0,0,0,0,0,0,0],"sum_hessian":[9.3E1,8.4E1,9E0,5.3E1,3.1E1,9E0,4.4E1,9E0,2.2E1,1.3E1,9E0],"tree_param":{"num_deleted":"0","num_feature":"51","num_nodes":"11","size_leaf_vector":"0"}},{"base_weights":[2.4770064E0,3.4897676E0,-8.64923E-2,1.7624475E0,6.2934275E0,-1.4594591E0,8.562631E-1,2.1171942E0,4.9793872E-1,8.872355E-1,2.5959074E0],"categories":[],"categories_nodes":[],"categories_segments":[],"categories_sizes":[],"default_left":[1,1,1,1,0,0,0,1,0,0,0],"id":29,"left_children":[1,3,5,7,-1,-1,-1,9,-1,-1,-1],"loss_changes":[2.701126E2,2.6901166E2,5.8138657E1,1.707228E1,0E0,0E0,0E0,6.1315155E0,0E0,0E0,0E0],"parents":[2147483647,0,0,1,1,2,2,3,3,7,7],"right_children":[2,4,6,8,-1,-1,-1,10,-1,-1,-1],"split_conditions":[5.05E-3,5.5E-6,3.5E0,3E0,5.4714996E-1,-1.2688522E-1,7.444343E-2,1.75E1,4.329074E-2,7.713617E-2,2.2568794E-1],"split_indices":[15,15,0,33,0,0,0,0,0,0,0],"split_type":[0,0,0,0,0,0,0,0,0,0,0],"sum_hessian":[9.5E1,6.6E1,2.9E1,4.9E1,1.7E1,1E1,1.9E1,3.4E1,1.5E1,1.6E1,1.8E1],"tree_param":{"num_deleted":"0","num_feature":"51","num_nodes":"11","size_leaf_vector":"0"}},{"base_weights":[3.3537562E0,8.83944E0,2.051588E0,2.6209118E0,5.586589E-1,1.3863039E0,-1.0659652E0,-1.0017925E-1,2.1293774E0],"categories":[],"categories_nodes":[],"categories_segments":[],"categories_sizes":[],"default_left":[1,0,1,0,1,1,0,0,0],"id":30,"left_children":[1,-1,3,-1,5,7,-1,-1,-1],"loss_changes":[6.1816235E2,0E0,7.0668E1,0E0,6.1848907E1,3.2766094E1,0E0,0E0,0E0],"parents":[2147483647,0,0,2,2,4,4,5,5],"right_children":[2,-1,4,-1,6,8,-1,-1,-1],"split_conditions":[2.0195E3,7.685001E-1,8.5E7,2.2786182E-1,2.0215E3,3E0,-9.26749E-2,-8.709574E-3,1.8512785E-1],"split_indices":[20,0,8,0,20,34,0,0,0],"split_type":[0,0,0,0,0,0,0,0,0],"sum_hessian":[9.9E1,1E1,8.9E1,6E1,2.9E1,2E1,9E0,9E0,1.1E1],"tree_param":{"num_deleted":"0","num_feature":"51","num_nodes":"9","size_leaf_vector":"0"}},{"base_weights":[2.2169302E0,4.4893947E0,9.5957834E-1,-1.1003314E0,1.41998E0,1.726105E0,4.861168E-1,2.020136E0,4.6916246E-1,1.2815881E-1,6.3469523E-1,2.5010552E0,7.6378125E-1],"categories":[],"categories_nodes":[],"categories_segments":[],"categories_sizes":[],"default_left":[1,0,1,0,1,1,0,1,0,0,0,0,0],"id":31,"left_children":[1,-1,3,-1,5,7,9,11,-1,-1,-1,-1,-1],"loss_changes":[2.4825845E2,0E0,8.292597E1,0E0,1.1526291E1,8.988861E0,7.814112E-1,5.128601E0,0E0,0E0,0E0,0E0,0E0],"parents":[2147483647,0,0,2,2,4,4,5,5,6,6,7,7],"right_children":[2,-1,4,-1,6,8,10,12,-1,-1,-1,-1,-1],"split_conditions":[5E-1,3.9030752E-1,1.1E1,-9.5662706E-2,1.28E3,2.35E1,1.2288E4,5E-1,4.0788937E-2,1.1142114E-2,5.518034E-2,2.174415E-1,6.640307E-2],"split_indices":[21,0,4,0,23,4,23,48,0,0,0,0,0],"split_type":[0,0,0,0,0,0,0,0,0,0,0,0,0],"sum_hessian":[9.1E1,2.5E1,6.6E1,1E1,5.6E1,3.7E1,1.9E1,2.6E1,1.1E1,1E1,9E0,1.3E1,1.3E1],"tree_param":{"num_deleted":"0","num_feature":"51","num_nodes":"13","size_leaf_vector":"0"}},{"base_weights":[2.670076E0,1.7593381E0,6.36157E0,2.9216158E0,1.07926E0,-2.3973784E-1,1.2914602E0,1.4467953E0,5.4093605E-1],"categories":[],"categories_nodes":[],"categories_segments":[],"categories_sizes":[],"default_left":[0,1,0,0,1,0,1,0,0],"id":32,"left_children":[1,3,-1,-1,5,-1,7,-1,-1],"loss_changes":[2.694182E2,5.121054E1,0E0,0E0,2.3247986E1,0E0,1.2489624E0,0E0,0E0],"parents":[2147483647,0,0,1,1,4,4,6,6],"right_children":[2,4,-1,-1,6,-1,8,-1,-1],"split_conditions":[2.000001E0,5E-1,5.5307424E-1,2.5400499E-1,5E-1,-2.0842783E-2,5.12E3,1.2578425E-1,4.7028925E-2],"split_indices":[29,21,0,0,38,0,23,0,0],"split_type":[0,0,0,0,0,0,0,0,0],"sum_hessian":[9.9E1,8.9E1,1E1,2.3E1,6.6E1,9E0,5.7E1,4.1E1,1.6E1],"tree_param":{"num_deleted":"0","num_feature":"51","num_nodes":"9","size_leaf_vector":"0"}},{"base_weights":[3.2067854E0,7.7530375E0,1.7947327E0,2.3607748E0,1.6276324E-1,6.935946E-1,2.8760872E0,9.721049E-1,-8.087679E-1,3.4121928E0,8.609854E-1],"categories":[],"categories_nodes":[],"categories_segments":[],"categories_sizes":[],"default_left":[1,0,1,1,1,0,1,0,0,0,0],"id":33,"left_children":[1,-1,3,5,7,-1,9,-1,-1,-1,-1],"loss_changes":[4.9779382E2,0E0,7.364749E1,3.633142E1,3.003257E1,0E0,2.384311E1,0E0,0E0,0E0,0E0],"parents":[2147483647,0,0,2,2,3,3,4,4,6,6],"right_children":[2,-1,4,6,8,-1,10,-1,-1,-1,-1],"split_conditions":[2.0195E3,6.740483E-1,2.0215E3,5E-1,7E7,6.0301043E-2,3E0,8.451471E-2,-7.0314206E-2,2.966557E-1,7.485399E-2],"split_indices":[20,0,20,1,8,0,1,0,0,0,0],"split_type":[0,0,0,0,0,0,0,0,0,0,0],"sum_hessian":[8.7E1,1.2E1,7.5E1,5.3E1,2.2E1,1.7E1,3.6E1,1.2E1,1E1,2.4E1,1.2E1],"tree_param":{"num_deleted":"0","num_feature":"51","num_nodes":"11","size_leaf_vector":"0"}},{"base_weights":[1.8597668E0,1.016402E0,5.8669825E0,1.3680576E0,3.0239004E-1,1.5906167E0,9.0574875E-2,6.97229E-1,-3.768771E-1,4.4695935E-1,1.936777E0,2.5673544E-1,8.743518E-1],"categories":[],"categories_nodes":[],"categories_segments":[],"categories_sizes":[],"default_left":[0,1,0,1,1,0,0,1,0,0,0,0,0],"id":34,"left_children":[1,3,-1,5,7,9,-1,11,-1,-1,-1,-1,-1],"loss_changes":[3.1702277E2,2.1529762E1,0E0,1.7054916E1,1.3687151E1,1.4403381E1,0E0,5.288925E-1,0E0,0E0,0E0,0E0,0E0],"parents":[2147483647,0,0,1,1,3,3,4,4,5,5,7,7],"right_children":[2,4,-1,6,8,10,-1,12,-1,-1,-1,-1,-1],"split_conditions":[4.000001E0,1.1164992E7,5.1007485E-1,5.5E-2,1.536E3,1.2288E4,7.874571E-3,2.8E1,-3.2765657E-2,3.88586E-2,1.683832E-1,2.2320554E-2,7.601606E-2],"split_indices":[28,35,0,15,9,23,0,4,0,0,0,0,0],"split_type":[0,0,0,0,0,0,0,0,0,0,0,0,0],"sum_hessian":[1E2,9.1E1,9E0,5.6E1,3.5E1,4.6E1,1E1,2.2E1,1.3E1,1.5E1,3.1E1,1.2E1,1E1],"tree_param":{"num_deleted":"0","num_feature":"51","num_nodes":"13","size_leaf_vector":"0"}},{"base_weights":[1.6768562E0,3.3576977E0,6.3580805E-1,1.0518352E0,3.1011755E-2,5.533193E-1,-5.025951E-1],"categories":[],"categories_nodes":[],"categories_segments":[],"categories_sizes":[],"default_left":[1,0,1,0,0,0,0],"id":35,"left_children":[1,-1,3,-1,5,-1,-1],"loss_changes":[1.4736249E2,0E0,1.6868486E1,0E0,1.2312695E1,0E0,0E0],"parents":[2147483647,0,0,2,2,4,4],"right_children":[2,-1,4,-1,6,-1,-1],"split_conditions":[5E-1,2.9191792E-1,5E-1,9.1446444E-2,6.5536E4,4.8105523E-2,-4.369557E-2],"split_indices":[21,0,3,0,23,0,0],"split_type":[0,0,0,0,0,0,0],"sum_hessian":[8.6E1,2.6E1,6E1,3.2E1,2.8E1,1.4E1,1.4E1],"tree_param":{"num_deleted":"0","num_feature":"51","num_nodes":"7","size_leaf_vector":"0"}},{"base_weights":[2.1852903E0,5.208831E0,7.160279E-1,6.491659E0,1.0087687E0,1.233895E0,-1.6327181E-1,2.041665E-1,-6.6837114E-1],"categories":[],"categories_nodes":[],"categories_segments":[],"categories_sizes":[],"default_left":[1,1,1,0,0,0,1,0,0],"id":36,"left_children":[1,3,5,-1,-1,-1,7,-1,-1],"loss_changes":[4.2334607E2,1.19901855E2,3.7195503E1,0E0,0E0,0E0,7.8051496E0,0E0,0E0],"parents":[2147483647,0,0,1,1,2,2,6,6],"right_children":[2,4,6,-1,-1,-1,8,-1,-1],"split_conditions":[5E-1,2.5E7,8.5E7,5.643842E-1,8.770225E-2,1.072747E-1,1.95E8,1.7750215E-2,-5.810812E-2],"split_indices":[22,8,8,0,0,0,8,0,0],"split_type":[0,0,0,0,0,0,0,0,0],"sum_hessian":[9.4E1,2.4E1,7E1,1.5E1,9E0,4.2E1,2.8E1,1.9E1,9E0],"tree_param":{"num_deleted":"0","num_feature":"51","num_nodes":"9","size_leaf_vector":"0"}},{"base_weights":[1.2121602E0,2.742624E0,5.718269E-1,-3.370848E-1,7.560454E-1,9.494681E-1,3.7905E-2,2.5209168E-1,1.3638116E0,4.0929675E-1,-1.1928952E-2,-5.523896E-2,1.9361712E0],"categories":[],"categories_nodes":[],"categories_segments":[],"categories_sizes":[],"default_left":[1,0,1,0,1,0,0,1,1,0,0,0,0],"id":37,"left_children":[1,-1,3,-1,5,7,-1,9,11,-1,-1,-1,-1],"loss_changes":[8.4412E1,0E0,1.5475746E1,0E0,9.305141E0,1.2845364E1,0E0,1.2893239E0,2.6938763E1,0E0,0E0,0E0,0E0],"parents":[2147483647,0,0,2,2,4,4,5,5,7,7,8,8],"right_children":[2,-1,4,-1,6,8,-1,10,12,-1,-1,-1,-1],"split_conditions":[7.68E2,2.3844346E-1,5E-1,-2.930612E-2,1.6208544E7,2.52848E6,3.295457E-3,5E-1,1.536E3,3.558422E-2,-1.037102E-3,-4.8024696E-3,1.6833054E-1],"split_indices":[12,0,50,0,35,35,0,1,9,0,0,0,0],"split_type":[0,0,0,0,0,0,0,0,0,0,0,0,0],"sum_hessian":[9.1E1,1.9E1,7.2E1,1.1E1,6.1E1,4.6E1,1.5E1,2.2E1,2.4E1,1.1E1,1.1E1,9E0,1.5E1],"tree_param":{"num_deleted":"0","num_feature":"51","num_nodes":"13","size_leaf_vector":"0"}},{"base_weights":[2.3202782E0,7.6835346E-1,7.9564834E0,1.7852305E0,2.0964177E-1,8.496843E-1,-3.5830583E-2,3.3027622E-1,-2.7573034E-1,8.711762E-2,-5.262642E-1],"categories":[],"categories_nodes":[],"categories_segments":[],"categories_sizes":[],"default_left":[0,1,0,0,1,0,1,0,1,0,0],"id":38,"left_children":[1,3,-1,-1,5,-1,7,-1,9,-1,-1],"loss_changes":[7.997934E2,4.5313995E1,0E0,0E0,1.0318266E1,0E0,5.488703E0,0E0,3.7442782E0,0E0,0E0],"parents":[2147483647,0,0,1,1,4,4,6,6,8,8],"right_children":[2,4,-1,-1,6,-1,8,-1,10,-1,-1],"split_conditions":[2.000001E0,5E-1,6.9173586E-1,1.5520777E-1,5E-1,7.387147E-2,1.5E0,2.8714182E-2,5E-1,7.573997E-3,-4.5753356E-2],"split_indices":[29,21,0,0,37,0,13,0,1,0,0],"split_type":[0,0,0,0,0,0,0,0,0,0,0],"sum_hessian":[8.9E1,7.7E1,1.2E1,2.1E1,5.6E1,1E1,4.6E1,1.7E1,2.9E1,1.4E1,1.5E1],"tree_param":{"num_deleted":"0","num_feature":"51","num_nodes":"11","size_leaf_vector":"0"}},{"base_weights":[1.8153566E0,3.090421E0,1.010289E0,4.7487924E-1,3.943016E0,2.597682E-1,1.9128608E0,7.5746524E-1,-8.7659174E-1,2.2425869E0,5.99954E-1,1.1118988E0,3.2343796E-1],"categories":[],"categories_nodes":[],"categories_segments":[],"categories_sizes":[],"default_left":[1,0,1,0,0,1,1,1,0,0,0,0,0],"id":39,"left_children":[1,3,5,-1,-1,7,9,11,-1,-1,-1,-1,-1],"loss_changes":[7.027728E1,5.6408905E1,4.277984E1,0E0,0E0,3.2013336E1,2.1301498E0,2.7926407E0,0E0,0E0,0E0,0E0,0E0],"parents":[2147483647,0,0,1,1,2,2,5,5,6,6,7,7],"right_children":[2,4,6,-1,-1,8,10,12,-1,-1,-1,-1,-1],"split_conditions":[5E-1,1.5E0,1.2E1,4.1285954E-2,3.4280542E-1,8.5E7,7.68E2,3.5E2,-7.62108E-2,1.9497028E-1,5.2159943E-2,9.666837E-2,2.8119665E-2],"split_indices":[21,26,7,0,0,8,9,11,0,0,0,0,0],"split_type":[0,0,0,0,0,0,0,0,0,0,0,0,0],"sum_hessian":[8.5E1,2.4E1,6.1E1,9E0,1.5E1,3.9E1,2.2E1,2.9E1,1E1,1.3E1,9E0,9E0,2E1],"tree_param":{"num_deleted":"0","num_feature":"51","num_nodes":"13","size_leaf_vector":"0"}},{"base_weights":[1.5016766E0,4.3659954E0,7.9804933E-1,1.2599827E0,1.4254734E-1,-1.4341125E-1,1.7876514E0,5.763655E-1,-4.7548744E-1,2.828907E-1,2.8165245E0],"categories":[],"categories_nodes":[],"categories_segments":[],"categories_sizes":[],"default_left":[1,0,1,1,1,0,0,0,0,0,0],"id":40,"left_children":[1,-1,3,5,7,-1,9,-1,-1,-1,-1],"loss_changes":[1.9568564E2,0E0,2.8550194E1,4.436078E1,1.5651293E1,0E0,5.8719543E1,0E0,0E0,0E0,0E0],"parents":[2147483647,0,0,2,2,3,3,4,4,6,6],"right_children":[2,-1,4,6,8,-1,10,-1,-1,-1,-1],"split_conditions":[2.0195E3,3.7957922E-1,6.208544E6,5E-1,1.536E3,-1.246816E-2,8.7856E5,5.0109155E-2,-4.133883E-2,2.459449E-2,2.4486837E-1],"split_indices":[20,0,35,41,12,0,35,0,0,0,0],"split_type":[0,0,0,0,0,0,0,0,0,0,0],"sum_hessian":[1.03E2,1.2E1,9.1E1,4.9E1,4.2E1,1.5E1,3.4E1,2.5E1,1.7E1,1.8E1,1.6E1],"tree_param":{"num_deleted":"0","num_feature":"51","num_nodes":"11","size_leaf_vector":"0"}},{"base_weights":[1.7767925E0,7.218804E-1,4.211243E0,9.1169965E-1,-9.077177E-2,1.3283936E0,5.3083878E0,2.4998553E-1,1.3232505E0,8.000285E-1,-2.4916115E-1,4.899207E-1,1.7647631E0],"categories":[],"categories_nodes":[],"categories_segments":[],"categories_sizes":[],"default_left":[0,0,1,0,0,0,0,0,1,0,0,0,0],"id":41,"left_children":[1,3,5,7,-1,-1,-1,9,11,-1,-1,-1,-1],"loss_changes":[2.4528049E2,1.3489723E1,3.8084534E1,1.5864059E1,0E0,0E0,0E0,1.15256605E1,7.748497E0,0E0,0E0,0E0,0E0],"parents":[2147483647,0,0,1,1,2,2,3,3,7,7,8,8],"right_children":[2,4,6,8,-1,-1,-1,10,12,-1,-1,-1,-1],"split_conditions":[6.144E3,5.2708544E7,5E-1,2.52848E6,-7.8916885E-3,1.1549041E-1,4.6151072E-1,5.3392E5,1.1E1,6.9554396E-2,-2.1662045E-2,4.2593658E-2,1.5342833E-1],"split_indices":[25,35,50,35,0,0,0,35,0,0,0,0,0],"split_type":[0,0,0,0,0,0,0,0,0,0,0,0,0],"sum_hessian":[9.7E1,7.5E1,2.2E1,6E1,1.5E1,1.1E1,1.1E1,2.8E1,3.2E1,1.1E1,1.7E1,1.7E1,1.5E1],"tree_param":{"num_deleted":"0","num_feature":"51","num_nodes":"13","size_leaf_vector":"0"}},{"base_weights":[1.3854215E0,5.0692196E0,3.164986E-1,7.122056E-1,-7.112085E-1,1.1673089E0,3.425736E-2,-9.168996E-1,-2.4959156E-1,1.5369203E0,2.862407E-1,5.88811E-1,-4.8422626E-1],"categories":[],"categories_nodes":[],"categories_segments":[],"categories_sizes":[],"default_left":[1,0,1,1,1,1,1,0,0,0,0,0,0],"id":42,"left_children":[1,-1,3,5,7,9,11,-1,-1,-1,-1,-1,-1],"loss_changes":[4.0084317E2,0E0,4.0741825E1,2.099363E1,9.080038E-1,9.8185425E0,1.268802E1,0E0,0E0,0E0,0E0,0E0,0E0],"parents":[2147483647,0,0,2,2,3,3,4,4,5,5,6,6],"right_children":[2,-1,4,6,8,10,12,-1,-1,-1,-1,-1,-1],"split_conditions":[5E-1,4.4071746E-1,1.2288E4,1.1164992E7,5E-1,1.28E3,1.536E3,-7.971516E-2,-2.1699466E-2,1.336197E-1,2.4885738E-2,5.119117E-2,-4.209858E-2],"split_indices":[28,0,30,35,37,23,12,0,0,0,0,0,0],"split_type":[0,0,0,0,0,0,0,0,0,0,0,0,0],"sum_hessian":[9.7E1,1.5E1,8.2E1,6.1E1,2.1E1,3.3E1,2.8E1,9E0,1.2E1,1.9E1,1.4E1,1.3E1,1.5E1],"tree_param":{"num_deleted":"0","num_feature":"51","num_nodes":"13","size_leaf_vector":"0"}},{"base_weights":[1.4672562E0,4.2327847E0,6.5708333E-1,1.2341579E0,3.238719E-1,6.3823307E-1,1.8078062E-1,6.136458E-1,-2.695856E-1],"categories":[],"categories_nodes":[],"categories_segments":[],"categories_sizes":[],"default_left":[1,0,1,0,1,0,1,0,0],"id":43,"left_children":[1,-1,3,-1,5,-1,7,-1,-1],"loss_changes":[2.1070763E2,0E0,1.40857315E1,0E0,2.1277046E0,0E0,1.2666123E1,0E0,0E0],"parents":[2147483647,0,0,2,2,4,4,6,6],"right_children":[2,-1,4,-1,6,-1,8,-1,-1],"split_conditions":[5E-1,3.6799788E-1,5E-1,1.0729757E-1,5E-1,5.548792E-2,1.5E0,5.3350303E-2,-2.3437746E-2],"split_indices":[28,0,21,0,37,0,13,0,0],"split_type":[0,0,0,0,0,0,0,0,0],"sum_hessian":[9.6E1,1.4E1,8.2E1,2.2E1,6E1,1E1,5E1,2.4E1,2.6E1],"tree_param":{"num_deleted":"0","num_feature":"51","num_nodes":"9","size_leaf_vector":"0"}},{"base_weights":[1.796804E0,7.463904E-1,5.7920265E0,1.4976575E0,4.371712E-1,5.804039E-1,-5.7953135E-3,7.376532E-1,7.664349E-2,-1.080035E-1,1.05051614E-1,1.1780847E0,3.0300158E-1,3.413691E-3,5.816545E-1],"categories":[],"categories_nodes":[],"categories_segments":[],"categories_sizes":[],"default_left":[0,1,0,0,1,1,1,1,0,0,0,0,0,0,0],"id":44,"left_children":[1,3,-1,-1,5,7,9,11,-1,-1,-1,-1,13,-1,-1],"loss_changes":[4.1443332E2,1.6554867E1,0E0,0E0,4.9831505E0,4.2225E0,3.98883E-1,5.549116E0,0E0,0E0,0E0,0E0,2.7461133E0,0E0,0E0],"parents":[2147483647,0,0,1,1,4,4,5,5,6,6,7,7,12,12],"right_children":[2,4,-1,-1,6,8,10,12,-1,-1,-1,-1,14,-1,-1],"split_conditions":[4.000001E0,3.84E2,5.035582E-1,1.302062E-1,5.12E3,5.05E-3,5.0049997E-3,2.5E2,6.6633774E-3,-9.389813E-3,9.133177E-3,1.0242257E-1,1.5E0,2.9678596E-4,5.0568983E-2],"split_indices":[28,12,0,0,23,15,15,11,0,0,0,0,26,0,0],"split_type":[0,0,0,0,0,0,0,0,0,0,0,0,0,0,0],"sum_hessian":[9.9E1,8.6E1,1.3E1,1.6E1,7E1,5.1E1,1.9E1,3.6E1,1.5E1,1E1,9E0,1.1E1,2.5E1,1.6E1,9E0],"tree_param":{"num_deleted":"0","num_feature":"51","num_nodes":"15","size_leaf_vector":"0"}},{"base_weights":[1.7222701E0,5.7193714E-1,7.6410613E0,1.0831835E0,-2.1719489E-1,1.329712E0,4.0159672E-1,4.5487255E-1,-5.6178313E-1,1.9533349E0,6.004354E-1,7.1599394E-1,-5.0083283E-2,1.348582E-2,-8.050978E-1],"categories":[],"categories_nodes":[],"categories_segments":[],"categories_sizes":[],"default_left":[0,1,0,1,1,1,1,0,1,0,0,0,0,0,0],"id":45,"left_children":[1,3,-1,5,7,9,11,-1,13,-1,-1,-1,-1,-1,-1],"loss_changes":[7.0740015E2,4.2289837E1,0E0,6.1075897E0,1.274505E1,9.644699E0,4.281404E0,0E0,4.86176E0,0E0,0E0,0E0,0E0,0E0,0E0],"parents":[2147483647,0,0,1,1,3,3,4,4,5,5,6,6,8,8],"right_children":[2,4,-1,6,8,10,12,-1,14,-1,-1,-1,-1,-1,-1],"split_conditions":[2.000001E0,2.5E7,6.6431314E-1,2.0205E3,7.68E2,5E-1,7.68E2,3.9546575E-2,8.5E7,1.6982275E-1,5.2201793E-2,6.2248442E-2,-4.3542357E-3,1.1724558E-3,-6.999513E-2],"split_indices":[29,8,0,20,9,2,9,0,8,0,0,0,0,0,0],"split_type":[0,0,0,0,0,0,0,0,0,0,0,0,0,0,0],"sum_hessian":[1.01E2,9.2E1,9E0,5.4E1,3.8E1,3.4E1,2E1,1.2E1,2.6E1,1.1E1,2.3E1,9E0,1.1E1,1E1,1.6E1],"tree_param":{"num_deleted":"0","num_feature":"51","num_nodes":"15","size_leaf_vector":"0"}},{"base_weights":[1.6561983E0,4.4308047E0,8.0798864E-1,1.3304504E0,-4.3914178E-1,5.8957344E-1,2.9496994E0,9.377648E-2,-7.530578E-1,-1.2866858E-1,8.4215444E-1,1.3132547E0,2.4566108E-1,2.8534558E-2,3.7175354E-1],"categories":[],"categories_nodes":[],"categories_segments":[],"categories_sizes":[],"default_left":[0,0,1,0,1,0,0,0,0,0,0,0,0,0,0],"id":46,"left_children":[1,-1,3,5,7,9,-1,-1,-1,-1,11,-1,13,-1,-1],"loss_changes":[2.11284E2,0E0,6.213496E1,6.2808205E1,5.9424753E0,1.0692579E1,0E0,0E0,0E0,0E0,8.934111E0,0E0,6.827862E-1,0E0,0E0],"parents":[2147483647,0,0,2,2,3,3,4,4,5,5,10,10,12,12],"right_children":[2,-1,4,6,8,10,-1,-1,-1,-1,12,-1,14,-1,-1],"split_conditions":[5.12E3,3.8521373E-1,8.5E7,1.3941709E8,1.75E1,8.7856E5,2.5644657E-1,8.152918E-3,-6.547077E-2,-1.1186433E-2,8.805696E6,1.1417423E-1,2.5820352E7,2.4807916E-3,3.2320216E-2],"split_indices":[23,0,8,35,4,35,0,0,0,0,35,0,35,0,0],"split_type":[0,0,0,0,0,0,0,0,0,0,0,0,0,0,0],"sum_hessian":[9.4E1,1.4E1,8E1,5.6E1,2.4E1,4.6E1,1E1,1.1E1,1.3E1,1.3E1,3.3E1,1.3E1,2E1,1.1E1,9E0],"tree_param":{"num_deleted":"0","num_feature":"51","num_nodes":"15","size_leaf_vector":"0"}},{"base_weights":[1.412208E0,6.1404705E-1,4.5370436E0,1.4942287E0,1.8414998E-1,-2.6650566E-1,8.0427384E-1,1.9103058E-1,-1.0599406E0,4.7523916E-1,-1.10135764E-1],"categories":[],"categories_nodes":[],"categories_segments":[],"categories_sizes":[],"default_left":[0,1,0,0,1,1,0,0,0,0,0],"id":47,"left_children":[1,3,-1,-1,5,7,-1,9,-1,-1,-1],"loss_changes":[2.270886E2,3.1482868E1,0E0,0E0,2.1046673E1,1.8375511E1,0E0,3.5141149E0,0E0,0E0,0E0],"parents":[2147483647,0,0,1,1,4,4,5,5,7,7],"right_children":[2,4,-1,-1,6,8,-1,10,-1,-1,-1],"split_conditions":[2.000001E0,5E-1,3.9445013E-1,1.299081E-1,1.2E1,4.5E0,6.992349E-2,5E-1,-9.215113E-2,4.1317247E-2,-9.575193E-3],"split_indices":[29,21,0,0,7,5,0,29,0,0,0],"split_type":[0,0,0,0,0,0,0,0,0,0,0],"sum_hessian":[9.2E1,8.1E1,1.1E1,2E1,6.1E1,3.8E1,2.3E1,2.8E1,1E1,1.2E1,1.6E1],"tree_param":{"num_deleted":"0","num_feature":"51","num_nodes":"11","size_leaf_vector":"0"}},{"base_weights":[1.2649208E0,4.765101E-1,4.4465384E0,7.26112E-1,1.1516341E-2,1.7246459E-2,8.620782E-1,-5.0096016E-2,4.1475132E-2],"categories":[],"categories_nodes":[],"categories_segments":[],"categories_sizes":[],"default_left":[0,1,0,1,1,0,0,0,0],"id":48,"left_children":[1,3,-1,5,7,-1,-1,-1,-1],"loss_changes":[2.4897305E2,1.085252E1,0E0,5.7670517E0,9.2672035E-2,0E0,0E0,0E0,0E0],"parents":[2147483647,0,0,1,1,3,3,4,4],"right_children":[2,4,-1,6,8,-1,-1,-1,-1],"split_conditions":[2.000001E0,5E-1,3.865816E-1,2.5E0,5E-1,1.4994054E-3,7.494899E-2,-4.3553426E-3,3.605844E-3],"split_indices":[29,48,0,17,2,0,0,0,0],"split_type":[0,0,0,0,0,0,0,0,0],"sum_hessian":[9.8E1,8.6E1,1.2E1,5.3E1,3.3E1,1E1,4.3E1,9E0,2.4E1],"tree_param":{"num_deleted":"0","num_feature":"51","num_nodes":"9","size_leaf_vector":"0"}},{"base_weights":[1.1267287E0,4.882092E0,5.6894053E-2,-4.39086E-1,8.0788505E-1,-6.786184E-1,3.8066316E-1,-1.3749361E-1,1.5776782E0,-3.0331886E-1,-1.1001747E0,-4.475155E-1,4.025815E-2],"categories":[],"categories_nodes":[],"categories_segments":[],"categories_sizes":[],"default_left":[1,0,1,1,0,0,0,0,0,1,0,0,0],"id":49,"left_children":[1,-1,3,5,7,9,-1,-1,-1,11,-1,-1,-1],"loss_changes":[3.99898E2,0E0,3.4942417E1,1.3303775E1,2.8756336E1,4.7470703E0,0E0,0E0,0E0,1.9348505E0,0E0,0E0,0E0],"parents":[2147483647,0,0,2,2,3,3,4,4,5,5,9,9],"right_children":[2,-1,4,6,8,10,-1,-1,-1,12,-1,-1,-1],"split_conditions":[5E-1,4.244486E-1,1.65E1,2.65E1,3.125632E6,4E0,3.3094816E-2,-1.1953681E-2,1.3716319E-1,1.35E1,-9.564908E-2,-3.890695E-2,3.5000397E-3],"split_indices":[28,0,0,4,35,26,0,0,0,4,0,0,0],"split_type":[0,0,0,0,0,0,0,0,0,0,0,0,0],"sum_hessian":[9.2E1,1.4E1,7.8E1,4.9E1,2.9E1,3.9E1,1E1,1.6E1,1.3E1,2.8E1,1.1E1,1.8E1,1E1],"tree_param":{"num_deleted":"0","num_feature":"51","num_nodes":"13","size_leaf_vector":"0"}},{"base_weights":[4.8287103E-1,1.2534075E0,-1.080235E0,3.4995477E0,-8.293776E-2,-1.8418554E0,-1.4518958E-1,1.7842849E-1,-2.7232543E-1],"categories":[],"categories_nodes":[],"categories_segments":[],"categories_sizes":[],"default_left":[1,1,1,0,1,0,0,0,0],"id":50,"left_children":[1,3,5,-1,7,-1,-1,-1,-1],"loss_changes":[1.19480774E2,1.9475214E2,2.2114346E1,0E0,2.7744224E0,0E0,0E0,0E0,0E0],"parents":[2147483647,0,0,1,1,2,2,4,4],"right_children":[2,4,6,-1,8,-1,-1,-1,-1],"split_conditions":[5.5E7,1.5E0,5E-1,3.0425033E-1,5.5E-2,-1.6013072E-1,-1.2622768E-2,1.5512555E-2,-2.3675947E-2],"split_indices":[8,28,29,0,14,0,0,0,0],"split_type":[0,0,0,0,0,0,0,0,0],"sum_hessian":[8.2E1,5.6E1,2.6E1,1.6E1,4E1,1E1,1.6E1,1.7E1,2.3E1],"tree_param":{"num_deleted":"0","num_feature":"51","num_nodes":"9","size_leaf_vector":"0"}},{"base_weights":[5.233297E-1,1.8859386E0,-3.215211E-2,-2.6083097E-1,6.873008E-1,-5.6395864E-1,2.6845345E-1,-1.6953976E-1,-6.296868E-1,3.7988177E-1,3.6827967E-2],"categories":[],"categories_nodes":[],"categories_segments":[],"categories_sizes":[],"default_left":[1,0,0,1,0,0,1,0,0,0,0],"id":51,"left_children":[1,-1,3,5,-1,7,9,-1,-1,-1,-1],"loss_changes":[7.095975E1,0E0,1.3641888E1,1.1189396E1,0E0,2.2572422E-1,6.1130476E-1,0E0,0E0,0E0,0E0],"parents":[2147483647,0,0,2,2,3,3,5,5,6,6],"right_children":[2,-1,4,6,-1,8,10,-1,-1,-1,-1],"split_conditions":[1.28E3,1.6396332E-1,1.3946566E8,1.65E1,5.9753865E-2,5.3392E5,7.68E2,-1.473977E-2,-5.4744907E-2,3.3026885E-2,3.2018197E-3],"split_indices":[30,0,35,4,0,35,9,0,0,0,0],"split_type":[0,0,0,0,0,0,0,0,0,0,0],"sum_hessian":[8.5E1,1.9E1,6.6E1,5.4E1,1.2E1,3.4E1,2E1,9E0,2.5E1,1E1,1E1],"tree_param":{"num_deleted":"0","num_feature":"51","num_nodes":"11","size_leaf_vector":"0"}},{"base_weights":[1.4411975E0,4.5368085E0,2.1677092E-1,6.166435E0,4.7246563E-1,7.018577E-1,-2.3487861E-1,-9.790454E-2,1.6168376E0,5.5781975E-2,-5.3088146E-1,9.578541E-2,-2.6927185E-1,4.1215438E-1,-4.5198533E-1],"categories":[],"categories_nodes":[],"categories_segments":[],"categories_sizes":[],"default_left":[1,1,1,0,0,0,1,1,0,0,0,0,0,0,0],"id":52,"left_children":[1,3,5,-1,-1,7,9,11,-1,13,-1,-1,-1,-1,-1],"loss_changes":[3.8659613E2,1.6912292E2,1.95414E1,0E0,0E0,3.20897E1,4.4646726E0,1.2081146E0,0E0,7.3166656E0,0E0,0E0,0E0,0E0,0E0],"parents":[2147483647,0,0,1,1,2,2,5,5,6,6,7,7,9,9],"right_children":[2,4,6,-1,-1,8,10,12,-1,14,-1,-1,-1,-1,-1],"split_conditions":[1.28E3,5E-1,1.536E3,5.361092E-1,4.1076116E-2,7.182035E7,3.5E2,5E-1,1.405677E-1,2.6844557E8,-4.6154782E-2,8.3275745E-3,-2.3410467E-2,3.5832662E-2,-3.929556E-2],"split_indices":[30,37,12,0,0,35,11,44,0,35,0,0,0,0,0],"split_type":[0,0,0,0,0,0,0,0,0,0,0,0,0,0,0],"sum_hessian":[9.6E1,2.1E1,7.5E1,1.2E1,9E0,3.4E1,4.1E1,2.2E1,1.2E1,2.4E1,1.7E1,1.2E1,1E1,1.5E1,9E0],"tree_param":{"num_deleted":"0","num_feature":"51","num_nodes":"15","size_leaf_vector":"0"}},{"base_weights":[6.1242E-1,2.2027724E0,-9.562125E-2,2.7572684E0,6.561236E-1,-5.9620136E-1,4.1113377E-1,-7.728162E-2,-7.3403436E-1,6.360571E-1,1.1812475E-1,-2.5123754E-1,-8.8223433E-1,3.8367334E-1,-1.8353066E-1],"categories":[],"categories_nodes":[],"categories_segments":[],"categories_sizes":[],"default_left":[1,1,1,0,0,0,1,0,1,0,1,0,0,0,0],"id":53,"left_children":[1,3,5,-1,-1,7,9,-1,11,-1,13,-1,-1,-1,-1],"loss_changes":[1.1780031E2,1.2872787E1,2.205E1,0E0,0E0,2.6220064E0,2.2967434E0,0E0,5.7167053E-1,0E0,2.9013426E0,0E0,0E0,0E0,0E0],"parents":[2147483647,0,0,1,1,2,2,5,5,6,6,8,8,10,10],"right_children":[2,4,6,-1,-1,8,10,-1,12,-1,14,-1,-1,-1,-1],"split_conditions":[1.28E3,5E-1,1.5E0,2.3971665E-1,5.7043318E-2,9.216E3,5E-1,-6.7188563E-3,1.536E3,5.529874E-2,7.68E2,-2.1842567E-2,-7.6701365E-2,3.335652E-2,-1.5956137E-2],"split_indices":[30,2,26,0,0,23,2,0,12,0,9,0,0,0,0],"split_type":[0,0,0,0,0,0,0,0,0,0,0,0,0,0,0],"sum_hessian":[9.5E1,2.4E1,7.1E1,1.3E1,1.1E1,3.5E1,3.6E1,1E1,2.5E1,1.5E1,2.1E1,1.1E1,1.4E1,1E1,1.1E1],"tree_param":{"num_deleted":"0","num_feature":"51","num_nodes":"15","size_leaf_vector":"0"}},{"base_weights":[6.828728E-1,2.6232045E0,-1.6386332E-2,3.7772758E0,3.5908556E-1,4.4764963E-1,-5.5446416E-1,6.5405303E-1,2.380785E-1,-1.2492267E0,2.0338146E-1,5.9420764E-1,-7.086201E-2,-1.4985031E-1,4.8103243E-1],"categories":[],"categories_nodes":[],"categories_segments":[],"categories_sizes":[],"default_left":[1,1,1,0,0,1,1,0,1,0,1,0,0,0,0],"id":54,"left_children":[1,3,5,-1,-1,7,9,-1,11,-1,13,-1,-1,-1,-1],"loss_changes":[1.3887744E2,5.9815704E1,2.275851E1,0E0,0E0,8.6155605E-1,2.4224285E1,0E0,4.4233108E0,0E0,3.2417936E0,0E0,0E0,0E0,0E0],"parents":[2147483647,0,0,1,1,2,2,5,5,6,6,8,8,10,10],"right_children":[2,4,6,-1,-1,8,10,-1,12,-1,14,-1,-1,-1,-1],"split_conditions":[7.68E2,5E-1,5E0,3.28396E-1,3.1218862E-2,5E-1,1.2E1,5.6863304E-2,4.5E0,-1.0860764E-1,1E1,5.1660355E-2,-6.160736E-3,-1.3027971E-2,4.1820914E-2],"split_indices":[12,21,5,0,0,22,7,0,0,0,5,0,0,0,0],"split_type":[0,0,0,0,0,0,0,0,0,0,0,0,0,0,0],"sum_hessian":[9.4E1,1.9E1,7.5E1,9E0,1E1,4.1E1,3.4E1,1.2E1,2.9E1,1.5E1,1.9E1,1E1,1.9E1,1E1,9E0],"tree_param":{"num_deleted":"0","num_feature":"51","num_nodes":"15","size_leaf_vector":"0"}},{"base_weights":[8.3846414E-1,1.279626E-1,4.0190926E0,4.8563465E-1,-1.0177972E0,6.70533E-1,-2.536616E-1,8.427247E-1,1.0664694E-1,1.6652889E0,1.6187172E-1,-7.370583E-2,4.173166E-1],"categories":[],"categories_nodes":[],"categories_segments":[],"categories_sizes":[],"default_left":[1,1,0,1,0,0,0,1,0,0,0,0,0],"id":55,"left_children":[1,3,-1,5,-1,7,-1,9,-1,-1,11,-1,-1],"loss_changes":[2.1073514E2,3.9285137E1,0E0,1.1096603E1,0E0,5.0090446E0,0E0,2.251125E1,0E0,0E0,2.2412915E0,0E0,0E0],"parents":[2147483647,0,0,1,1,3,3,5,5,7,7,10,10],"right_children":[2,4,-1,6,-1,8,-1,10,-1,-1,12,-1,-1],"split_conditions":[5E-1,5E-1,3.494195E-1,3E0,-8.848719E-2,4.096E4,-2.2053314E-2,2.5E2,9.271874E-3,1.4478005E-1,6.144E3,-6.4079775E-3,3.6281463E-2],"split_indices":[16,44,0,33,0,30,0,11,0,0,30,0,0],"split_type":[0,0,0,0,0,0,0,0,0,0,0,0,0],"sum_hessian":[8.7E1,7.8E1,9E0,6.3E1,1.5E1,5.1E1,1.2E1,3.6E1,1.5E1,1.1E1,2.5E1,1.6E1,9E0],"tree_param":{"num_deleted":"0","num_feature":"51","num_nodes":"13","size_leaf_vector":"0"}},{"base_weights":[4.822854E-1,2.5467598E0,-6.1352223E-2,1.0451642E0,-3.1899452E-1,9.542357E-2,-1.7815033E0,-1.4796214E-1,4.795913E-1,4.5238772E-1,-5.1954097E-1,-7.531643E-1,2.3922652E-2],"categories":[],"categories_nodes":[],"categories_segments":[],"categories_sizes":[],"default_left":[1,0,1,0,1,1,0,1,0,0,1,0,0],"id":56,"left_children":[1,-1,3,-1,5,7,-1,9,-1,-1,11,-1,-1],"loss_changes":[1.192227E2,0E0,2.8669382E1,0E0,4.992544E1,7.129302E0,0E0,1.2855921E1,0E0,0E0,4.4761906E0,0E0,0E0],"parents":[2147483647,0,0,2,2,4,4,5,5,7,7,10,10],"right_children":[2,-1,4,-1,6,8,-1,10,-1,-1,12,-1,-1],"split_conditions":[3.84E2,2.2141504E-1,2.5E0,9.086648E-2,1.3E8,5.05E-3,-1.5488373E-1,5E-1,4.169562E-2,3.9330542E-2,2.25E1,-6.548003E-2,2.079833E-3],"split_indices":[12,0,0,0,8,15,0,22,0,0,0,0,0],"split_type":[0,0,0,0,0,0,0,0,0,0,0,0,0],"sum_hessian":[9.7E1,1.4E1,8.3E1,1.1E1,7.2E1,6.2E1,1E1,4.1E1,2.1E1,1.5E1,2.6E1,1.6E1,1E1],"tree_param":{"num_deleted":"0","num_feature":"51","num_nodes":"13","size_leaf_vector":"0"}},{"base_weights":[7.609487E-1,-1.0563368E-1,2.8506174E0,-6.8583876E-1,1.9915003E-1,4.4684887E0,-6.0598623E-2,-5.5139005E-2,-9.336553E-1,-2.0168665E-1,1.302842E0,1.5196192E-1,-3.6835617E-1,1.3446808E-1,-6.220713E-1],"categories":[],"categories_nodes":[],"categories_segments":[],"categories_sizes":[],"default_left":[1,1,1,1,0,0,0,0,0,1,0,0,0,0,0],"id":57,"left_children":[1,3,5,7,9,-1,-1,-1,-1,11,-1,-1,13,-1,-1],"loss_changes":[1.9276064E2,1.562464E1,1.4866847E2,4.2859144E0,2.8716623E1,0E0,0E0,0E0,0E0,3.4654126E0,0E0,0E0,5.4107714E0,0E0,0E0],"parents":[2147483647,0,0,1,1,2,2,3,3,4,4,9,9,12,12],"right_children":[2,4,6,8,10,-1,-1,-1,-1,12,-1,-1,14,-1,-1],"split_conditions":[3.5E0,5E-1,3.84E2,5E-1,7.116499E7,3.8848996E-1,-5.2684383E-3,-4.7937795E-3,-8.11719E-2,1.536E3,1.1326896E-1,1.3211555E-2,5.3392E5,1.1690642E-2,-5.408282E-2],"split_indices":[1,29,24,1,35,0,0,0,0,9,0,0,35,0,0],"split_type":[0,0,0,0,0,0,0,0,0,0,0,0,0,0,0],"sum_hessian":[9.7E1,7.4E1,2.3E1,2.2E1,5.2E1,1.2E1,1.1E1,9E0,1.3E1,4.3E1,9E0,1.4E1,2.9E1,1.1E1,1.8E1],"tree_param":{"num_deleted":"0","num_feature":"51","num_nodes":"15","size_leaf_vector":"0"}},{"base_weights":[6.456863E-1,2.3892415E0,-2.0425242E-1,1.1792433E-1,3.2920997E0,4.984308E-1,-8.359827E-1,1.0930532E0,5.5898685E-2,-2.9068404E-1,-1.2929639E0,2.8387293E-1,-2.4739526E-1,-8.884738E-2,-3.8468182E-1],"categories":[],"categories_nodes":[],"categories_segments":[],"categories_sizes":[],"default_left":[1,0,1,0,0,1,1,0,0,1,0,0,0,0,0],"id":58,"left_children":[1,3,5,-1,-1,7,9,-1,11,13,-1,-1,-1,-1,-1],"loss_changes":[1.5525505E2,6.677484E1,3.715489E1,0E0,0E0,1.0318012E1,7.693823E0,0E0,2.7880845E0,2.935772E-1,0E0,0E0,0E0,0E0,0E0],"parents":[2147483647,0,0,1,1,2,2,5,5,6,6,8,8,9,9],"right_children":[2,4,6,-1,-1,8,10,-1,12,14,-1,-1,-1,-1,-1],"split_conditions":[5E-1,5E-1,1.536E3,1.02523295E-2,2.8621483E-1,2.208544E6,4.5E0,9.502994E-2,3.6864E4,2.208544E6,-1.1241015E-1,2.4679884E-2,-2.150852E-2,-7.724382E-3,-3.34442E-2],"split_indices":[22,29,12,0,0,35,5,0,30,35,0,0,0,0,0],"split_type":[0,0,0,0,0,0,0,0,0,0,0,0,0,0,0],"sum_hessian":[9.4E1,2.6E1,6.8E1,1E1,1.6E1,3.3E1,3.5E1,9E0,2.4E1,2.2E1,1.3E1,1.4E1,1E1,1.2E1,1E1],"tree_param":{"num_deleted":"0","num_feature":"51","num_nodes":"15","size_leaf_vector":"0"}},{"base_weights":[5.70787E-1,2.3219144E0,-2.1818358E-1,5.7622916E-1,3.580428E0,3.3226925E-1,-8.842669E-1,-5.572331E-2,8.9534104E-1,-1.4229616E0,7.0358686E-2,2.6777935E-1,-4.5730957E-1],"categories":[],"categories_nodes":[],"categories_segments":[],"categories_sizes":[],"default_left":[1,1,1,0,0,0,1,0,0,0,0,0,0],"id":59,"left_children":[1,3,5,-1,-1,7,9,11,-1,-1,-1,-1,-1],"loss_changes":[1.4378076E2,5.380493E1,3.0647697E1,0E0,0E0,1.0913006E1,1.9890228E1,5.6815085E0,0E0,0E0,0E0,0E0,0E0],"parents":[2147483647,0,0,1,1,2,2,5,5,6,6,7,7],"right_children":[2,4,6,-1,-1,8,10,12,-1,-1,-1,-1,-1],"split_conditions":[5E-1,5.5E-6,8.5E7,5.0097305E-2,3.1128204E-1,2.1329984E7,5.64992E6,2.208544E6,7.7840865E-2,-1.2371214E-1,6.1169774E-3,2.328071E-2,-3.9758448E-2],"split_indices":[22,15,8,0,0,35,35,35,0,0,0,0,0],"split_type":[0,0,0,0,0,0,0,0,0,0,0,0,0],"sum_hessian":[9.3E1,2.4E1,6.9E1,1.5E1,9E0,4E1,2.9E1,2.8E1,1.2E1,1.6E1,1.3E1,1.7E1,1.1E1],"tree_param":{"num_deleted":"0","num_feature":"51","num_nodes":"13","size_leaf_vector":"0"}},{"base_weights":[5.775947E-1,1.0165339E0,-1.7353143E-1,4.242874E-1,2.0326228E0,-4.0701059E-1,3.741955E-1,9.8474705E-1,1.0748702E-1,3.787842E-3,-8.1733906E-1,2.2571349E-1,-4.0353793E-3,2.4721262E-1,-2.404915E-1],"categories":[],"categories_nodes":[],"categories_segments":[],"categories_sizes":[],"default_left":[1,0,1,1,0,1,0,0,1,0,0,0,1,0,0],"id":60,"left_children":[1,3,5,7,-1,9,-1,-1,11,-1,-1,-1,13,-1,-1],"loss_changes":[3.3772335E1,3.0983505E1,6.744798E0,8.03635E0,0E0,5.773826E0,0E0,0E0,5.495628E-1,0E0,0E0,0E0,2.21009E0,0E0,0E0],"parents":[2147483647,0,0,1,1,2,2,3,3,5,5,8,8,12,12],"right_children":[2,4,6,8,-1,10,-1,-1,12,-1,-1,-1,14,-1,-1],"split_conditions":[1.25E1,1.0000001E1,2.85E1,5E-1,1.7671603E-1,2E1,3.2532517E-2,8.561381E-2,7.68E2,3.2931461E-4,-7.1059376E-2,1.9623509E-2,5E-1,2.1492641E-2,-2.0908307E-2],"split_indices":[4,26,4,42,0,4,0,0,12,0,0,0,1,0,0],"split_type":[0,0,0,0,0,0,0,0,0,0,0,0,0,0,0],"sum_hessian":[9E1,5.5E1,3.5E1,4.2E1,1.3E1,2.6E1,9E0,9E0,3.3E1,1.7E1,9E0,1.2E1,2.1E1,1E1,1.1E1],"tree_param":{"num_deleted":"0","num_feature":"51","num_nodes":"15","size_leaf_vector":"0"}},{"base_weights":[7.12729E-1,1.7657284E0,1.5918854E-1,4.025215E-1,2.1631246E0,-2.9535836E-1,8.632347E-1,1.7891525E-1,-1.1698627E0,2.8979722E-1,1.1606522E0,-3.6517382E-1,7.0809865E-1],"categories":[],"categories_nodes":[],"categories_segments":[],"categories_sizes":[],"default_left":[1,0,1,0,0,1,1,0,0,0,0,0,0],"id":61,"left_children":[1,3,5,-1,-1,7,9,11,-1,-1,-1,-1,-1],"loss_changes":[6.0145985E1,1.2500931E1,2.7378445E1,0E0,0E0,2.4133587E1,2.9190483E0,1.4215288E1,0E0,0E0,0E0,0E0,0E0],"parents":[2147483647,0,0,1,1,2,2,5,5,6,6,7,7],"right_children":[2,4,6,-1,-1,8,10,12,-1,-1,-1,-1,-1],"split_conditions":[5E-1,1.259712E6,1.2E1,3.499518E-2,1.8806183E-1,8.5E7,1E1,1.5E0,-1.0170775E-1,2.5194941E-2,1.0090698E-1,-3.1748176E-2,6.1562028E-2],"split_indices":[21,35,7,0,0,8,5,26,0,0,0,0,0],"split_type":[0,0,0,0,0,0,0,0,0,0,0,0,0],"sum_hessian":[9.9E1,2.8E1,7.1E1,1E1,1.8E1,4.6E1,2.5E1,3.4E1,1.2E1,1.4E1,1.1E1,1.8E1,1.6E1],"tree_param":{"num_deleted":"0","num_feature":"51","num_nodes":"13","size_leaf_vector":"0"}},{"base_weights":[7.1971434E-1,2.4775338E0,2.0209782E-1,-1.2884184E0,6.2198746E-1,3.0454285E0,-9.6010074E-2,-5.778546E-1,5.901531E-1,-8.8583875E-1,3.2796288E-1,-2.1142247E-1,-1.0527604E0],"categories":[],"categories_nodes":[],"categories_segments":[],"categories_sizes":[],"default_left":[0,0,1,0,1,0,1,1,0,0,0,0,0],"id":62,"left_children":[1,-1,3,-1,5,-1,7,9,-1,11,-1,-1,-1],"loss_changes":[9.520705E1,0E0,6.475382E1,0E0,1.3826387E2,0E0,2.5276222E1,1.4655633E1,0E0,2.1469345E0,0E0,0E0,0E0],"parents":[2147483647,0,0,2,2,4,4,6,6,7,7,9,9],"right_children":[2,-1,4,-1,6,-1,8,10,-1,12,-1,-1,-1],"split_conditions":[5.12E3,2.1539654E-1,5E-1,-1.1201497E-1,1.5E0,2.6476926E-1,1.5E1,6.5E0,5.1307853E-2,6.5536E4,2.851306E-2,-1.8381048E-2,-9.152688E-2],"split_indices":[23,0,41,0,27,0,0,5,0,23,0,0,0],"split_type":[0,0,0,0,0,0,0,0,0,0,0,0,0],"sum_hessian":[1.01E2,1.6E1,8.5E1,1.5E1,7E1,1E1,6E1,3.6E1,2.4E1,2.7E1,9E0,9E0,1.8E1],"tree_param":{"num_deleted":"0","num_feature":"51","num_nodes":"13","size_leaf_vector":"0"}},{"base_weights":[5.809993E-1,2.4068387E0,2.147942E-1,5.3986216E-1,-6.648353E-1,3.8345434E-2,1.6091305E0,2.61647E-2,-1.2027029E0,4.5236486E-1,-9.0054506E-1,7.769528E-1,-4.8505548E-1,5.4260276E-2,1.0184709E0],"categories":[],"categories_nodes":[],"categories_segments":[],"categories_sizes":[],"default_left":[1,0,1,1,1,1,0,0,0,1,0,0,0,0,0],"id":63,"left_children":[1,-1,3,5,7,9,-1,-1,-1,11,-1,13,-1,-1,-1],"loss_changes":[6.7418846E1,0E0,3.0956245E1,4.030584E1,1.1442821E1,2.665928E1,0E0,0E0,0E0,1.738284E1,0E0,6.2006626E0,0E0,0E0,0E0],"parents":[2147483647,0,0,2,2,3,3,4,4,5,5,9,9,11,11],"right_children":[2,-1,4,6,8,10,-1,-1,-1,12,-1,14,-1,-1,-1],"split_conditions":[2.0195E3,2.0925032E-1,2.0215E3,1.2E1,5.0005E-3,2.0205E3,1.3989764E-1,2.2747563E-3,-1.0456287E-1,5.4999997E-5,-7.82933E-2,5.12E3,-4.2170674E-2,4.717383E-3,8.8545755E-2],"split_indices":[20,0,20,7,15,20,0,0,0,15,0,23,0,0,0],"split_type":[0,0,0,0,0,0,0,0,0,0,0,0,0,0,0],"sum_hessian":[9.9E1,9E0,9E1,6.8E1,2.2E1,5.2E1,1.6E1,1.3E1,9E0,3.9E1,1.3E1,3E1,9E0,1E1,2E1],"tree_param":{"num_deleted":"0","num_feature":"51","num_nodes":"15","size_leaf_vector":"0"}},{"base_weights":[3.002485E-1,2.1452827E0,-1.6850325E-1,8.151045E-2,-7.669145E-1,-4.0087777E-1,1.3081173E0,-1.3718655E0,1.31468E-1,-6.631215E-1,-4.7739437E-3,-2.959209E-1,-8.361507E-1,3.4488332E-1,-2.6199058E-1],"categories":[],"categories_nodes":[],"categories_segments":[],"categories_sizes":[],"default_left":[0,0,1,0,1,0,0,0,0,1,0,0,0,0,0],"id":64,"left_children":[1,-1,3,5,7,9,-1,-1,-1,11,13,-1,-1,-1,-1],"loss_changes":[9.9014366E1,0E0,1.48844595E1,4.868307E1,1.7276205E1,6.2161026E0,0E0,0E0,0E0,2.882414E-1,3.6183534E0,0E0,0E0,0E0,0E0],"parents":[2147483647,0,0,2,2,3,3,4,4,5,5,9,9,10,10],"right_children":[2,-1,4,6,8,10,-1,-1,-1,12,14,-1,-1,-1,-1],"split_conditions":[5.12E3,1.8651067E-1,2.0215E3,1.0000001E1,7.155821E7,1.5E0,1.13727584E-1,-1.19269855E-1,1.1429815E-2,5E-1,1.2509632E7,-2.5727335E-2,-7.269486E-2,2.9984122E-2,-2.2777434E-2],"split_indices":[23,0,20,26,35,26,0,0,0,48,35,0,0,0,0],"split_type":[0,0,0,0,0,0,0,0,0,0,0,0,0,0,0],"sum_hessian":[1.03E2,1.5E1,8.8E1,6.7E1,2.1E1,5.2E1,1.5E1,1E1,1.1E1,2.8E1,2.4E1,1.6E1,1.2E1,9E0,1.5E1],"tree_param":{"num_deleted":"0","num_feature":"51","num_nodes":"15","size_leaf_vector":"0"}},{"base_weights":[2.4641575E-1,9.4548094E-1,-9.9818796E-1,2.1532865E0,2.9014185E-1,-1.6599247E0,-1.9003163E-1,-1.4177078E-1,6.489012E-1,9.558187E-2,-2.6782665E-1,2.8020725E-1,8.0865854E-1],"categories":[],"categories_nodes":[],"categories_segments":[],"categories_sizes":[],"default_left":[1,1,1,0,0,0,0,1,1,0,0,0,0],"id":65,"left_children":[1,3,5,-1,7,-1,-1,9,11,-1,-1,-1,-1],"loss_changes":[9.9953575E1,5.2004326E1,1.9956314E1,0E0,9.4381695E0,0E0,0E0,1.1678972E0,5.416584E-2,0E0,0E0,0E0,0E0],"parents":[2147483647,0,0,1,1,2,2,4,4,7,7,8,8],"right_children":[2,4,6,-1,8,-1,-1,10,12,-1,-1,-1,-1],"split_conditions":[8.5E7,1.5E0,5E-1,1.872065E-1,1.6E2,-1.443137E-1,-1.652133E-2,5E-1,5.05E-5,8.309878E-3,-2.3284823E-2,2.436119E-2,7.030469E-2],"split_indices":[8,28,37,0,24,0,0,2,15,0,0,0,0],"split_type":[0,0,0,0,0,0,0,0,0,0,0,0,0],"sum_hessian":[9.8E1,6.4E1,3.4E1,1.6E1,4.8E1,1.4E1,2E1,2.4E1,2.4E1,9E0,1.5E1,1.4E1,1E1],"tree_param":{"num_deleted":"0","num_feature":"51","num_nodes":"13","size_leaf_vector":"0"}},{"base_weights":[5.7289475E-1,1.5280887E0,-8.445234E-1,3.6738572E0,2.0225555E-1,-2.6588984E0,4.480202E-1,-3.1101063E-1,5.7108754E-1,1.3990548E0,-4.9497592E-1],"categories":[],"categories_nodes":[],"categories_segments":[],"categories_sizes":[],"default_left":[1,1,1,0,1,0,1,0,0,0,0],"id":66,"left_children":[1,3,5,-1,7,-1,9,-1,-1,-1,-1],"loss_changes":[1.3785089E2,1.6210628E2,1.10720474E2,0E0,9.976046E0,0E0,3.439489E1,0E0,0E0,0E0,0E0],"parents":[2147483647,0,0,1,1,2,2,4,4,6,6],"right_children":[2,4,6,-1,8,-1,10,-1,-1,-1,-1],"split_conditions":[2.5E7,1.28E3,5E-1,3.1940478E-1,1.5E1,-2.3116437E-1,5.5E-4,-2.7039234E-2,4.9650293E-2,1.21633686E-1,-4.3033157E-2],"split_indices":[8,30,41,0,0,0,14,0,0,0,0],"split_type":[0,0,0,0,0,0,0,0,0,0,0],"sum_hessian":[8.6E1,5.1E1,3.5E1,1.4E1,3.7E1,1.1E1,2.4E1,1.6E1,2.1E1,1E1,1.4E1],"tree_param":{"num_deleted":"0","num_feature":"51","num_nodes":"11","size_leaf_vector":"0"}},{"base_weights":[3.7358212E-1,1.4832126E0,-1.12276405E-1,2.581398E0,1.5998703E-1,5.2474105E-1,-3.1207895E-1,-5.8199793E-1,2.8014866E-1,-3.308301E-1,-8.001952E-1,4.6991244E-1,-2.4401236E-2,-6.073921E-1,4.9680367E-2],"categories":[],"categories_nodes":[],"categories_segments":[],"categories_sizes":[],"default_left":[1,1,0,0,0,0,1,0,1,0,0,0,0,0,0],"id":67,"left_children":[1,3,5,-1,-1,-1,7,9,11,13,-1,-1,-1,-1,-1],"loss_changes":[6.0706738E1,4.6200768E1,1.2029548E1,0E0,0E0,0E0,1.23662405E1,6.002426E-1,1.6595368E0,4.1491203E0,0E0,0E0,0E0,0E0,0E0],"parents":[2147483647,0,0,1,1,2,2,6,6,7,7,8,8,9,9],"right_children":[2,4,6,-1,-1,-1,8,10,12,14,-1,-1,-1,-1,-1],"split_conditions":[5E-1,1.5E0,1.5E0,2.244265E-1,1.3909257E-2,4.5620937E-2,2.1232832E7,1.1164992E7,4E7,1.6E2,-6.9568895E-2,4.085414E-2,-2.121441E-3,-5.280661E-2,4.3192063E-3],"split_indices":[21,28,28,0,0,0,35,35,8,24,0,0,0,0,0],"split_type":[0,0,0,0,0,0,0,0,0,0,0,0,0,0,0],"sum_hessian":[1.02E2,2.6E1,7.6E1,1E1,1.6E1,1.5E1,6.1E1,4.2E1,1.9E1,2.9E1,1.3E1,9E0,1E1,1.4E1,1.5E1],"tree_param":{"num_deleted":"0","num_feature":"51","num_nodes":"15","size_leaf_vector":"0"}},{"base_weights":[8.1879056E-1,7.932819E-2,3.9601138E0,4.9953207E-1,-3.5393015E-1,-1.9452596E-1,7.1737677E-1,-8.9219284E-1,-5.290245E-2,1.4286249E-2,-1.3291636E-1,-1.0341288E-2,3.65527E-2],"categories":[],"categories_nodes":[],"categories_segments":[],"categories_sizes":[],"default_left":[0,1,0,0,0,0,0,0,1,1,0,0,0],"id":68,"left_children":[1,3,-1,5,7,-1,-1,-1,9,11,-1,-1,-1],"loss_changes":[2.3228923E2,1.7834785E1,0E0,8.5541935E0,7.571838E0,0E0,0E0,0E0,2.3111323E-1,1.9054797E-2,0E0,0E0,0E0],"parents":[2147483647,0,0,1,1,3,3,4,4,8,8,9,9],"right_children":[2,4,-1,6,8,-1,-1,-1,10,12,-1,-1,-1],"split_conditions":[2.000001E0,2.0205E3,3.442919E-1,1.6384E4,5E-1,-1.6912067E-2,6.2368665E-2,-7.756716E-2,5E-1,1.5E0,-1.1555735E-2,-8.990705E-4,3.1778882E-3],"split_indices":[29,20,0,23,29,0,0,0,44,6,0,0,0],"split_type":[0,0,0,0,0,0,0,0,0,0,0,0,0],"sum_hessian":[9.3E1,8.2E1,1.1E1,4.1E1,4.1E1,1E1,3.1E1,9E0,3.2E1,2.1E1,1.1E1,1.2E1,9E0],"tree_param":{"num_deleted":"0","num_feature":"51","num_nodes":"13","size_leaf_vector":"0"}},{"base_weights":[5.3763145E-1,-9.932435E-2,2.7797468E0,-9.730566E-1,2.5531465E-1,-2.7284673E-1,1.2885547E0,-9.301109E-1,3.922655E-1,7.261532E-1,-1.5395817E-1],"categories":[],"categories_nodes":[],"categories_segments":[],"categories_sizes":[],"default_left":[1,1,0,0,1,1,0,0,1,0,0],"id":69,"left_children":[1,3,-1,-1,5,7,-1,-1,9,-1,-1],"loss_changes":[1.3662321E2,2.714169E1,0E0,0E0,3.782768E1,2.4418509E1,0E0,0E0,6.395264E0,0E0,0E0],"parents":[2147483647,0,0,1,1,4,4,5,5,8,8],"right_children":[2,4,-1,-1,6,8,-1,-1,10,-1,-1],"split_conditions":[2.5E0,5E-1,2.416709E-1,-8.4597446E-2,8E0,1.8E1,1.1202682E-1,-8.0863744E-2,3.5E2,6.313169E-2,-1.3385109E-2],"split_indices":[13,41,0,0,5,0,0,0,11,0,0],"split_type":[0,0,0,0,0,0,0,0,0,0,0],"sum_hessian":[8.6E1,7.3E1,1.3E1,1.7E1,5.6E1,4.1E1,1.5E1,1.9E1,2.2E1,1.2E1,1E1],"tree_param":{"num_deleted":"0","num_feature":"51","num_nodes":"11","size_leaf_vector":"0"}},{"base_weights":[5.714067E-1,3.609713E0,-1.6769703E-1,4.474095E-1,-3.2423034E-1,-2.0340948E-1,-6.871308E-1,-4.694728E-1,1.3894091E-2,-2.7461624E-1,3.4236827E-1,-4.972929E-1,9.546484E-2,7.366005E-1,-2.1393047E-1],"categories":[],"categories_nodes":[],"categories_segments":[],"categories_sizes":[],"default_left":[1,0,1,0,1,0,0,0,1,1,1,0,0,0,0],"id":70,"left_children":[1,-1,3,-1,5,7,-1,-1,9,11,13,-1,-1,-1,-1],"loss_changes":[2.5439046E2,0E0,1.0523529E1,0E0,2.4665651E0,4.279728E0,0E0,0E0,5.319577E0,2.865312E0,7.000312E0,0E0,0E0,0E0,0E0],"parents":[2147483647,0,0,2,2,4,4,5,5,8,8,9,9,10,10],"right_children":[2,-1,4,-1,6,8,-1,-1,10,12,14,-1,-1,-1,-1],"split_conditions":[5E-1,3.138281E-1,5E-1,3.8897738E-2,4E0,1.5E0,-5.9739083E-2,-4.081592E-2,5E-1,1E1,2.5E0,-4.3234598E-2,8.299704E-3,6.4039975E-2,-1.8599095E-2],"split_indices":[28,0,42,0,26,26,0,0,1,7,1,0,0,0,0],"split_type":[0,0,0,0,0,0,0,0,0,0,0,0,0,0,0],"sum_hessian":[1.03E2,1.4E1,8.9E1,1.5E1,7.4E1,6.5E1,9E0,2.5E1,4E1,2.2E1,1.8E1,1.2E1,1E1,9E0,9E0],"tree_param":{"num_deleted":"0","num_feature":"51","num_nodes":"15","size_leaf_vector":"0"}},{"base_weights":[1.2932871E-1,1.4708349E0,-4.8400494E-1,-1.5035184E-1,2.126898E0,2.361469E-2,-6.6255015E-1,-3.638585E-2,7.602414E-2,-1.5288616E-2,-9.242265E-1,-1.2021959E0,-1.2330017E-1],"categories":[],"categories_nodes":[],"categories_segments":[],"categories_sizes":[],"default_left":[1,1,1,0,0,1,1,0,0,0,1,0,0],"id":71,"left_children":[1,3,5,-1,-1,7,9,-1,-1,-1,11,-1,-1],"loss_changes":[8.730281E1,3.7795105E1,6.843313E0,0E0,0E0,1.0766812E-1,9.216303E0,0E0,0E0,0E0,7.502205E0,0E0,0E0],"parents":[2147483647,0,0,1,1,2,2,5,5,6,6,10,10],"right_children":[2,4,6,-1,-1,8,10,-1,-1,-1,12,-1,-1],"split_conditions":[5E-1,5E-1,5E-1,-1.3071574E-2,1.8491231E-1,6.144E3,2.5E2,-3.1633822E-3,6.609531E-3,-1.3291907E-3,3.5E0,-1.0451879E-1,-1.0719704E-2],"split_indices":[22,1,1,0,0,30,11,0,0,0,1,0,0],"split_type":[0,0,0,0,0,0,0,0,0,0,0,0,0],"sum_hessian":[9.1E1,2.5E1,6.6E1,9E0,1.6E1,1.9E1,4.7E1,1E1,9E0,1.6E1,3.1E1,2E1,1.1E1],"tree_param":{"num_deleted":"0","num_feature":"51","num_nodes":"13","size_leaf_vector":"0"}},{"base_weights":[5.020525E-1,-1.2133395E-1,2.3551393E0,1.11279E0,-4.0951735E-1,3.8003213E0,-2.0538564E-1,-1.7166808E-1,-5.8684665E-1,2.715997E-1,-6.1249244E-1,-8.0460274E-1,-2.0571776E-1],"categories":[],"categories_nodes":[],"categories_segments":[],"categories_sizes":[],"default_left":[0,1,1,0,1,0,0,0,1,0,0,0,0],"id":72,"left_children":[1,3,5,-1,7,-1,-1,9,11,-1,-1,-1,-1],"loss_changes":[1.2025938E2,3.3598866E1,1.028983E2,0E0,2.3083925E0,0E0,0E0,9.768999E0,1.9030495E0,0E0,0E0,0E0,0E0],"parents":[2147483647,0,0,1,1,2,2,4,4,7,7,8,8],"right_children":[2,4,6,-1,8,-1,-1,10,12,-1,-1,-1,-1],"split_conditions":[1.536E3,3E0,2.0215E3,9.674585E-2,5.5E-6,3.3039957E-1,-1.7856207E-2,1.6E2,1.5E0,2.3612851E-2,-5.3250033E-2,-6.9952086E-2,-1.7885081E-2],"split_indices":[24,34,20,0,15,0,0,24,6,0,0,0,0],"split_type":[0,0,0,0,0,0,0,0,0,0,0,0,0],"sum_hessian":[9.4E1,7.6E1,1.8E1,1E1,6.6E1,9E0,9E0,3.5E1,3.1E1,1.9E1,1.6E1,1.4E1,1.7E1],"tree_param":{"num_deleted":"0","num_feature":"51","num_nodes":"13","size_leaf_vector":"0"}},{"base_weights":[2.0675622E-1,1.4145852E0,-2.3104265E-1,1.8398418E0,3.3280373E-1,-5.152888E-1,3.594051E-1,-2.4656216E-3,-9.9283093E-1,1.0600151E0,-6.567898E-1,1.0357754E0,-6.335852E-1,-1.3894631E0,-1.5438E-1],"categories":[],"categories_nodes":[],"categories_segments":[],"categories_sizes":[],"default_left":[1,1,1,0,0,0,1,1,1,0,0,0,0,0,0],"id":73,"left_children":[1,3,5,-1,-1,7,9,11,13,-1,-1,-1,-1,-1,-1],"loss_changes":[5.822249E1,8.424557E0,1.5614227E1,0E0,0E0,1.4696359E1,2.8490435E1,2.9622002E1,8.602533E0,0E0,0E0,0E0,0E0,0E0,0E0],"parents":[2147483647,0,0,1,1,2,2,5,5,6,6,7,7,8,8],"right_children":[2,4,6,-1,-1,8,10,12,14,-1,-1,-1,-1,-1,-1],"split_conditions":[5E-1,2.0205E3,1.2E1,1.5995567E-1,2.8933924E-2,7.519264E6,2.0215E3,5E-1,5E-1,9.215761E-2,-5.710124E-2,9.005021E-2,-5.5083837E-2,-1.2079978E-1,-1.3421781E-2],"split_indices":[22,20,7,0,0,35,20,42,48,0,0,0,0,0,0],"split_type":[0,0,0,0,0,0,0,0,0,0,0,0,0,0,0],"sum_hessian":[9.7E1,2.1E1,7.6E1,1.1E1,1E1,5.2E1,2.4E1,2.9E1,2.3E1,1.4E1,1E1,9E0,2E1,1.2E1,1.1E1],"tree_param":{"num_deleted":"0","num_feature":"51","num_nodes":"15","size_leaf_vector":"0"}},{"base_weights":[7.4130744E-1,2.2216316E-1,3.1948433E0,5.788858E-1,-4.0179783E-1,9.9169743E-1,2.6598704E-1,-5.6444305E-1,-1.2241733E-1,-4.547056E-1,6.076104E-1,9.384334E-1,1.2145617E-2],"categories":[],"categories_nodes":[],"categories_segments":[],"categories_sizes":[],"default_left":[0,1,0,1,1,0,1,0,0,0,0,0,0],"id":74,"left_children":[1,3,-1,5,7,-1,9,-1,-1,-1,11,-1,-1],"loss_changes":[1.3066208E2,2.3495853E1,0E0,6.270748E0,1.2615185E0,0E0,1.4079407E1,0E0,0E0,0E0,7.017354E0,0E0,0E0],"parents":[2147483647,0,0,1,1,3,3,4,4,6,6,10,10],"right_children":[2,4,-1,6,8,-1,10,-1,-1,-1,12,-1,-1],"split_conditions":[8.192E3,3.5E7,2.7775937E-1,5E-1,1.5E0,8.6218074E-2,5E-1,-4.9072623E-2,-1.064295E-2,-3.9532058E-2,2E0,8.158731E-2,1.0559388E-3],"split_indices":[24,8,0,22,26,0,2,0,0,0,26,0,0],"split_type":[0,0,0,0,0,0,0,0,0,0,0,0,0],"sum_hessian":[9.9E1,8.9E1,1E1,5.7E1,3.2E1,1.7E1,4E1,1.5E1,1.7E1,1.2E1,2.8E1,1.5E1,1.3E1],"tree_param":{"num_deleted":"0","num_feature":"51","num_nodes":"13","size_leaf_vector":"0"}},{"base_weights":[-6.955958E-2,1.3716825E0,-5.557655E-1,-5.3870272E-2,2.2623332E0,-8.4513825E-1,7.205726E-1,-1.8685153E0,-3.4665164E-1,-5.4925853E-1,1.9380061E-1],"categories":[],"categories_nodes":[],"categories_segments":[],"categories_sizes":[],"default_left":[1,1,1,0,0,1,0,0,1,0,0],"id":75,"left_children":[1,3,5,-1,-1,7,-1,-1,9,-1,-1],"loss_changes":[8.051896E1,3.7934532E1,3.6361324E1,0E0,0E0,3.2041782E1,0E0,0E0,7.3336463E0,0E0,0E0],"parents":[2147483647,0,0,1,1,2,2,5,5,8,8],"right_children":[2,4,6,-1,-1,8,-1,-1,10,-1,-1],"split_conditions":[5E-1,1E1,1.05E1,-4.683476E-3,1.9668703E-1,2.5E0,6.264651E-2,-1.6244853E-1,3.84E2,-4.775248E-2,1.6849006E-2],"split_indices":[22,0,5,0,0,0,0,0,24,0,0],"split_type":[0,0,0,0,0,0,0,0,0,0,0],"sum_hessian":[9.8E1,2.1E1,7.7E1,1.1E1,1E1,6.5E1,1.2E1,1.4E1,5.1E1,3.7E1,1.4E1],"tree_param":{"num_deleted":"0","num_feature":"51","num_nodes":"11","size_leaf_vector":"0"}},{"base_weights":[-4.116607E-2,2.1335096E0,-5.8278334E-1,-7.871633E-1,5.136324E-2,-4.3387425E-1,-1.1961029E0,1.2941032E-2,6.3907824E-2,-7.0078814E-1,3.0731612E-1],"categories":[],"categories_nodes":[],"categories_segments":[],"categories_sizes":[],"default_left":[0,0,1,1,0,0,0,0,0,0,0],"id":76,"left_children":[1,-1,3,5,7,9,-1,-1,-1,-1,-1],"loss_changes":[1.2443202E2,0E0,1.1228098E1,5.0557327E0,6.7355335E-3,1.1062046E1,0E0,0E0,0E0,0E0,0E0],"parents":[2147483647,0,0,2,2,3,3,4,4,5,5],"right_children":[2,-1,4,6,8,10,-1,-1,-1,-1,-1],"split_conditions":[5.12E3,1.8548712E-1,1.2E1,5.5E-6,6.5536E4,3.072E3,-1.03989065E-1,1.125092E-3,5.55614E-3,-6.0926452E-2,2.6718033E-2],"split_indices":[23,0,7,15,23,25,0,0,0,0,0],"split_type":[0,0,0,0,0,0,0,0,0,0,0],"sum_hessian":[8.9E1,1.3E1,7.6E1,5.6E1,2E1,3.9E1,1.7E1,9E0,1.1E1,2.9E1,1E1],"tree_param":{"num_deleted":"0","num_feature":"51","num_nodes":"11","size_leaf_vector":"0"}},{"base_weights":[2.795518E-1,1.3725499E0,-2.576178E-2,-3.0963418E-1,1.0214175E0,-1.5231589E0,1.0351354E-1,-1.7618941E-1,6.3866746E-1,7.6172315E-2,-2.7448648E-1,-5.1115185E-1,-3.4346294E-2,3.0718586E-1,-3.7967077E-1],"categories":[],"categories_nodes":[],"categories_segments":[],"categories_sizes":[],"default_left":[1,0,1,1,0,0,0,1,0,0,1,0,1,0,0],"id":77,"left_children":[1,-1,3,5,-1,-1,7,9,-1,-1,11,-1,13,-1,-1],"loss_changes":[3.5360123E1,0E0,2.9342932E1,3.9932877E1,0E0,0E0,1.0655965E1,1.387532E0,0E0,0E0,1.9654219E0,0E0,4.1404247E0,0E0,0E0],"parents":[2147483647,0,0,2,2,3,3,6,6,7,7,10,10,12,12],"right_children":[2,-1,4,6,-1,-1,8,10,-1,-1,12,-1,14,-1,-1],"split_conditions":[5E-1,1.1932935E-1,1E1,6.5E0,8.8801935E-2,-1.3242328E-1,3.072E3,9.5E0,5.5525687E-2,6.6224136E-3,2E1,-4.443949E-2,2.25E1,2.6706709E-2,-3.300854E-2],"split_indices":[38,0,5,0,0,0,25,0,0,0,0,0,0,0,0],"split_type":[0,0,0,0,0,0,0,0,0,0,0,0,0,0,0],"sum_hessian":[9.7E1,1.5E1,8.2E1,6.9E1,1.3E1,1.2E1,5.7E1,4.1E1,1.6E1,1.2E1,2.9E1,1E1,1.9E1,1E1,9E0],"tree_param":{"num_deleted":"0","num_feature":"51","num_nodes":"15","size_leaf_vector":"0"}},{"base_weights":[8.16628E-3,1.5452008E0,-4.35482E-1,-9.8035164E-2,-1.5953635E0,1.01302594E-1,-3.416867E-1,-3.61226E-1,4.2303878E-1,-4.172774E-1,-7.9716586E-2,-3.2532293E-1,8.809786E-1],"categories":[],"categories_nodes":[],"categories_segments":[],"categories_sizes":[],"default_left":[1,0,0,1,0,0,1,0,1,0,0,0,0],"id":78,"left_children":[1,-1,3,5,-1,7,9,-1,11,-1,-1,-1,-1],"loss_changes":[7.643512E1,0E0,3.2820972E1,3.9766226E0,0E0,8.395048E0,4.447503E-1,0E0,1.3321656E1,0E0,0E0,0E0,0E0],"parents":[2147483647,0,0,2,2,3,3,5,5,6,6,8,8],"right_children":[2,-1,4,6,-1,8,10,-1,12,-1,-1,-1,-1],"split_conditions":[3.84E2,1.343396E-1,3.072E3,2.5E7,-1.3870074E-1,1.6E2,5E-1,-3.1404953E-2,1.536E3,-3.6278054E-2,-6.930552E-3,-2.8283544E-2,7.659219E-2],"split_indices":[12,0,24,8,0,24,3,0,12,0,0,0,0],"split_type":[0,0,0,0,0,0,0,0,0,0,0,0,0],"sum_hessian":[9.6E1,1.7E1,7.9E1,6.8E1,1.1E1,4E1,2.8E1,1.6E1,2.4E1,1.8E1,1E1,1E1,1.4E1],"tree_param":{"num_deleted":"0","num_feature":"51","num_nodes":"13","size_leaf_vector":"0"}},{"base_weights":[5.366174E-1,2.6184976E0,-9.9921055E-2,1.8886569E-1,-5.259384E-1,-3.197844E-1,4.7808453E-1,-1.2294705E-2,-9.744649E-1,1.468097E-1,7.601071E-1],"categories":[],"categories_nodes":[],"categories_segments":[],"categories_sizes":[],"default_left":[1,0,1,1,1,0,1,0,0,0,0],"id":79,"left_children":[1,-1,3,5,7,-1,9,-1,-1,-1,-1],"loss_changes":[1.2549512E2,0E0,1.0536089E1,9.049506E0,7.7570963E0,0E0,2.5609932E0,0E0,0E0,0E0,0E0],"parents":[2147483647,0,0,2,2,3,3,4,4,6,6],"right_children":[2,-1,4,6,8,-1,10,-1,-1,-1,-1],"split_conditions":[5E-1,2.2765192E-1,5E-1,5E-1,1.5E0,-2.7802024E-2,5E-1,-1.0689005E-3,-8.471988E-2,1.276362E-2,6.608363E-2],"split_indices":[28,0,48,1,13,0,2,0,0,0,0],"split_type":[0,0,0,0,0,0,0,0,0,0,0],"sum_hessian":[8.5E1,1.4E1,7.1E1,4.5E1,2.6E1,1.6E1,2.9E1,1.6E1,1E1,1.9E1,1E1],"tree_param":{"num_deleted":"0","num_feature":"51","num_nodes":"11","size_leaf_vector":"0"}},{"base_weights":[4.0782295E-2,1.4866958E0,-3.3854863E-1,1.8951043E-1,-4.929303E-1,-8.190395E-1,-2.8591022E-1,-6.068671E-1,4.0119347E-1,-9.625165E-1,-1.7752926E-1,1.5762737E-1,-4.3333074E-1],"categories":[],"categories_nodes":[],"categories_segments":[],"categories_sizes":[],"default_left":[0,0,1,0,1,0,0,1,0,0,0,0,0],"id":80,"left_children":[1,-1,3,-1,5,-1,7,9,-1,-1,11,-1,-1],"loss_changes":[5.8430466E1,0E0,7.6942787E0,0E0,2.6995125E0,0E0,1.390206E1,4.737339E0,0E0,0E0,2.9624255E0,0E0,0E0],"parents":[2147483647,0,0,2,2,4,4,6,6,7,7,10,10],"right_children":[2,-1,4,-1,6,-1,8,10,-1,-1,12,-1,-1],"split_conditions":[5.12E3,1.2925318E-1,7.68E2,1.6476018E-2,1.536E3,-7.120722E-2,1.9659968E7,1.536E3,3.487972E-2,-8.368109E-2,1.5E0,1.3704108E-2,-3.767373E-2],"split_indices":[23,0,9,0,9,0,35,12,0,0,26,0,0],"split_type":[0,0,0,0,0,0,0,0,0,0,0,0,0],"sum_hessian":[9.1E1,1.4E1,7.7E1,1.7E1,6E1,1.4E1,4.6E1,3.2E1,1.4E1,1.2E1,2E1,1E1,1E1],"tree_param":{"num_deleted":"0","num_feature":"51","num_nodes":"13","size_leaf_vector":"0"}},{"base_weights":[-8.045803E-2,3.0509013E-1,-1.2709959E0,1.404854E0,-2.8976393E-1,1.8301197E0,4.283701E-1,-4.1564336E-1,1.9413848E-1],"categories":[],"categories_nodes":[],"categories_segments":[],"categories_sizes":[],"default_left":[1,1,0,1,1,0,0,0,0],"id":81,"left_children":[1,3,-1,5,7,-1,-1,-1,-1],"loss_changes":[4.5415165E1,5.3081036E1,0E0,5.3164024E0,4.0708423E0,0E0,0E0,0E0,0E0],"parents":[2147483647,0,0,1,1,3,3,4,4],"right_children":[2,4,-1,6,8,-1,-1,-1,-1],"split_conditions":[5E-1,1.5E0,-1.10500254E-1,5E-1,5E0,1.5911043E-1,3.7242454E-2,-3.6135994E-2,1.6878381E-2],"split_indices":[44,28,0,21,5,0,0,0,0],"split_type":[0,0,0,0,0,0,0,0,0],"sum_hessian":[8.4E1,6.8E1,1.6E1,2E1,4.8E1,9E0,1.1E1,3.9E1,9E0],"tree_param":{"num_deleted":"0","num_feature":"51","num_nodes":"9","size_leaf_vector":"0"}},{"base_weights":[-9.76481E-2,9.446558E-1,-9.258227E-1,-1.8133405E-1,1.4677573E0,-2.4247134E0,-2.1886598E-1,2.2251287E0,2.9411978E-1,2.4297297E-1,-6.669898E-1,4.0182242E-1,1.3385437E-2],"categories":[],"categories_nodes":[],"categories_segments":[],"categories_sizes":[],"default_left":[1,0,1,0,1,0,1,0,0,0,0,0,0],"id":82,"left_children":[1,3,5,-1,7,-1,9,-1,-1,11,-1,-1,-1],"loss_changes":[9.694025E1,3.1664993E1,6.1500744E1,0E0,2.5894432E1,0E0,1.18881645E1,0E0,0E0,1.0899796E0,0E0,0E0,0E0],"parents":[2147483647,0,0,1,1,2,2,4,4,6,6,9,9],"right_children":[2,4,6,-1,8,-1,10,-1,-1,12,-1,-1,-1],"split_conditions":[2.5E2,5E-1,5E-1,-1.5765164E-2,1.5E2,-2.1080434E-1,6E2,1.9345246E-1,2.5570745E-2,6.144E3,-5.798803E-2,3.49344E-2,1.1637287E-3],"split_indices":[11,29,29,0,11,0,11,0,0,30,0,0,0],"split_type":[0,0,0,0,0,0,0,0,0,0,0,0,0],"sum_hessian":[9.6E1,4.2E1,5.4E1,1.5E1,2.7E1,1.1E1,4.3E1,1.2E1,1.5E1,2.3E1,2E1,1E1,1.3E1],"tree_param":{"num_deleted":"0","num_feature":"51","num_nodes":"13","size_leaf_vector":"0"}},{"base_weights":[-3.5123873E-1,-1.2481604E0,-7.5158134E-2,-2.7350456E-1,7.485645E-1,-4.602037E-1,3.175123E-1,9.7460434E-2,-5.925859E-1,-7.0008534E-1,-1.0105935E-1],"categories":[],"categories_nodes":[],"categories_segments":[],"categories_sizes":[],"default_left":[1,0,0,1,0,0,0,0,1,0,0],"id":83,"left_children":[1,-1,3,5,-1,7,-1,-1,9,-1,-1],"loss_changes":[2.3034431E1,0E0,1.5070535E1,9.138877E0,0E0,4.757435E0,0E0,0E0,1.9673634E0,0E0,0E0],"parents":[2147483647,0,0,2,2,3,3,5,5,8,8],"right_children":[2,-1,4,6,-1,8,-1,-1,10,-1,-1],"split_conditions":[5E-1,-1.08514935E-1,1.4441709E8,1E1,6.508012E-2,5.3392E5,2.7604489E-2,8.473201E-3,2.0215E3,-6.086535E-2,-8.78609E-3],"split_indices":[41,0,35,7,0,35,0,0,20,0,0],"split_type":[0,0,0,0,0,0,0,0,0,0,0],"sum_hessian":[8.8E1,1.4E1,7.4E1,6.4E1,1E1,5E1,1.4E1,1E1,4E1,3E1,1E1],"tree_param":{"num_deleted":"0","num_feature":"51","num_nodes":"11","size_leaf_vector":"0"}},{"base_weights":[3.0427846E-1,-3.605084E-2,1.51046E0,5.9684515E-1,-3.0221736E-1,6.82808E-2,-1.001714E0,4.6511978E-1,-1.0194921E-1,1.6875425E-1,-2.5039738E-1,-3.3441532E-1,-2.3133993E-2],"categories":[],"categories_nodes":[],"categories_segments":[],"categories_sizes":[],"default_left":[1,1,0,0,0,1,0,0,1,0,1,0,0],"id":84,"left_children":[1,3,-1,-1,5,7,-1,-1,9,-1,11,-1,-1],"loss_changes":[4.3175056E1,1.646924E1,0E0,0E0,1.820356E1,3.903907E0,0E0,0E0,2.0741916E0,0E0,5.306262E-1,0E0,0E0],"parents":[2147483647,0,0,1,1,4,4,5,5,8,8,10,10],"right_children":[2,4,-1,-1,6,8,-1,-1,10,-1,12,-1,-1],"split_conditions":[2.5E0,7.68E2,1.3131924E-1,5.1889658E-2,3.072E3,5E-1,-8.708891E-2,4.0437467E-2,5E-1,1.46714775E-2,5.05E-5,-2.9074034E-2,-2.011267E-3],"split_indices":[13,9,0,0,25,42,0,0,2,0,15,0,0],"split_type":[0,0,0,0,0,0,0,0,0,0,0,0,0],"sum_hessian":[9.6E1,8.1E1,1.5E1,2.1E1,6E1,4.4E1,1.6E1,9E0,3.5E1,1.2E1,2.3E1,1.4E1,9E0],"tree_param":{"num_deleted":"0","num_feature":"51","num_nodes":"13","size_leaf_vector":"0"}},{"base_weights":[4.309706E-1,8.4394205E-1,-9.930861E-1,2.465184E0,2.6171375E-2,3.302502E-1,-2.344013E-1,-2.3773981E-2,-3.5366994E-1],"categories":[],"categories_nodes":[],"categories_segments":[],"categories_sizes":[],"default_left":[1,1,0,0,1,0,1,0,0],"id":85,"left_children":[1,3,-1,-1,5,-1,7,-1,-1],"loss_changes":[6.271301E1,1.0301625E2,0E0,0E0,5.388811E0,0E0,8.63312E-1,0E0,0E0],"parents":[2147483647,0,0,1,1,4,4,6,6],"right_children":[2,4,-1,-1,6,-1,8,-1,-1],"split_conditions":[9E2,5E-1,-8.633881E-2,2.1432285E-1,3.5E2,2.871192E-2,1.536E3,-2.0669075E-3,-3.074803E-2],"split_indices":[11,37,0,0,11,0,9,0,0],"split_type":[0,0,0,0,0,0,0,0,0],"sum_hessian":[8.7E1,7E1,1.7E1,1.8E1,5.2E1,2.3E1,2.9E1,1.4E1,1.5E1],"tree_param":{"num_deleted":"0","num_feature":"51","num_nodes":"9","size_leaf_vector":"0"}},{"base_weights":[3.1434897E-1,-2.6195815E-1,1.2213929E0,-7.0731825E-1,-7.902397E-2,2.3762703E0,-1.7965266E-1,-2.7075958E-1,5.0890595E-1,-2.346533E-1,-3.9482154E-2,-4.6929723E-1,3.2300434E-1,1.0184896E-1,-6.6116E-1,-2.221432E-1,-9.15343E-1],"categories":[],"categories_nodes":[],"categories_segments":[],"categories_sizes":[],"default_left":[1,0,1,0,0,0,1,1,0,0,0,1,0,0,1,0,0],"id":86,"left_children":[1,3,5,-1,7,-1,9,11,-1,-1,-1,13,-1,-1,15,-1,-1],"loss_changes":[5.596241E1,5.17575E0,6.995765E1,0E0,7.664639E0,0E0,1.2578398E-1,7.015562E0,0E0,0E0,0E0,4.9400654E0,0E0,0E0,1.8220139E0,0E0,0E0],"parents":[2147483647,0,0,1,1,2,2,4,4,6,6,7,7,11,11,14,14],"right_children":[2,4,6,-1,8,-1,10,12,-1,-1,-1,14,-1,-1,16,-1,-1],"split_conditions":[1.5E0,5E-1,4.208544E6,-6.149418E-2,9.901424E7,2.0659271E-1,3.5E7,2.3E1,4.4244234E-2,-2.0400735E-2,-3.4325744E-3,5E-1,2.8081965E-2,8.854738E-3,5E-1,-1.9313108E-2,-7.957983E-2],"split_indices":[1,29,35,0,35,0,8,4,0,0,0,42,0,0,1,0,0],"split_type":[0,0,0,0,0,0,0,0,0,0,0,0,0,0,0,0,0],"sum_hessian":[9.4E1,6.1E1,3.3E1,1.1E1,5E1,1.5E1,1.8E1,4.1E1,9E0,9E0,9E0,3.2E1,9E0,9E0,2.3E1,1.4E1,9E0],"tree_param":{"num_deleted":"0","num_feature":"51","num_nodes":"17","size_leaf_vector":"0"}},{"base_weights":[-1.02135666E-1,-5.6166154E-1,1.3035964E0,2.0493142E-1,-7.908895E-1,1.5693947E0,4.04767E-1,-1.4165107E0,-9.74356E-2,-2.8126103E-1,-1.9541987E0,-1.8860088E-1,6.466951E-2],"categories":[],"categories_nodes":[],"categories_segments":[],"categories_sizes":[],"default_left":[1,1,1,0,1,0,0,1,1,0,0,0,0],"id":87,"left_children":[1,3,5,-1,7,-1,-1,9,11,-1,-1,-1,-1],"loss_changes":[7.0588066E1,1.5564167E1,1.3270226E0,0E0,2.6688309E1,0E0,0E0,1.57491455E1,6.767434E-1,0E0,0E0,0E0,0E0],"parents":[2147483647,0,0,1,1,2,2,4,4,7,7,8,8],"right_children":[2,4,6,-1,8,-1,-1,10,12,-1,-1,-1,-1],"split_conditions":[3.5E0,7.68E2,5E-1,1.7816717E-2,1.45E1,1.3644302E-1,3.5190403E-2,5E-1,5.05E-5,-2.4452806E-2,-1.6989784E-1,-1.6396942E-2,5.622361E-3],"split_indices":[1,9,2,0,0,0,0,1,15,0,0,0,0],"split_type":[0,0,0,0,0,0,0,0,0,0,0,0,0],"sum_hessian":[9.2E1,7.3E1,1.9E1,1.7E1,5.6E1,1E1,9E0,2.5E1,3.1E1,1.2E1,1.3E1,1.9E1,1.2E1],"tree_param":{"num_deleted":"0","num_feature":"51","num_nodes":"13","size_leaf_vector":"0"}},{"base_weights":[1.6850549E-1,9.59085E-1,-5.2805703E-2,-2.2831626E-1,6.5047747E-1,4.7724154E-2,-7.214128E-1,2.699533E-1,-3.2881257E-1,-1.433478E-1,4.7312057E-1],"categories":[],"categories_nodes":[],"categories_segments":[],"categories_sizes":[],"default_left":[0,0,1,0,0,1,0,0,0,0,0],"id":88,"left_children":[1,-1,3,5,-1,7,-1,9,-1,-1,-1],"loss_changes":[1.774995E1,0E0,1.1705941E1,1.036554E1,0E0,5.329137E0,0E0,3.8326728E0,0E0,0E0,0E0],"parents":[2147483647,0,0,2,2,3,3,5,5,7,7],"right_children":[2,-1,4,6,-1,8,-1,10,-1,-1,-1],"split_conditions":[5.12E3,8.3382756E-2,7.68E2,3.84E2,5.6552447E-2,1.75E1,-6.271955E-2,6.5536E4,-2.8586932E-2,-1.2462644E-2,4.1133057E-2],"split_indices":[23,0,24,24,0,0,0,23,0,0,0],"split_type":[0,0,0,0,0,0,0,0,0,0,0],"sum_hessian":[9.1E1,1.4E1,7.7E1,6.6E1,1.1E1,4.7E1,1.9E1,3.1E1,1.6E1,1.1E1,2E1],"tree_param":{"num_deleted":"0","num_feature":"51","num_nodes":"11","size_leaf_vector":"0"}},{"base_weights":[-3.0476475E-1,9.833782E-1,-6.328427E-1,-1.2990329E0,-1.5848574E-1,-5.2393025E-1,-1.792613E0,-3.9224222E-1,2.67703E-1,-6.084905E-1,2.1205823E-1,3.544056E-1,5.4128643E-2,-7.209781E-1,-1.6167587E-1],"categories":[],"categories_nodes":[],"categories_segments":[],"categories_sizes":[],"default_left":[1,0,1,0,1,0,0,0,0,0,0,0,0,0,0],"id":89,"left_children":[1,-1,3,5,7,-1,-1,9,11,13,-1,-1,-1,-1,-1],"loss_changes":[4.8609154E1,0E0,2.5854687E1,5.8187866E0,6.8376727E0,0E0,0E0,6.546746E0,3.2733476E-1,7.183523E-1,0E0,0E0,0E0,0E0,0E0],"parents":[2147483647,0,0,2,2,3,3,4,4,7,7,8,8,9,9],"right_children":[2,-1,4,6,8,-1,-1,10,12,14,-1,-1,-1,-1,-1],"split_conditions":[3.84E2,8.54948E-2,1.6E2,1.024E4,1.2E1,-4.5550443E-2,-1.558496E-1,7.68E2,5.5E0,1.31072E5,1.8436322E-2,3.081199E-2,4.705939E-3,-6.2681764E-2,-1.4056084E-2],"split_indices":[12,0,24,30,7,0,0,24,26,30,0,0,0,0,0],"split_type":[0,0,0,0,0,0,0,0,0,0,0,0,0,0,0],"sum_hessian":[9.5E1,1.6E1,7.9E1,2.7E1,5.2E1,1.7E1,1E1,3.4E1,1.8E1,2.5E1,9E0,9E0,9E0,1.6E1,9E0],"tree_param":{"num_deleted":"0","num_feature":"51","num_nodes":"15","size_leaf_vector":"0"}},{"base_weights":[-1.824976E-2,-5.080311E-1,4.6506357E-1,3.5642275E-1,-7.555553E-1,1.1921358E0,-4.1124234E-1,-8.787587E-1,-1.9208862E-1,1.7017213E0,6.458466E-2,-5.199223E-1,-1.2811436E-1],"categories":[],"categories_nodes":[],"categories_segments":[],"categories_sizes":[],"default_left":[1,0,1,0,1,1,1,0,0,0,0,0,0],"id":90,"left_children":[1,3,5,-1,7,9,11,-1,-1,-1,-1,-1,-1],"loss_changes":[2.4898043E1,1.3328778E1,3.7801636E1,0E0,1.6234627E0,1.697573E1,3.8580275E-1,0E0,0E0,0E0,0E0,0E0,0E0],"parents":[2147483647,0,0,1,1,2,2,4,4,5,5,6,6],"right_children":[2,4,6,-1,8,10,12,-1,-1,-1,-1,-1,-1],"split_conditions":[1.506784E6,5.3392E5,5E-1,3.098736E-2,9.216E3,5E-1,1.35E1,-7.63992E-2,-1.6700165E-2,1.4794748E-1,5.614984E-3,-4.5201994E-2,-1.1138249E-2],"split_indices":[35,35,48,0,12,29,4,0,0,0,0,0,0],"split_type":[0,0,0,0,0,0,0,0,0,0,0,0,0],"sum_hessian":[8.9E1,4.4E1,4.5E1,9E0,3.5E1,2.3E1,2.2E1,2.5E1,1E1,1.3E1,1E1,1.1E1,1.1E1],"tree_param":{"num_deleted":"0","num_feature":"51","num_nodes":"13","size_leaf_vector":"0"}},{"base_weights":[5.1775817E-2,7.9291695E-1,-5.2637815E-1,1.8828105E0,-6.9711104E-2,-1.3974977E0,-2.7125759E-2,-2.4674597E-1,2.2309043E-1,-5.521109E-1,2.7970973E-1,5.744574E-1,-1.7166361E-1],"categories":[],"categories_nodes":[],"categories_segments":[],"categories_sizes":[],"default_left":[0,1,1,0,0,0,0,0,0,0,1,0,0],"id":91,"left_children":[1,3,5,-1,7,-1,9,-1,-1,-1,11,-1,-1],"loss_changes":[4.6271397E1,4.5345432E1,2.6262903E1,0E0,2.213278E0,0E0,8.83762E0,0E0,0E0,0E0,5.4685645E0,0E0,0E0],"parents":[2147483647,0,0,1,1,2,2,4,4,6,6,10,10],"right_children":[2,4,6,-1,8,-1,10,-1,-1,-1,12,-1,-1],"split_conditions":[1.1164992E7,2.304E3,5E-1,1.6369136E-1,8.48416E5,-1.2149831E-1,1.9659968E7,-2.1452071E-2,1.939546E-2,-4.800047E-2,2E0,4.994327E-2,-1.4924417E-2],"split_indices":[35,30,41,0,35,0,35,0,0,0,1,0,0],"split_type":[0,0,0,0,0,0,0,0,0,0,0,0,0],"sum_hessian":[9.2E1,3.9E1,5.3E1,1.3E1,2.6E1,1.4E1,3.9E1,1.7E1,9E0,1.2E1,2.7E1,1.5E1,1.2E1],"tree_param":{"num_deleted":"0","num_feature":"51","num_nodes":"13","size_leaf_vector":"0"}},{"base_weights":[2.9217663E-1,-1.4180592E-1,2.4884653E0,1.0063975E-1,-4.7919834E-1,4.3311077E-1,-4.7377253E-1,-8.0130553E-1,9.451905E-2,7.178285E-1,-1.3910049E-1,-6.353198E-1,-6.885914E-2,-2.0583665E-1,-9.849572E-1,1.0825059E-1,9.173367E-1],"categories":[],"categories_nodes":[],"categories_segments":[],"categories_sizes":[],"default_left":[0,1,0,1,1,1,0,1,0,1,0,0,0,0,0,0,0],"id":92,"left_children":[1,3,-1,5,7,9,11,13,-1,15,-1,-1,-1,-1,-1,-1,-1],"loss_changes":[1.1066009E2,8.742591E0,0E0,1.42846E1,8.763516E0,8.319567E0,1.4826813E0,1.5386524E0,0E0,3.0979958E0,0E0,0E0,0E0,0E0,0E0,0E0,0E0],"parents":[2147483647,0,0,1,1,3,3,4,4,5,5,6,6,7,7,9,9],"right_children":[2,4,-1,6,8,10,12,14,-1,16,-1,-1,-1,-1,-1,-1,-1],"split_conditions":[2.000001E0,2.5E7,2.1634693E-1,5E-1,1.2E1,1.5E0,2.5E0,1.536E3,8.217476E-3,7.68E2,-1.2093383E-2,-5.5234645E-2,-5.9866067E-3,-1.789542E-2,-8.5632086E-2,9.411296E-3,7.975316E-2],"split_indices":[29,8,0,48,7,26,26,12,0,12,0,0,0,0,0,0,0],"split_type":[0,0,0,0,0,0,0,0,0,0,0,0,0,0,0,0,0],"sum_hessian":[1.05E2,9.4E1,1.1E1,5.8E1,3.6E1,3.8E1,2E1,2.1E1,1.5E1,2.4E1,1.4E1,1.1E1,9E0,9E0,1.2E1,9E0,1.5E1],"tree_param":{"num_deleted":"0","num_feature":"51","num_nodes":"17","size_leaf_vector":"0"}},{"base_weights":[1.6849527E-1,1.6720825E0,-2.4702597E-1,1.4633234E-1,-1.3174168E0,6.8870986E-1,-3.060142E-1,1.038725E0,2.4908286E-1,-6.4153457E-1,-2.5697403E-2,1.9260754E-1,-3.340602E-1],"categories":[],"categories_nodes":[],"categories_segments":[],"categories_sizes":[],"default_left":[1,0,0,1,0,1,0,0,0,0,0,0,0],"id":93,"left_children":[1,-1,3,5,-1,7,9,-1,-1,-1,11,-1,-1],"loss_changes":[7.2757576E1,0E0,4.1182335E1,2.0377195E1,0E0,3.611496E0,4.295179E0,0E0,0E0,0E0,2.81659E0,0E0,0E0],"parents":[2147483647,0,0,2,2,3,3,5,5,6,6,10,10],"right_children":[2,-1,4,6,-1,8,10,-1,-1,-1,12,-1,-1],"split_conditions":[5E-1,1.4537069E-1,1.31072E5,3.5E2,-1.14536084E-1,1.5E0,1.5E0,9.030665E-2,2.165524E-2,-5.5774953E-2,4E0,1.674528E-2,-2.904316E-2],"split_indices":[38,0,30,11,0,26,26,0,0,0,26,0,0],"split_type":[0,0,0,0,0,0,0,0,0,0,0,0,0],"sum_hessian":[1.03E2,1.7E1,8.6E1,6.8E1,1.8E1,2.9E1,3.9E1,1E1,1.9E1,1.3E1,2.6E1,1.7E1,9E0],"tree_param":{"num_deleted":"0","num_feature":"51","num_nodes":"13","size_leaf_vector":"0"}},{"base_weights":[4.2842808E-1,1.6133137E0,-9.1499455E-2,3.213568E0,-2.0607273E-1,-2.3559807E-1,3.3443683E-1,-1.1148535E-1,-5.3840536E-1,-2.5956956E-1,2.1811587E-1,-6.9034204E-2,-4.1527745E-1,1.3889363E-1,-2.808338E-1],"categories":[],"categories_nodes":[],"categories_segments":[],"categories_sizes":[],"default_left":[1,1,0,0,0,0,0,0,0,0,0,1,0,0,0],"id":94,"left_children":[1,3,5,-1,-1,7,-1,9,-1,11,-1,13,-1,-1,-1],"loss_changes":[6.717559E1,1.0173022E2,5.6767964E0,0E0,0E0,1.9971082E0,0E0,3.2453892E0,0E0,1.045774E0,0E0,1.5974984E0,0E0,0E0,0E0],"parents":[2147483647,0,0,1,1,2,2,5,5,7,7,9,9,11,11],"right_children":[2,4,6,-1,-1,8,-1,10,-1,12,-1,14,-1,-1,-1],"split_conditions":[1.28E3,5E-1,1.4441709E8,2.793873E-1,-1.7915944E-2,4.5116416E7,2.9075906E-2,1.2509632E7,-4.680891E-2,6.144E3,1.8962972E-2,3E0,-3.610418E-2,1.2075399E-2,-2.4415664E-2],"split_indices":[30,2,35,0,0,35,0,35,0,30,0,33,0,0,0],"split_type":[0,0,0,0,0,0,0,0,0,0,0,0,0,0,0],"sum_hessian":[9.9E1,2.5E1,7.4E1,1E1,1.5E1,5.8E1,1.6E1,4.9E1,9E0,3.5E1,1.4E1,2.1E1,1.4E1,1.2E1,9E0],"tree_param":{"num_deleted":"0","num_feature":"51","num_nodes":"15","size_leaf_vector":"0"}},{"base_weights":[2.8053838E-1,5.299177E-1,-1.1415367E0,1.5592976E0,6.143303E-2,2.2344303E0,2.7115641E-2,2.7483168E-1,-2.3297997E-1,4.344934E-1,-8.106052E-2,-4.764549E-1,1.4063892E-1,7.920533E-2,5.604827E-1],"categories":[],"categories_nodes":[],"categories_segments":[],"categories_sizes":[],"default_left":[1,1,0,1,0,0,0,1,1,1,0,0,0,0,0],"id":95,"left_children":[1,3,-1,5,7,-1,-1,9,11,13,-1,-1,-1,-1,-1],"loss_changes":[4.1814407E1,4.460047E1,0E0,2.9605576E1,5.1110935E0,0E0,0E0,2.9050918E0,3.735822E0,1.1211348E0,0E0,0E0,0E0,0E0,0E0],"parents":[2147483647,0,0,1,1,3,3,4,4,7,7,8,8,9,9],"right_children":[2,4,-1,6,8,-1,-1,10,12,14,-1,-1,-1,-1,-1],"split_conditions":[1.3E8,5E-1,-9.924509E-2,9.216E3,6.144E3,1.9426115E-1,2.3574312E-3,2.45E1,1E1,1.8E1,-7.047394E-3,-4.1422945E-2,1.2227134E-2,6.886103E-3,4.872831E-2],"split_indices":[8,37,0,30,30,0,0,0,7,0,0,0,0,0,0],"split_type":[0,0,0,0,0,0,0,0,0,0,0,0,0,0,0],"sum_hessian":[9.6E1,8.6E1,1E1,2.1E1,6.5E1,1.2E1,9E0,3.8E1,2.7E1,2.5E1,1.3E1,1.5E1,1.2E1,1E1,1.5E1],"tree_param":{"num_deleted":"0","num_feature":"51","num_nodes":"15","size_leaf_vector":"0"}},{"base_weights":[-2.6782864E-1,-1.1500523E0,-9.5001457E-4,-1.5823689E-1,7.5465685E-1,1.48978E-1,-3.6825562E-1,7.375779E-1,-2.9397124E-1,-6.403271E-1,3.0933222E-1,-3.6940238E-1,-1.0171629E-1,-8.96198E-1,7.558804E-3],"categories":[],"categories_nodes":[],"categories_segments":[],"categories_sizes":[],"default_left":[1,0,0,1,0,1,1,0,1,1,0,0,0,0,0],"id":96,"left_children":[1,-1,3,5,-1,7,9,-1,11,13,-1,-1,-1,-1,-1],"loss_changes":[2.544075E1,0E0,1.1792823E1,5.741588E0,0E0,1.1949988E1,1.1024403E1,0E0,1.0253239E-1,6.5375576E0,0E0,0E0,0E0,0E0,0E0],"parents":[2147483647,0,0,2,2,3,3,5,5,6,6,8,8,9,9],"right_children":[2,-1,4,6,-1,8,10,-1,12,14,-1,-1,-1,-1,-1],"split_conditions":[5E-1,-9.9985436E-2,1.2000001E1,1.25E1,6.560979E-2,5E-1,1.55E1,6.412495E-2,1.45E1,2.4E1,2.6893312E-2,-3.2115806E-2,-8.843204E-3,-7.791536E-2,6.571617E-4],"split_indices":[41,0,26,0,0,48,4,0,4,0,0,0,0,0,0],"split_type":[0,0,0,0,0,0,0,0,0,0,0,0,0,0,0],"sum_hessian":[1E2,1.7E1,8.3E1,7.4E1,9E0,3.1E1,4.3E1,1.1E1,2E1,3.1E1,1.2E1,9E0,1.1E1,2E1,1.1E1],"tree_param":{"num_deleted":"0","num_feature":"51","num_nodes":"15","size_leaf_vector":"0"}},{"base_weights":[-3.1251255E-2,9.3204415E-1,-3.9753354E-1,1.9511504E0,-4.1181993E-1,-1.350436E0,-1.0967751E-1,-2.1168242E-1,2.8368542E-1,3.2609332E-2,-5.0804543E-1,3.04215E-1,-4.0918896E-1],"categories":[],"categories_nodes":[],"categories_segments":[],"categories_sizes":[],"default_left":[1,1,1,0,0,0,1,1,0,1,0,0,0],"id":97,"left_children":[1,3,5,-1,-1,-1,7,9,-1,11,-1,-1,-1],"loss_changes":[3.972922E1,4.909848E1,2.104353E1,0E0,0E0,0E0,3.3389664E0,4.558253E0,0E0,5.9393816E0,0E0,0E0,0E0],"parents":[2147483647,0,0,1,1,2,2,6,6,7,7,9,9],"right_children":[2,4,6,-1,-1,-1,8,10,-1,12,-1,-1,-1],"split_conditions":[7.68E2,5E-1,1.15E1,1.6963282E-1,-3.5803586E-2,-1.1740677E-1,2.65E1,1.5E0,2.4663582E-2,1.35E1,-4.416942E-2,2.6448423E-2,-3.5574846E-2],"split_indices":[12,2,4,0,0,0,4,26,0,4,0,0,0],"split_type":[0,0,0,0,0,0,0,0,0,0,0,0,0],"sum_hessian":[9.6E1,2.3E1,7.3E1,1.1E1,1.2E1,1E1,6.3E1,5.3E1,1E1,3.3E1,2E1,2.2E1,1.1E1],"tree_param":{"num_deleted":"0","num_feature":"51","num_nodes":"13","size_leaf_vector":"0"}},{"base_weights":[1.8198279E-1,1.7506562E0,-1.5101142E-1,1.5735395E-1,-7.007567E-1,-2.8945842E-1,1.6795714E0,1.3429363E-2,-1.4566375E0,2.0074692E-1,-4.053728E-1,-1.3875616E-1,1.6823936E-1,-4.8281197E-2,-5.2629554E-1,-8.078923E-2,-7.579128E-1],"categories":[],"categories_nodes":[],"categories_segments":[],"categories_sizes":[],"default_left":[1,0,1,0,0,1,0,1,0,0,0,0,0,0,1,0,0],"id":98,"left_children":[1,-1,3,5,7,9,-1,11,-1,-1,13,-1,-1,-1,15,-1,-1],"loss_changes":[6.0175983E1,0E0,1.7692972E1,5.1615482E1,2.0187288E1,4.13095E0,0E0,8.274952E-1,0E0,0E0,2.0430164E0,0E0,0E0,0E0,3.4341516E0,0E0,0E0],"parents":[2147483647,0,0,2,2,3,3,4,4,5,5,7,7,10,10,14,14],"right_children":[2,-1,4,6,8,10,-1,12,-1,-1,14,-1,-1,-1,16,-1,-1],"split_conditions":[2.0195E3,1.5220188E-1,2.0215E3,1.0000001E1,1.2583418E8,5E-1,1.4602177E-1,5.05E-2,-1.2663992E-1,1.7452918E-2,8.48416E5,-1.2063446E-2,1.4626713E-2,-4.1975626E-3,5.5E-2,-7.0238076E-3,-6.589287E-2],"split_indices":[20,0,20,26,35,42,0,14,0,0,35,0,0,0,14,0,0],"split_type":[0,0,0,0,0,0,0,0,0,0,0,0,0,0,0,0,0],"sum_hessian":[1.03E2,1.2E1,9.1E1,6.2E1,2.9E1,5.3E1,9E0,1.9E1,1E1,9E0,4.4E1,1E1,9E0,1.4E1,3E1,1.4E1,1.6E1],"tree_param":{"num_deleted":"0","num_feature":"51","num_nodes":"17","size_leaf_vector":"0"}},{"base_weights":[-1.3020432E-1,-1.9524885E0,3.043092E-1,1.6036624E0,-1.6746777E-1,3.035997E0,-5.881051E-1,-6.396022E-3,-4.4646868E-1,-1.4544016E-1,1.4768109E-1,-5.902038E-1,-1.02884516E-1,-1.9807768E-1,-5.0867002E-2,2.5932914E-1,-4.8474275E-2],"categories":[],"categories_nodes":[],"categories_segments":[],"categories_sizes":[],"default_left":[1,0,1,1,1,0,0,1,1,1,1,0,0,0,0,0,0],"id":99,"left_children":[1,-1,3,5,7,-1,-1,9,11,13,15,-1,-1,-1,-1,-1,-1],"loss_changes":[9.119805E1,0E0,6.0472157E1,9.639158E1,3.4409332E0,0E0,0E0,1.3971597E0,8.948984E-1,8.779514E-2,7.8314835E-1,0E0,0E0,0E0,0E0,0E0,0E0],"parents":[2147483647,0,0,2,2,3,3,4,4,7,7,8,8,9,9,10,10],"right_children":[2,-1,4,6,8,-1,-1,10,12,14,16,-1,-1,-1,-1,-1,-1],"split_conditions":[5E-1,-1.6974916E-1,1.28E3,5E-1,7E2,2.6394928E-1,-5.11298E-2,5E-1,5E0,3.5E2,1.536E3,-5.131226E-2,-8.944769E-3,-1.7220853E-2,-4.422372E-3,2.254605E-2,-4.2143487E-3],"split_indices":[41,0,30,2,11,0,0,1,5,11,12,0,0,0,0,0,0],"split_type":[0,0,0,0,0,0,0,0,0,0,0,0,0,0,0,0,0],"sum_hessian":[1.01E2,1.4E1,8.7E1,1.8E1,6.9E1,9E0,9E0,4.9E1,2E1,2.6E1,2.3E1,1E1,1E1,1.1E1,1.5E1,1.3E1,1E1],"tree_param":{"num_deleted":"0","num_feature":"51","num_nodes":"17","size_leaf_vector":"0"}},{"base_weights":[4.569395E-1,-1.5632652E-1,7.106361E-1,-4.5160285E-1,2.0953311E-1,9.108227E-1,-3.9974442E-1,1.4004816E0,5.4511124E-1,2.1140784E-2,8.0128294E-1,-2.2463344E-2,1.2569088E0],"categories":[],"categories_nodes":[],"categories_segments":[],"categories_sizes":[],"default_left":[1,1,1,0,0,1,0,0,1,0,0,0,0],"id":100,"left_children":[1,3,5,-1,-1,7,-1,-1,9,-1,11,-1,-1],"loss_changes":[1.7096268E1,4.7742543E0,1.9642048E1,0E0,0E0,5.651642E0,0E0,0E0,6.720311E0,0E0,1.302796E1,0E0,0E0],"parents":[2147483647,0,0,1,1,2,2,5,5,8,8,10,10],"right_children":[2,4,6,-1,-1,8,-1,-1,10,-1,12,-1,-1],"split_conditions":[5E-1,1.536E3,4E0,-3.9262306E-2,1.8216789E-2,7.68E2,-3.475374E-2,1.2175773E-1,5E-1,1.8379777E-3,1.5E0,-1.9529609E-3,1.0927553E-1],"split_indices":[1,12,26,0,0,12,0,0,41,0,26,0,0],"split_type":[0,0,0,0,0,0,0,0,0,0,0,0,0],"sum_hessian":[9.6E1,2.9E1,6.7E1,1.5E1,1.4E1,5.8E1,9E0,1.5E1,4.3E1,1.7E1,2.6E1,1.2E1,1.4E1],"tree_param":{"num_deleted":"0","num_feature":"51","num_nodes":"13","size_leaf_vector":"0"}},{"base_weights":[-1.6472037E-1,2.4302237E-1,-9.195994E-1,-5.3632957E-1,6.6485196E-1,-1.1639883E-1,-1.5851456E0,1.1193832E0,4.086806E-2,4.4427335E-1,-3.1871575E-1],"categories":[],"categories_nodes":[],"categories_segments":[],"categories_sizes":[],"default_left":[1,1,0,0,1,0,0,0,1,0,0],"id":101,"left_children":[1,3,5,-1,7,-1,-1,-1,9,-1,-1],"loss_changes":[3.2004803E1,2.5932549E1,1.7800106E1,0E0,1.3552992E1,0E0,0E0,0E0,5.3676486E0,0E0,0E0],"parents":[2147483647,0,0,1,1,2,2,4,4,8,8],"right_children":[2,4,6,-1,8,-1,-1,-1,10,-1,-1],"split_conditions":[8.5E7,5E-1,8.192E3,-4.6628438E-2,1.5E0,-1.0119703E-2,-1.378124E-1,9.731907E-2,2E0,3.862508E-2,-2.7709115E-2],"split_indices":[8,1,25,0,26,0,0,0,1,0,0],"split_type":[0,0,0,0,0,0,0,0,0,0,0],"sum_hessian":[9E1,6.2E1,2.8E1,2.1E1,4.1E1,1.7E1,1.1E1,2E1,2.1E1,9E0,1.2E1],"tree_param":{"num_deleted":"0","num_feature":"51","num_nodes":"11","size_leaf_vector":"0"}},{"base_weights":[3.8909245E-1,1.4255481E0,1.0618103E-1,2.5963354E-1,-1.2598427E-1,4.3759102E-1,-3.7427044E-1,-3.6364782E-1,8.134845E-2,5.92277E-1,5.5762727E-2],"categories":[],"categories_nodes":[],"categories_segments":[],"categories_sizes":[],"default_left":[1,0,1,1,1,1,0,0,0,0,0],"id":102,"left_children":[1,-1,3,5,7,9,-1,-1,-1,-1,-1],"loss_changes":[2.98826E1,0E0,3.5461707E0,7.8801985E0,2.3143358E0,2.6315098E0,0E0,0E0,0E0,0E0,0E0],"parents":[2147483647,0,0,2,2,3,3,4,4,5,5],"right_children":[2,-1,4,6,8,10,-1,-1,-1,-1,-1],"split_conditions":[5E-1,1.2393701E-1,5E-1,2.5E0,5E-1,2.5E7,-3.2539036E-2,-3.1615507E-2,7.072426E-3,5.1492505E-2,4.848006E-3],"split_indices":[28,0,48,26,3,8,0,0,0,0,0],"split_type":[0,0,0,0,0,0,0,0,0,0,0],"sum_hessian":[9.8E1,1.4E1,8.4E1,5E1,3.4E1,4.1E1,9E0,1.3E1,2.1E1,2.6E1,1.5E1],"tree_param":{"num_deleted":"0","num_feature":"51","num_nodes":"11","size_leaf_vector":"0"}},{"base_weights":[-1.2019772E-1,7.616903E-1,-4.239119E-1,1.3425469E0,-2.5618768E-1,-2.0603037E-1,-7.45233E-1,-3.799362E-1,4.4511255E-2,-4.6451792E-1,-1.6209236E-1,-2.5250733E-1,3.3844557E-1],"categories":[],"categories_nodes":[],"categories_segments":[],"categories_sizes":[],"default_left":[1,1,0,0,0,1,0,1,0,0,0,0,0],"id":103,"left_children":[1,3,5,-1,-1,7,-1,9,11,-1,-1,-1,-1],"loss_changes":[3.2102962E1,2.1172966E1,4.853011E0,0E0,0E0,2.8866336E0,0E0,9.135866E-2,3.5817153E0,0E0,0E0,0E0,0E0],"parents":[2147483647,0,0,1,1,2,2,5,5,7,7,8,8],"right_children":[2,4,6,-1,-1,8,-1,10,12,-1,-1,-1,-1],"split_conditions":[1.28E3,5E-1,1.2288E4,1.167209E-1,-2.2272931E-2,5E-1,-6.479048E-2,5E-1,3.072E3,-4.0385142E-2,-1.4092294E-2,-2.1952963E-2,2.9424425E-2],"split_indices":[30,2,30,0,0,1,0,3,25,0,0,0,0],"split_type":[0,0,0,0,0,0,0,0,0,0,0,0,0],"sum_hessian":[1.02E2,2.3E1,7.9E1,1.3E1,1E1,5.5E1,2.4E1,3E1,2.5E1,1.5E1,1.5E1,1.3E1,1.2E1],"tree_param":{"num_deleted":"0","num_feature":"51","num_nodes":"13","size_leaf_vector":"0"}},{"base_weights":[-1.3081785E-1,4.418313E-1,-3.8436463E-1,1.0441159E0,-1.349689E-1,-6.070102E-1,1.9136465E-1,-2.2447653E-1,-6.9101214E-1,2.7338084E-2,2.606236E-1],"categories":[],"categories_nodes":[],"categories_segments":[],"categories_sizes":[],"default_left":[1,1,1,0,0,0,0,0,0,0,0],"id":104,"left_children":[1,3,5,-1,-1,7,9,-1,-1,-1,-1],"loss_changes":[1.6199015E1,1.3335333E1,1.0567522E1,0E0,0E0,5.452213E-1,2.4972963E-1,0E0,0E0,0E0,0E0],"parents":[2147483647,0,0,1,1,2,2,5,5,6,6],"right_children":[2,4,6,-1,-1,8,10,-1,-1,-1,-1],"split_conditions":[7.68E2,5E-1,1.2E1,9.077533E-2,-1.1734183E-2,5E-1,4E0,-1.9515967E-2,-6.0076527E-2,2.3767704E-3,2.265859E-2],"split_indices":[12,29,7,0,0,29,26,0,0,0,0],"split_type":[0,0,0,0,0,0,0,0,0,0,0],"sum_hessian":[9.4E1,2.7E1,6.7E1,1E1,1.7E1,4.8E1,1.9E1,1.4E1,3.4E1,9E0,1E1],"tree_param":{"num_deleted":"0","num_feature":"51","num_nodes":"11","size_leaf_vector":"0"}},{"base_weights":[-1.37112E-1,8.6690344E-2,-1.1817621E0,-2.5327495E-1,1.940754E-1,2.724196E-1,-9.713698E-2,-1.8150519E-1,3.9892983E-1,1.2774831E-1,5.5372256E-1,2.0169571E-1,1.3295736E-2,6.553057E-2,8.480261E-1],"categories":[],"categories_nodes":[],"categories_segments":[],"categories_sizes":[],"default_left":[0,0,0,0,1,1,0,0,0,1,0,0,0,0,0],"id":105,"left_children":[1,3,-1,-1,5,7,-1,-1,9,11,13,-1,-1,-1,-1],"loss_changes":[2.5402494E1,3.8331969E0,0E0,0E0,1.9506872E0,4.1526823E0,0E0,0E0,1.5711384E0,2.2424373E-1,3.873025E0,0E0,0E0,0E0,0E0],"parents":[2147483647,0,0,1,1,4,4,5,5,8,8,9,9,10,10],"right_children":[2,4,-1,-1,6,8,-1,-1,10,12,14,-1,-1,-1,-1],"split_conditions":[2.000001E0,1.2288E4,-1.0274228E-1,-2.20197E-2,2.5E0,1.5E0,-8.445079E-3,-1.5780043E-2,1.5E0,5E-1,5E-1,1.7535405E-2,1.15593E-3,5.697221E-3,7.37273E-2],"split_indices":[29,23,0,0,26,13,0,0,26,21,29,0,0,0,0],"split_type":[0,0,0,0,0,0,0,0,0,0,0,0,0,0,0],"sum_hessian":[9.7E1,8.6E1,1.1E1,1.8E1,6.8E1,5.4E1,1.4E1,1.1E1,4.3E1,2.1E1,2.2E1,9E0,1.2E1,1.2E1,1E1],"tree_param":{"num_deleted":"0","num_feature":"51","num_nodes":"15","size_leaf_vector":"0"}},{"base_weights":[-5.990142E-3,9.65027E-1,-2.7479854E-1,2.3747078E-1,-4.212583E-1,-1.0684677E-1,4.6940276E-1,-9.536237E-1,-1.8916814E-1,2.3241244E-1,-3.4774113E-1],"categories":[],"categories_nodes":[],"categories_segments":[],"categories_sizes":[],"default_left":[1,0,1,1,1,0,0,0,0,0,0],"id":106,"left_children":[1,-1,3,5,7,-1,-1,-1,9,-1,-1],"loss_changes":[3.1405895E1,0E0,7.8701854E0,2.4907718E0,7.9399605E0,0E0,0E0,0E0,4.872782E0,0E0,0E0],"parents":[2147483647,0,0,2,2,3,3,4,4,8,8],"right_children":[2,-1,4,6,8,-1,-1,-1,10,-1,-1],"split_conditions":[3.84E2,8.389935E-2,7.68E2,1.536E3,1.536E3,-9.289248E-3,4.080983E-2,-8.290795E-2,1.5E0,2.0205915E-2,-3.0232579E-2],"split_indices":[12,0,9,12,9,0,0,0,28,0,0],"split_type":[0,0,0,0,0,0,0,0,0,0,0],"sum_hessian":[1.04E2,1.8E1,8.6E1,1.8E1,6.8E1,9E0,9E0,1.3E1,5.5E1,1.4E1,4.1E1],"tree_param":{"num_deleted":"0","num_feature":"51","num_nodes":"11","size_leaf_vector":"0"}},{"base_weights":[-1.0796425E-1,1.4886861E0,-4.2605302E-1,-1.4954143E0,-1.5126474E-1,-3.2949206E-1,5.483131E-1,-1.2954806E-1,-8.6445624E-1,-2.6181197E-1,1.3404638E-1,-6.2014766E-2,-3.2473883E-1],"categories":[],"categories_nodes":[],"categories_segments":[],"categories_sizes":[],"default_left":[0,0,1,0,0,0,0,1,0,0,0,0,0],"id":107,"left_children":[1,-1,3,-1,5,7,-1,9,-1,11,-1,-1,-1],"loss_changes":[5.4956055E1,0E0,2.405324E1,0E0,1.1324868E1,6.3756504E0,0E0,2.344757E0,0E0,3.656466E-1,0E0,0E0,0E0],"parents":[2147483647,0,0,2,2,4,4,5,5,7,7,9,9],"right_children":[2,-1,4,-1,6,8,-1,10,-1,12,-1,-1,-1],"split_conditions":[1.536E3,1.2942623E-1,5E-1,-1.3001117E-1,5.5E0,4.096E4,4.7670286E-2,5.05E-5,-7.515574E-2,3.2768E4,1.1653978E-2,-5.3915577E-3,-2.8232763E-2],"split_indices":[23,0,41,0,26,30,0,15,0,23,0,0,0],"split_type":[0,0,0,0,0,0,0,0,0,0,0,0,0],"sum_hessian":[9E1,1E1,8E1,9E0,7.1E1,6E1,1.1E1,5.1E1,9E0,3.4E1,1.7E1,1.2E1,2.2E1],"tree_param":{"num_deleted":"0","num_feature":"51","num_nodes":"13","size_leaf_vector":"0"}},{"base_weights":[2.1528511E-1,-7.333632E-1,4.8004147E-1,-1.8795353E0,7.408686E-1,1.8994384E0,-1.3813125E-1,2.469939E0,3.291523E-1,3.6504206E-1,-2.7488905E-1,-4.9313515E-1,3.6944266E-2,-1.9655961E-1,-6.892445E-1,-1.0672985E-1,2.0386113E-1],"categories":[],"categories_nodes":[],"categories_segments":[],"categories_sizes":[],"default_left":[1,1,1,0,0,1,1,0,0,0,1,1,1,0,0,0,0],"id":108,"left_children":[1,3,5,-1,-1,7,9,-1,-1,-1,11,13,15,-1,-1,-1,-1],"loss_changes":[3.1507254E1,5.8754982E1,8.469152E1,0E0,0E0,1.9479813E1,5.8425093E0,0E0,0E0,0E0,4.3743296E0,1.0593195E0,9.7006714E-1,0E0,0E0,0E0,0E0],"parents":[2147483647,0,0,1,1,2,2,5,5,6,6,10,10,11,11,12,12],"right_children":[2,4,6,-1,-1,8,10,-1,-1,-1,12,14,16,-1,-1,-1,-1],"split_conditions":[5E-1,5E-1,1.5E0,-1.6340661E-1,6.4411044E-2,5E-1,1.5E2,2.1473625E-1,2.8616467E-2,3.173672E-2,5E0,6E2,1.15E1,-1.7088873E-2,-5.9922848E-2,-9.2790825E-3,1.7723667E-2],"split_indices":[41,28,28,0,0,37,11,0,0,0,5,11,5,0,0,0,0],"split_type":[0,0,0,0,0,0,0,0,0,0,0,0,0,0,0,0,0],"sum_hessian":[1.06E2,2E1,8.6E1,1E1,1E1,2.1E1,6.5E1,1.2E1,9E0,1.1E1,5.4E1,2.9E1,2.5E1,1.8E1,1.1E1,1.5E1,1E1],"tree_param":{"num_deleted":"0","num_feature":"51","num_nodes":"17","size_leaf_vector":"0"}},{"base_weights":[2.54751E-1,1.4174353E0,-8.909685E-2,1.6637427E-1,-8.6691004E-1,-2.126236E-1,