{"learner":{"attributes":{"best_iteration":"299","best_ntree_limit":"300"},"feature_names":["objective","ssl_mode","architecture","family","patch_size","n_parameters","z_dim","epochs","optimizer","learning_rate","pretraining_data","is_aug_invariant","projection1_arch","projection2_arch","projection_nparameters","finetuning_data","nviews","n_augmentations"],"feature_types":["c","c","c","c","int","float","int","float","c","float","c","int","c","c","float","c","int","float"],"gradient_booster":{"model":{"gbtree_model_param":{"num_parallel_tree":"1","num_trees":"300","size_leaf_vector":"0"},"tree_info":[0,0,0,0,0,0,0,0,0,0,0,0,0,0,0,0,0,0,0,0,0,0,0,0,0,0,0,0,0,0,0,0,0,0,0,0,0,0,0,0,0,0,0,0,0,0,0,0,0,0,0,0,0,0,0,0,0,0,0,0,0,0,0,0,0,0,0,0,0,0,0,0,0,0,0,0,0,0,0,0,0,0,0,0,0,0,0,0,0,0,0,0,0,0,0,0,0,0,0,0,0,0,0,0,0,0,0,0,0,0,0,0,0,0,0,0,0,0,0,0,0,0,0,0,0,0,0,0,0,0,0,0,0,0,0,0,0,0,0,0,0,0,0,0,0,0,0,0,0,0,0,0,0,0,0,0,0,0,0,0,0,0,0,0,0,0,0,0,0,0,0,0,0,0,0,0,0,0,0,0,0,0,0,0,0,0,0,0,0,0,0,0,0,0,0,0,0,0,0,0,0,0,0,0,0,0,0,0,0,0,0,0,0,0,0,0,0,0,0,0,0,0,0,0,0,0,0,0,0,0,0,0,0,0,0,0,0,0,0,0,0,0,0,0,0,0,0,0,0,0,0,0,0,0,0,0,0,0,0,0,0,0,0,0,0,0,0,0,0,0,0,0,0,0,0,0,0,0,0,0,0,0,0,0,0,0,0,0,0,0,0,0,0,0,0,0,0,0,0,0],"trees":[{"base_weights":[7.118058E0,5.9989076E0,2.4227253E1,1.4191815E1,5.105143E0,3.359334E0,6.1281137E0,2.420282E0,9.015005E0,6.327246E0,1.6643624E0,3.0097415E0,1.8793318E0,3.360482E-1,6.4317703E0],"categories":[],"categories_nodes":[],"categories_segments":[],"categories_sizes":[],"default_left":[1,1,0,0,1,1,1,1,0,1,0,0,0,0,0],"id":0,"left_children":[1,3,-1,-1,5,7,9,11,-1,13,-1,-1,-1,-1,-1],"loss_changes":[1.7148306E3,5.9720654E2,0E0,0E0,1.280896E2,1.6253287E2,3.12583E1,1.2553558E0,0E0,2.9271729E1,0E0,0E0,0E0,0E0,0E0],"parents":[2147483647,0,0,1,1,4,4,5,5,6,6,7,7,9,9],"right_children":[2,4,-1,-1,6,8,10,12,-1,14,-1,-1,-1,-1,-1],"split_conditions":[4.5E0,5E-1,1.6629151E0,9.7410077E-1,5E-1,2.5E0,6E0,1.5E0,6.1877376E-1,5.4999997E-5,1.1423885E-1,2.0658326E-1,1.2899396E-1,2.3065744E-2,4.4146517E-1],"split_indices":[1,11,0,0,1,8,17,8,0,9,0,0,0,0,0],"split_type":[0,0,0,0,0,0,0,0,0,0,0,0,0,0,0],"sum_hessian":[1.01E2,9.7E1,4E0,7E0,9E1,3.6E1,5.4E1,3.3E1,3E0,5.1E1,3E0,1.2E1,2.1E1,1E0,5E1],"tree_param":{"num_deleted":"0","num_feature":"18","num_nodes":"15","size_leaf_vector":"0"}},{"base_weights":[6.957963E0,5.980449E0,1.8041365E1,7.3157535E0,3.928957E0,2.1030243E1,3.276184E-1,1.1643761E1,6.3059573E0,7.931328E0,2.7747362E0,4.343384E0,1.8622503E0,3.5428073E0,4.184491E-1,3.681977E-1,5.3329954E0,9.7500986E-1,-4.9382138E-1,9.8562753E-1,-4.2031667E-1,2.3891938E-1,6.148723E0,-6.31835E-2,1.1064118E0,1.0003604E-2,1.2458826E0],"categories":[],"categories_nodes":[],"categories_segments":[],"categories_sizes":[],"default_left":[1,1,1,0,1,0,0,0,0,0,1,0,1,1,1,1,1,1,0,0,0,0,0,0,0,0,0],"id":1,"left_children":[1,3,5,7,9,-1,-1,-1,-1,-1,11,-1,13,15,17,19,21,23,-1,-1,-1,-1,-1,-1,25,-1,-1],"loss_changes":[8.2822266E2,1.9317554E2,3.4468018E2,9.8624756E1,1.4073639E2,0E0,0E0,0E0,0E0,0E0,3.2813858E1,0E0,5.5019165E1,5.7605957E1,8.318068E0,3.5120025E0,2.5440552E1,1.4496622E0,0E0,0E0,0E0,0E0,0E0,0E0,1.3141985E0,0E0,0E0],"parents":[2147483647,0,0,1,1,2,2,3,3,4,4,10,10,12,12,13,13,14,14,15,15,16,16,17,17,24,24],"right_children":[2,4,6,8,10,-1,-1,-1,-1,-1,12,-1,14,16,18,20,22,24,-1,-1,-1,-1,-1,-1,26,-1,-1],"split_conditions":[3.5E0,2.5E7,3.25E8,1.5E0,5E-1,1.4434781E0,2.248714E-2,7.9920685E-1,4.328296E-1,5.443921E-1,7.68E2,2.9812208E-1,8.5E7,3.5E7,1.536E3,3.072E3,2.5E0,2.5E0,-3.3895012E-2,6.7651704E-2,-2.8849782E-2,1.6398998E-2,4.2203733E-1,-4.3368023E-3,2.000001E0,6.8662944E-4,8.551515E-2],"split_indices":[10,5,5,12,12,0,0,0,0,0,6,0,5,5,6,6,10,10,0,0,0,0,0,0,15,0,0],"split_type":[0,0,0,0,0,0,0,0,0,0,0,0,0,0,0,0,0,0,0,0,0,0,0,0,0,0,0],"sum_hessian":[9.2E1,8.7E1,5E0,5E1,3.7E1,4E0,1E0,6E0,4.4E1,6E0,3.1E1,9E0,2.2E1,9E0,1.3E1,4E0,5E0,8E0,5E0,2E0,2E0,1E0,4E0,1E0,7E0,1E0,6E0],"tree_param":{"num_deleted":"0","num_feature":"18","num_nodes":"27","size_leaf_vector":"0"}},{"base_weights":[5.8192987E0,1.2643175E1,4.7673492E0,1.0703785E1,4.2494645E0,5.2163258E0,2.1510532E0,6.0160856E0,2.5704582E0,4.5720515E0,8.3422005E-1,5.76503E0,6.288011E-1,-3.534586E-1,2.2390988E0,8.8124925E-1,-3.2124045E-1,1.4673528E-1,-6.1164844E-1,-6.696756E-2,2.85031E0,1.26544E-4,3.0737418E-1],"categories":[],"categories_nodes":[],"categories_segments":[],"categories_sizes":[],"default_left":[1,0,0,0,1,1,1,0,1,0,1,0,1,1,0,0,0,1,0,0,0,0,0],"id":2,"left_children":[1,-1,3,-1,5,7,9,-1,11,-1,13,-1,15,17,19,-1,-1,21,-1,-1,-1,-1,-1],"loss_changes":[5.825796E2,0E0,1.8461304E2,0E0,1.4635046E2,8.8975464E1,8.49901E1,0E0,9.131375E1,0E0,3.5973526E1,0E0,3.3063183E0,1.8006748E0,1.4054726E1,0E0,0E0,1.3500725E-1,0E0,0E0,0E0,0E0,0E0],"parents":[2147483647,0,0,2,2,4,4,5,5,6,6,8,8,10,10,12,12,13,13,14,14,17,17],"right_children":[2,-1,4,-1,6,8,10,-1,12,-1,14,-1,16,18,20,-1,-1,22,-1,-1,-1,-1,-1],"split_conditions":[1.5E0,8.678048E-1,5E-1,7.346886E-1,5E0,3E0,7.68E2,4.1293332E-1,1.5E0,3.138174E-1,1E1,3.9570132E-1,3.072E3,1.536E3,1.5E0,6.0487367E-2,-2.204937E-2,6E0,-4.198245E-2,-4.5965333E-3,1.9564018E-1,8.685753E-6,2.1097612E-2],"split_indices":[16,0,12,0,2,16,6,0,2,0,2,0,6,6,12,0,0,17,0,0,0,0,0],"split_type":[0,0,0,0,0,0,0,0,0,0,0,0,0,0,0,0,0,0,0,0,0,0,0],"sum_hessian":[9.4E1,1E1,8.4E1,4E0,8E1,5.3E1,2.7E1,3.9E1,1.4E1,8E0,1.9E1,4E0,1E1,1.1E1,8E0,8E0,2E0,4E0,7E0,2E0,6E0,3E0,1E0],"tree_param":{"num_deleted":"0","num_feature":"18","num_nodes":"23","size_leaf_vector":"0"}},{"base_weights":[6.097718E0,5.1304297E0,2.2597857E1,6.915645E0,1.9969357E0,3.2221274E0,7.8639E0,4.221222E-1,2.7622135E0,3.5385816E0,1.2567704E0,1.4342762E0,-6.847595E-1,3.0491385E0,-1.9061396E-1,1.6770838E0,-7.355664E-2,4.9761105E0,2.4161077E0,2.9867764E0,5.4496044E-1],"categories":[],"categories_nodes":[],"categories_segments":[],"categories_sizes":[],"default_left":[1,1,0,1,0,1,0,1,1,0,0,1,0,1,0,0,0,0,1,0,0],"id":3,"left_children":[1,3,-1,5,7,9,-1,11,13,-1,-1,15,-1,17,-1,-1,-1,-1,19,-1,-1],"loss_changes":[1.3107336E3,4.8919092E2,0E0,1.5822119E2,4.1043594E1,1.443512E0,0E0,1.7094416E1,2.1119568E1,0E0,0E0,3.0466175E0,0E0,5.639786E0,0E0,0E0,0E0,0E0,1.8248222E1,0E0,0E0],"parents":[2147483647,0,0,1,1,3,3,4,4,5,5,7,7,8,8,11,11,13,13,18,18],"right_children":[2,4,-1,6,8,10,-1,12,14,-1,-1,16,-1,18,-1,-1,-1,-1,20,-1,-1],"split_conditions":[4.5E0,1.5E7,1.5510763E0,5E-1,2.5E7,1.95E8,5.39764E-1,2.5E7,2.35E8,2.428819E-1,8.6262465E-2,2E0,-4.700066E-2,5E-1,-1.30834E-2,1.1511203E-1,-5.0487956E-3,3.415513E-1,3.5E0,2.0500697E-1,3.7405107E-2],"split_indices":[1,14,0,1,14,5,0,5,5,0,0,1,0,3,0,0,0,0,1,0,0],"split_type":[0,0,0,0,0,0,0,0,0,0,0,0,0,0,0,0,0,0,0,0,0],"sum_hessian":[9.3E1,9E1,3E0,5.6E1,3.4E1,1.3E1,4.3E1,1.2E1,2.2E1,1E1,3E0,6E0,6E0,2E1,2E0,5E0,1E0,2E0,1.8E1,1.3E1,5E0],"tree_param":{"num_deleted":"0","num_feature":"18","num_nodes":"21","size_leaf_vector":"0"}},{"base_weights":[5.3776603E0,1.5165144E1,2.9607244E0,9.466686E0,2.114309E1,3.717008E0,1.01826E0,3.2034602E0,5.3992786E0,-4.2440405E-1,2.0472593E0,4.5779433E0,2.7721543E0,-5.83902E-1,1.8843535E-1,1.2238367E0,2.51765E0,-1.1520785E-1,5.2104535E0,-1.9590296E-1,2.9341812E0,5.1451015E-1,-2.5718483E-1,3.0207545E-1,5.8612404E0,-4.3858021E-1,1.710581E-1],"categories":[],"categories_nodes":[],"categories_segments":[],"categories_sizes":[],"default_left":[1,1,1,0,0,1,1,1,0,1,1,0,1,0,1,0,0,0,1,1,0,0,0,0,0,0,0],"id":4,"left_children":[1,3,5,-1,-1,7,9,11,-1,13,15,17,19,-1,21,-1,-1,-1,23,25,-1,-1,-1,-1,-1,-1,-1],"loss_changes":[2.2104084E3,2.9073535E2,1.10565125E2,0E0,0E0,1.8985107E1,3.8229576E1,6.2646484E0,0E0,1.3382335E0,3.5791397E-1,2.6975723E1,2.058844E1,0E0,7.7265394E-1,0E0,0E0,0E0,2.1637451E1,4.62995E-1,0E0,0E0,0E0,0E0,0E0,0E0,0E0],"parents":[2147483647,0,0,1,1,2,2,5,5,6,6,7,7,9,9,10,10,11,11,12,12,14,14,18,18,19,19],"right_children":[2,4,6,-1,-1,8,10,12,-1,14,16,18,20,-1,22,-1,-1,-1,24,26,-1,-1,-1,-1,-1,-1,-1],"split_conditions":[5E-1,5.5E-2,4.5E0,6.4977634E-1,1.4512237E0,2.5E0,1.2E1,3.5E0,3.705968E-1,9.5E0,1E1,1.5E0,5.5E-2,-4.0077984E-2,6E0,8.400195E-2,1.7280696E-1,-7.90766E-3,5.4999997E-5,1.5E0,2.0139693E-1,3.5315055E-2,-1.7652705E-2,2.0733917E-2,4.0230504E-1,-3.010336E-2,1.1741121E-2],"split_indices":[13,9,2,0,0,8,4,2,0,2,2,13,9,0,4,0,0,0,9,8,0,0,0,0,0,0,0],"split_type":[0,0,0,0,0,0,0,0,0,0,0,0,0,0,0,0,0,0,0,0,0,0,0,0,0,0,0],"sum_hessian":[9.5E1,1.7E1,7.8E1,1.1E1,6E0,5.5E1,2.3E1,4.6E1,9E0,1E1,1.3E1,7E0,3.9E1,8E0,2E0,7E0,6E0,1E0,6E0,2E0,3.7E1,1E0,1E0,1E0,5E0,1E0,1E0],"tree_param":{"num_deleted":"0","num_feature":"18","num_nodes":"27","size_leaf_vector":"0"}},{"base_weights":[4.907897E0,1.8344126E1,3.125971E0,3.624534E0,1.368486E0,2.9643538E0,5.9676704E0,-4.5494404E-1,2.4879632E0,1.2837137E0,3.3841105E0,2.944979E-1,-5.992648E-1,3.0508044E0,3.0003676E-1,2.8696518E0,-1.9426838E-1,3.8066027E0,2.010993E0,-6.436917E-1,-9.3379E-2,-2.1895525E-1,5.4071033E-1,3.5416934E0,-3.6008206E-1,-3.2625094E-2,-3.9540985E-1,4.7824063E0,4.6318394E-1,2.6288605E-1,-3.920858E-1],"categories":[],"categories_nodes":[],"categories_segments":[],"categories_sizes":[],"default_left":[1,0,1,1,1,0,0,1,1,1,1,0,1,0,0,1,1,0,1,0,0,0,0,0,0,1,0,0,0,0,0],"id":5,"left_children":[1,-1,3,5,7,9,-1,11,13,15,17,-1,19,-1,21,23,25,-1,27,-1,-1,-1,-1,-1,-1,29,-1,-1,-1,-1,-1],"loss_changes":[2.168647E3,0E0,6.651135E1,7.0971985E1,4.633522E1,3.107132E1,0E0,1.3595018E0,1.5326073E1,3.3165627E1,1.1501434E1,0E0,9.1939926E-2,0E0,7.9716414E-1,1.6835476E1,2.6161754E-1,0E0,5.507686E1,0E0,0E0,0E0,0E0,0E0,0E0,8.9451987E-1,0E0,0E0,0E0,0E0,0E0],"parents":[2147483647,0,0,2,2,3,3,4,4,5,5,7,7,8,8,9,9,10,10,12,12,14,14,15,15,16,16,18,18,25,25],"right_children":[2,-1,4,6,8,10,-1,12,14,16,18,-1,20,-1,22,24,26,-1,28,-1,-1,-1,-1,-1,-1,30,-1,-1,-1,-1,-1],"split_conditions":[5E-1,1.2591078E0,8.5E7,2.5E0,1.5E0,1.5E0,4.0961018E-1,5E-1,1.95E8,2.5E7,3E0,2.0213807E-2,2.75E8,2.0940174E-1,1.5E0,3E0,3.5E7,2.612784E-1,5E-1,-4.4181846E-2,-6.409367E-3,-1.5028696E-2,3.7113387E-2,2.4309549E-1,-2.4715386E-2,3E0,-2.7140222E-2,3.282558E-1,3.1792115E-2,1.8044027E-2,-2.6912065E-2],"split_indices":[13,0,5,8,3,13,0,3,5,5,16,0,5,0,13,16,5,0,3,0,0,0,0,0,0,16,0,0,0,0,0],"split_type":[0,0,0,0,0,0,0,0,0,0,0,0,0,0,0,0,0,0,0,0,0,0,0,0,0,0,0,0,0,0,0],"sum_hessian":[9.3E1,9E0,8.4E1,6.4E1,2E1,5.3E1,1.1E1,8E0,1.2E1,1.2E1,4.1E1,1E0,7E0,9E0,3E0,5E0,7E0,2.9E1,1.2E1,6E0,1E0,1E0,2E0,4E0,1E0,5E0,2E0,3E0,9E0,3E0,2E0],"tree_param":{"num_deleted":"0","num_feature":"18","num_nodes":"31","size_leaf_vector":"0"}},{"base_weights":[4.4720945E0,3.4016664E0,8.788192E0,6.904797E0,2.8626604E0,1.5607465E1,4.5188584E0,7.27035E-1,7.540172E0,3.270208E0,1.86798E0,5.526882E0,-4.7764492E-1,-4.1765955E-1,3.3688545E0,-5.75992E-1,2.9499397E0,6.3798957E0,9.639658E-1,4.2826147E0,2.7602594E0,7.4831665E-1,3.178827E0,1.8967971E0,-6.744712E-1,2.8711042E-1,2.194193E0],"categories":[],"categories_nodes":[],"categories_segments":[],"categories_sizes":[],"default_left":[1,1,1,1,1,0,1,0,0,1,1,1,0,0,1,0,0,0,0,0,1,1,0,1,0,0,0],"id":6,"left_children":[1,3,5,7,9,-1,11,-1,-1,13,15,17,-1,-1,19,-1,-1,-1,-1,-1,21,23,-1,25,-1,-1,-1],"loss_changes":[3.626836E2,1.06798706E2,3.6480078E2,2.477295E1,1.6852478E1,0E0,6.873093E1,0E0,0E0,1.9081757E1,6.571543E1,3.1109558E1,0E0,0E0,4.35376E0,0E0,0E0,0E0,0E0,0E0,2.259584E1,1.4862615E1,0E0,1.1733627E0,0E0,0E0,0E0],"parents":[2147483647,0,0,1,1,2,2,3,3,4,4,6,6,9,9,10,10,11,11,14,14,20,20,21,21,23,23],"right_children":[2,4,6,8,10,-1,12,-1,-1,14,16,18,-1,-1,20,-1,-1,-1,-1,-1,22,24,-1,26,-1,-1,-1],"split_conditions":[2.5E0,5E-1,1.5E2,5.5E2,4.5E0,1.0712683E0,5E0,4.9902376E-2,5.175439E-1,5E1,8E0,6E2,-3.278469E-2,-2.8667402E-2,1.5E2,-3.9535057E-2,2.0247857E-1,4.379046E-1,6.616488E-2,2.9395097E-1,3.5E2,2.5E2,2.1818899E-1,3E0,-4.629449E-2,1.9706745E-2,1.5060546E-1],"split_indices":[8,11,7,7,2,0,2,0,0,7,2,7,0,0,7,0,0,0,0,0,7,7,0,2,0,0,0],"split_type":[0,0,0,0,0,0,0,0,0,0,0,0,0,0,0,0,0,0,0,0,0,0,0,0,0,0,0],"sum_hessian":[8.8E1,7.3E1,1.5E1,7E0,6.6E1,4E0,1.1E1,1E0,6E0,4.4E1,2.2E1,9E0,2E0,1E0,4.3E1,7E0,1.5E1,7E0,2E0,1.3E1,3E1,6E0,2.4E1,3E0,3E0,1E0,2E0],"tree_param":{"num_deleted":"0","num_feature":"18","num_nodes":"27","size_leaf_vector":"0"}},{"base_weights":[4.254667E0,2.7748818E0,9.207036E0,6.5436378E0,2.2413142E0,5.23175E0,1.6710613E1,2.9699697E0,8.473042E0,1.1706424E0,3.1237454E0,6.0584598E0,-4.600953E-1,3.213777E0,1.809078E1,3.5598855E0,6.429862E-2,9.836458E0,1.2348975E0,3.5902074E-1,2.7080958E0,4.0147047E0,1.0596037E0,6.5412717E0,1.5972437E0,6.1405516E-1,5.323435E0,1.4382905E0,-3.0608076E-1,3.7771366E0,9.410499E-1,4.451547E0,-6.261713E-1,3.8699114E0,-3.5149643E-1,-5.168917E-1,2.697899E0,6.447089E-2,1.582726E0,7.801895E-2,-8.9639956E-1,-2.6434824E-1,2.031784E0,2.1180456E0,5.882622E0,-7.437671E-1,-1.11226454E-1,-1.4352039E-1,-5.6234175E-1,-6.020994E-1,5.6480885E-1,-4.4433516E-1,1.4913261E-1,3.8000572E-1,2.4072998E0,6.399055E0,-2.5390095E-1,-7.0659325E-2,-2.3180348E-1,-9.192196E-2,-6.761073E-1,8.682843E-1,-5.4067475E-1,-1.046021E-2,-7.7976845E-2,1.7384858E-1,9.367149E-1],"categories":[],"categories_nodes":[],"categories_segments":[],"categories_sizes":[],"default_left":[1,1,1,1,1,1,1,1,1,1,1,1,0,0,0,1,0,0,0,1,1,1,1,0,1,0,0,1,1,0,1,1,1,0,1,0,0,0,0,1,0,1,0,1,1,0,0,1,0,1,1,0,0,0,0,0,0,1,0,0,0,1,0,0,0,0,0],"id":7,"left_children":[1,3,5,7,9,11,13,15,17,19,21,23,-1,-1,-1,25,-1,-1,-1,27,29,31,33,-1,35,-1,-1,37,39,-1,41,43,45,-1,47,-1,-1,-1,-1,49,-1,51,-1,53,55,-1,-1,57,-1,59,61,-1,-1,-1,-1,-1,-1,63,-1,-1,-1,65,-1,-1,-1,-1,-1],"loss_changes":[6.71896E2,1.3085413E2,4.965752E2,1.6544495E1,6.0481903E1,8.3592316E1,2.4536743E1,9.434826E0,2.5649292E1,4.165666E1,6.2013214E1,1.360022E1,0E0,0E0,0E0,1.892934E1,0E0,0E0,0E0,1.8520664E1,1.5998596E1,5.7015686E1,5.6834652E1,0E0,1.111528E1,0E0,0E0,1.7546749E0,3.9162683E0,0E0,9.789207E0,5.7631805E1,8.2562685E-2,0E0,3.3062124E-1,0E0,0E0,0E0,0E0,4.476003E0,0E0,4.6754405E-1,0E0,4.311764E0,4.6352814E1,0E0,0E0,2.1305725E-2,0E0,1.0863066E-1,3.4105086E0,0E0,0E0,0E0,0E0,0E0,0E0,1.5456416E-3,0E0,0E0,0E0,3.7302017E-2,0E0,0E0,0E0,0E0,0E0],"parents":[2147483647,0,0,1,1,2,2,3,3,4,4,5,5,6,6,7,7,8,8,9,9,10,10,11,11,15,15,19,19,20,20,21,21,22,22,24,24,27,27,28,28,30,30,31,31,32,32,34,34,39,39,41,41,43,43,44,44,47,47,49,49,50,50,57,57,61,61],"right_children":[2,4,6,8,10,12,14,16,18,20,22,24,-1,-1,-1,26,-1,-1,-1,28,30,32,34,-1,36,-1,-1,38,40,-1,42,44,46,-1,48,-1,-1,-1,-1,50,-1,52,-1,54,56,-1,-1,58,-1,60,62,-1,-1,-1,-1,-1,-1,64,-1,-1,-1,66,-1,-1,-1,-1,-1],"split_conditions":[2.5E0,1.5E0,5.5E-2,1.05E1,1.2E1,5E0,8.5E0,9.5E0,7E0,8.5E0,2.25E1,2.1E1,-3.1580117E-2,2.205879E-1,1.2417186E0,7E0,4.413342E-3,6.7515683E-1,8.476115E-2,2.5E0,1E1,3.072E3,2.5E0,4.4898114E-1,2.35E1,4.2147644E-2,3.6539102E-1,1E0,3E0,2.592559E-1,1.15E1,1.85E1,5.5E0,2.6562378E-1,2.55E1,-3.547852E-2,1.8517895E-1,4.425166E-3,1.0863547E-1,4.5E0,-6.1527256E-2,6.5E0,1.3945802E-1,6.5E0,5E0,-5.1050838E-2,-7.634384E-3,5E0,-3.8598128E-2,4E0,3.072E3,-3.0498369E-2,1.0236194E-2,2.608291E-2,1.6523273E-1,4.3921965E-1,-1.7427305E-2,2.4E1,-1.5910575E-2,-6.3093584E-3,-4.640679E-2,7.5E0,-3.7110943E-2,-7.1797E-4,-5.3521907E-3,1.1932655E-2,6.429443E-2],"split_indices":[8,16,9,2,0,2,0,2,0,2,0,0,0,0,0,0,0,0,0,0,2,6,2,0,0,0,0,0,16,0,2,0,2,0,0,0,0,0,0,0,0,0,0,2,2,0,0,2,0,2,6,0,0,0,0,0,0,0,0,0,0,0,0,0,0,0,0],"split_type":[0,0,0,0,0,0,0,0,0,0,0,0,0,0,0,0,0,0,0,0,0,0,0,0,0,0,0,0,0,0,0,0,0,0,0,0,0,0,0,0,0,0,0,0,0,0,0,0,0,0,0,0,0,0,0,0,0,0,0,0,0,0,0,0,0,0,0],"sum_hessian":[9.6E1,7.6E1,2E1,7E0,6.9E1,1.5E1,5E0,4E0,3E0,3.3E1,3.6E1,1.3E1,2E0,1E0,4E0,3E0,1E0,2E0,1E0,2.3E1,1E1,2.4E1,1.2E1,1.1E1,2E0,2E0,1E0,8E0,1.5E1,5E0,5E0,2.2E1,2E0,3E0,9E0,1E0,1E0,1E0,7E0,1E1,5E0,3E0,2E0,1E1,1.2E1,1E0,1E0,6E0,3E0,4E0,6E0,2E0,1E0,2E0,8E0,1.1E1,1E0,5E0,1E0,1E0,3E0,5E0,1E0,1E0,4E0,1E0,4E0],"tree_param":{"num_deleted":"0","num_feature":"18","num_nodes":"67","size_leaf_vector":"0"}},{"base_weights":[4.323068E0,1.0478632E1,2.997488E0,1.5147694E1,4.9000626E0,3.833506E0,4.9894404E-1,5.4413123E0,6.268577E-2,4.2077556E0,-8.979605E-1,2.3047562E0,-2.7964061E-1,4.638648E0,2.4916098E0,-6.9954157E-1,1.4699335E-1,3.5080328E0,6.734801E0,4.3722674E-1,4.818712E0,-4.2800936E-1,3.9171067E-1,4.573153E0,1.8127546E0,7.224347E0,2.1983867E0,9.728579E-1,-4.8485625E-1,6.137913E-1,-1.3126078E-1,6.285368E-2,4.836122E0,2.0990674E0,-7.7480495E-1,2.6590755E0,3.4272686E-1,-3.9531612E-1,1.6955367E0,-3.5842847E-2,-5.0392544E-1],"categories":[],"categories_nodes":[],"categories_segments":[],"categories_sizes":[],"default_left":[1,1,1,0,1,1,1,0,0,1,0,0,1,1,1,0,1,1,1,1,0,0,1,1,1,0,1,1,0,0,0,0,0,0,0,0,0,1,0,0,0],"id":8,"left_children":[1,3,5,-1,7,9,11,-1,-1,13,-1,-1,15,17,19,-1,21,23,25,27,-1,-1,29,31,33,-1,35,37,-1,-1,-1,-1,-1,-1,-1,-1,-1,39,-1,-1,-1],"loss_changes":[7.021644E2,2.8100464E2,1.6114532E2,0E0,2.4899078E1,1.1056732E2,3.167977E1,0E0,0E0,2.0408875E1,0E0,0E0,3.1767607E0,5.789209E1,6.679202E1,0E0,1.6610997E0,4.1105927E1,7.093506E-1,5.6276846E0,0E0,0E0,1.0384108E0,2.0508331E1,1.3741169E1,0E0,1.611557E0,7.824267E0,0E0,0E0,0E0,0E0,0E0,0E0,0E0,0E0,0E0,1.1447626E-1,0E0,0E0,0E0],"parents":[2147483647,0,0,1,1,2,2,4,4,5,5,6,6,9,9,12,12,13,13,14,14,16,16,17,17,18,18,19,19,22,22,23,23,24,24,26,26,27,27,37,37],"right_children":[2,4,6,-1,8,10,12,-1,-1,14,-1,-1,16,18,20,-1,22,24,26,28,-1,-1,30,32,34,-1,36,38,-1,-1,-1,-1,-1,-1,-1,-1,-1,40,-1,-1,-1],"split_conditions":[5E-1,5.5E7,8.5E7,1.0397105E0,4.65E8,3.072E3,7.68E2,3.734819E-1,4.302639E-3,2.25E1,-6.1634395E-2,1.5819433E-1,2.35E8,1.65E1,2.5E7,-4.8015278E-2,6.5E0,8.5E0,9E2,2.55E1,3.3074775E-1,-2.9377794E-2,3.65E8,1E0,9E2,4.958662E-1,3E7,2.4E1,-3.327966E-2,4.212953E-2,-9.009505E-3,4.3141637E-3,3.3194274E-1,1.4407623E-1,-5.318122E-2,1.8251418E-1,2.3524156E-2,1.5E2,1.163786E-1,-2.4601887E-3,-3.4588538E-2],"split_indices":[13,5,5,0,5,6,6,0,0,0,0,0,5,0,5,0,0,0,7,0,0,0,5,0,7,0,5,0,0,0,0,0,0,0,0,0,0,7,0,0,0],"split_type":[0,0,0,0,0,0,0,0,0,0,0,0,0,0,0,0,0,0,0,0,0,0,0,0,0,0,0,0,0,0,0,0,0,0,0,0,0,0,0,0,0],"sum_hessian":[9.1E1,1.4E1,7.7E1,6E0,8E0,5.7E1,2E1,7E0,1E0,5.3E1,4E0,5E0,1.5E1,4E1,1.3E1,7E0,8E0,2.9E1,1.1E1,8E0,5E0,2E0,6E0,1.6E1,1.3E1,9E0,2E0,5E0,3E0,4E0,2E0,1E0,1.5E1,1.2E1,1E0,1E0,1E0,2E0,3E0,1E0,1E0],"tree_param":{"num_deleted":"0","num_feature":"18","num_nodes":"41","size_leaf_vector":"0"}},{"base_weights":[3.8929238E0,6.4802747E0,3.3437572E0,6.7595825E0,9.661428E-1,3.5232818E0,-8.66462E-1,2.701798E0,7.45651E0,4.0665193E0,1.6633372E0,5.123415E-1,4.2387714E0,-1.0494112E0,4.915349E0,1.6093429E0,-5.2911556E-1,9.646198E0,3.6252136E0,-1.1389898E0,6.722899E-4,5.872145E-1,5.9024806E0,-4.8086697E-1,-1.3713431E0,-2.6557925E-1,1.0674245E0,7.1832333E0,1.1932424E0,9.275122E0,1.753281E0],"categories":[],"categories_nodes":[],"categories_segments":[],"categories_sizes":[],"default_left":[1,1,1,1,0,1,0,0,0,1,1,1,1,1,1,0,0,0,0,1,0,1,1,0,0,0,0,1,0,0,0],"id":9,"left_children":[1,3,5,7,-1,9,-1,-1,-1,11,13,15,17,19,21,-1,-1,-1,-1,23,-1,25,27,-1,-1,-1,-1,29,-1,-1,-1],"loss_changes":[9.698755E1,1.1356567E1,6.7079834E1,3.8672485E0,0E0,6.781024E1,0E0,0E0,0E0,3.2800537E1,1.9188873E2,6.8895473E0,1.2752197E2,1.1994324E0,3.557921E1,0E0,0E0,0E0,0E0,6.4962864E-1,0E0,2.0223026E0,3.177774E1,0E0,0E0,0E0,0E0,3.6921967E1,0E0,0E0,0E0],"parents":[2147483647,0,0,1,1,2,2,3,3,5,5,9,9,10,10,11,11,12,12,13,13,14,14,19,19,21,21,22,22,27,27],"right_children":[2,4,6,8,-1,10,-1,-1,-1,12,14,16,18,20,22,-1,-1,-1,-1,24,-1,26,28,-1,-1,-1,-1,30,-1,-1,-1],"split_conditions":[7.68E2,5E-1,3.072E3,1E1,6.631431E-2,4.5E0,-5.9472397E-2,1.8544656E-1,5.118015E-1,5.05E-3,1E1,1.5E0,3E0,6E0,3E0,1.1046241E-1,-3.6317542E-2,6.6209775E-1,2.4882816E-1,7E0,4.6144774E-5,1.2E1,5.5E-4,-3.3005845E-2,-9.412653E-2,-1.8228883E-2,7.3266104E-2,1.15E1,8.190202E-2,6.3662773E-1,1.2034206E-1],"split_indices":[6,15,6,4,0,2,0,0,0,9,2,2,17,17,17,0,0,0,0,2,0,4,9,0,0,0,0,2,0,0,0],"split_type":[0,0,0,0,0,0,0,0,0,0,0,0,0,0,0,0,0,0,0,0,0,0,0,0,0,0,0,0,0,0,0],"sum_hessian":[9.3E1,1.3E1,8E1,1.2E1,1E0,7.7E1,3E0,3E0,9E0,5.8E1,1.9E1,3E0,5.5E1,1.1E1,8E0,1E0,2E0,3E0,5.2E1,1E1,1E0,2E0,6E0,4E0,6E0,1E0,1E0,4E0,2E0,2E0,2E0],"tree_param":{"num_deleted":"0","num_feature":"18","num_nodes":"31","size_leaf_vector":"0"}},{"base_weights":[3.8045595E0,2.2287698E0,1.3893629E1,8.9814246E-1,2.9921403E0,1.720054E1,4.6519375E0,4.7208168E-2,1.1594647E0,3.3588073E0,7.36127E-1,5.124646E-1,-6.3180804E-1,1.4604722E0,4.043579E-1,8.269917E-1,3.8574958E0,2.5341878E0,-7.178083E-1,9.502787E-1,2.5124836E0,1.107359E0,-1.9413204E-1,5.4041133E0,2.9615922E0,1.8070729E-1,3.0801055E0,-1.2588231E-1,-7.828866E-1,2.0639505E0,4.9403018E-1,3.083239E-1,2.9591324E0,-6.225815E-2,-3.473867E-1,4.0545306E0,1.6807964E0,2.9209065E0,-1.02626055E-1,9.3584555E-1,-5.952971E-1,-2.9615626E-2,4.379245E0,5.6813985E-1,2.459407E0,3.003881E-1,1.8167198E0,9.409172E-1,-8.463076E-1,4.6806765E-1,-3.0300015E-1,-3.9981985E-1,1.5294079E0],"categories":[],"categories_nodes":[],"categories_segments":[],"categories_sizes":[],"default_left":[0,1,1,0,1,0,0,1,1,1,1,0,0,1,1,0,1,1,1,1,1,0,1,0,1,0,0,0,0,1,1,0,0,0,0,1,1,0,0,1,0,0,0,1,0,1,0,1,0,0,0,0,0],"id":10,"left_children":[1,3,5,7,9,-1,-1,11,13,15,17,-1,-1,19,21,-1,23,25,27,29,31,-1,33,-1,35,-1,-1,-1,-1,37,39,-1,-1,-1,-1,41,43,-1,-1,45,-1,-1,-1,47,-1,49,-1,51,-1,-1,-1,-1,-1],"loss_changes":[1.4841724E3,8.242148E1,2.5031104E2,7.406746E0,4.0157776E1,0E0,0E0,3.6379797E0,4.8242073E0,5.220697E1,2.8611462E1,0E0,0E0,5.374008E0,4.469709E0,0E0,2.4499695E1,5.1185455E0,8.832502E-2,5.7171316E0,3.078455E0,0E0,9.856483E-2,0E0,2.6993591E1,0E0,0E0,0E0,0E0,7.4575243E0,7.096989E0,0E0,0E0,0E0,0E0,1.8442123E1,1.1206516E1,0E0,0E0,4.502303E0,0E0,0E0,0E0,5.98895E0,0E0,1.0289683E0,0E0,7.165716E0,0E0,0E0,0E0,0E0,0E0],"parents":[2147483647,0,0,1,1,2,2,3,3,4,4,7,7,8,8,9,9,10,10,13,13,14,14,16,16,17,17,18,18,19,19,20,20,22,22,24,24,29,29,30,30,35,35,36,36,39,39,43,43,45,45,47,47],"right_children":[2,4,6,8,10,-1,-1,12,14,16,18,-1,-1,20,22,-1,24,26,28,30,32,-1,34,-1,36,-1,-1,-1,-1,38,40,-1,-1,-1,-1,42,44,-1,-1,46,-1,-1,-1,48,-1,50,-1,52,-1,-1,-1,-1,-1],"split_conditions":[4.000001E0,5E-1,1.25E1,1.5E0,2.25E1,1.1806142E0,3.1930065E-1,2.5E2,2.3E1,5.5E-3,5.05E-3,3.517465E-2,-4.336617E-2,1.25E1,3E2,5.6763224E-2,2.5E2,3E2,1.5E2,2.5E2,3E2,7.6007135E-2,6E2,3.7092865E-1,8E0,1.2403424E-2,2.1141292E-1,-8.640336E-3,-5.3735934E-2,8E0,5.005E-2,2.1162799E-2,2.0310955E-1,-4.273288E-3,-2.3843998E-2,6.5E2,2.05E1,2.0048578E-1,-7.044068E-3,6E2,-4.0860124E-2,-2.0327633E-3,3.005835E-1,9E2,1.688093E-1,9E0,1.2469638E-1,6E2,-5.8089033E-2,3.2127324E-2,-2.0797387E-2,-2.7442917E-2,1.0497581E-1],"split_indices":[13,1,0,13,0,0,0,7,0,9,9,0,0,0,7,0,7,7,7,7,7,0,7,0,0,0,0,0,0,0,9,0,0,0,0,7,0,0,0,7,0,0,0,7,0,0,0,7,0,0,0,0,0],"split_type":[0,0,0,0,0,0,0,0,0,0,0,0,0,0,0,0,0,0,0,0,0,0,0,0,0,0,0,0,0,0,0,0,0,0,0,0,0,0,0,0,0,0,0,0,0,0,0,0,0,0,0,0,0],"sum_hessian":[9.5E1,8.4E1,1.1E1,3.2E1,5.2E1,7E0,4E0,8E0,2.4E1,4.4E1,8E0,5E0,3E0,1.6E1,8E0,8E0,3.6E1,3E0,5E0,1.3E1,3E0,3E0,5E0,1E1,2.6E1,1E0,2E0,1E0,4E0,2E0,1.1E1,1E0,2E0,4E0,1E0,1.2E1,1.4E1,1E0,1E0,8E0,3E0,1E0,1.1E1,7E0,7E0,6E0,2E0,6E0,1E0,5E0,1E0,2E0,4E0],"tree_param":{"num_deleted":"0","num_feature":"18","num_nodes":"53","size_leaf_vector":"0"}},{"base_weights":[3.9571798E0,2.4542286E0,1.4607342E1,2.8414412E0,6.4785093E-1,3.1090097E0,2.9402274E-1,3.268673E0,-2.7080673E-1,4.5824676E0,2.4620254E0,-3.9932194E-1,7.775132E-1,-6.043392E-1,-9.6140034E-2,1.9335163E0,2.8390899E0,1.0255188E0,-1.4510274E-1],"categories":[],"categories_nodes":[],"categories_segments":[],"categories_sizes":[],"default_left":[0,1,0,1,1,0,1,0,0,0,1,0,1,0,0,0,0,0,0],"id":11,"left_children":[1,3,-1,5,7,9,11,-1,13,-1,15,-1,17,-1,-1,-1,-1,-1,-1],"loss_changes":[1.5021879E3,5.817096E1,0E0,4.7308777E1,4.423946E1,4.212451E1,3.4676876E0,0E0,7.5756764E-1,0E0,1.8106079E-1,0E0,1.5709422E0,0E0,0E0,0E0,0E0,0E0,0E0],"parents":[2147483647,0,0,1,1,3,3,4,4,5,5,6,6,8,8,10,10,12,12],"right_children":[2,4,-1,6,8,10,12,-1,14,-1,16,-1,18,-1,-1,-1,-1,-1,-1],"split_conditions":[4.000001E0,3E0,1.0026218E0,1.95E8,1.5E0,1.5E0,5.5E-4,2.2435585E-1,1.5E0,3.1453234E-1,5.5E-2,-2.7408741E-2,3.4E8,-4.1480757E-2,-6.5988796E-3,1.3271308E-1,1.9487004E-1,7.038977E-2,-9.959592E-3],"split_indices":[13,16,0,5,8,13,9,0,13,0,9,0,5,0,0,0,0,0,0],"split_type":[0,0,0,0,0,0,0,0,0,0,0,0,0,0,0,0,0,0,0],"sum_hessian":[9.6E1,8.6E1,1E1,7E1,1.6E1,6.3E1,7E0,3E0,1.3E1,1.6E1,4.7E1,3E0,4E0,3E0,1E1,2.4E1,2.3E1,3E0,1E0],"tree_param":{"num_deleted":"0","num_feature":"18","num_nodes":"19","size_leaf_vector":"0"}},{"base_weights":[3.3286374E0,2.8116086E0,1.4476519E1,4.588898E0,1.5207094E0,5.4589787E0,-1.0292126E-2,2.2807105E0,9.077212E-1,6.2250133E0,1.0267156E-1,1.2475821E-1,-3.362608E-1,2.3985453E0,-1.4558189E-1,-8.503144E-1,1.8232114E0,1.812921E0,7.8539495E0,-2.7482524E0,2.905901E0,2.4209203E-1,3.1016683E-2,1.5187986E0,3.3023531E0,-1.5244858E-1,-1.1395373E0,2.0899525E0,4.330664E-2,2.3816101E-1,4.2311387E0,5.78384E0,1.2289879E1,4.3832345E0,-4.1529816E-1,-2.0054485E-1,1.5343806E-1,2.698098E-1,1.7981435E0,3.7369964E0,8.6776096E-1,6.6501504E-1,-8.990862E-1,2.317538E0,3.836401E-2,-8.9629656E-1,7.1131724E-1,-7.071657E-1,7.818138E-1,1.492194E0,6.190488E0,4.0797815E-1,-9.0034634E-2,-1.0009137E-1,2.4723802E0,-4.1771676E-2,9.417948E-2,8.609796E-1,1.10277966E-1,1.6185746E0,-4.1823894E-1,2.7764168E0,-7.388513E-1,3.0960672E0,1.4718556E0,3.5643308E0,-1.9240467E-1,-6.7457086E-1,2.178159E0],"categories":[],"categories_nodes":[],"categories_segments":[],"categories_sizes":[],"default_left":[1,1,0,1,0,1,1,1,0,1,1,1,0,1,0,1,1,1,1,0,1,0,1,1,1,1,0,1,0,1,0,1,0,0,0,0,0,1,0,0,0,0,0,1,1,0,1,0,1,1,0,0,0,0,1,0,0,0,0,0,0,0,0,1,1,0,0,0,0],"id":12,"left_children":[1,3,-1,5,7,9,11,13,15,17,19,21,-1,23,-1,25,27,29,31,-1,33,-1,35,37,39,41,-1,43,45,47,-1,49,-1,-1,-1,-1,-1,51,-1,-1,-1,-1,-1,53,55,-1,57,-1,59,61,-1,-1,-1,-1,63,-1,-1,-1,-1,-1,-1,-1,-1,65,67,-1,-1,-1,-1],"loss_changes":[4.6960522E2,1.9835419E2,0E0,1.5110559E2,2.2371307E1,1.291073E2,4.1341534E-1,7.3926315E0,5.6988976E1,1.7461877E2,5.970844E1,6.103777E-2,0E0,9.369568E0,0E0,2.2689648E0,1.0637283E1,3.532677E1,5.7818604E1,0E0,2.1492619E1,0E0,2.1603356E-1,4.298977E0,4.672119E0,4.5392094E0,0E0,9.060562E0,4.079679E0,4.9357853E0,0E0,1.3169128E1,0E0,0E0,0E0,0E0,0E0,2.992758E-1,0E0,0E0,0E0,0E0,0E0,7.0693665E0,2.3545066E-2,0E0,1.7117369E-1,0E0,6.935479E0,1.4266614E1,0E0,0E0,0E0,0E0,2.531456E0,0E0,0E0,0E0,0E0,0E0,0E0,0E0,0E0,1.464357E1,1.7311554E1,0E0,0E0,0E0,0E0],"parents":[2147483647,0,0,1,1,3,3,4,4,5,5,6,6,7,7,8,8,9,9,10,10,11,11,13,13,15,15,16,16,17,17,18,18,20,20,22,22,23,23,24,24,25,25,27,27,28,28,29,29,31,31,37,37,43,43,44,44,46,46,48,48,49,49,54,54,63,63,64,64],"right_children":[2,4,-1,6,8,10,12,14,16,18,20,22,-1,24,-1,26,28,30,32,-1,34,-1,36,38,40,42,-1,44,46,48,-1,50,-1,-1,-1,-1,-1,52,-1,-1,-1,-1,-1,54,56,-1,58,-1,60,62,-1,-1,-1,-1,64,-1,-1,-1,-1,-1,-1,-1,-1,66,68,-1,-1,-1,-1],"split_conditions":[4.5E0,5E6,9.936423E-1,2.35E1,1.5E7,1.2E3,6E2,2.25E1,2.5E7,5E1,7E0,1.5E2,-2.3080338E-2,1.25E1,-9.992479E-3,2.5E7,9E2,3.5E0,1.5E0,-1.8863511E-1,3.6E8,1.6616762E-2,3E2,6E2,1.95E8,2.5E2,-7.82158E-2,3.25E8,5E7,1.5E0,2.9041776E-1,1E1,8.435552E-1,3.0085737E-1,-2.8505322E-2,-1.3765039E-2,1.0531713E-2,1.95E8,1.2342134E-1,2.5650072E-1,5.9561554E-2,4.5645438E-2,-6.171166E-2,2.5E0,2.6E1,-6.152019E-2,1.1E1,-4.8538584E-2,1.95E8,5E2,4.24904E-1,2.8002888E-2,-6.1798156E-3,-6.870092E-3,2E0,-2.867133E-3,6.4643105E-3,5.9096094E-2,7.569282E-3,1.11096054E-1,-2.870717E-2,1.9056827E-1,-5.0713427E-2,2.45E1,3.5E2,2.4464928E-1,-1.32063115E-2,-4.630133E-2,1.4950493E-1],"split_indices":[1,14,0,0,14,7,7,0,14,7,0,7,0,0,0,5,7,0,1,0,5,0,7,7,5,7,0,5,14,3,0,0,0,0,0,0,0,5,0,0,0,0,0,0,0,0,0,0,5,7,0,0,0,0,1,0,0,0,0,0,0,0,0,0,7,0,0,0,0],"split_type":[0,0,0,0,0,0,0,0,0,0,0,0,0,0,0,0,0,0,0,0,0,0,0,0,0,0,0,0,0,0,0,0,0,0,0,0,0,0,0,0,0,0,0,0,0,0,0,0,0,0,0,0,0,0,0,0,0,0,0,0,0,0,0,0,0,0,0,0,0],"sum_hessian":[9.2E1,9E1,2E0,3.6E1,5.4E1,3E1,6E0,2.2E1,3.2E1,2.6E1,4E0,5E0,1E0,2.1E1,1E0,1.1E1,2.1E1,8E0,1.8E1,2E0,2E0,1E0,4E0,1.3E1,8E0,4E0,7E0,1.8E1,3E0,6E0,2E0,1.5E1,3E0,1E0,1E0,1E0,3E0,3E0,1E1,6E0,2E0,2E0,2E0,1.6E1,2E0,1E0,2E0,2E0,4E0,2E0,1.3E1,2E0,1E0,1E0,1.5E1,1E0,1E0,1E0,1E0,2E0,2E0,1E0,1E0,7E0,8E0,6E0,1E0,2E0,6E0],"tree_param":{"num_deleted":"0","num_feature":"18","num_nodes":"69","size_leaf_vector":"0"}},{"base_weights":[3.209394E0,2.8249617E0,1.05396595E1,3.840859E0,7.9013157E-1,1.642415E0,4.6343403E0,1.905096E0,2.5233564E-1,-3.5413584E-1,1.7984523E0,5.022996E0,-1.6116455E-1,5.166742E-1,2.7168784E0,6.517313E-1,-5.1722205E-1,1.9813633E0,6.0866797E-1,5.854244E0,2.5932696E0,4.4757512E-1,-5.320987E-1,1.4241037E0,-6.308369E-1,3.0256932E0,4.5836928E-1,1.0336999E0,-1.0554188E0,-7.432877E-1,-5.380677E-2,1.3075646E0,4.1208455E-1,-1.3546716E-1,9.181697E-2,1.6237023E0,1.299423E-1,-6.0538405E-1,2.2836502E0,-1.1758922E0,2.4642916E-1],"categories":[],"categories_nodes":[],"categories_segments":[],"categories_sizes":[],"default_left":[1,1,0,1,1,0,1,1,1,0,1,1,1,1,1,1,1,0,0,0,0,0,0,0,0,0,0,1,0,0,1,1,1,0,0,0,0,1,0,0,0],"id":13,"left_children":[1,3,-1,5,7,9,11,13,15,-1,17,19,21,23,25,27,29,-1,-1,-1,-1,-1,-1,-1,-1,-1,-1,31,-1,-1,33,35,37,-1,-1,-1,-1,39,-1,-1,-1],"loss_changes":[1.9554456E2,1.7196265E2,0E0,8.575641E1,1.7595375E1,6.631363E0,7.733002E1,8.536251E0,7.5734315E0,0E0,1.5481834E0,4.9856873E1,1.4829435E0,7.5328765E0,1.5926323E0,1.2155432E1,8.457382E-1,0E0,0E0,0E0,0E0,0E0,0E0,0E0,0E0,0E0,0E0,1.4028034E0,0E0,0E0,7.791986E-2,2.8859825E0,1.522792E1,0E0,0E0,0E0,0E0,3.290781E0,0E0,0E0,0E0],"parents":[2147483647,0,0,1,1,3,3,4,4,5,5,6,6,7,7,8,8,10,10,11,11,12,12,13,13,14,14,15,15,16,16,27,27,30,30,31,31,32,32,37,37],"right_children":[2,4,-1,6,8,10,12,14,16,-1,18,20,22,24,26,28,30,-1,-1,-1,-1,-1,-1,-1,-1,-1,-1,32,-1,-1,34,36,38,-1,-1,-1,-1,40,-1,-1,-1],"split_conditions":[4.5E0,1.5E7,7.234233E-1,5E-1,1.536E3,2.000001E0,1.95E8,5E-1,6E7,-2.430725E-2,1.95E8,3.5E0,3.65E8,7.68E2,1.95E8,3.072E3,2.2E8,1.3599722E-1,4.177788E-2,4.0182483E-1,1.7799737E-1,3.0720754E-2,-3.65223E-2,9.774792E-2,-4.3299515E-2,2.0767815E-1,3.1461645E-2,5E-1,-7.2442055E-2,-5.1017933E-2,2.5E0,2.5E7,2.5E7,-9.298222E-3,6.302152E-3,1.1144801E-1,8.919006E-3,2.5E0,1.5674564E-1,-8.0711134E-2,1.6914455E-2],"split_indices":[1,14,0,1,6,15,5,1,5,0,5,1,5,6,5,6,5,0,0,0,0,0,0,0,0,0,0,1,0,0,1,5,5,0,0,0,0,1,0,0,0],"split_type":[0,0,0,0,0,0,0,0,0,0,0,0,0,0,0,0,0,0,0,0,0,0,0,0,0,0,0,0,0,0,0,0,0,0,0,0,0,0,0,0,0],"sum_hessian":[8.6E1,8.4E1,2E0,5.5E1,2.9E1,1.6E1,3.9E1,8E0,2.1E1,1E0,1.5E1,3.6E1,3E0,4E0,4E0,1.4E1,7E0,1.2E1,3E0,2.5E1,1.1E1,1E0,2E0,2E0,2E0,3E0,1E0,1.2E1,2E0,4E0,3E0,7E0,5E0,2E0,1E0,5E0,2E0,4E0,1E0,2E0,2E0],"tree_param":{"num_deleted":"0","num_feature":"18","num_nodes":"41","size_leaf_vector":"0"}},{"base_weights":[3.1228905E0,2.4078646E0,1.3612666E1,1.3937418E0,2.7721581E0,1.4946123E1,2.666835E0,1.9677339E0,-5.317719E-1,1.1004722E0,3.0378046E0,1.1631302E0,2.751994E0,-7.700197E-1,-2.9792634E-1,-4.4624457E-1,3.5500746E0,8.3575565E-1,3.226213E0,2.6570675E0,6.836113E-1,-9.080113E-1,1.1424595E0,-1.8882002E0,6.015972E0,3.5904872E0,1.4845413E0,8.332002E-1,-2.7682443E0,2.949884E0,6.4844884E-2,3.5209916E0,8.951375E-2,2.2263649E0,-8.298584E-1],"categories":[],"categories_nodes":[],"categories_segments":[],"categories_sizes":[],"default_left":[1,1,1,1,1,0,0,1,1,1,1,1,0,0,0,1,0,1,1,0,0,0,0,1,0,0,1,0,0,1,1,0,0,0,0],"id":14,"left_children":[1,3,5,7,9,-1,-1,11,13,15,17,19,-1,-1,-1,21,-1,23,25,-1,-1,-1,-1,27,-1,-1,29,-1,-1,31,33,-1,-1,-1,-1],"loss_changes":[6.6115594E2,2.7182434E1,1.4519897E1,3.247174E1,2.3387512E1,0E0,0E0,8.1581955E0,3.263712E-2,4.7217403E1,1.8442322E1,6.686348E0,0E0,0E0,0E0,8.210069E0,0E0,1.1477531E2,2.2934692E1,0E0,0E0,0E0,0E0,1.7742697E1,0E0,0E0,2.408305E1,0E0,0E0,8.823128E0,1.81691E1,0E0,0E0,0E0,0E0],"parents":[2147483647,0,0,1,1,2,2,3,3,4,4,7,7,8,8,9,9,10,10,11,11,15,15,17,17,18,18,23,23,26,26,29,29,30,30],"right_children":[2,4,6,8,10,-1,-1,12,14,16,18,20,-1,-1,-1,22,-1,24,26,-1,-1,-1,-1,28,-1,-1,30,-1,-1,32,34,-1,-1,-1,-1],"split_conditions":[4.5E0,5E-1,1.6E1,3E0,2.5E0,1.0258751E0,1.8304677E-1,9.5E0,7.5E0,3.5E0,1.5E0,7E0,1.8889192E-1,-5.2852772E-2,-2.044913E-2,2E1,2.4367075E-1,3.5E0,2.25E1,1.8237635E-1,4.692185E-2,-6.2324267E-2,7.841637E-2,5E-1,4.1292554E-1,2.464446E-1,5E-1,5.7189368E-2,-1.9000731E-1,3.5E0,2.5E0,2.4167454E-1,6.144063E-3,1.5281369E-1,-5.6959994E-2],"split_indices":[1,1,0,16,10,0,0,0,0,0,0,0,0,0,0,4,0,10,0,0,0,0,0,0,0,0,3,0,0,10,1,0,0,0,0],"split_type":[0,0,0,0,0,0,0,0,0,0,0,0,0,0,0,0,0,0,0,0,0,0,0,0,0,0,0,0,0,0,0,0,0,0,0],"sum_hessian":[9.4E1,9E1,4E0,2.6E1,6.4E1,3E0,1E0,2E1,6E0,1E1,5.4E1,1.2E1,8E0,1E0,5E0,7E0,3E0,5E0,4.9E1,1E0,1.1E1,6E0,1E0,4E0,1E0,3.9E1,1E1,1E0,3E0,4E0,6E0,3E0,1E0,1E0,5E0],"tree_param":{"num_deleted":"0","num_feature":"18","num_nodes":"35","size_leaf_vector":"0"}},{"base_weights":[2.7932E0,9.295888E0,1.6325002E0,1.8253601E0,-7.465813E-1,1.5306178E0,3.0695288E0,8.83491E-1,1.7469876E0,4.987939E0,1.3918893E0,2.0573094E0,2.5268318E-2,7.3987716E-1,2.590415E0,5.440131E-1,2.6840806E0,-8.1427234E-1,5.153951E-1,-8.876435E-1,1.3397007E0,3.0034037E0,4.2819402E-1,5.470503E-1,8.72683E-2],"categories":[],"categories_nodes":[],"categories_segments":[],"categories_sizes":[],"default_left":[1,0,1,1,0,1,0,1,0,0,1,0,0,0,0,1,1,0,1,0,0,0,0,0,0],"id":15,"left_children":[1,-1,3,5,-1,7,9,11,-1,-1,13,15,17,-1,-1,19,21,-1,23,-1,-1,-1,-1,-1,-1],"loss_changes":[7.2642725E2,0E0,4.2163284E1,2.1449188E1,0E0,6.944412E0,3.2154266E1,2.079923E1,0E0,0E0,4.280571E0,5.750839E0,6.3808246E0,0E0,0E0,7.459976E0,1.8990555E0,0E0,4.9022198E-2,0E0,0E0,0E0,0E0,0E0,0E0],"parents":[2147483647,0,0,2,2,3,3,5,5,6,6,7,7,10,10,11,11,12,12,15,15,16,16,18,18],"right_children":[2,-1,4,6,-1,8,10,12,-1,-1,14,16,18,-1,-1,20,22,-1,24,-1,-1,-1,-1,-1,-1],"split_conditions":[5E-1,6.3805306E-1,3.072E3,2.5E0,-5.1244E-2,5.5E-4,1.5E0,7.68E2,1.1991009E-1,3.4236318E-1,5.5E-2,1.5E0,1.5E0,5.078384E-2,1.7780143E-1,1E1,1E1,-5.589019E-2,1.536E3,-6.092626E-2,9.195465E-2,2.0614824E-1,2.939047E-2,3.754855E-2,5.9899394E-3],"split_indices":[13,0,6,8,0,9,13,6,0,0,9,13,13,0,0,4,4,0,6,0,0,0,0,0,0],"split_type":[0,0,0,0,0,0,0,0,0,0,0,0,0,0,0,0,0,0,0,0,0,0,0,0,0],"sum_hessian":[9.8E1,1.3E1,8.5E1,7.9E1,6E0,6.7E1,1.2E1,1.9E1,4.8E1,4E0,8E0,7E0,1.2E1,7E0,1E0,3E0,4E0,4E0,8E0,1E0,2E0,3E0,1E0,7E0,1E0],"tree_param":{"num_deleted":"0","num_feature":"18","num_nodes":"25","size_leaf_vector":"0"}},{"base_weights":[2.884681E0,3.129352E0,-2.860177E0,8.961515E0,2.5327687E0,4.360336E0,1.1861277E1,4.043251E0,1.5766464E0,5.8858004E0,-1.0468965E0,8.0515064E-2,5.1589956E0,2.5388222E0,4.8108375E-1,-6.2926316E-1,9.1065276E-1,7.0219045E0,4.0693145E0,7.7521324E-1,3.4082658E0,2.111033E0,-8.092075E-1,8.5079186E-2,-8.1129044E-1,1.2904774E0,-1.8580118E-1,1.9561783E0,4.7450747E0,-9.5295656E-1,1.090294E0,5.1802206E0,2.6591132E0,-8.361855E-2,-8.460871E-1,2.4498458E0,7.4539435E-1,2.1094112E0,2.2167625E-1,-5.1590437E-1,-1.0717367E0,-6.310691E-1,2.1519566E0,-4.465343E-2,-8.30992E-1,-1.1446452E0,-2.1217044E-1,1.2793706E-1,-3.150853E-1],"categories":[],"categories_nodes":[],"categories_segments":[],"categories_sizes":[],"default_left":[1,1,0,1,1,1,0,1,0,0,0,1,0,1,1,1,1,0,1,0,1,0,1,0,0,0,0,0,0,0,1,0,0,0,1,0,0,0,0,0,1,0,0,1,0,0,0,0,0],"id":16,"left_children":[1,3,-1,5,7,9,-1,11,13,-1,-1,15,17,19,21,23,25,-1,27,29,31,-1,33,-1,-1,-1,-1,35,-1,-1,37,-1,-1,-1,39,-1,41,-1,-1,43,45,-1,-1,47,-1,-1,-1,-1,-1],"loss_changes":[1.4729578E2,2.7629663E2,0E0,1.3422119E1,1.1130817E2,5.8014053E1,0E0,1.3959705E2,5.5577957E1,0E0,0E0,6.142444E0,6.019287E-1,3.947534E1,6.1298313E1,8.657663E-1,2.3888147E0,0E0,1.2066437E1,8.194473E0,9.550781E-1,0E0,3.2495785E-1,0E0,0E0,0E0,0E0,1.453413E0,0E0,0E0,8.69194E0,0E0,0E0,0E0,2.1235657E-1,0E0,1.1527653E1,0E0,0E0,1.381206E0,6.3082695E-2,0E0,0E0,3.37733E-1,0E0,0E0,0E0,0E0,0E0],"parents":[2147483647,0,0,1,1,3,3,4,4,5,5,7,7,8,8,11,11,12,12,13,13,14,14,15,15,16,16,18,18,19,19,20,20,22,22,27,27,30,30,34,34,36,36,39,39,40,40,43,43],"right_children":[2,4,-1,6,8,10,-1,12,14,-1,-1,16,18,20,22,24,26,-1,28,30,32,-1,34,-1,-1,-1,-1,36,-1,-1,38,-1,-1,-1,40,-1,42,-1,-1,44,46,-1,-1,48,-1,-1,-1,-1,-1],"split_conditions":[1.3E3,5E-1,-1.9631742E-1,5.5E2,2.5E2,2E2,8.1413674E-1,5.05E-3,1.5E7,4.0399078E-1,-7.1857095E-2,8.5E0,1.5E0,5E2,5.05E-3,2.5E0,1E1,4.8197094E-1,5.5E-2,1.5E0,3E0,1.4489752E-1,3.5E0,5.8396826E-3,-5.568552E-2,8.8576056E-2,-1.2753059E-2,5E6,3.2569343E-1,-6.540923E-2,5.5E-2,3.5556105E-1,1.8251675E-1,-5.739427E-3,6E2,1.6815302E-1,8.5E7,1.4478621E-1,1.5215459E-2,2.5E7,6.5E0,-4.331545E-2,1.4770643E-1,5E0,-5.7037797E-2,-7.8566395E-2,-1.4562998E-2,8.781371E-3,-2.162689E-2],"split_indices":[7,12,0,7,7,7,0,9,14,0,0,2,12,7,9,2,2,0,9,12,17,0,2,0,0,0,0,14,0,0,9,0,0,0,7,0,14,0,0,14,2,0,0,2,0,0,0,0,0],"split_type":[0,0,0,0,0,0,0,0,0,0,0,0,0,0,0,0,0,0,0,0,0,0,0,0,0,0,0,0,0,0,0,0,0,0,0,0,0,0,0,0,0,0,0,0,0,0,0,0,0],"sum_hessian":[9.2E1,8.9E1,3E0,6E0,8.3E1,4E0,2E0,3E1,5.3E1,3E0,1E0,7E0,2.3E1,2.7E1,2.6E1,4E0,3E0,5E0,1.8E1,1E1,1.7E1,1.1E1,1.5E1,1E0,3E0,2E0,1E0,6E0,1.2E1,1E0,9E0,2E0,1.5E1,1E0,1.4E1,3E0,3E0,3E0,6E0,8E0,6E0,2E0,1E0,4E0,4E0,5E0,1E0,3E0,1E0],"tree_param":{"num_deleted":"0","num_feature":"18","num_nodes":"49","size_leaf_vector":"0"}},{"base_weights":[2.7424674E0,1.0178884E1,1.4628392E0,1.3125445E1,3.902307E-1,1.8032465E0,-7.73029E-2,1.4942565E1,3.2635067E0,-6.4304024E-1,9.6562326E-1,1.4758717E0,2.717922E0,2.467609E0,-7.5974697E-1,7.046253E-1,2.0713103E0,3.2985036E0,-5.24195E-1,8.294496E-2,-8.3722407E-1,2.0531096E0,2.7259615E-1,1.2832367E0,2.3309474E0,-1.0069792E0,-1.813334E-1,5.202312E-1,-3.7614498E-1,-2.3696987E-1,9.675343E-3,-2.8141528E-1,1.0644404E0,-7.7907133E-1,7.0720404E-1,-3.7705395E-2,1.3578418E0,1.2963188E-1,-1.8114036E-1],"categories":[],"categories_nodes":[],"categories_segments":[],"categories_sizes":[],"default_left":[1,1,1,1,1,1,1,0,0,0,0,1,1,0,1,1,1,0,0,0,1,0,1,0,0,0,0,0,1,0,0,0,1,0,0,1,0,0,0],"id":17,"left_children":[1,3,5,7,9,11,13,-1,-1,-1,-1,15,17,-1,19,21,23,-1,-1,-1,25,-1,27,-1,-1,-1,29,31,33,-1,-1,-1,35,-1,-1,37,-1,-1,-1],"loss_changes":[8.1854706E2,3.5845544E2,4.099733E1,8.980786E1,3.8939564E0,1.2120529E1,3.058493E1,0E0,0E0,0E0,0E0,2.0765396E1,3.0740395E1,0E0,1.0174446E0,1.3439083E1,4.8165894E-1,0E0,0E0,0E0,1.100956E0,0E0,3.6710522E0,0E0,0E0,0E0,5.432713E-2,7.385272E0,3.8970249E0,0E0,0E0,0E0,3.2373886E0,0E0,0E0,1.304493E-1,0E0,0E0,0E0],"parents":[2147483647,0,0,1,1,2,2,3,3,4,4,5,5,6,6,11,11,12,12,14,14,15,15,16,16,20,20,22,22,26,26,27,27,28,28,32,32,35,35],"right_children":[2,4,6,8,10,12,14,-1,-1,-1,-1,16,18,-1,20,22,24,-1,-1,-1,26,-1,28,-1,-1,-1,30,32,34,-1,-1,-1,36,-1,-1,38,-1,-1,-1],"split_conditions":[5E-1,1.2E3,3E0,2.4E1,1.2E1,2.5E0,1.536E3,1.0256308E0,2.2400124E-1,-4.4137128E-2,6.627865E-2,3.5E2,3E2,1.6937225E-1,3E2,7.68E2,5E2,2.2640337E-1,-3.5979804E-2,5.693193E-3,3.072E3,1.4092176E-1,2.5E2,8.8079065E-2,1.5999205E-1,-6.911725E-2,1.5E0,1.5E0,1E1,-1.6265187E-2,6.6409813E-4,-1.931584E-2,1.536E3,-5.3474057E-2,4.8541218E-2,1E1,9.319983E-2,8.897699E-3,-1.243315E-2],"split_indices":[13,7,16,4,4,8,6,0,0,0,0,7,7,0,7,6,7,0,0,0,6,0,7,0,0,0,13,13,4,0,0,0,6,0,0,4,0,0,0],"split_type":[0,0,0,0,0,0,0,0,0,0,0,0,0,0,0,0,0,0,0,0,0,0,0,0,0,0,0,0,0,0,0,0,0,0,0,0,0,0,0],"sum_hessian":[8.7E1,1.1E1,7.6E1,8E0,3E0,6.2E1,1.4E1,6E0,2E0,1E0,2E0,4.9E1,1.3E1,2E0,1.2E1,2.3E1,2.6E1,1.1E1,2E0,1E0,1.1E1,4E0,1.9E1,9E0,1.7E1,8E0,3E0,1.4E1,5E0,2E0,1E0,6E0,8E0,4E0,1E0,2E0,6E0,1E0,1E0],"tree_param":{"num_deleted":"0","num_feature":"18","num_nodes":"39","size_leaf_vector":"0"}},{"base_weights":[1.8043066E0,1.3355155E0,9.629033E0,1.6216618E0,-2.4382703E0,1.0876449E1,1.8157701E0,7.562354E0,1.0561008E0,-3.1985097E0,-3.41472E-1,3.0862992E0,9.722184E0,2.3758328E0,7.925878E-1,-6.269096E-1,1.6061768E-1,4.4717056E-1,2.6922672E0,-5.570629E-1,1.4039252E0,-7.952971E-1,5.895748E-1,3.5135717E0,9.318551E-1,-8.92257E-1,-1.8158913E-1,3.034489E0,6.807999E-1,-1.2616107E0,-4.3965617E-1,-2.4723558E-1,-4.911167E-2,9.535244E-1,-4.1400737E-1,1.1212613E-2,-4.935009E-1,4.2801788E-1,1.4736651E0,-1.8653475E-1,-6.3172317E-1],"categories":[],"categories_nodes":[],"categories_segments":[],"categories_sizes":[],"default_left":[1,0,1,1,1,0,0,1,1,0,1,0,0,1,1,0,0,0,0,1,0,1,0,0,1,1,1,0,1,0,0,0,0,1,1,0,0,0,0,0,0],"id":18,"left_children":[1,3,5,7,9,-1,-1,11,13,-1,15,-1,-1,17,19,-1,-1,-1,-1,21,23,25,-1,-1,27,29,31,-1,33,-1,35,-1,-1,37,39,-1,-1,-1,-1,-1,-1],"loss_changes":[3.0317084E2,9.944772E1,1.1871338E1,2.573924E2,8.841473E0,0E0,0E0,1.3025391E1,2.3068932E1,0E0,7.103119E-1,0E0,0E0,5.0721207E0,5.5596333E1,0E0,0E0,0E0,0E0,6.751752E0,3.986383E1,8.3352184E-1,0E0,0E0,1.7388783E1,1.6674757E0,2.0089254E-2,0E0,1.1952747E1,0E0,2.4600291E-1,0E0,0E0,7.3061066E0,2.2801101E-1,0E0,0E0,0E0,0E0,0E0,0E0],"parents":[2147483647,0,0,1,1,2,2,3,3,4,4,7,7,8,8,10,10,13,13,14,14,19,19,20,20,21,21,24,24,25,25,26,26,28,28,30,30,33,33,34,34],"right_children":[2,4,6,8,10,-1,-1,12,14,-1,16,-1,-1,18,20,-1,-1,-1,-1,22,24,26,-1,-1,28,30,32,-1,34,-1,36,-1,-1,38,40,-1,-1,-1,-1,-1,-1],"split_conditions":[3.5E0,4.000001E0,1.05E1,5E-1,7E0,7.465399E-1,1.246312E-1,8.5E0,2.5E0,-2.1953997E-1,1.2E1,2.1183804E-1,6.673133E-1,1E0,9.5E0,-4.302995E-2,1.102451E-2,3.0692985E-2,1.8479238E-1,1.2E1,1.5E0,1.5E0,4.0467355E-2,2.4116527E-1,5E-1,8.5E0,5.5E0,2.0828187E-1,2.45E1,-8.65947E-2,1.5E0,-1.6969807E-2,-3.370937E-3,2.05E1,2.55E1,7.6961366E-4,-3.3873014E-2,2.9378379E-2,1.0114973E-1,-1.280341E-2,-4.3360345E-2],"split_indices":[10,12,0,13,0,0,0,0,0,0,4,0,0,0,0,0,0,0,0,4,13,3,0,0,3,0,0,0,0,0,12,0,0,0,0,0,0,0,0,0,0],"split_type":[0,0,0,0,0,0,0,0,0,0,0,0,0,0,0,0,0,0,0,0,0,0,0,0,0,0,0,0,0,0,0,0,0,0,0,0,0,0,0,0,0],"sum_hessian":[8.7E1,8.4E1,3E0,7.9E1,5E0,2E0,1E0,5E0,7.4E1,3E0,2E0,3E0,2E0,1E1,6.4E1,1E0,1E0,2E0,8E0,2E1,4.4E1,1.7E1,3E0,6E0,3.8E1,1.4E1,3E0,2E0,3.6E1,6E0,8E0,1E0,2E0,2.9E1,7E0,1E0,7E0,1.6E1,1.3E1,5E0,2E0],"tree_param":{"num_deleted":"0","num_feature":"18","num_nodes":"41","size_leaf_vector":"0"}},{"base_weights":[2.4230087E0,1.6933132E0,1.3740852E1,3.7503288E0,1.345332E0,1.8272512E0,9.619079E0,2.316496E0,6.6690487E-1,-1.315235E0,2.3326514E0,-6.9950694E-1,2.7630413E0,-3.751283E-1,7.923223E-1,3.0655122E0,-7.663508E-1,-5.608393E-1,-1.7298912E-1,2.7448577E-1,1.0463792E0,1.4659566E0,3.698015E0,1.8490435E-1,-4.505114E-1,3.263779E-2,1.5795667E0,1.1093855E0,-3.0228698E-1,7.2034836E-1,2.5281286E0,1.280418E0,-2.875655E-1,1.8233525E0,9.1086423E-1,1.0931345E-2,8.0958766E-1,8.904669E-2,-1.1153963E0,-1.0040402E0,3.0466986E0,1.0631549E0,-5.206613E-1,-7.797152E-1,2.9606393E-1,6.075994E-1,1.3007033E0],"categories":[],"categories_nodes":[],"categories_segments":[],"categories_sizes":[],"default_left":[1,1,0,1,1,1,0,1,1,0,0,0,1,1,1,1,0,0,1,1,1,1,0,0,0,1,0,0,0,0,0,0,1,1,1,0,0,1,0,0,0,1,0,0,0,0,0],"id":19,"left_children":[1,3,-1,5,7,9,-1,11,13,-1,-1,-1,15,17,19,21,-1,-1,23,25,27,29,-1,-1,-1,31,-1,33,-1,35,-1,-1,37,39,41,-1,-1,43,-1,-1,-1,45,-1,-1,-1,-1,-1],"loss_changes":[7.750224E2,5.9052155E1,0E0,1.1322441E2,5.2488327E1,2.3966385E1,0E0,4.8791183E1,7.2774296E0,0E0,0E0,0E0,3.58235E1,8.438128E-2,5.6498585E0,1.8648804E1,0E0,0E0,7.1438766E-1,5.508495E0,3.1940918E0,5.3406067E0,0E0,0E0,0E0,7.326192E0,0E0,1.3310051E0,0E0,5.376549E-1,0E0,0E0,4.766839E0,2.1693264E1,6.7898216E0,0E0,0E0,2.5115125E0,0E0,0E0,0E0,1.3045979E0,0E0,0E0,0E0,0E0,0E0],"parents":[2147483647,0,0,1,1,3,3,4,4,5,5,7,7,8,8,12,12,13,13,14,14,15,15,18,18,19,19,20,20,21,21,25,25,27,27,29,29,32,32,33,33,34,34,37,37,41,41],"right_children":[2,4,-1,6,8,10,-1,12,14,-1,-1,-1,16,18,20,22,-1,-1,24,26,28,30,-1,-1,-1,32,-1,34,-1,36,-1,-1,38,40,42,-1,-1,44,-1,-1,-1,46,-1,-1,-1,-1,-1],"split_conditions":[4.5E0,7.68E2,9.431474E-1,7E2,2.5E2,5E-1,6.602363E-1,5E1,3.5E2,-9.027537E-2,1.60109E-1,-4.80129E-2,3.5E0,5E-1,5E-1,5E-1,-5.2600943E-2,-3.8495004E-2,2.5E0,2.5E0,3.072E3,2.5E0,2.538251E-1,1.2691502E-2,-3.0922294E-2,1.536E3,1.0841863E-1,1.5E0,-2.0748436E-2,1.5E0,1.7352621E-1,8.7885596E-2,6E2,6E2,2.5E0,7.5030787E-4,5.5568643E-2,1.5E0,-7.65588E-2,-6.891552E-2,2.0911992E-1,3.5E0,-3.5737257E-2,-5.351825E-2,2.0321297E-2,4.170453E-2,8.927794E-2],"split_indices":[1,6,0,7,7,8,0,7,7,0,0,0,1,1,1,1,0,0,1,8,6,8,0,0,0,6,0,12,0,12,0,0,7,7,8,0,0,8,0,0,0,1,0,0,0,0,0],"split_type":[0,0,0,0,0,0,0,0,0,0,0,0,0,0,0,0,0,0,0,0,0,0,0,0,0,0,0,0,0,0,0,0,0,0,0,0,0,0,0,0,0,0,0,0,0,0,0],"sum_hessian":[9.7E1,9.3E1,4E0,1.1E1,8.2E1,1E1,1E0,3.2E1,5E1,1E0,9E0,4E0,2.8E1,5E0,4.5E1,2.6E1,2E0,1E0,4E0,1.6E1,2.9E1,9E0,1.7E1,2E0,2E0,1.5E1,1E0,2.8E1,1E0,7E0,2E0,2E0,1.3E1,3E0,2.5E1,1E0,6E0,1E1,3E0,1E0,2E0,2.3E1,2E0,1E0,9E0,1E1,1.3E1],"tree_param":{"num_deleted":"0","num_feature":"18","num_nodes":"47","size_leaf_vector":"0"}},{"base_weights":[1.690942E0,1.242725E0,1.1670378E1,3.364039E0,9.034323E-1,6.314612E0,-4.5358577E-1,-7.6676734E-2,1.2338077E0,2.9421575E0,9.377784E0,-6.2642527E-1,-2.3383911E-1,-5.426938E-1,2.633229E-1,2.4827352E0,6.3613176E-1,4.3041544E0,-1.2822422E0,-8.939136E-1,9.230165E-1,-4.5374465E-1,7.6390564E-1,2.642469E0,-1.2801406E-1,-3.5787004E-1,1.091584E0,-7.840885E-1,5.2668166E-1,1.6008955E0,2.9642135E-1,3.855018E0,1.9414157E0,8.2325643E-1,-7.815837E-1,8.741162E-1,2.1987023E0,1.1672701E0,-3.605048E-1,-4.7156426E-1,-1.0669026E0,2.9413998E-2,9.744943E-1,1.8854998E0,-2.9160753E-1,-1.10526145E-1,2.0185657E-1,1.4415493E0,7.2935176E-1,3.4338642E-2,9.022249E-1],"categories":[],"categories_nodes":[],"categories_segments":[],"categories_sizes":[],"default_left":[1,1,0,1,1,1,1,1,1,1,0,0,0,1,1,1,1,0,0,0,0,0,0,0,0,1,1,0,0,0,1,0,0,0,1,1,0,1,0,0,0,1,1,0,0,0,0,0,1,0,0],"id":20,"left_children":[1,3,-1,5,7,9,11,13,15,17,-1,-1,-1,19,21,23,25,-1,-1,-1,-1,27,29,31,-1,33,35,-1,-1,-1,37,-1,-1,-1,39,41,-1,43,-1,-1,-1,45,47,-1,-1,-1,-1,-1,49,-1,-1],"loss_changes":[3.851504E2,5.931035E1,0E0,1.3717221E2,2.5983223E1,2.1683197E1,1.4671087E-3,3.6921396E0,4.1848053E1,4.258638E1,0E0,0E0,0E0,6.444625E0,5.5324655E0,8.400932E0,2.002585E1,0E0,0E0,0E0,0E0,2.8987274E0,2.5942807E0,2.0822983E0,0E0,8.492041E0,3.8222923E0,0E0,0E0,0E0,5.156427E0,0E0,0E0,0E0,1.6450787E-1,2.3019123E0,0E0,4.869568E0,0E0,0E0,0E0,1.5303439E-1,1.0065823E0,0E0,0E0,0E0,0E0,0E0,2.31744E0,0E0,0E0],"parents":[2147483647,0,0,1,1,3,3,4,4,5,5,6,6,7,7,8,8,9,9,13,13,14,14,15,15,16,16,21,21,22,22,23,23,25,25,26,26,30,30,34,34,35,35,37,37,41,41,42,42,48,48],"right_children":[2,4,-1,6,8,10,12,14,16,18,-1,-1,-1,20,22,24,26,-1,-1,-1,-1,28,30,32,-1,34,36,-1,-1,-1,38,-1,-1,-1,40,42,-1,44,-1,-1,-1,46,48,-1,-1,-1,-1,-1,50,-1,-1],"split_conditions":[4.5E0,5E-1,8.010338E-1,1.2E3,1.5E2,5.5E2,1.2E1,5E1,3.5E2,1.5E0,6.4367425E-1,-4.2996705E-2,-1.6050298E-2,2E1,5E-1,3.5E0,5E-1,2.9542944E-1,-8.80108E-2,-6.1356626E-2,6.3354194E-2,1.5E0,1.5E0,1.5E0,-8.786655E-3,3E0,3E0,-5.3818427E-2,3.6150485E-2,1.0988259E-1,5.5E-2,2.646015E-1,1.3325529E-1,5.6506846E-2,6E2,6E2,1.5091498E-1,2.5E0,-2.4744403E-2,-3.2367326E-2,-7.323028E-2,5.5E-4,9E2,1.2941733E-1,-2.0015417E-2,-7.586316E-3,1.3855073E-2,9.894536E-2,2.5E0,2.3569427E-3,6.19271E-2],"split_indices":[1,13,0,7,7,7,4,7,7,1,0,0,0,4,1,1,1,0,0,0,0,13,13,13,0,16,16,0,0,0,9,0,0,0,7,7,0,1,0,0,0,9,7,0,0,0,0,0,1,0,0],"split_type":[0,0,0,0,0,0,0,0,0,0,0,0,0,0,0,0,0,0,0,0,0,0,0,0,0,0,0,0,0,0,0,0,0,0,0,0,0,0,0,0,0,0,0,0,0,0,0,0,0,0,0],"sum_hessian":[9E1,8.8E1,2E0,1E1,7.8E1,5E0,5E0,2E1,5.8E1,4E0,1E0,1E0,4E0,8E0,1.2E1,1.7E1,4.1E1,3E0,1E0,7E0,1E0,5E0,7E0,1.6E1,1E0,1.3E1,2.8E1,4E0,1E0,1E0,6E0,3E0,1.3E1,3E0,1E1,2.6E1,2E0,2E0,4E0,7E0,3E0,3E0,2.3E1,1E0,1E0,2E0,1E0,5E0,1.8E1,4E0,1.4E1],"tree_param":{"num_deleted":"0","num_feature":"18","num_nodes":"51","size_leaf_vector":"0"}},{"base_weights":[2.1347933E0,9.944392E0,1.7763206E0,8.5553867E-1,4.857405E0,3.0195627E0,4.6770725E-1,1.0186792E1,2.040113E0,-9.0097135E-1,3.5829108E0,-2.8265992E-1,1.2893091E0,3.2659583E0,4.088122E-1,8.2252485E-1,-6.66769E-1,2.3841634E0,1.2611614E-1,9.9657303E-1,4.8172383E0,-1.8848881E-1,1.838202E0,-8.927096E-1,-2.3821142E-2,3.60101E0,-1.6974773E-1,1.3999861E0,-2.117156E-1,1.8318309E-1,-9.8391736E-1,-9.160983E-1,-1.6607974E-1,8.0288565E-1,-3.1088078E-1,4.301846E0,-1.1776893E0,5.1276815E-1,-9.560741E-1,1.0849722E-2,-5.642104E-1,5.553006E-1,-7.1313757E-1,-5.118028E-1,3.991742E-3,-3.9763895E-1,1.833991E-1,5.7750836E-2,-7.167143E-1,1.8100342E-2,1.13278E0,-5.766212E-1,4.2736545E-1],"categories":[],"categories_nodes":[],"categories_segments":[],"categories_sizes":[],"default_left":[1,0,1,1,1,1,1,0,1,0,0,1,1,1,1,0,1,1,1,0,0,1,0,1,1,1,1,0,1,1,0,0,0,0,1,0,0,0,0,1,1,1,0,0,0,0,0,0,0,0,0,0,0],"id":21,"left_children":[1,-1,3,5,7,9,11,-1,13,-1,-1,15,17,19,21,-1,23,25,27,-1,-1,29,-1,31,33,35,37,-1,39,41,-1,-1,-1,-1,43,-1,-1,-1,-1,45,47,49,-1,-1,51,-1,-1,-1,-1,-1,-1,-1,-1],"loss_changes":[2.3174701E2,0E0,2.5304077E2,5.859356E1,2.752595E2,2.9317162E1,3.992638E1,0E0,2.9149696E1,0E0,0E0,1.569812E1,3.86212E1,2.2419968E1,8.060447E0,0E0,3.846939E0,4.9965256E1,7.7171845E0,0E0,0E0,2.6001062E0,0E0,7.118988E-2,2.506562E0,4.4752808E1,4.466398E0,0E0,1.1667659E0,2.9343202E0,0E0,0E0,0E0,0E0,4.9300975E-1,0E0,0E0,0E0,0E0,8.833401E-1,6.1599445E-1,1.7438309E0,0E0,0E0,1.5920845E0,0E0,0E0,0E0,0E0,0E0,0E0,0E0,0E0],"parents":[2147483647,0,0,2,2,3,3,4,4,5,5,6,6,8,8,11,11,12,12,13,13,14,14,16,16,17,17,18,18,21,21,23,23,24,24,25,25,26,26,28,28,29,29,34,34,39,39,40,40,41,41,44,44],"right_children":[2,-1,4,6,8,10,12,-1,14,-1,-1,16,18,20,22,-1,24,26,28,-1,-1,30,-1,32,34,36,38,-1,40,42,-1,-1,-1,-1,44,-1,-1,-1,-1,46,48,50,-1,-1,52,-1,-1,-1,-1,-1,-1,-1,-1],"split_conditions":[5E-1,6.825652E-1,2.5E0,7.68E2,1.3E1,3.5E0,1.45E1,6.9920313E-1,1.85E1,-6.1841056E-2,2.4592456E-1,2.5E0,2.25E1,1.55E1,2.35E1,5.645663E-2,1.5E0,6.5E7,1.536E3,6.840298E-2,3.306466E-1,5.5E7,1.2617089E-1,3E8,5.5E7,3.072E3,1.9E1,9.609254E-2,2.55E1,2.15E1,-6.753432E-2,-6.287935E-2,-1.1399415E-2,5.510863E-2,9E0,2.9527098E-1,-8.083448E-2,3.5195485E-2,-6.562321E-2,2.4E1,5E-1,1.95E1,-4.894848E-2,-3.5129227E-2,2.000001E0,-2.7293224E-2,1.2588185E-2,3.963914E-3,-4.9193986E-2,1.242375E-3,7.775199E-2,-3.9578244E-2,2.9333597E-2],"split_indices":[8,0,8,6,0,0,0,0,0,0,0,0,0,0,0,0,3,5,6,0,0,5,0,5,5,6,0,0,0,0,0,0,0,0,0,0,0,0,0,0,3,0,0,0,15,0,0,0,0,0,0,0,0],"split_type":[0,0,0,0,0,0,0,0,0,0,0,0,0,0,0,0,0,0,0,0,0,0,0,0,0,0,0,0,0,0,0,0,0,0,0,0,0,0,0,0,0,0,0,0,0,0,0,0,0,0,0,0,0],"sum_hessian":[9.2E1,2E0,9E1,7.1E1,1.9E1,9E0,6.2E1,5E0,1.4E1,1E0,8E0,3.3E1,2.9E1,7E0,7E0,8E0,2.5E1,1.4E1,1.5E1,4E0,3E0,6E0,1E0,1.8E1,7E0,9E0,5E0,2E0,1.3E1,5E0,1E0,1.7E1,1E0,1E0,6E0,8E0,1E0,3E0,2E0,9E0,4E0,4E0,1E0,3E0,3E0,2E0,7E0,1E0,3E0,3E0,1E0,1E0,2E0],"tree_param":{"num_deleted":"0","num_feature":"18","num_nodes":"53","size_leaf_vector":"0"}},{"base_weights":[1.7737676E0,1.0926142E0,4.3991327E0,1.5266188E0,1.2958045E-1,1.4190116E0,9.342211E0,1.7648561E0,-9.5955944E-1,1.1109198E0,-4.2180282E-1,1.9479151E0,-9.0177816E-1,8.5323834E-1,1.8581781E0,-1.6059344E0,1.741075E0,-1.8141886E0,1.0457948E0,2.0545266E0,-6.6081977E-1,1.8713741E0,2.6788393E-1,-3.1182082E0,-1.0452082E0,4.0311203E0,-9.705398E-2,5.2320488E-2,-2.4240208E-1,-4.287994E-2,1.8393019E-1,1.364923E-1,-1.5433373E-1,-2.6706284E-1,5.630214E-2],"categories":[],"categories_nodes":[],"categories_segments":[],"categories_sizes":[],"default_left":[1,1,1,1,1,1,0,1,0,1,1,0,0,1,0,0,1,1,1,0,0,0,0,0,0,0,1,1,0,1,0,0,1,0,0],"id":22,"left_children":[1,3,5,7,9,11,-1,13,-1,15,17,-1,-1,19,-1,-1,21,23,25,-1,-1,-1,-1,-1,-1,-1,27,29,-1,31,-1,-1,33,-1,-1],"loss_changes":[1.592807E2,3.1729195E1,2.5298553E2,3.4175995E1,1.4739337E1,1.9910746E1,0E0,1.3932953E0,0E0,2.1523375E1,3.953743E1,0E0,0E0,1.64281E1,0E0,0E0,8.0644226E-1,4.104229E0,3.389733E1,0E0,0E0,0E0,0E0,0E0,0E0,0E0,2.1170643E-1,8.557315E-2,0E0,1.3126045E-1,0E0,0E0,1.14835255E-1,0E0,0E0],"parents":[2147483647,0,0,1,1,2,2,3,3,4,4,5,5,7,7,9,9,10,10,13,13,16,16,17,17,18,18,26,26,27,27,29,29,32,32],"right_children":[2,4,6,8,10,12,-1,14,-1,16,18,-1,-1,20,-1,-1,22,24,26,-1,-1,-1,-1,-1,-1,-1,28,30,-1,32,-1,-1,34,-1,-1],"split_conditions":[2.5E0,8.5E7,5.5E-2,3.072E3,7.68E2,5.5E7,6.412326E-1,5.5E-2,-6.586244E-2,5E-1,2.35E8,1.337014E-1,-6.1896436E-2,1.536E3,1.2754202E-1,-1.1022846E-1,5.5E-4,5E-1,5E-1,1.4101902E-1,-4.5357484E-2,1.2844776E-1,1.8387072E-2,-2.1402821E-1,-7.1741216E-2,2.7668887E-1,3.65E8,5.5E-4,-1.6638044E-2,5E-1,1.2624638E-2,9.368586E-3,3.25E8,-1.8330714E-2,3.8644779E-3],"split_indices":[8,5,9,6,6,5,0,9,0,8,5,0,0,6,0,0,9,8,8,0,0,0,0,0,0,0,5,9,0,11,0,0,5,0,0],"split_type":[0,0,0,0,0,0,0,0,0,0,0,0,0,0,0,0,0,0,0,0,0,0,0,0,0,0,0,0,0,0,0,0,0,0,0],"sum_hessian":[9.2E1,7.5E1,1.7E1,5.1E1,2.4E1,1.2E1,5E0,4.7E1,4E0,8E0,1.6E1,1E1,2E0,6E0,4.1E1,1E0,7E0,8E0,8E0,3E0,3E0,6E0,1E0,1E0,7E0,1E0,7E0,4E0,3E0,3E0,1E0,1E0,2E0,1E0,1E0],"tree_param":{"num_deleted":"0","num_feature":"18","num_nodes":"35","size_leaf_vector":"0"}},{"base_weights":[1.8381636E0,5.066386E0,1.4648229E0,5.8390527E0,-6.153511E-1,3.8145475E0,9.9866855E-1,8.145648E0,8.836175E-1,2.7680979E0,7.895085E-1,2.4947822E0,1.8954532E-2,3.5594833E0,-9.3661475E-1,2.5493734E0,6.787406E-1,-5.8146334E-1,5.0897497E-1,8.7785375E-1,-3.6330763E-1,1.0240698E0,-2.4262355E-1,2.411721E0,7.8207916E-1,9.147997E-1,3.1004313E-1,6.894883E-1,4.018066E0,-8.8254297E-1,5.952398E-1,7.857264E-1,-5.591199E-2,6.480612E-1,1.526925E-1],"categories":[],"categories_nodes":[],"categories_segments":[],"categories_sizes":[],"default_left":[1,1,1,0,0,1,0,0,0,1,1,0,1,0,0,0,1,0,1,1,0,0,0,0,1,1,1,1,0,0,1,0,0,0,0],"id":23,"left_children":[1,3,5,-1,-1,7,9,-1,11,13,15,-1,17,-1,-1,-1,19,-1,21,23,-1,-1,-1,-1,25,27,29,31,-1,-1,33,-1,-1,-1,-1],"loss_changes":[1.08524506E2,4.8981552E1,9.496278E1,0E0,0E0,1.745666E2,2.5715263E1,0E0,1.4874529E1,2.8469978E1,1.1369381E1,0E0,3.0841758E0,0E0,0E0,0E0,1.5437988E1,0E0,2.6521833E0,5.6474953E0,0E0,0E0,0E0,0E0,3.2498932E0,2.7168484E1,6.264292E0,3.2855148E0,0E0,0E0,1.4924097E-1,0E0,0E0,0E0,0E0],"parents":[2147483647,0,0,1,1,2,2,5,5,6,6,8,8,9,9,10,10,12,12,16,16,18,18,19,19,24,24,25,25,26,26,27,27,30,30],"right_children":[2,4,6,-1,-1,8,10,-1,12,14,16,-1,18,-1,-1,-1,20,-1,22,24,-1,-1,-1,-1,26,28,30,32,-1,-1,34,-1,-1,-1,-1],"split_conditions":[1.5E0,4.65E8,3E0,4.007821E-1,-4.2236593E-2,3E7,1.5E0,5.5910265E-1,5E-1,5.5E7,5E-1,1.7123738E-1,1.5E0,2.4431655E-1,-6.428756E-2,1.7498441E-1,3E0,-3.99106E-2,1.95E8,5E-1,-2.4936784E-2,7.029031E-2,-1.6653245E-2,1.655362E-1,6.5E7,3.5E7,1.5E0,2.5E7,2.7579284E-1,-6.0576167E-2,1.95E8,5.3930853E-2,-3.8376988E-3,4.4481758E-2,1.0480539E-2],"split_indices":[16,5,17,0,0,5,12,0,12,5,3,0,3,0,0,0,16,0,5,11,0,0,0,0,5,5,3,5,0,0,5,0,0,0,0],"split_type":[0,0,0,0,0,0,0,0,0,0,0,0,0,0,0,0,0,0,0,0,0,0,0,0,0,0,0,0,0,0,0,0,0,0,0],"sum_hessian":[9.9E1,8E0,9.1E1,7E0,1E0,1.3E1,7.8E1,4E0,9E0,6E0,7.2E1,2E0,7E0,5E0,1E0,2E0,7E1,3E0,4E0,5.9E1,1.1E1,2E0,2E0,1E0,5.8E1,4.4E1,1.4E1,4.3E1,1E0,2E0,1.2E1,3.8E1,5E0,1E1,2E0],"tree_param":{"num_deleted":"0","num_feature":"18","num_nodes":"35","size_leaf_vector":"0"}},{"base_weights":[1.8120294E0,1.3985045E0,8.808106E0,2.0892222E0,6.540297E-2,7.037023E-1,2.5910995E0,1.5111984E0,-8.2808006E-1,9.143564E-1,-2.0967677E-1,3.693845E-1,3.0203521E0,1.9681457E0,3.578553E-1,-4.1009885E-1,-9.892439E-1,-4.4216752E-2,1.0709162E0,8.391609E-1,-8.8037306E-1,1.4076916E0,-8.074592E-2,3.9837136E0,1.4176458E0,1.7446296E0,-5.74486E-1,-2.4883737E-1,-6.0579544E-1,-1.3529782E0,-4.0348792E-1,4.917947E-1,-5.5219424E-1,-8.254994E-2,1.1814163E0,2.5200573E-1,-3.8391072E-1,1.1833308E0,4.172982E0,-3.8761818E-1,1.7294915E0,-7.2162795E-1,-9.01535E-3,-6.191332E-2,-5.511017E-1,-5.283413E-1,-2.0002866E-1],"categories":[],"categories_nodes":[],"categories_segments":[],"categories_sizes":[],"default_left":[1,1,0,1,1,1,1,1,1,1,1,0,1,0,1,1,0,1,1,0,0,0,1,1,1,0,1,1,0,0,1,0,0,0,0,0,0,0,0,0,0,0,0,0,0,0,0],"id":24,"left_children":[1,3,-1,5,7,9,11,13,15,17,19,21,23,-1,25,27,29,31,33,-1,-1,-1,35,37,39,-1,41,43,-1,-1,45,-1,-1,-1,-1,-1,-1,-1,-1,-1,-1,-1,-1,-1,-1,-1,-1],"loss_changes":[2.4111697E2,8.054985E1,0E0,3.6981567E1,4.3169388E1,3.7454863E0,3.78656E1,5.4892197E0,6.924114E-1,2.2938013E0,4.614382E0,4.280511E0,4.38266E1,0E0,9.156858E0,1.3920784E-2,1.9787016E0,1.4888078E0,1.7927322E0,0E0,0E0,0E0,9.484028E-1,2.41687E0,1.0022942E1,0E0,3.8273335E-1,3.778207E-1,0E0,0E0,1.2984276E-2,0E0,0E0,0E0,0E0,0E0,0E0,0E0,0E0,0E0,0E0,0E0,0E0,0E0,0E0,0E0,0E0],"parents":[2147483647,0,0,1,1,3,3,4,4,5,5,6,6,7,7,8,8,9,9,10,10,11,11,12,12,14,14,15,15,16,16,17,17,18,18,22,22,23,23,24,24,26,26,27,27,30,30],"right_children":[2,4,-1,6,8,10,12,14,16,18,20,22,24,-1,26,28,30,32,34,-1,-1,-1,36,38,40,-1,42,44,-1,-1,46,-1,-1,-1,-1,-1,-1,-1,-1,-1,-1,-1,-1,-1,-1,-1,-1],"split_conditions":[4.5E0,1.5E7,6.045726E-1,5E-1,5.5E-2,7E2,5E1,1.536E3,5E-1,5.5E-4,1.536E3,1E-6,5E6,1.3509E-1,1.5E2,3.072E3,5E7,7.68E2,1.5E2,5.75985E-2,-6.0427226E-2,9.6621424E-2,7.68E2,7.68E2,5.5E-2,1.1974825E-1,2.5E0,2.5E2,-4.158071E-2,-9.2865996E-2,6.5E2,3.3755906E-2,-3.790162E-2,-5.6660795E-3,8.1090294E-2,1.7297221E-2,-2.6350943E-2,8.12217E-2,2.86426E-1,-2.6605416E-2,1.1870919E-1,-4.9531247E-2,-6.1879744E-4,-4.2496193E-3,-3.782663E-2,-3.6264397E-2,-1.3729608E-2],"split_indices":[1,14,0,1,9,7,7,6,1,9,6,15,14,0,7,6,14,6,7,0,0,0,6,6,9,0,1,7,0,0,7,0,0,0,0,0,0,0,0,0,0,0,0,0,0,0,0],"split_type":[0,0,0,0,0,0,0,0,0,0,0,0,0,0,0,0,0,0,0,0,0,0,0,0,0,0,0,0,0,0,0,0,0,0,0,0,0,0,0,0,0,0,0,0,0,0,0],"sum_hessian":[8.9E1,8.6E1,3E0,5.6E1,3E1,1.6E1,4E1,1.1E1,1.9E1,1.3E1,3E0,7E0,3.3E1,7E0,4E0,7E0,1.2E1,2E0,1.1E1,1E0,2E0,1E0,6E0,1.9E1,1.4E1,1E0,3E0,6E0,1E0,6E0,6E0,1E0,1E0,1E0,1E1,3E0,3E0,2E0,1.7E1,2E0,1.2E1,2E0,1E0,5E0,1E0,2E0,4E0],"tree_param":{"num_deleted":"0","num_feature":"18","num_nodes":"47","size_leaf_vector":"0"}},{"base_weights":[2.3011415E0,1.9217476E0,9.8363085E0,3.86823E0,1.2961075E0,-1.9646035E-1,6.1290255E0,-3.908823E-1,1.4437302E0,-1.1088684E0,9.8059833E-1,8.938332E0,3.0663502E0,2.8691587E-1,-7.822932E-1,2.8395286E0,1.0439391E0,2.379766E-1,1.3723795E0,-1.9850478E-1,5.9030205E-1,1.2758707E0,2.5793514E-1,2.00718E-1,1.5895561E0,2.3833904E0,-4.568555E-1,-3.962175E-1,5.2113163E-1,2.4000316E0,9.677652E-1,-9.2325795E-1,-8.490262E-3,7.674281E-1,-9.916032E-2,2.169618E-1,1.3508354E0,6.7534125E-1,-4.513372E-1,1.2213565E0,-4.3107178E-2,-1.01892166E-1,9.808232E-1,6.994833E-1,1.7507023E0],"categories":[],"categories_nodes":[],"categories_segments":[],"categories_sizes":[],"default_left":[1,1,0,1,1,1,1,1,1,0,1,0,0,1,0,0,1,0,0,0,0,1,1,1,1,0,1,0,1,0,1,0,1,1,0,1,1,0,0,0,0,0,0,0,0],"id":25,"left_children":[1,3,-1,5,7,9,11,13,15,-1,17,-1,-1,19,-1,-1,21,-1,-1,-1,-1,23,25,27,29,-1,31,-1,33,-1,35,-1,37,39,-1,41,43,-1,-1,-1,-1,-1,-1,-1,-1],"loss_changes":[2.1514087E2,9.448645E1,0E0,1.8345569E2,1.759974E1,1.1270231E1,6.199518E1,2.1768336E0,2.9303604E1,0E0,8.1083965E-1,0E0,0E0,7.537042E-1,0E0,0E0,8.677696E0,0E0,0E0,0E0,0E0,1.2510109E1,2.2759466E1,2.4119825E0,1.0952591E1,0E0,2.4405944E0,0E0,1.3140726E0,0E0,5.1673927E0,0E0,2.8719785E0,2.201984E0,0E0,2.3013663E0,1.1908932E0,0E0,0E0,0E0,0E0,0E0,0E0,0E0,0E0],"parents":[2147483647,0,0,1,1,3,3,4,4,5,5,6,6,7,7,8,8,10,10,13,13,16,16,21,21,22,22,23,23,24,24,26,26,28,28,30,30,32,32,33,33,35,35,36,36],"right_children":[2,4,-1,6,8,10,12,14,16,-1,18,-1,-1,20,-1,-1,22,-1,-1,-1,-1,24,26,28,30,-1,32,-1,34,-1,36,-1,38,40,-1,42,44,-1,-1,-1,-1,-1,-1,-1,-1],"split_conditions":[3.5E0,1.5E2,6.751466E-1,1E1,1.5E0,1.5E0,2.1E1,5E-1,7.5E0,-7.6110736E-2,3.5E0,6.13511E-1,2.1046878E-1,6.5E2,-5.3695202E-2,1.9490014E-1,2.25E1,1.6334286E-2,9.419767E-2,-1.3625012E-2,4.0517274E-2,1.15E1,5E-1,3.5E2,3.5E2,1.6359164E-1,3E0,-2.7195659E-2,3E0,1.6473386E-1,5E2,-6.337077E-2,3E2,9.5E0,-6.8061864E-3,2.05E1,1.5E0,4.6354212E-2,-3.0978974E-2,8.383172E-2,-2.9587992E-3,-6.9936956E-3,6.732195E-2,4.8011277E-2,1.20165065E-1],"split_indices":[10,7,0,0,0,3,0,0,0,0,0,0,0,7,0,0,0,0,0,0,0,0,3,7,7,0,16,0,16,0,7,0,7,0,0,0,3,0,0,0,0,0,0,0,0],"split_type":[0,0,0,0,0,0,0,0,0,0,0,0,0,0,0,0,0,0,0,0,0,0,0,0,0,0,0,0,0,0,0,0,0,0,0,0,0,0,0,0,0,0,0,0,0],"sum_hessian":[8.5E1,8.3E1,2E0,1.8E1,6.5E1,7E0,1.1E1,5E0,6E1,4E0,3E0,4E0,7E0,2E0,3E0,1.1E1,4.9E1,2E0,1E0,1E0,1E0,3.7E1,1.2E1,9E0,2.8E1,2E0,1E1,3E0,6E0,1E1,1.8E1,4E0,6E0,4E0,2E0,7E0,1.1E1,2E0,4E0,2E0,2E0,6E0,1E0,6E0,5E0],"tree_param":{"num_deleted":"0","num_feature":"18","num_nodes":"45","size_leaf_vector":"0"}},{"base_weights":[1.7065226E0,1.2800045E0,9.702404E0,3.5050914E0,9.4949603E-1,5.5387735E0,1.2105179E0,1.418032E0,-4.570579E-1,-2.1627204E0,3.0412529E0,1.5664388E0,-1.0362515E0,2.778375E-1,-6.914329E-1,3.18369E-1,-3.2715163E0,4.1158237E0,-7.4851084E-1,5.05707E-1,1.8880929E0,7.504553E-1,-8.8923347E-1,-1.1475532E0,-1.1200572E-1,3.8737416E-1,8.65338E-1,3.326315E0,1.5344858E0,8.1930673E-1,1.5506671E-1,-1.3138323E0,-2.69971E-1,-3.528929E-1,1.6277203E-1,6.314887E-1,2.964023E-1,3.9129946E0,-2.2864634E-1,1.0883914E0,2.9521775E0,3.4498727E-1,-2.5589186E-1,-1.9339727E-1,1.436547E0,3.7606668E-1,-3.5141522E-1,1.8059673E0,9.7905177E-1],"categories":[],"categories_nodes":[],"categories_segments":[],"categories_sizes":[],"default_left":[1,1,0,1,1,0,1,1,1,1,1,1,0,1,1,0,0,0,0,1,0,1,0,1,1,1,0,1,1,0,0,0,0,0,1,0,0,0,0,1,0,0,0,1,1,0,0,0,0],"id":26,"left_children":[1,3,-1,5,7,-1,9,11,13,15,17,19,-1,21,23,-1,-1,-1,-1,25,27,29,-1,31,33,35,-1,37,39,-1,-1,-1,-1,-1,41,-1,-1,-1,-1,43,-1,-1,-1,45,47,-1,-1,-1,-1],"loss_changes":[3.151658E2,6.462685E1,0E0,4.3124893E1,5.762731E1,0E0,5.919492E1,2.6397339E1,4.249677E0,1.2086973E1,2.8709084E1,1.9405777E1,0E0,4.874179E0,4.464239E0,0E0,0E0,0E0,0E0,1.3015318E-1,1.4906128E1,1.4503479E-2,0E0,8.0481243E-1,7.4418724E-1,2.442789E-2,0E0,1.7688469E1,2.0183624E1,0E0,0E0,0E0,0E0,0E0,5.9087706E-1,0E0,0E0,0E0,0E0,1.5537632E1,0E0,0E0,0E0,1.0155833E0,1.4485893E0,0E0,0E0,0E0,0E0],"parents":[2147483647,0,0,1,1,3,3,4,4,6,6,7,7,8,8,9,9,10,10,11,11,13,13,14,14,19,19,20,20,21,21,23,23,24,24,25,25,27,27,28,28,34,34,39,39,43,43,44,44],"right_children":[2,4,-1,6,8,-1,10,12,14,16,18,20,-1,22,24,-1,-1,-1,-1,26,28,30,-1,32,34,36,-1,38,40,-1,-1,-1,-1,-1,42,-1,-1,-1,-1,44,-1,-1,-1,46,48,-1,-1,-1,-1],"split_conditions":[4.5E0,5E-1,6.659556E-1,7.68E2,8.5E7,3.8017148E-1,1.95E8,3.072E3,7.68E2,1E0,4.65E8,5E-1,-7.1126446E-2,5E-1,1.95E8,2.1852277E-2,-2.24551E-1,2.8250277E-1,-5.137644E-2,2.5E7,1.5E0,5.5E-4,-6.103539E-2,5.5E-2,5.5E-4,1.536E3,5.939525E-2,4E7,2.5E7,5.6235746E-2,1.0643501E-2,-9.017909E-2,-1.8530326E-2,-2.4221936E-2,3.4E8,4.3344248E-2,2.0344522E-2,2.6858094E-1,-1.5693875E-2,5.5E-2,2.0263217E-1,2.3679307E-2,-1.7563958E-2,1.536E3,2.5E0,2.5812542E-2,-2.412051E-2,1.2395836E-1,6.7200355E-2],"split_indices":[1,13,0,6,5,0,5,6,6,1,5,1,0,1,5,0,0,0,0,5,13,9,0,9,9,6,0,5,5,0,0,0,0,0,5,0,0,0,0,9,0,0,0,6,1,0,0,0,0],"split_type":[0,0,0,0,0,0,0,0,0,0,0,0,0,0,0,0,0,0,0,0,0,0,0,0,0,0,0,0,0,0,0,0,0,0,0,0,0,0,0,0,0,0,0,0,0,0,0,0,0],"sum_hessian":[9.7E1,9.4E1,3E0,1E1,8.4E1,4E0,6E0,6.3E1,2.1E1,2E0,4E0,6E1,3E0,5E0,1.6E1,1E0,1E0,3E0,1E0,1.5E1,4.5E1,4E0,1E0,8E0,8E0,1.4E1,1E0,6E0,3.9E1,3E0,1E0,6E0,2E0,4E0,4E0,1E0,1.3E1,5E0,1E0,3.2E1,7E0,3E0,1E0,7E0,2.5E1,1E0,6E0,1.1E1,1.4E1],"tree_param":{"num_deleted":"0","num_feature":"18","num_nodes":"49","size_leaf_vector":"0"}},{"base_weights":[1.117796E0,1.6969056E0,3.4421396E-1,1.9271888E0,-8.1338006E-1,2.8276863E0,-2.796274E-1,2.3300424E0,5.7687104E-1,7.887716E0,4.0338713E-1,-1.2940805E0,9.39769E-2,-5.4666317E-1,2.5176E0,-7.288552E-1,1.059601E0,-3.2779694E0,3.9368818E0,-1.6135339E0,-3.1244386E-2,1.5047381E0,-1.17165916E-1,3.6278913E0,2.0279417E0,-2.0453978E-1,-9.822855E-1,1.4133532E0,9.333068E-2,-2.651997E-1,5.1848245E0,-2.4668103E-1,2.0399486E-1,-4.8808017E-1,4.799777E-1,4.1181045E0,-6.0098406E-2,1.1779728E0,2.9351354E0,1.8473799E0,7.028546E-1,-2.6563868E-1,5.2429336E-1,-1.366352E-1,-6.1758804E-1,7.912161E-1,1.8170491E-1,-4.5354422E-2,4.747874E0,1.3332407E0,-2.3371808E-2,6.1735597E-2,1.3665828E0,1.5145174E-1,-4.3835112E-1,-7.3731387E-1,-1.8584523E-2,-2.2349705E-1,7.1939015E-1,1.5117687E-1,-3.2438386E-2,8.4363097E-1,-4.2582843E-1,-1.1070566E0,-4.7496918E-1,-8.744478E-2,6.2045224E-2,-3.2167885E-1,8.824242E-2,-6.327384E-1,-2.0093085E-1],"categories":[],"categories_nodes":[],"categories_segments":[],"categories_sizes":[],"default_left":[0,1,1,1,0,1,1,1,1,0,1,0,1,0,0,1,1,0,1,0,1,0,1,0,1,0,0,1,1,0,0,0,0,0,1,1,0,1,0,0,1,0,0,1,1,0,1,0,0,0,0,1,0,1,0,0,1,0,0,0,0,0,0,0,1,0,0,0,0,0,0],"id":27,"left_children":[1,3,5,7,-1,9,11,13,15,-1,17,19,21,-1,23,25,27,-1,29,-1,31,-1,33,35,37,-1,-1,39,41,-1,-1,-1,-1,43,45,47,-1,49,-1,-1,51,-1,-1,53,55,-1,57,-1,-1,-1,-1,59,-1,61,-1,63,65,67,-1,-1,-1,-1,-1,-1,69,-1,-1,-1,-1,-1,-1],"loss_changes":[4.1426506E1,3.378531E1,6.758391E1,2.4721634E1,0E0,1.0164262E2,1.3755397E1,2.2750137E1,9.999019E0,0E0,1.2303914E2,3.840126E0,8.568037E0,0E0,6.65448E0,2.8042674E-1,3.4407396E0,0E0,2.7224167E1,0E0,2.7672076E-1,0E0,6.1070333E0,1.6224182E1,1.6154846E1,0E0,0E0,1.3112068E-1,9.745291E-1,0E0,0E0,0E0,0E0,6.1519E-1,7.4701166E-1,2.0658691E1,0E0,3.3625278E0,0E0,0E0,2.2943575E0,0E0,0E0,7.007993E-1,8.1783867E-1,0E0,1.9646828E0,0E0,0E0,0E0,0E0,4.841517E-2,0E0,2.5162559E0,0E0,3.137827E-2,3.0165717E-2,2.2486794E-1,0E0,0E0,0E0,0E0,0E0,0E0,1.56919E-1,0E0,0E0,0E0,0E0,0E0,0E0],"parents":[2147483647,0,0,1,1,2,2,3,3,5,5,6,6,7,7,8,8,10,10,11,11,12,12,14,14,15,15,16,16,18,18,20,20,22,22,23,23,24,24,27,27,28,28,33,33,34,34,35,35,37,37,40,40,43,43,44,44,46,46,51,51,53,53,55,55,56,56,57,57,64,64],"right_children":[2,4,6,8,-1,10,12,14,16,-1,18,20,22,-1,24,26,28,-1,30,-1,32,-1,34,36,38,-1,-1,40,42,-1,-1,-1,-1,44,46,48,-1,50,-1,-1,52,-1,-1,54,56,-1,58,-1,-1,-1,-1,60,-1,62,-1,64,66,68,-1,-1,-1,-1,-1,-1,70,-1,-1,-1,-1,-1,-1],"split_conditions":[1.5E7,3E0,1.5E0,4.5E0,-5.5828948E-2,6.5E0,2.5E2,5E1,8.5E0,5.4139864E-1,1.05E1,2.5E7,2.5E0,-3.7521977E-2,1.5E0,2E2,1E1,-2.2499393E-1,3E0,-1.1075007E-1,3E0,1.03282526E-1,8E0,5E6,9E2,-1.4039244E-2,-6.7422315E-2,1.5E2,2.5E2,-1.820283E-2,3.5587704E-1,-1.6931744E-2,1.4001841E-2,2.5E7,3.5E2,3E0,-4.1250465E-3,6E2,2.0146242E-1,1.2680085E-1,5E2,-1.8232962E-2,3.5986554E-2,5E0,3E0,5.430765E-2,1.05E1,-3.113046E-3,3.2588553E-1,9.151125E-2,-1.604199E-3,3.5E2,9.3799785E-2,3E0,-3.0087635E-2,5E7,6.5E0,5E7,4.937765E-2,1.0376509E-2,-2.2265126E-3,5.7905316E-2,-2.9228099E-2,-7.598638E-2,6.5E2,-6.002053E-3,4.2586727E-3,-2.2079458E-2,6.0568014E-3,-4.343003E-2,-1.3791533E-2],"split_indices":[14,16,16,2,0,2,7,7,2,0,2,14,2,0,12,7,2,0,17,0,2,0,2,14,7,0,0,7,7,0,0,0,0,14,7,17,0,7,0,0,7,0,0,2,16,0,2,0,0,0,0,7,0,16,0,14,2,14,0,0,0,0,0,0,7,0,0,0,0,0,0],"split_type":[0,0,0,0,0,0,0,0,0,0,0,0,0,0,0,0,0,0,0,0,0,0,0,0,0,0,0,0,0,0,0,0,0,0,0,0,0,0,0,0,0,0,0,0,0,0,0,0,0,0,0,0,0,0,0,0,0,0,0,0,0,0,0,0,0,0,0,0,0,0,0],"sum_hessian":[9.3E1,5.2E1,4.1E1,4.8E1,4E0,7E0,3.4E1,3.6E1,1.2E1,1E0,6E0,8E0,2.6E1,2E0,3.4E1,3E0,9E0,3E0,3E0,6E0,2E0,2E0,2.4E1,7E0,2.7E1,2E0,1E0,6E0,3E0,1E0,2E0,1E0,1E0,1.5E1,9E0,6E0,1E0,1.6E1,1.1E1,2E0,4E0,2E0,1E0,5E0,1E1,3E0,6E0,1E0,5E0,1.4E1,2E0,3E0,1E0,3E0,2E0,8E0,2E0,4E0,2E0,1E0,2E0,1E0,2E0,1E0,7E0,1E0,1E0,3E0,1E0,3E0,4E0],"tree_param":{"num_deleted":"0","num_feature":"18","num_nodes":"71","size_leaf_vector":"0"}},{"base_weights":[1.5684155E0,1.2252545E0,7.419194E0,2.878628E0,8.968454E-1,9.124625E0,-2.4049303E-1,1.3235828E0,6.3333755E0,2.906846E-1,1.2862957E0,1.0768843E-1,2.2424204E0,9.343991E-1,-2.5778666E-1,7.689852E0,9.186682E-1,-5.046017E-1,4.739127E-1,6.3860875E-1,2.1506846E0,-4.040795E-1,2.725614E-1,1.2597548E0,1.6476458E-1,7.551332E-1,-4.3672732E-1,-5.6286186E-1,-2.3963052E-1,1.6508949E-1,1.9211936E0,1.9460893E0,-5.480422E-1,6.023245E-2,9.8305696E-1,5.965832E-1,-1.0557504E0,-8.111792E-1,-3.6077058E-1,7.9318825E-3,1.12518884E-1,2.5906116E-1,1.0855752E0,1.3976848E0,3.215496E-1,3.7384569E-3,-7.43184E-1,-3.175268E-1,6.04119E-1],"categories":[],"categories_nodes":[],"categories_segments":[],"categories_sizes":[],"default_left":[1,1,1,1,1,0,0,1,0,1,1,1,0,1,1,0,1,0,0,1,0,1,0,1,1,1,0,0,0,1,0,0,1,1,1,0,0,0,1,0,0,0,0,0,1,0,0,0,0],"id":28,"left_children":[1,3,5,7,9,-1,-1,11,-1,13,15,17,-1,19,21,-1,23,-1,-1,25,-1,27,-1,29,31,33,-1,-1,-1,35,-1,-1,37,39,41,43,-1,-1,45,-1,-1,-1,-1,-1,47,-1,-1,-1,-1],"loss_changes":[2.045404E2,5.2930344E1,7.8743225E1,7.535701E1,2.0770767E1,0E0,0E0,1.4926825E1,0E0,1.3741366E1,1.1658984E2,2.1499286E0,0E0,3.9960985E0,1.8776587E0,0E0,1.3457619E1,0E0,0E0,2.669701E0,0E0,2.2889113E-1,0E0,2.604821E1,2.5641973E1,2.3895006E0,0E0,0E0,0E0,9.383119E0,0E0,0E0,2.1799421E-1,1.4129195E-2,3.8273335E-1,2.0257597E0,0E0,0E0,1.6408191E0,0E0,0E0,0E0,0E0,0E0,2.452434E0,0E0,0E0,0E0,0E0],"parents":[2147483647,0,0,1,1,2,2,3,3,4,4,7,7,9,9,10,10,11,11,13,13,14,14,16,16,19,19,21,21,23,23,24,24,25,25,29,29,32,32,33,33,34,34,35,35,38,38,44,44],"right_children":[2,4,6,8,10,-1,-1,12,-1,14,16,18,-1,20,22,-1,24,-1,-1,26,-1,28,-1,30,32,34,-1,-1,-1,36,-1,-1,38,40,42,44,-1,-1,46,-1,-1,-1,-1,-1,48,-1,-1,-1,-1],"split_conditions":[3.5E0,3E0,1.9E1,5.005E-2,1.05E1,6.262979E-1,-1.650701E-2,3.5E0,4.3471152E-1,7.5E0,1.25E1,1.5E0,1.5391572E-1,6.5E0,9.5E0,5.2781767E-1,2.25E1,-3.4634955E-2,3.2528516E-2,5.5E0,1.4761913E-1,8.5E0,1.8708125E-2,1.65E1,5E-1,1.5E0,-2.997618E-2,-3.8633827E-2,-1.6447809E-2,5.5E-2,1.3186727E-1,1.3357608E-1,2.4E1,3E0,1E0,1.5E0,-7.246481E-2,-5.5677887E-2,2.55E1,5.4443016E-4,7.7230944E-3,1.7781492E-2,7.451194E-2,9.593458E-2,1.45E1,2.5660096E-4,-5.1010814E-2,-2.1794468E-2,4.1465644E-2],"split_indices":[10,17,0,9,0,0,0,0,0,0,0,3,0,0,0,0,0,0,0,0,0,0,0,0,3,12,0,0,0,9,0,0,0,0,0,12,0,0,0,0,0,0,0,0,0,0,0,0,0],"split_type":[0,0,0,0,0,0,0,0,0,0,0,0,0,0,0,0,0,0,0,0,0,0,0,0,0,0,0,0,0,0,0,0,0,0,0,0,0,0,0,0,0,0,0,0,0,0,0,0,0],"sum_hessian":[1.08E2,1.04E2,4E0,1.5E1,8.9E1,3E0,1E0,1.2E1,3E0,3.6E1,5.3E1,6E0,6E0,1.6E1,2E1,1E0,5.2E1,2E0,4E0,1.5E1,1E0,1.6E1,4E0,3.5E1,1.7E1,1.4E1,1E0,6E0,1E1,1.4E1,2.1E1,4E0,1.3E1,4E0,1E1,1.1E1,3E0,3E0,1E1,3E0,1E0,2E0,8E0,1E0,1E1,6E0,4E0,3E0,7E0],"tree_param":{"num_deleted":"0","num_feature":"18","num_nodes":"49","size_leaf_vector":"0"}},{"base_weights":[1.3155519E0,5.7516274E0,4.670649E-1,3.0855682E0,7.4714756E0,7.139573E-1,-1.424532E-2,5.753565E-1,8.224867E0,-4.129828E-1,9.622538E-1,-5.293515E-1,4.100011E-1,-5.4113394E-1,2.0221531E0,-6.8071824E-1,1.7572013E-1,1.1665648E0,-8.811307E-2,1.06664374E-1,-1.4486644E0,1.1488057E-1,8.184919E-1,-2.5279324E0,1.6971127E0,3.464965E0,-7.037578E-1,9.5939386E-1,-1.005838E0,7.733165E-1,1.8898383E0,-3.2328275E-1,1.4830886E-2,-6.0176414E-1,3.073561E-1,8.8085604E-1,-3.232064E-1,1.089264E0,9.487763E-2,-5.2579593E-2,1.3626237E0,1.208015E0,3.901523E-2,1.5659848E-1,5.3854835E-1,-1.0528026E0,7.3725255E-3,2.4954277E-1,1.5446796E0,5.928581E-1,-4.6328273E-1,9.2019635E-1,2.0967345E0,1.0996296E0,-5.4372877E-1,1.8900001E-1,-2.2513699E-2,-8.534501E-2,4.3143068E-2,1.298226E0,-1.3175769E-1,7.0874475E-2,1.6845599E-2,-1.44759305E-2,6.0395043E-2],"categories":[],"categories_nodes":[],"categories_segments":[],"categories_sizes":[],"default_left":[1,1,0,1,0,0,0,1,0,1,1,1,0,1,1,0,1,1,1,1,0,1,1,0,0,0,0,1,0,1,0,0,0,0,0,0,1,1,1,0,0,1,1,1,0,0,0,0,0,0,0,1,0,0,0,0,0,0,1,0,0,0,1,0,0],"id":29,"left_children":[1,3,5,7,-1,9,11,13,-1,15,17,19,21,23,25,-1,27,29,31,33,-1,35,37,-1,-1,-1,-1,39,-1,41,-1,-1,-1,-1,43,-1,45,47,49,-1,-1,51,53,55,-1,-1,57,-1,-1,-1,-1,59,-1,-1,-1,-1,-1,-1,61,-1,-1,-1,63,-1,-1],"loss_changes":[3.443902E2,2.7541687E1,9.492903E0,1.0448686E2,0E0,1.5446402E1,6.65661E0,1.4396549E1,0E0,1.8999187E0,9.5644E0,8.299903E0,1.8543053E0,3.2957428E1,1.8928415E1,0E0,6.060975E0,7.9111786E0,2.1984163E-1,1.7053605E0,0E0,4.4325867E0,1.1403513E0,0E0,0E0,0E0,0E0,1.6490705E0,0E0,8.452284E0,0E0,0E0,0E0,0E0,1.5802264E-1,0E0,2.1206236E0,1.1418734E0,1.5153741E0,0E0,0E0,9.3089104E-1,8.29189E0,5.2295476E-2,0E0,0E0,3.204781E-2,0E0,0E0,0E0,0E0,6.5548754E0,0E0,0E0,0E0,0E0,0E0,0E0,2.8340612E-3,0E0,0E0,0E0,9.345232E-3,0E0,0E0],"parents":[2147483647,0,0,1,1,2,2,3,3,5,5,6,6,7,7,9,9,10,10,11,11,12,12,13,13,14,14,16,16,17,17,18,18,19,19,21,21,22,22,27,27,29,29,34,34,36,36,37,37,38,38,41,41,42,42,43,43,46,46,51,51,58,58,62,62],"right_children":[2,4,6,8,-1,10,12,14,-1,16,18,20,22,24,26,-1,28,30,32,34,-1,36,38,-1,-1,-1,-1,40,-1,42,-1,-1,-1,-1,44,-1,46,48,50,-1,-1,52,54,56,-1,-1,58,-1,-1,-1,-1,60,-1,-1,-1,-1,-1,-1,62,-1,-1,-1,64,-1,-1],"split_conditions":[5E-1,1.536E3,1.5E7,3.5E0,5.128287E-1,1.5E0,2.5E7,7.68E2,5.645401E-1,6E0,2.25E1,1.55E1,1.1E8,2.5E0,7E0,-4.672328E-2,1.65E1,2E1,2.4E1,8.5E0,-9.943373E-2,1.1E1,2.55E1,-1.7351274E-1,1.16486765E-1,2.3782898E-1,-4.8304673E-2,1.15E1,-6.903892E-2,8.5E0,1.2971511E-1,-2.2189548E-2,1.0179654E-3,-4.130401E-2,1.5E0,6.0460377E-2,1.5E1,1.2E1,1.536E3,-3.6089688E-3,9.352805E-2,6.5E0,7.68E2,3.072E3,3.6964994E-2,-7.226248E-2,5.5E7,1.7128168E-2,1.0602404E-1,4.0692713E-2,-3.1798895E-2,4E0,1.439161E-1,7.54766E-2,-3.7320565E-2,1.2972621E-2,-1.5452999E-3,-5.857928E-3,7.68E2,8.91079E-2,-9.043612E-3,4.864697E-3,2.05E1,-9.936019E-4,4.1454076E-3],"split_indices":[13,6,14,10,0,13,14,6,0,0,0,0,14,0,0,0,0,0,0,0,0,0,0,0,0,0,0,0,0,0,0,0,0,0,13,0,0,0,6,0,0,0,6,6,0,0,14,0,0,0,0,0,0,0,0,0,0,0,6,0,0,0,0,0,0],"split_type":[0,0,0,0,0,0,0,0,0,0,0,0,0,0,0,0,0,0,0,0,0,0,0,0,0,0,0,0,0,0,0,0,0,0,0,0,0,0,0,0,0,0,0,0,0,0,0,0,0,0,0,0,0,0,0,0,0,0,0,0,0,0,0,0,0],"sum_hessian":[9.1E1,1.3E1,7.8E1,7E0,6E0,5.1E1,2.7E1,6E0,1E0,9E0,4.2E1,1.2E1,1.5E1,4E0,2E0,6E0,3E0,3.5E1,7E0,8E0,4E0,1E1,5E0,2E0,2E0,1E0,1E0,2E0,1E0,2.5E1,1E1,1E0,6E0,1E0,7E0,3E0,7E0,3E0,2E0,1E0,1E0,1.5E1,1E1,6E0,1E0,1E0,6E0,2E0,1E0,1E0,1E0,1.4E1,1E0,3E0,7E0,5E0,1E0,1E0,5E0,1E1,4E0,1E0,4E0,3E0,1E0],"tree_param":{"num_deleted":"0","num_feature":"18","num_nodes":"65","size_leaf_vector":"0"}},{"base_weights":[1.5037656E0,5.2477164E0,1.0819778E0,6.031152E0,-2.9714447E-1,3.083357E0,6.3847965E-1,2.9445248E0,7.967359E0,5.3607926E0,9.578136E-1,1.1811075E0,-1.7864986E-1,-1.7946377E-1,6.38096E0,-5.5456203E-1,2.1802924E0,5.561142E-1,2.0076213E0,1.3609488E0,-3.7486148E-1,-8.3206224E-1,-1.9093724E-1,7.983726E-1,-5.7241887E-1,3.2886536E0,3.432157E-2,-7.1847093E-1,6.7468834E-1,4.6937552E-1,2.90527E0,-1.2674698E-1,-9.8060656E-1,-4.8043203E-1,3.1099102E-1,-2.50905E-1,-1.0146657E0,1.5776606E-2,1.3727713E0,6.8449026E-1,-8.8504857E-1,-8.741774E-1,6.550723E-2,-1.1974839E0,-1.7796906E-2,-3.2151866E-1,5.89625E-1,1.7872719E0,8.717964E-2,8.058139E-1,-2.095112E-1,3.7368387E-1,-3.3173805E-1,-1.3673573E0,-4.8101848E-1,-8.320413E-2,5.888003E-2,2.3611481E-1,1.1390674E0],"categories":[],"categories_nodes":[],"categories_segments":[],"categories_sizes":[],"default_left":[1,1,1,1,0,1,0,0,0,1,1,1,1,0,0,1,0,1,1,0,1,0,0,1,1,0,1,1,1,1,0,0,0,0,0,1,1,1,1,1,0,0,1,1,1,0,0,0,0,1,0,0,0,0,0,0,0,0,0],"id":30,"left_children":[1,3,5,7,-1,9,11,-1,-1,13,15,17,19,-1,-1,21,-1,23,25,-1,27,-1,-1,29,31,-1,33,35,37,39,-1,-1,-1,-1,-1,41,43,45,47,49,-1,-1,51,53,55,-1,-1,-1,-1,57,-1,-1,-1,-1,-1,-1,-1,-1,-1],"loss_changes":[1.3342784E2,4.106241E1,7.090669E1,5.5017395E0,0E0,6.2419662E1,3.1730663E1,0E0,0E0,4.006166E1,2.0100166E1,2.013747E1,9.868632E0,0E0,0E0,3.029182E-1,0E0,8.103066E0,4.463852E1,0E0,1.0844284E1,0E0,0E0,1.3392079E1,8.2765794E-1,0E0,1.5035812E0,2.5681667E0,3.5207782E0,7.384793E0,0E0,0E0,0E0,0E0,0E0,2.2167766E0,2.2840443E0,1.439444E0,1.7203074E0,2.4338198E0,0E0,0E0,1.2847369E0,1.6461754E-1,2.724538E-2,0E0,0E0,0E0,0E0,2.9002514E0,0E0,0E0,0E0,0E0,0E0,0E0,0E0,0E0,0E0],"parents":[2147483647,0,0,1,1,2,2,3,3,5,5,6,6,9,9,10,10,11,11,12,12,15,15,17,17,18,18,20,20,23,23,24,24,26,26,27,27,28,28,29,29,35,35,36,36,37,37,38,38,39,39,42,42,43,43,44,44,49,49],"right_children":[2,4,6,8,-1,10,12,-1,-1,14,16,18,20,-1,-1,22,-1,24,26,-1,28,-1,-1,30,32,-1,34,36,38,40,-1,-1,-1,-1,-1,42,44,46,48,50,-1,-1,52,54,56,-1,-1,-1,-1,58,-1,-1,-1,-1,-1,-1,-1,-1,-1],"split_conditions":[1.5E0,1.2E1,3E0,8.5E0,-2.0395463E-2,5.5E0,1.5E7,2.021069E-1,5.468652E-1,3.5E0,2E1,2.05E1,2.5E0,-1.2318071E-2,4.3797764E-1,7.5E0,1.4965135E-1,1.8E1,2.25E1,9.3413085E-2,1E1,-5.711126E-2,-1.3105589E-2,1.6E1,5E0,2.2572729E-1,2.4E1,1.15E1,1.1E1,3E0,1.9941252E-1,-8.699685E-3,-6.730708E-2,-3.2975994E-2,2.1345865E-2,8.5E0,3E0,1.05E1,1.5E1,1E1,-6.0748145E-2,-6.000197E-2,3E0,5E0,6.5E0,-2.2068463E-2,4.04708E-2,1.22675136E-1,5.9838537E-3,6.5E0,-1.4380474E-2,2.564899E-2,-2.2769906E-2,-9.3852945E-2,-3.3016246E-2,-5.7109823E-3,4.04142E-3,1.6206497E-2,7.818355E-2],"split_indices":[16,0,17,0,0,2,14,0,0,2,4,0,2,0,0,2,0,0,0,0,4,0,0,0,2,0,0,0,0,16,0,0,0,0,0,0,16,2,0,2,0,0,16,2,2,0,0,0,0,0,0,0,0,0,0,0,0,0,0],"split_type":[0,0,0,0,0,0,0,0,0,0,0,0,0,0,0,0,0,0,0,0,0,0,0,0,0,0,0,0,0,0,0,0,0,0,0,0,0,0,0,0,0,0,0,0,0,0,0,0,0,0,0,0,0,0,0,0,0,0,0],"sum_hessian":[8.9E1,7E0,8.2E1,6E0,1E0,1.3E1,6.9E1,4E0,2E0,5E0,8E0,4.1E1,2.8E1,1E0,4E0,4E0,4E0,2.5E1,1.6E1,2E0,2.6E1,1E0,3E0,2.1E1,4E0,9E0,7E0,2E1,6E0,2E1,1E0,3E0,1E0,2E0,5E0,9E0,1.1E1,4E0,2E0,1.8E1,2E0,2E0,7E0,9E0,2E0,3E0,1E0,1E0,1E0,1.6E1,2E0,4E0,3E0,6E0,3E0,1E0,1E0,7E0,9E0],"tree_param":{"num_deleted":"0","num_feature":"18","num_nodes":"59","size_leaf_vector":"0"}},{"base_weights":[9.022085E-1,7.0501345E-1,5.5358233E0,9.4545865E-1,-3.353674E0,7.944682E0,-3.8567287E-1,3.7019643E-1,1.3586931E0,-3.8943903E0,-2.8969067E-1,2.0728543E0,1.3946398E-1,7.1096687E0,1.0089382E0,4.1143748E-1,-1.7446165E-1,1.3164301E0,-8.098702E-3,6.2805384E-1,-5.505615E-1,6.296457E-1,-5.4674774E-1,1.4847298E0,-9.951423E-1,1.3950734E0,-4.5360523E-1,2.5744882E-1,1.8970952E0,-7.983413E-2,-6.3943595E-1,2.4470186E-1,8.250067E-1,-7.283086E-1,6.523582E-2,1.8019255E0,3.95623E-1,-5.104908E-1,5.7403024E-2,-1.9304216E-1,3.1076765E-1,-8.318921E-1,-1.4764279E-1,-5.2526116E-1,4.6738797E-1,2.2768462E-1,2.199972E0,1.4345645E0,-9.4417286E-1,-1.0158519E0,-3.0411983E-1,8.5105526E-1,-2.1282917E-1,1.299869E0,-2.6650664E-1,4.0096416E0,1.6897041E0,1.7791231E0,3.3112592E-1],"categories":[],"categories_nodes":[],"categories_segments":[],"categories_sizes":[],"default_left":[1,0,1,1,1,0,0,0,1,0,0,0,1,0,1,1,1,1,1,1,0,1,1,1,0,0,1,1,0,0,0,0,0,1,0,1,1,0,0,0,0,1,0,0,1,0,1,1,0,0,0,0,0,0,0,0,0,0,0],"id":31,"left_children":[1,3,5,7,9,-1,-1,11,13,-1,-1,-1,15,-1,17,19,21,23,25,27,29,31,33,35,-1,-1,37,39,-1,-1,-1,-1,-1,41,43,45,47,-1,-1,-1,-1,49,-1,-1,51,53,55,57,-1,-1,-1,-1,-1,-1,-1,-1,-1,-1,-1],"loss_changes":[8.2527534E1,9.89332E1,5.8614E1,2.0933968E1,7.544449E0,0E0,0E0,1.5501507E1,9.362052E1,0E0,0E0,0E0,3.3465388E0,0E0,1.619809E1,4.9214716E0,6.2065396E0,1.8024193E1,9.685462E0,7.4934626E0,1.0946548E-1,1.5600729E-1,1.6087956E0,1.1798492E1,0E0,0E0,3.92066E-1,4.82144E-1,0E0,0E0,0E0,0E0,0E0,4.32446E-1,1.5509487E0,1.7136894E1,1.7296196E1,0E0,0E0,0E0,0E0,3.11718E-1,0E0,0E0,1.2895892E0,4.70068E0,9.231552E0,1.5381413E0,0E0,0E0,0E0,0E0,0E0,0E0,0E0,0E0,0E0,0E0,0E0],"parents":[2147483647,0,0,1,1,2,2,3,3,4,4,7,7,8,8,12,12,14,14,15,15,16,16,17,17,18,18,19,19,20,20,21,21,22,22,23,23,26,26,27,27,33,33,34,34,35,35,36,36,41,41,44,44,45,45,46,46,47,47],"right_children":[2,4,6,8,10,-1,-1,12,14,-1,-1,-1,16,-1,18,20,22,24,26,28,30,32,34,36,-1,-1,38,40,-1,-1,-1,-1,-1,42,44,46,48,-1,-1,-1,-1,50,-1,-1,52,54,56,58,-1,-1,-1,-1,-1,-1,-1,-1,-1,-1,-1],"split_conditions":[3.5E0,4.000001E0,1.05E1,1.05E1,7E0,5.453087E-1,-2.6471894E-2,5E-1,1.25E1,-2.6730397E-1,-1.9883849E-2,1.42277E-1,2.5E7,4.879949E-1,2.45E1,8.5E0,7.68E2,3.072E3,1.536E3,6.5E0,1.5E0,5.5E0,9.5E0,6.5E7,-6.830478E-2,9.575534E-2,2.35E8,1E0,1.3021322E-1,-5.4796715E-3,-4.3889735E-2,1.6795896E-2,5.662698E-2,1.95E8,2.000001E0,1.65E1,1.55E1,-3.503917E-2,3.9400407E-3,-1.3250068E-2,2.1330534E-2,8.5E0,-1.0133936E-2,-3.6052983E-2,1.95E8,1.5E0,1.75E1,1.95E8,-6.480633E-2,-6.972625E-2,-2.087424E-2,5.8414906E-2,-1.4608213E-2,8.922067E-2,-1.8292537E-2,2.752146E-1,1.15978256E-1,1.2211581E-1,2.2727888E-2],"split_indices":[10,12,0,0,0,0,0,12,0,0,0,0,5,0,0,0,6,6,6,0,12,0,0,5,0,0,5,0,0,0,0,0,0,5,15,0,0,0,0,0,0,0,0,0,5,12,0,5,0,0,0,0,0,0,0,0,0,0,0],"split_type":[0,0,0,0,0,0,0,0,0,0,0,0,0,0,0,0,0,0,0,0,0,0,0,0,0,0,0,0,0,0,0,0,0,0,0,0,0,0,0,0,0,0,0,0,0,0,0,0,0,0,0,0,0,0,0,0,0,0,0],"sum_hessian":[9.6E1,9.4E1,2E0,9E1,4E0,1E0,1E0,3.9E1,5.1E1,3E0,1E0,3E0,3.6E1,1E0,5E1,1.9E1,1.7E1,3.8E1,1.2E1,1.6E1,3E0,5E0,1.2E1,3.6E1,2E0,2E0,1E1,1.4E1,2E0,1E0,2E0,3E0,2E0,9E0,3E0,2.7E1,9E0,9E0,1E0,1E0,1.3E1,7E0,2E0,1E0,2E0,6E0,2.1E1,5E0,4E0,4E0,3E0,1E0,1E0,1E0,5E0,2E0,1.9E1,3E0,2E0],"tree_param":{"num_deleted":"0","num_feature":"18","num_nodes":"59","size_leaf_vector":"0"}},{"base_weights":[1.1894398E0,8.448258E-1,7.8648195E0,1.3988663E0,-1.00449145E-1,1.9628903E0,9.7599E-1,7.12351E-1,-6.319602E-1,6.247832E-1,2.6592543E0,-5.700957E-2,1.2919697E0,-1.973491E-1,1.6973675E0,-1.7921476E-1,-9.389031E-1,1.9827338E0,-3.4678337E-1,3.189209E0,-5.248632E-1,3.8269636E-1,-1.5854516E0,1.8594635E0,9.3457294E-1,-5.545174E-1,6.33895E-1,-2.4730371E-1,2.0498066E0,-3.9843988E-2,-6.123288E-1,-1.3526601E0,-3.1442216E-1,1.4485334E-1,8.9922637E-1,3.030666E0,5.567186E-1,2.0810573E-1,1.1885998E0,-7.3347753E-1,-2.2058908E-2,-2.3304015E-1,4.303957E-1,-5.0773656E-1,-5.8324654E-3,1.1956385E-2,4.2866072E-1,-4.2794424E-1,7.678808E-1,1.8997457E0,7.6210904E-1,-1.3882104E-1,1.0867731E-1,-6.055058E-1,1.4501819E-1,5.3170526E-1,5.596307E-2,3.1443093E-2,9.4994664E-4,-3.87086E-1,1.2569034E0],"categories":[],"categories_nodes":[],"categories_segments":[],"categories_sizes":[],"default_left":[1,1,0,1,1,1,1,0,1,0,1,1,1,1,1,1,1,0,0,0,0,0,0,1,0,1,0,0,0,1,0,0,1,1,0,0,0,1,1,0,1,1,1,0,0,1,0,0,1,0,0,0,0,0,0,0,0,0,0,0,0],"id":32,"left_children":[1,3,-1,5,7,9,11,13,15,17,19,21,23,25,27,29,31,-1,-1,-1,-1,33,-1,35,37,39,-1,-1,-1,41,-1,-1,43,45,-1,-1,-1,47,49,-1,51,53,55,-1,-1,57,-1,-1,59,-1,-1,-1,-1,-1,-1,-1,-1,-1,-1,-1,-1],"loss_changes":[2.2019984E2,5.143052E1,0E0,1.1398491E1,1.7084114E1,2.0164574E1,1.2771725E1,1.4682435E1,3.0063353E0,1.5358614E1,2.9460335E1,8.268961E0,3.0137253E0,3.5009131E0,6.1824856E0,6.660379E-1,2.8106804E0,0E0,0E0,0E0,0E0,9.699055E-1,0E0,1.1925686E1,3.5817013E0,7.0903635E-1,0E0,0E0,0E0,1.1494994E0,0E0,0E0,4.5632917E-1,3.2057893E-1,0E0,0E0,0E0,3.3250039E0,2.2588596E0,0E0,8.32293E-2,1.3826656E0,9.0028584E-2,0E0,0E0,1.6053608E-3,0E0,0E0,3.5198188E0,0E0,0E0,0E0,0E0,0E0,0E0,0E0,0E0,0E0,0E0,0E0,0E0],"parents":[2147483647,0,0,1,1,3,3,4,4,5,5,6,6,7,7,8,8,9,9,10,10,11,11,12,12,13,13,14,14,15,15,16,16,21,21,23,23,24,24,25,25,29,29,32,32,33,33,37,37,38,38,40,40,41,41,42,42,45,45,48,48],"right_children":[2,4,-1,6,8,10,12,14,16,18,20,22,24,26,28,30,32,-1,-1,-1,-1,34,-1,36,38,40,-1,-1,-1,42,-1,-1,44,46,-1,-1,-1,48,50,-1,52,54,56,-1,-1,58,-1,-1,60,-1,-1,-1,-1,-1,-1,-1,-1,-1,-1,-1,-1],"split_conditions":[4.5E0,1.5E7,5.398271E-1,2.5E2,5.5E-2,5E1,5E2,1.1E8,5E-1,5E-1,3.5E0,1.5E0,1.5E0,6E2,5.4999997E-5,6E2,2.5E0,1.3609129E-1,-2.3802588E-2,2.1890157E-1,-3.6025666E-2,4.000001E0,-1.08822554E-1,1.2E3,5E6,5.5E-4,4.3509413E-2,-1.6974483E-2,1.4069505E-1,1.5E0,-4.2029154E-2,-9.284416E-2,6.5E2,5E-1,6.1721284E-2,2.0801948E-1,3.8212165E-2,5.5E-2,2.5E0,-5.0344583E-2,2E0,2.5E2,2.5E2,-3.4850128E-2,-4.0032997E-4,3.5E2,2.9422503E-2,-2.9373325E-2,5E-1,1.3039513E-1,5.2309796E-2,-9.528426E-3,7.4594156E-3,-4.1560832E-2,9.9537885E-3,3.6495294E-2,3.8412046E-3,2.1581976E-3,6.5202636E-5,-2.656889E-2,8.627159E-2],"split_indices":[1,14,0,7,9,7,7,14,1,12,1,1,12,7,9,7,1,0,0,0,0,13,0,7,14,9,0,0,0,13,0,0,7,1,0,0,0,9,1,0,1,7,7,0,0,7,0,0,1,0,0,0,0,0,0,0,0,0,0,0,0],"split_type":[0,0,0,0,0,0,0,0,0,0,0,0,0,0,0,0,0,0,0,0,0,0,0,0,0,0,0,0,0,0,0,0,0,0,0,0,0,0,0,0,0,0,0,0,0,0,0,0,0,0,0,0,0,0,0,0,0,0,0,0,0],"sum_hessian":[9.9E1,9.6E1,3E0,6E1,3.6E1,2.3E1,3.7E1,1.4E1,2.2E1,9E0,1.4E1,9E0,2.8E1,8E0,6E0,1E1,1.2E1,3E0,6E0,1.2E1,2E0,8E0,1E0,8E0,2E1,6E0,2E0,1E0,5E0,9E0,1E0,6E0,6E0,7E0,1E0,3E0,5E0,6E0,1.4E1,4E0,2E0,7E0,2E0,3E0,3E0,6E0,1E0,3E0,3E0,3E0,1.1E1,1E0,1E0,3E0,4E0,1E0,1E0,1E0,5E0,1E0,2E0],"tree_param":{"num_deleted":"0","num_feature":"18","num_nodes":"61","size_leaf_vector":"0"}},{"base_weights":[1.2384388E0,6.531141E0,7.2377765E-1,7.559258E0,-1.4414932E-1,2.049611E0,3.826745E-1,4.6689496E0,2.4297464E-1,1.3003349E0,-6.83138E-2,-7.610836E-1,1.1844169E0,1.8556316E0,-1.927937E-1,6.101047E-1,-4.1153046E-1,-8.732935E-1,-4.2891193E-2,1.8209304E0,-1.7284086E-1,2.1375391E0,-9.4307643E-1,7.299565E-1,3.883683E-2,-5.8683854E-1,1.8669288E-1,7.638491E-1,1.0899361E-1,-6.5355307E-1,-5.1436666E-2,-3.007525E-1,1.4464258E0,-8.153588E-1,-4.444739E-1,-1.4131003E-2,-6.9715105E-2,-1.1663099E-1,-6.0892195E-1,1.7082393E-1,-6.4526904E-1],"categories":[],"categories_nodes":[],"categories_segments":[],"categories_sizes":[],"default_left":[1,1,1,0,0,1,0,0,1,1,1,1,1,1,0,1,0,0,0,0,0,0,0,1,0,1,1,0,0,0,1,0,0,0,1,0,0,1,0,0,0],"id":33,"left_children":[1,3,5,-1,-1,7,9,-1,11,13,15,17,19,21,-1,23,25,-1,-1,-1,-1,-1,-1,27,-1,29,31,-1,-1,33,35,-1,-1,-1,37,-1,-1,39,-1,-1,-1],"loss_changes":[2.362291E2,5.49859E1,3.650744E1,0E0,0E0,7.722907E1,2.8601078E1,0E0,1.2658941E1,1.9472515E1,1.1551031E1,4.7776985E-1,6.3660555E0,1.670456E1,0E0,1.0966182E0,3.6234002E0,0E0,0E0,0E0,0E0,0E0,0E0,1.4448881E-1,0E0,8.6086464E-1,6.1198416E0,0E0,0E0,1.3987446E-1,1.5138732E-3,0E0,0E0,0E0,6.172118E-1,0E0,0E0,1.2150426E0,0E0,0E0,0E0],"parents":[2147483647,0,0,1,1,2,2,5,5,6,6,8,8,9,9,10,10,11,11,12,12,13,13,15,15,16,16,23,23,25,25,26,26,29,29,30,30,34,34,37,37],"right_children":[2,4,6,-1,-1,8,10,-1,12,14,16,18,20,22,-1,24,26,-1,-1,-1,-1,-1,-1,28,-1,30,32,-1,-1,34,36,-1,-1,-1,38,-1,-1,40,-1,-1,-1],"split_conditions":[1.5E0,2.5E7,3E0,5.188539E-1,-9.89415E-3,3E7,5E6,3.2046834E-1,1.5E0,3E0,1.5E0,3E8,1.95E8,5.5E7,-1.3233013E-2,1.95E8,1.1E8,-5.99413E-2,-2.9439745E-3,1.2498539E-1,-1.1863487E-2,1.4671685E-1,-6.473108E-2,6E0,2.6656904E-3,3E0,2.5E0,5.242923E-2,7.481126E-3,1.5E7,6E7,-2.0643111E-2,9.9280074E-2,-5.5964768E-2,2.5E7,-9.699267E-4,-4.7851196E-3,2.5E0,-4.179531E-2,1.1725049E-2,-4.429011E-2],"split_indices":[16,14,17,0,0,5,14,0,3,16,8,5,5,5,0,5,14,0,0,0,0,0,0,17,0,16,8,0,0,14,5,0,0,0,5,0,0,8,0,0,0],"split_type":[0,0,0,0,0,0,0,0,0,0,0,0,0,0,0,0,0,0,0,0,0,0,0,0,0,0,0,0,0,0,0,0,0,0,0,0,0,0,0,0,0],"sum_hessian":[8.8E1,6E0,8.2E1,5E0,1E0,1.5E1,6.7E1,5E0,1E1,2.1E1,4.6E1,5E0,5E0,1.5E1,6E0,1.5E1,3.1E1,4E0,1E0,3E0,2E0,1.4E1,1E0,1.2E1,3E0,2.4E1,7E0,1.1E1,1E0,2.1E1,3E0,6E0,1E0,9E0,1.2E1,2E0,1E0,5E0,7E0,4E0,1E0],"tree_param":{"num_deleted":"0","num_feature":"18","num_nodes":"41","size_leaf_vector":"0"}},{"base_weights":[1.2020024E0,8.207321E-1,6.4806576E0,5.6208575E-1,3.0848093E0,9.631109E-1,-1.6504204E-1,-8.7497294E-1,3.7119672E0,2.3111033E-1,1.2767062E0,-4.029819E-1,4.9334064E-1,1.3203011E-1,7.6289016E-1,1.5062505E0,1.3654912E-1,-5.305283E-1,5.945693E-1,1.4101422E0,1.0814165E-1,2.4717008E-1,-8.714907E-2,1.7741426E0,8.2268023E-1,-5.318635E-1,1.2782264E0,-2.0066974E-1,-8.381088E-1,5.5782354E-1,-1.6913635E-1,-2.1194346E-1,2.0501358E-2,-1.18873544E-1,1.8707312E0,3.2890964E0,-1.6867127E-1,-7.6177603E-1,-1.5550868E-1,-6.502317E-2,-7.0470595E-1,-1.0660601E0,-3.9413053E-1,-2.4207434E-1,-8.313973E-2,-1.2693205E-1,1.5842463E-1,3.2740703E0,1.528918E0,-1.2936784E-1,1.5007392E-1,1.4697096E-2,-1.9975705E-1],"categories":[],"categories_nodes":[],"categories_segments":[],"categories_sizes":[],"default_left":[1,0,0,0,1,1,0,0,0,1,1,1,1,0,0,1,1,1,0,0,1,0,1,1,1,1,0,1,1,0,1,0,1,0,1,0,0,0,0,1,0,0,0,0,1,0,0,0,0,0,0,0,0],"id":34,"left_children":[1,3,-1,5,7,9,11,-1,-1,13,15,17,19,21,-1,23,25,27,-1,-1,29,-1,31,33,35,37,-1,39,41,-1,43,-1,45,-1,47,-1,-1,-1,-1,49,-1,-1,-1,-1,51,-1,-1,-1,-1,-1,-1,-1,-1],"loss_changes":[1.9954373E2,5.4808754E1,0E0,2.6734402E1,2.9818222E1,1.2970631E1,5.6301317E0,0E0,0E0,8.649428E-1,1.0304146E1,3.8221874E0,3.1734955E0,5.10242E-1,0E0,3.6436157E0,7.847114E0,2.1161618E0,0E0,0E0,1.253126E0,0E0,1.1148587E-1,4.5433807E0,3.2104557E1,3.7714112E-1,0E0,8.5955024E-1,4.5817566E-1,0E0,7.288754E-3,0E0,1.5155914E-1,0E0,1.7349701E0,0E0,0E0,0E0,0E0,2.0998074E-1,0E0,0E0,0E0,0E0,7.0556164E-2,0E0,0E0,0E0,0E0,0E0,0E0,0E0,0E0],"parents":[2147483647,0,0,1,1,3,3,4,4,5,5,6,6,9,9,10,10,11,11,12,12,13,13,15,15,16,16,17,17,20,20,22,22,23,23,24,24,25,25,27,27,28,28,30,30,32,32,34,34,39,39,44,44],"right_children":[2,4,-1,6,8,10,12,-1,-1,14,16,18,20,22,-1,24,26,28,-1,-1,30,-1,32,34,36,38,-1,40,42,-1,44,-1,46,-1,48,-1,-1,-1,-1,50,-1,-1,-1,-1,52,-1,-1,-1,-1,-1,-1,-1,-1],"split_conditions":[4.5E0,3.2E8,4.448207E-1,1.5E7,1.2E1,5E-1,1.1E8,-6.005657E-2,2.5478277E-1,1.15E1,4.5E0,1.05E1,2.5E0,5E6,5.236341E-2,3.5E0,1.2E1,5E-1,4.081017E-2,9.678963E-2,1E0,1.6965311E-2,1E1,3E0,3E0,7.5E0,8.773516E-2,1E1,5E0,3.828801E-2,3E0,-1.4547419E-2,1E1,-8.159267E-3,3.5E0,2.2575767E-1,-1.1577293E-2,-5.228694E-2,-1.0673837E-2,6.5E0,-4.836975E-2,-7.317245E-2,-2.7052412E-2,-1.661555E-2,5E0,-8.712389E-3,1.0873983E-2,2.247263E-1,1.0494219E-1,-8.879577E-3,1.0300804E-2,1.0087823E-3,-1.3710965E-2],"split_indices":[1,14,0,14,4,1,14,0,0,2,2,2,1,14,0,1,4,1,0,0,2,0,4,17,17,2,0,4,2,0,2,0,2,0,2,0,0,0,0,2,0,0,0,0,2,0,0,0,0,0,0,0,0],"split_type":[0,0,0,0,0,0,0,0,0,0,0,0,0,0,0,0,0,0,0,0,0,0,0,0,0,0,0,0,0,0,0,0,0,0,0,0,0,0,0,0,0,0,0,0,0,0,0,0,0,0,0,0,0],"sum_hessian":[1.02E2,9.7E1,5E0,8.9E1,8E0,5.7E1,3.2E1,1E0,7E0,1.8E1,3.9E1,2.4E1,8E0,1.7E1,1E0,3.2E1,7E0,2.2E1,2E0,1E0,7E0,1.1E1,6E0,2.1E1,1.1E1,5E0,2E0,1.2E1,1E1,2E0,5E0,2E0,4E0,1E0,2E1,2E0,9E0,2E0,3E0,1.1E1,1E0,5E0,5E0,1E0,4E0,2E0,2E0,1E0,1.9E1,9E0,2E0,3E0,1E0],"tree_param":{"num_deleted":"0","num_feature":"18","num_nodes":"53","size_leaf_vector":"0"}},{"base_weights":[1.0049634E0,6.828681E-1,5.8518643E0,3.2954803E0,5.3006035E-1,-2.3600186E-1,7.2237763E0,7.830422E-1,5.5766746E-2,2.080297E0,6.1926186E-1,-6.9515616E-1,7.5889575E-1,2.8552365E0,-5.8106637E-1,4.2886892E-1,2.082627E0,-9.8272294E-1,-3.7551966E-1,4.5000914E-1,1.1472996E0,1.7960012E0,3.3683363E-1,2.2772222E0,4.242777E-1,-4.8898488E-1,-1.2840711E0,-4.6090636E-1,-1.3433902E-3,-5.778098E-1,8.6975366E-1,1.8499297E0,1.724274E-1,4.038206E-1,-2.8753173E-1,-7.6761353E-1,-1.4874768E-1,-5.3865945E-1,-1.0652149E-1,1.4482547E-1,-1.4668283E-1],"categories":[],"categories_nodes":[],"categories_segments":[],"categories_sizes":[],"default_left":[1,0,1,0,1,0,0,0,1,1,1,1,1,0,0,1,1,1,1,1,1,0,1,0,0,1,0,1,1,0,0,0,0,0,0,0,0,0,0,0,0],"id":35,"left_children":[1,3,5,-1,7,-1,-1,9,11,13,15,17,19,-1,-1,21,23,25,27,29,31,-1,33,-1,-1,35,-1,37,39,-1,-1,-1,-1,-1,-1,-1,-1,-1,-1,-1,-1],"loss_changes":[1.4252147E2,3.3590538E1,5.086943E1,0E0,1.0571384E1,0E0,0E0,1.0030064E1,1.8200535E1,1.4711037E1,1.3420776E1,8.975353E-1,1.2313595E0,0E0,0E0,5.2075615E0,1.7345619E-1,6.0779095E-2,3.4191465E-1,6.367238E0,4.060196E0,0E0,2.2399626E0,0E0,0E0,3.4549212E-1,0E0,1.4105964E-1,1.1625605E-1,0E0,0E0,0E0,0E0,0E0,0E0,0E0,0E0,0E0,0E0,0E0,0E0],"parents":[2147483647,0,0,1,1,2,2,4,4,7,7,8,8,9,9,10,10,11,11,12,12,15,15,16,16,17,17,18,18,19,19,20,20,22,22,25,25,27,27,28,28],"right_children":[2,4,6,-1,8,-1,-1,10,12,14,16,18,20,-1,-1,22,24,26,28,30,32,-1,34,-1,-1,36,-1,38,40,-1,-1,-1,-1,-1,-1,-1,-1,-1,-1,-1,-1],"split_conditions":[3.5E0,5E-1,5E-1,2.2619586E-1,8.5E7,-1.6198745E-2,4.9582705E-1,1.5E0,1.2E1,3E7,3.5E7,1.5E0,1.95E8,1.9597831E-1,-3.9883353E-2,5E-1,6.5E7,2.5E0,1.5E0,5E-1,5E-1,1.232743E-1,2.5E7,1.5630445E-1,2.912166E-2,1.95E8,-8.813634E-2,2.35E8,1.95E8,-3.9659828E-2,5.9698332E-2,1.2697585E-1,1.1835108E-2,2.7717521E-2,-1.9735662E-2,-5.2687615E-2,-1.0209774E-2,-3.697262E-2,-7.311444E-3,9.940561E-3,-1.0068046E-2],"split_indices":[10,12,3,0,5,0,0,12,4,5,5,12,5,0,0,11,5,10,3,11,11,0,5,0,0,5,0,5,5,0,0,0,0,0,0,0,0,0,0,0,0],"split_type":[0,0,0,0,0,0,0,0,0,0,0,0,0,0,0,0,0,0,0,0,0,0,0,0,0,0,0,0,0,0,0,0,0,0,0,0,0,0,0,0,0],"sum_hessian":[9.4E1,9E1,4E0,3E0,8.7E1,1E0,3E0,5.6E1,3.1E1,4E0,5.2E1,1.5E1,1.6E1,3E0,1E0,4.8E1,4E0,6E0,9E0,1.1E1,5E0,1E0,4.7E1,3E0,1E0,4E0,2E0,7E0,2E0,3E0,8E0,2E0,3E0,4.3E1,4E0,1E0,3E0,5E0,2E0,1E0,1E0],"tree_param":{"num_deleted":"0","num_feature":"18","num_nodes":"41","size_leaf_vector":"0"}},{"base_weights":[4.578755E-1,-1.361044E0,8.077487E-1,-2.4492795E0,-6.85373E-1,1.9995694E0,5.433714E-1,2.8469372E-1,-9.121276E-1,-5.9565187E-2,2.3310454E0,1.0535971E0,-1.9674797E-1,2.4505563E0,3.3929166E-1,3.1571798E-2,1.549608E0,-6.5407103E-1,1.0848881E0,1.1117318E0,-1.7270783E-1,2.047941E0,1.7531363E-3,-1.9579135E-1,-1.0936806E0,2.0496342E0,-4.8124236E-1,-5.299415E-1,1.779512E-1,9.327025E-1,2.7088673E0,-4.8426056E-1,2.708764E-1,-6.7398626E-1,1.2085161E-1,-1.182492E0,-5.120881E-2,2.5952604E0,-1.9534595E-1,-1.4873944E-1,-7.168624E-1,3.113562E-1,5.8083385E-2,2.9068513E0,-9.887709E-1,1.3315163E-2,3.1173608E-1,-7.36418E-2,-9.6111256E-1,3.833747E-1,-2.9681802E-1,2.946143E-1,3.0741045E0,4.9651328E-1,3.2337403E0,-5.160791E-1,1.6722563E-3],"categories":[],"categories_nodes":[],"categories_segments":[],"categories_sizes":[],"default_left":[1,1,1,0,1,1,0,0,0,0,1,1,1,0,0,1,1,1,1,0,1,1,1,1,1,1,0,1,1,1,0,0,1,1,1,0,0,1,0,0,0,0,0,1,0,0,0,0,0,0,1,0,0,0,0,0,0],"id":36,"left_children":[1,3,5,-1,7,9,11,-1,-1,-1,13,15,17,-1,-1,19,21,23,25,-1,27,29,31,33,35,37,-1,39,41,43,-1,-1,45,47,49,-1,-1,51,-1,-1,-1,-1,-1,53,-1,-1,-1,-1,-1,-1,55,-1,-1,-1,-1,-1,-1],"loss_changes":[6.537998E1,9.391226E0,2.4812992E1,0E0,3.2524462E0,1.0299473E1,2.7449566E1,0E0,0E0,0E0,1.5879211E0,2.1579472E1,1.924715E1,0E0,0E0,3.8056927E0,2.215924E1,4.4101343E0,1.4912375E1,0E0,2.0097196E0,1.1634659E1,1.3704118E0,2.221352E0,9.813652E-1,7.906784E0,0E0,3.660612E-1,1.0827842E-1,4.571582E1,0E0,0E0,6.366396E-2,8.6582804E-1,1.265131E0,0E0,0E0,3.6449947E0,0E0,0E0,0E0,0E0,0E0,1.731739E0,0E0,0E0,0E0,0E0,0E0,0E0,3.1150365E-1,0E0,0E0,0E0,0E0,0E0,0E0],"parents":[2147483647,0,0,1,1,2,2,4,4,5,5,6,6,10,10,11,11,12,12,15,15,16,16,17,17,18,18,20,20,21,21,22,22,23,23,24,24,25,25,27,27,28,28,29,29,32,32,33,33,34,34,37,37,43,43,50,50],"right_children":[2,4,6,-1,8,10,12,-1,-1,-1,14,16,18,-1,-1,20,22,24,26,-1,28,30,32,34,36,38,-1,40,42,44,-1,-1,46,48,50,-1,-1,52,-1,-1,-1,-1,-1,54,-1,-1,-1,-1,-1,-1,56,-1,-1,-1,-1,-1,-1],"split_conditions":[2.5E0,1.536E3,7.68E2,-1.6811416E-1,1E0,3.5E0,1.5E7,1.9540867E-2,-6.2606804E-2,-4.0884474E-3,5E-1,1.45E1,4.5E7,1.6820179E-1,2.3288371E-2,1.5E0,2.25E1,1.1E1,2.5E1,7.6307274E-2,9.5E0,1.95E1,2.4E1,8.5E0,2.4E1,3.072E3,-3.3031613E-2,4.5E0,1.2E1,1.85E1,1.8593179E-1,-3.3238776E-2,3E0,1.536E3,3E0,-8.116413E-2,-3.5148808E-3,1.536E3,-1.3408195E-2,-1.0209208E-2,-4.920415E-2,2.137093E-2,3.9867396E-3,1.6E1,-6.786746E-2,9.1392884E-4,2.1397006E-2,-5.054641E-3,-6.596904E-2,2.631415E-2,3.072E3,2.0221796E-2,2.1100102E-1,3.407978E-2,2.2195813E-1,-3.5422746E-2,1.1478067E-4],"split_indices":[0,6,6,0,0,0,14,0,0,0,15,0,14,0,0,16,0,0,0,0,0,0,0,0,0,6,0,0,0,0,0,0,16,6,16,0,0,6,0,0,0,0,0,0,0,0,0,0,0,0,6,0,0,0,0,0,0],"split_type":[0,0,0,0,0,0,0,0,0,0,0,0,0,0,0,0,0,0,0,0,0,0,0,0,0,0,0,0,0,0,0,0,0,0,0,0,0,0,0,0,0,0,0,0,0,0,0,0,0,0,0,0,0,0,0,0,0],"sum_hessian":[9.8E1,1.5E1,8.3E1,4E0,1.1E1,1.3E1,7E1,2E0,9E0,2E0,1.1E1,4.1E1,2.9E1,1E1,1E0,1.4E1,2.7E1,2.2E1,7E0,1E0,1.3E1,2E1,7E0,1.2E1,1E1,4E0,3E0,6E0,7E0,9E0,1.1E1,2E0,5E0,4E0,8E0,9E0,1E0,3E0,1E0,3E0,3E0,2E0,5E0,4E0,5E0,1E0,4E0,2E0,2E0,5E0,3E0,1E0,2E0,1E0,3E0,1E0,2E0],"tree_param":{"num_deleted":"0","num_feature":"18","num_nodes":"57","size_leaf_vector":"0"}},{"base_weights":[3.221833E-1,3.020084E0,1.9040357E-1,-1.2834114E-2,1.5175915E0,8.5222915E-2,-1.8371121E0,1.734737E0,-2.1800978E-1,1.2617136E0,-4.8801565E-4,1.9122235E0,6.7287505E-2,-1.752485E0,2.8828604E0,8.164899E-1,-1.0453693E-1,2.1357944E0,6.2050956E-1,-7.468637E-1,1.2410806E0,1.3449341E-1,-6.5282506E-1,-3.103189E-1,3.0041912E-1,-1.4010084E-1,-8.7526435E-1,-7.992088E-1,1.8501209E-1,1.6478372E0,1.1965813E-1,2.204887E-1,-9.389498E-1,-9.5010144E-1,1.0882583E-3,-8.640461E-2,-8.973089E-1,2.4070928E0,-1.5700161E-1,6.024055E-1,2.9731883E-2,-1.8480267E-1,3.4708992E-1,-1.0258669E0,-4.9924232E-2],"categories":[],"categories_nodes":[],"categories_segments":[],"categories_sizes":[],"default_left":[0,0,1,1,0,1,0,1,0,1,1,1,0,0,0,1,0,0,0,0,0,1,1,0,0,1,1,1,0,1,1,0,0,0,0,0,0,0,0,0,0,0,0,0,0],"id":37,"left_children":[1,-1,3,5,7,9,-1,11,-1,13,15,17,-1,-1,-1,19,21,-1,-1,-1,-1,23,25,27,29,31,33,35,-1,37,39,41,-1,43,-1,-1,-1,-1,-1,-1,-1,-1,-1,-1,-1],"loss_changes":[2.8416512E1,0E0,2.1811266E1,1.3104351E1,4.702961E0,7.033218E0,0E0,2.6579113E0,0E0,3.1915112E1,5.8211045E0,2.2177696E-1,0E0,0E0,0E0,6.744558E0,8.112411E0,0E0,0E0,0E0,0E0,3.3898468E0,1.9238982E0,3.3409948E0,7.6308007E0,2.5879607E0,8.3714294E-1,3.3636427E-1,0E0,5.7761602E0,1.3031738E0,4.5701507E-1,0E0,7.1144867E-1,0E0,0E0,0E0,0E0,0E0,0E0,0E0,0E0,0E0,0E0,0E0],"parents":[2147483647,0,0,2,2,3,3,4,4,5,5,7,7,9,9,10,10,11,11,15,15,16,16,21,21,22,22,23,23,24,24,25,25,26,26,27,27,29,29,30,30,31,31,33,33],"right_children":[2,-1,4,6,8,10,-1,12,-1,14,16,18,-1,-1,-1,20,22,-1,-1,-1,-1,24,26,28,30,32,34,36,-1,38,40,42,-1,44,-1,-1,-1,-1,-1,-1,-1,-1,-1,-1,-1],"split_conditions":[5E-1,2.0729314E-1,4.5E7,1.3E3,1.55E8,5E-1,-1.2609607E-1,3.072E3,-1.49638E-2,7.68E2,7.68E2,6E2,4.6184934E-3,-1.20287426E-1,1.9787437E-1,1.5E2,1.5E7,1.465971E-1,4.2590663E-2,-5.1263385E-2,8.518555E-2,1.5E2,1.5E2,1.5E0,1.5E0,3.072E3,3.072E3,1.536E3,1.2698898E-2,5E2,1.536E3,1.5E0,-6.444783E-2,3.5E7,7.46961E-5,-5.930657E-3,-6.1589673E-2,1.6521853E-1,-1.0776309E-2,4.1348033E-2,2.0407431E-3,-1.2684523E-2,2.3823628E-2,-7.0413664E-2,-3.4267097E-3],"split_indices":[12,0,14,7,14,11,0,6,0,6,6,7,0,0,0,7,14,0,0,0,0,7,7,12,12,6,6,6,0,7,6,12,0,14,0,0,0,0,0,0,0,0,0,0,0],"split_type":[0,0,0,0,0,0,0,0,0,0,0,0,0,0,0,0,0,0,0,0,0,0,0,0,0,0,0,0,0,0,0,0,0,0,0,0,0,0,0,0,0,0,0,0,0],"sum_hessian":[8.1E1,2E0,7.9E1,7E1,9E0,6.8E1,2E0,8E0,1E0,3E0,6.5E1,7E0,1E0,1E0,2E0,6E0,5.9E1,5E0,2E0,1E0,5E0,4.2E1,1.7E1,1.1E1,3.1E1,6E0,1.1E1,5E0,6E0,2E0,2.9E1,5E0,1E0,1E1,1E0,1E0,4E0,1E0,1E0,3E0,2.6E1,1E0,4E0,9E0,1E0],"tree_param":{"num_deleted":"0","num_feature":"18","num_nodes":"45","size_leaf_vector":"0"}},{"base_weights":[1.1471429E0,4.0492077E0,5.401518E-1,1.8685838E0,5.175485E0,1.0083096E0,-1.3457304E-1,2.584526E0,-1.0796274E0,-1.7442206E-2,1.2387862E0,1.2449166E0,-3.0004442E-1,7.918429E-1,-4.0438145E-1,2.6435897E0,9.17099E-1,-6.558552E-1,4.4369474E-2,8.0063164E-2,1.1483462E0,8.247643E-3,-7.6127017E-1,5.160661E-1,-3.0269134E-1,-2.7681756E-1,1.0383056E0,-3.510548E-1,-1.3254648E0,8.43988E-2,1.251291E0,-1.01220354E-1,-3.5809422E-1,-3.293013E-2,-4.192149E-1,2.408205E-1,-1.5309244E-1,-7.9382084E-2,-4.732655E-1,4.6094733E-1,-2.1254097E-1],"categories":[],"categories_nodes":[],"categories_segments":[],"categories_sizes":[],"default_left":[1,0,0,1,0,1,1,0,0,1,0,0,0,0,0,0,1,1,1,1,0,0,0,1,0,0,0,0,0,1,0,0,0,0,1,1,0,0,0,0,0],"id":38,"left_children":[1,3,5,7,-1,9,11,-1,-1,13,15,-1,17,-1,-1,-1,19,21,23,25,-1,-1,27,29,31,33,-1,-1,-1,35,-1,-1,-1,-1,37,39,-1,-1,-1,-1,-1],"loss_changes":[1.4899054E2,1.9400848E1,2.3527279E1,2.1173944E1,0E0,1.0377342E1,7.892774E0,0E0,0E0,3.604766E0,1.1939884E1,0E0,3.6946225E0,0E0,0E0,0E0,5.983227E0,1.0425777E0,3.0110698E0,3.4866729E0,0E0,0E0,2.1397E0,2.2718227E0,5.687785E-2,2.4467403E-1,0E0,0E0,0E0,3.1425864E-1,0E0,0E0,0E0,0E0,2.1733105E-2,6.4277434E-1,0E0,0E0,0E0,0E0,0E0],"parents":[2147483647,0,0,1,1,2,2,3,3,5,5,6,6,9,9,10,10,12,12,16,16,17,17,18,18,19,19,22,22,23,23,24,24,25,25,29,29,34,34,35,35],"right_children":[2,4,6,8,-1,10,12,-1,-1,14,16,-1,18,-1,-1,-1,20,22,24,26,-1,-1,28,30,32,34,-1,-1,-1,36,-1,-1,-1,-1,38,40,-1,-1,-1,-1,-1],"split_conditions":[5E-1,1E7,1.5E7,3.5E0,3.5523602E-1,5.5E-4,7.68E2,1.7739724E-1,-7.410369E-2,7.68E2,1.5E0,8.544884E-2,3.5E7,5.4350674E-2,-2.7756017E-2,1.8145126E-1,5.5E-2,1.536E3,5.5E-2,1E1,7.882042E-2,5.661034E-4,2.5E7,5.05E-3,1.1E8,5E6,7.126743E-2,-2.409577E-2,-9.097753E-2,1E1,8.5886374E-2,-6.9475835E-3,-2.4578944E-2,-2.260265E-3,1.28E3,1.536E3,-1.0507991E-2,-5.448644E-3,-3.2484096E-2,3.1638596E-2,-1.45884305E-2],"split_indices":[13,14,14,10,0,9,6,0,0,6,13,0,14,0,0,0,9,6,9,4,0,0,14,9,14,14,0,0,0,4,0,0,0,0,6,6,0,0,0,0,0],"split_type":[0,0,0,0,0,0,0,0,0,0,0,0,0,0,0,0,0,0,0,0,0,0,0,0,0,0,0,0,0,0,0,0,0,0,0,0,0,0,0,0,0],"sum_hessian":[8.5E1,1.3E1,7.2E1,6E0,7E0,4.2E1,3E1,5E0,1E0,8E0,3.4E1,2E0,2.8E1,2E0,6E0,4E0,3E1,1.3E1,1.5E1,7E0,2.3E1,2E0,1.1E1,6E0,9E0,6E0,1E0,8E0,3E0,5E0,1E0,3E0,6E0,3E0,3E0,3E0,2E0,1E0,2E0,2E0,1E0],"tree_param":{"num_deleted":"0","num_feature":"18","num_nodes":"41","size_leaf_vector":"0"}},{"base_weights":[9.37523E-1,7.295516E-1,5.1072316E0,-3.5966208E0,1.0286424E0,7.180991E0,-2.0720936E-1,-2.3015246E-1,-4.223029E0,5.2235475E0,6.2119246E-1,3.3620367E0,3.802749E-1,1.6405576E0,2.3893441E-1,4.4401118E-1,1.9830518E0,5.813958E-1,-1.980921E-1,1.0537461E0,-7.32901E-1,-3.341558E-1,6.425986E-1,1.8757145E0,6.192167E-1,-8.4050024E-1,-8.0623545E-2,1.2199024E0,-7.878831E-2,4.1133654E-1,2.51706E0,1.6625606E-2,1.1777915E0,-1.8849473E-1,7.091574E-1,6.81387E-2,-1.7574458E-1],"categories":[],"categories_nodes":[],"categories_segments":[],"categories_sizes":[],"default_left":[1,1,1,1,1,0,0,0,0,0,1,0,1,1,1,0,0,1,1,0,0,1,1,1,1,0,1,0,1,0,0,0,0,0,0,0,0],"id":39,"left_children":[1,3,5,7,9,-1,-1,-1,-1,-1,11,-1,13,15,17,-1,-1,19,21,23,-1,25,27,29,31,-1,33,-1,35,-1,-1,-1,-1,-1,-1,-1,-1],"loss_changes":[6.7012054E1,1.13477165E2,4.3760292E1,1.04086685E1,1.2894296E2,0E0,0E0,0E0,0E0,0E0,4.646933E1,0E0,1.174135E1,1.2316818E0,9.888712E0,0E0,0E0,2.4147049E1,3.774248E0,7.889799E0,0E0,3.3145418E0,2.1393905E0,6.4070187E0,6.9455786E0,0E0,1.9134717E0,0E0,7.402237E-2,0E0,0E0,0E0,0E0,0E0,0E0,0E0,0E0],"parents":[2147483647,0,0,1,1,2,2,3,3,4,4,10,10,12,12,13,13,14,14,17,17,18,18,19,19,21,21,22,22,23,23,24,24,26,26,28,28],"right_children":[2,4,6,8,10,-1,-1,-1,-1,-1,12,-1,14,16,18,-1,-1,20,22,24,-1,26,28,30,32,-1,34,-1,36,-1,-1,-1,-1,-1,-1,-1,-1],"split_conditions":[3.5E0,1.5E0,1.4E1,5E-1,5E-1,4.9289036E-1,-1.42224785E-2,-1.5797252E-2,-2.8986114E-1,3.5853493E-1,2.5E0,2.3076417E-1,3.5E0,5E-1,2.5E7,3.047613E-2,1.3611312E-1,2.25E1,2.3E1,1.5E0,-5.030501E-2,7.5E0,2.45E1,1.15E1,2E1,-5.7690427E-2,1.15E1,8.373191E-2,2.55E1,2.8233401E-2,1.7276649E-1,1.1411518E-3,8.08415E-2,-1.293794E-2,4.867529E-2,4.6769185E-3,-1.2062793E-2],"split_indices":[10,0,0,0,13,0,0,0,0,0,0,0,2,2,5,0,0,0,0,13,0,2,0,0,0,0,2,0,0,0,0,0,0,0,0,0,0],"split_type":[0,0,0,0,0,0,0,0,0,0,0,0,0,0,0,0,0,0,0,0,0,0,0,0,0,0,0,0,0,0,0,0,0,0,0,0,0],