{"learner":{"attributes":{"best_iteration":"299","best_ntree_limit":"300"},"feature_names":["ssl_mode","family","patch_size","n_parameters","z_dim","epochs","optimizer","pretraining_data","projection2_arch","finetuning_data","nviews","n_augmentations","projection_nparameters_hidden"],"feature_types":["c","c","int","float","int","float","c","c","c","c","int","float","float"],"gradient_booster":{"model":{"gbtree_model_param":{"num_parallel_tree":"1","num_trees":"300","size_leaf_vector":"0"},"tree_info":[0,0,0,0,0,0,0,0,0,0,0,0,0,0,0,0,0,0,0,0,0,0,0,0,0,0,0,0,0,0,0,0,0,0,0,0,0,0,0,0,0,0,0,0,0,0,0,0,0,0,0,0,0,0,0,0,0,0,0,0,0,0,0,0,0,0,0,0,0,0,0,0,0,0,0,0,0,0,0,0,0,0,0,0,0,0,0,0,0,0,0,0,0,0,0,0,0,0,0,0,0,0,0,0,0,0,0,0,0,0,0,0,0,0,0,0,0,0,0,0,0,0,0,0,0,0,0,0,0,0,0,0,0,0,0,0,0,0,0,0,0,0,0,0,0,0,0,0,0,0,0,0,0,0,0,0,0,0,0,0,0,0,0,0,0,0,0,0,0,0,0,0,0,0,0,0,0,0,0,0,0,0,0,0,0,0,0,0,0,0,0,0,0,0,0,0,0,0,0,0,0,0,0,0,0,0,0,0,0,0,0,0,0,0,0,0,0,0,0,0,0,0,0,0,0,0,0,0,0,0,0,0,0,0,0,0,0,0,0,0,0,0,0,0,0,0,0,0,0,0,0,0,0,0,0,0,0,0,0,0,0,0,0,0,0,0,0,0,0,0,0,0,0,0,0,0,0,0,0,0,0,0,0,0,0,0,0,0,0,0,0,0,0,0,0,0,0,0,0,0],"trees":[{"base_weights":[6.2509674E1,4.55455E1,7.015581E1,3.9982975E1,5.436105E1],"categories":[],"categories_nodes":[],"categories_segments":[],"categories_sizes":[],"default_left":[1,0,0,0,0],"id":0,"left_children":[1,3,-1,-1,-1],"loss_changes":[1.4870781E4,4.5876562E2,0E0,0E0,0E0],"parents":[2147483647,0,0,1,1],"right_children":[2,4,-1,-1,-1],"split_conditions":[1.536E3,2.894171E8,2.1712651E0,1.2374405E0,1.6824301E0],"split_indices":[4,12,0,0,0],"split_type":[0,0,0,0,0],"sum_hessian":[1.33E2,4.3E1,9E1,2.9E1,1.4E1],"tree_param":{"num_deleted":"0","num_feature":"13","num_nodes":"5","size_leaf_vector":"0"}},{"base_weights":[6.096925E1,4.3825783E1,6.8257034E1,5.567351E1,3.925349E1],"categories":[],"categories_nodes":[],"categories_segments":[],"categories_sizes":[],"default_left":[1,1,0,0,0],"id":1,"left_children":[1,3,-1,-1,-1],"loss_changes":[1.426575E4,5.659922E2,0E0,0E0,0E0],"parents":[2147483647,0,0,1,1],"right_children":[2,4,-1,-1,-1],"split_conditions":[1.536E3,5E-1,2.1124995E0,1.7230498E0,1.2148635E0],"split_indices":[4,8,0,0,0],"split_type":[0,0,0,0,0],"sum_hessian":[1.32E2,4.1E1,9.1E1,9E0,3.2E1],"tree_param":{"num_deleted":"0","num_feature":"13","num_nodes":"5","size_leaf_vector":"0"}},{"base_weights":[5.9330593E1,4.452112E1,6.547541E1,3.7660606E1,5.461325E1,3.3596813E1,6.269295E1],"categories":[],"categories_nodes":[],"categories_segments":[],"categories_sizes":[],"default_left":[1,1,0,0,1,0,0],"id":2,"left_children":[1,3,-1,-1,5,-1,-1],"loss_changes":[9.6370625E3,1.2260234E3,0E0,0E0,8.7347266E2,0E0,0E0],"parents":[2147483647,0,0,1,1,4,4],"right_children":[2,4,-1,-1,6,-1,-1],"split_conditions":[1.536E3,7E2,2.0264106E0,1.165565E0,3.84E2,1.039794E0,1.9402957E0],"split_indices":[4,5,0,0,4,0,0],"split_type":[0,0,0,0,0,0,0],"sum_hessian":[1.3E2,4E1,9E1,2.6E1,1.4E1,5E0,9E0],"tree_param":{"num_deleted":"0","num_feature":"13","num_nodes":"7","size_leaf_vector":"0"}},{"base_weights":[5.6871914E1,4.297648E1,6.360565E1],"categories":[],"categories_nodes":[],"categories_segments":[],"categories_sizes":[],"default_left":[1,0,0],"id":3,"left_children":[1,-1,-1],"loss_changes":[9.7394375E3,0E0,0E0],"parents":[2147483647,0,0],"right_children":[2,-1,-1],"split_conditions":[1.536E3,1.330087E0,1.968543E0],"split_indices":[4,0,0],"split_type":[0,0,0],"sum_hessian":[1.26E2,4.3E1,8.3E1],"tree_param":{"num_deleted":"0","num_feature":"13","num_nodes":"3","size_leaf_vector":"0"}},{"base_weights":[5.5336613E1,6.1604324E1,4.369045E1,4.900348E1,3.5954712E1,1.799702E1,5.094228E1],"categories":[],"categories_nodes":[],"categories_segments":[],"categories_sizes":[],"default_left":[1,0,1,0,0,0,0],"id":4,"left_children":[1,-1,3,5,-1,-1,-1],"loss_changes":[7.5288125E3,0E0,6.3647656E2,8.9770703E2,0E0,0E0,0E0],"parents":[2147483647,0,0,2,2,3,3],"right_children":[2,-1,4,6,-1,-1,-1],"split_conditions":[8.732832E6,1.9066036E0,1E1,1.2116416E7,1.112769E0,5.569931E-1,1.576622E0],"split_indices":[12,0,2,12,0,0,0],"split_type":[0,0,0,0,0,0,0],"sum_hessian":[1.31E2,8.3E1,4.8E1,2.6E1,2.2E1,2E0,2.4E1],"tree_param":{"num_deleted":"0","num_feature":"13","num_nodes":"7","size_leaf_vector":"0"}},{"base_weights":[5.3503475E1,5.929556E1,3.9645973E1,6.2003067E1,4.4160126E1],"categories":[],"categories_nodes":[],"categories_segments":[],"categories_sizes":[],"default_left":[1,1,0,0,0],"id":5,"left_children":[1,3,-1,-1,-1],"loss_changes":[8.911781E3,1.675625E3,0E0,0E0,0E0],"parents":[2147483647,0,0,1,1],"right_children":[2,4,-1,-1,-1],"split_conditions":[1.5E0,4.5E7,1.2270105E0,1.9189444E0,1.3667198E0],"split_indices":[1,3,0,0,0],"split_type":[0,0,0,0,0],"sum_hessian":[1.33E2,9.2E1,4.1E1,7.6E1,1.6E1],"tree_param":{"num_deleted":"0","num_feature":"13","num_nodes":"5","size_leaf_vector":"0"}},{"base_weights":[5.200611E1,5.7584145E1,3.909439E1,6.000629E1,4.2962315E1,3.2611816E1,4.8583397E1],"categories":[],"categories_nodes":[],"categories_segments":[],"categories_sizes":[],"default_left":[1,1,0,0,0,0,0],"id":6,"left_children":[1,3,5,-1,-1,-1,-1],"loss_changes":[7.8865938E3,1.248375E3,1.4009219E3,0E0,0E0,0E0,0E0],"parents":[2147483647,0,0,1,1,2,2],"right_children":[2,4,6,-1,-1,-1,-1],"split_conditions":[1.5E0,4.5E7,1.4442714E8,1.8571458E0,1.3296486E0,1.0093092E0,1.5036166E0],"split_indices":[1,3,12,0,0,0,0],"split_type":[0,0,0,0,0,0,0],"sum_hessian":[1.33E2,9.1E1,4.2E1,7.6E1,1.5E1,2.7E1,1.5E1],"tree_param":{"num_deleted":"0","num_feature":"13","num_nodes":"7","size_leaf_vector":"0"}},{"base_weights":[5.1314613E1,3.868865E1,5.8049423E1,5.3200123E1,3.4137756E1,1.704382E1,5.5811676E1],"categories":[],"categories_nodes":[],"categories_segments":[],"categories_sizes":[],"default_left":[1,1,0,1,0,0,0],"id":7,"left_children":[1,3,-1,5,-1,-1,-1],"loss_changes":[9.1211875E3,1.6787656E3,0E0,1.8442773E2,0E0,0E0,0E0],"parents":[2147483647,0,0,1,1,3,3],"right_children":[2,4,-1,6,-1,-1,-1],"split_conditions":[1.5E0,1.5E0,1.7965823E0,5.5E2,1.0565357E0,5.2749234E-1,1.7273259E0],"split_indices":[6,10,0,5,0,0,0],"split_type":[0,0,0,0,0,0,0],"sum_hessian":[1.27E2,4.6E1,8.1E1,9E0,3.7E1,1E0,8E0],"tree_param":{"num_deleted":"0","num_feature":"13","num_nodes":"7","size_leaf_vector":"0"}},{"base_weights":[4.911405E1,5.398154E1,3.7112167E1,2.9364433E1,5.5193016E1,5.355509E1,3.2181175E1],"categories":[],"categories_nodes":[],"categories_segments":[],"categories_sizes":[],"default_left":[1,1,1,0,0,0,0],"id":8,"left_children":[1,3,5,-1,-1,-1,-1],"loss_changes":[5.7919688E3,1.3591719E3,1.8056016E3,0E0,0E0,0E0,0E0],"parents":[2147483647,0,0,1,1,2,2],"right_children":[2,4,6,-1,-1,-1,-1],"split_conditions":[1.5E0,5E-1,1.5E0,9.0880525E-1,1.7081789E0,1.6574864E0,9.9598116E-1],"split_indices":[1,1,10,0,0,0,0],"split_type":[0,0,0,0,0,0,0],"sum_hessian":[1.25E2,8.7E1,3.8E1,5E0,8.2E1,7E0,3.1E1],"tree_param":{"num_deleted":"0","num_feature":"13","num_nodes":"7","size_leaf_vector":"0"}},{"base_weights":[4.753887E1,3.48982E1,5.3150665E1,4.508329E1,3.0270687E1,3.0755236E1,5.3916584E1,6.1267178E1,4.992348E1],"categories":[],"categories_nodes":[],"categories_segments":[],"categories_sizes":[],"default_left":[1,1,1,0,0,0,1,0,0],"id":9,"left_children":[1,3,5,-1,-1,-1,7,-1,-1],"loss_changes":[7.9073438E3,9.5633594E2,2.5221875E2,0E0,0E0,0E0,1.4239062E2,0E0,0E0],"parents":[2147483647,0,0,1,1,2,2,6,6],"right_children":[2,4,6,-1,-1,-1,8,-1,-1],"split_conditions":[1.536E3,5E-1,5E1,1.3952911E0,9.368531E-1,9.5184946E-1,1.5E0,1.8961692E0,1.545091E0],"split_indices":[4,8,5,0,0,0,8,0,0],"split_type":[0,0,0,0,0,0,0,0,0],"sum_hessian":[1.31E2,4.2E1,8.9E1,1.1E1,3.1E1,4E0,8.5E1,2.6E1,5.9E1],"tree_param":{"num_deleted":"0","num_feature":"13","num_nodes":"9","size_leaf_vector":"0"}},{"base_weights":[4.610306E1,3.4679688E1,5.117526E1,2.945691E1,4.23213E1,5.148558E1,1.4172056E1,2.4707155E1,4.7078808E1],"categories":[],"categories_nodes":[],"categories_segments":[],"categories_sizes":[],"default_left":[1,1,1,0,1,0,0,0,0],"id":10,"left_children":[1,3,5,-1,7,-1,-1,-1,-1],"loss_changes":[5.8515312E3,6.5929297E2,4.0682812E2,0E0,3.3496484E2,0E0,0E0,0E0,0E0],"parents":[2147483647,0,0,1,1,2,2,4,4],"right_children":[2,4,6,-1,8,-1,-1,-1,-1],"split_conditions":[1.536E3,7E2,4.05E8,9.1166735E-1,3.84E2,1.5934367E0,4.386136E-1,7.646663E-1,1.4570507E0],"split_indices":[4,5,3,0,4,0,0,0,0],"split_type":[0,0,0,0,0,0,0,0,0],"sum_hessian":[1.24E2,4E1,8.4E1,2.6E1,1.4E1,8.3E1,1E0,4E0,1E1],"tree_param":{"num_deleted":"0","num_feature":"13","num_nodes":"9","size_leaf_vector":"0"}},{"base_weights":[4.4813454E1,4.985263E1,3.504433E1,3.2676918E1,5.1836746E1,4.2277542E1,2.7877785E1,2.675447E1,4.5665512E1],"categories":[],"categories_nodes":[],"categories_segments":[],"categories_sizes":[],"default_left":[1,1,1,0,0,1,0,0,0],"id":11,"left_children":[1,3,5,-1,-1,7,-1,-1,-1],"loss_changes":[5.031953E3,1.5395625E3,1.5094883E3,0E0,0E0,1.9648047E2,0E0,0E0,0E0],"parents":[2147483647,0,0,1,1,2,2,5,5],"right_children":[2,4,6,-1,-1,8,-1,-1,-1],"split_conditions":[8.732832E6,5E1,1.5E0,1.0113239E0,1.604305E0,5E-1,8.627947E-1,8.2802904E-1,1.4133104E0],"split_indices":[12,5,1,0,0,1,0,0,0],"split_type":[0,0,0,0,0,0,0,0,0],"sum_hessian":[1.29E2,8.3E1,4.6E1,1E1,7.3E1,2.1E1,2.5E1,5E0,1.6E1],"tree_param":{"num_deleted":"0","num_feature":"13","num_nodes":"9","size_leaf_vector":"0"}},{"base_weights":[4.349708E1,3.23336E1,4.9258236E1,4.5285534E1,2.9941654E1],"categories":[],"categories_nodes":[],"categories_segments":[],"categories_sizes":[],"default_left":[1,1,0,0,0],"id":12,"left_children":[1,3,-1,-1,-1],"loss_changes":[7.1739688E3,3.961797E2,0E0,0E0,0E0],"parents":[2147483647,0,0,1,1],"right_children":[2,4,-1,-1,-1],"split_conditions":[1.5E0,5E-1,1.5245023E0,1.4015503E0,9.266698E-1],"split_indices":[6,6,0,0,0],"split_type":[0,0,0,0,0],"sum_hessian":[1.3E2,4.6E1,8.4E1,5E0,4.1E1],"tree_param":{"num_deleted":"0","num_feature":"13","num_nodes":"5","size_leaf_vector":"0"}},{"base_weights":[4.1639584E1,4.4864403E1,3.2274296E1,2.9830545E1,5.385553E1],"categories":[],"categories_nodes":[],"categories_segments":[],"categories_sizes":[],"default_left":[1,0,1,0,0],"id":13,"left_children":[1,-1,3,-1,-1],"loss_changes":[2.8855469E3,0E0,6.9196875E2,0E0,0E0],"parents":[2147483647,0,0,2,2],"right_children":[2,-1,4,-1,-1],"split_conditions":[6E0,1.3885167E0,3.5E0,9.2323107E-1,1.6667848E0],"split_indices":[2,0,7,0,0],"split_type":[0,0,0,0,0],"sum_hessian":[1.32E2,9.6E1,3.6E1,3.4E1,2E0],"tree_param":{"num_deleted":"0","num_feature":"13","num_nodes":"5","size_leaf_vector":"0"}},{"base_weights":[4.1023228E1,4.561635E1,3.0746132E1,4.7396862E1,3.2144314E1,4.190453E1,2.5338032E1,2.6899334E1,1.6725925E1],"categories":[],"categories_nodes":[],"categories_segments":[],"categories_sizes":[],"default_left":[1,1,1,0,0,0,1,0,0],"id":14,"left_children":[1,3,5,-1,-1,-1,7,-1,-1],"loss_changes":[5.0839844E3,9.46375E2,1.7568359E3,0E0,0E0,0E0,6.442969E1,0E0,0E0],"parents":[2147483647,0,0,1,1,2,2,6,6],"right_children":[2,4,6,-1,-1,-1,8,-1,-1],"split_conditions":[1.5E0,4.5E7,5E-1,1.4668943E0,9.948403E-1,1.296911E0,1.95E8,8.3251244E-1,5.1765376E-1],"split_indices":[1,3,8,0,0,0,3,0,0],"split_type":[0,0,0,0,0,0,0,0,0],"sum_hessian":[1.3E2,8.8E1,4.2E1,7.6E1,1.2E1,1.2E1,3E1,2.4E1,6E0],"tree_param":{"num_deleted":"0","num_feature":"13","num_nodes":"9","size_leaf_vector":"0"}},{"base_weights":[4.017763E1,3.0331066E1,4.550334E1,2.4472702E1,3.6465584E1],"categories":[],"categories_nodes":[],"categories_segments":[],"categories_sizes":[],"default_left":[1,0,0,0,0],"id":15,"left_children":[1,3,-1,-1,-1],"loss_changes":[5.4190156E3,9.521094E2,0E0,0E0,0E0],"parents":[2147483647,0,0,1,1],"right_children":[2,4,-1,-1,-1],"split_conditions":[1.5E0,2.894171E8,1.4082913E0,7.5741017E-1,1.1285801E0],"split_indices":[6,12,0,0,0],"split_type":[0,0,0,0,0],"sum_hessian":[1.23E2,4.5E1,7.8E1,2.5E1,2E1],"tree_param":{"num_deleted":"0","num_feature":"13","num_nodes":"5","size_leaf_vector":"0"}},{"base_weights":[3.9022728E1,2.8882915E1,4.4260044E1,4.17807E1,2.4951223E1,2.6245415E1,1.7337679E1],"categories":[],"categories_nodes":[],"categories_segments":[],"categories_sizes":[],"default_left":[1,1,0,0,1,0,0],"id":16,"left_children":[1,3,-1,-1,5,-1,-1],"loss_changes":[5.9521875E3,1.5624805E3,0E0,0E0,1.8857422E1,0E0,0E0],"parents":[2147483647,0,0,1,1,4,4],"right_children":[2,4,-1,-1,6,-1,-1],"split_conditions":[1.5E0,1.5E0,1.3698123E0,1.2930787E0,2.35E8,8.1227416E-1,5.36587E-1],"split_indices":[6,10,0,0,3,0,0],"split_type":[0,0,0,0,0,0,0],"sum_hessian":[1.3E2,4.6E1,8.4E1,9E0,3.7E1,3E1,7E0],"tree_param":{"num_deleted":"0","num_feature":"13","num_nodes":"7","size_leaf_vector":"0"}},{"base_weights":[3.68683E1,2.5253412E1,4.2597652E1,4.9521503E1,3.928524E1],"categories":[],"categories_nodes":[],"categories_segments":[],"categories_sizes":[],"default_left":[1,0,1,0,0],"id":17,"left_children":[1,-1,3,-1,-1],"loss_changes":[7.8006875E3,0E0,4.5645312E2,0E0,0E0],"parents":[2147483647,0,0,2,2],"right_children":[2,-1,4,-1,-1],"split_conditions":[1.5E0,7.815725E-1,1.5E0,1.5326501E0,1.2158462E0],"split_indices":[6,0,8,0,0],"split_type":[0,0,0,0,0],"sum_hessian":[1.29E2,4.4E1,8.5E1,2.4E1,6.1E1],"tree_param":{"num_deleted":"0","num_feature":"13","num_nodes":"5","size_leaf_vector":"0"}},{"base_weights":[3.5782543E1,3.9775116E1,2.6114931E1,4.1831482E1,2.8645733E1,3.558018E1,2.2141676E1,4.7818527E1,3.83391E1,2.3586882E1,1.4320331E1],"categories":[],"categories_nodes":[],"categories_segments":[],"categories_sizes":[],"default_left":[1,1,1,1,0,0,1,0,0,0,0],"id":18,"left_children":[1,3,5,7,-1,-1,9,-1,-1,-1,-1],"loss_changes":[4.2797344E3,1.1698438E3,9.217285E2,1.6071875E2,0E0,0E0,8.5575195E1,0E0,0E0,0E0,0E0],"parents":[2147483647,0,0,1,1,2,2,3,3,6,6],"right_children":[2,4,6,8,-1,-1,10,-1,-1,-1,-1],"split_conditions":[1.5E0,4.5E7,5E-1,1.5E0,8.8656205E-1,1.1011776E0,1.95E8,1.4799445E0,1.1865638E0,7.299948E-1,4.4320256E-1],"split_indices":[1,3,8,8,0,0,3,0,0,0,0],"split_type":[0,0,0,0,0,0,0,0,0,0,0],"sum_hessian":[1.31E2,9.1E1,4E1,7.5E1,1.6E1,1E1,3E1,2.4E1,5.1E1,2.4E1,6E0],"tree_param":{"num_deleted":"0","num_feature":"13","num_nodes":"11","size_leaf_vector":"0"}},{"base_weights":[3.4862137E1,2.6006712E1,3.9123375E1,1.7956617E1,2.7597565E1,3.9302017E1,1.3195424E1,2.9110325E1,1.9049284E1],"categories":[],"categories_nodes":[],"categories_segments":[],"categories_sizes":[],"default_left":[1,1,1,0,1,0,0,0,0],"id":19,"left_children":[1,3,5,-1,7,-1,-1,-1,-1],"loss_changes":[4.2579062E3,2.0140039E2,8.46875E0,0E0,4.4939453E1,0E0,0E0,0E0,0E0],"parents":[2147483647,0,0,1,1,2,2,4,4],"right_children":[2,4,6,-1,8,-1,-1,-1,-1],"split_conditions":[1.536E3,6E0,1E1,5.557427E-1,6E0,1.2163653E0,4.0838763E-1,9.0094084E-1,5.895598E-1],"split_indices":[4,2,2,0,11,0,0,0,0],"split_type":[0,0,0,0,0,0,0,0,0],"sum_hessian":[1.33E2,4.5E1,8.8E1,9E0,3.6E1,8.7E1,1E0,2.9E1,7E0],"tree_param":{"num_deleted":"0","num_feature":"13","num_nodes":"9","size_leaf_vector":"0"}},{"base_weights":[3.3894157E1,3.7930435E1,3.070221E1,2.3885305E1,4.135676E1,3.1309822E1,1.6198545E1,1.4550665E1,3.1615122E1],"categories":[],"categories_nodes":[],"categories_segments":[],"categories_sizes":[],"default_left":[1,1,1,0,0,0,0,0,0],"id":20,"left_children":[1,3,5,-1,-1,7,-1,-1,-1],"loss_changes":[8.1915625E2,1.9170234E3,3.003672E2,0E0,0E0,2.5359375E1,0E0,0E0,0E0],"parents":[2147483647,0,0,1,1,2,2,5,5],"right_children":[2,4,6,-1,-1,8,-1,-1,-1],"split_conditions":[2.5E2,5E1,6E0,7.3923075E-1,1.2799579E0,2.000001E0,5.0133175E-1,4.503312E-1,9.784622E-1],"split_indices":[5,5,11,0,0,9,0,0,0],"split_type":[0,0,0,0,0,0,0,0,0],"sum_hessian":[1.33E2,5.5E1,7.8E1,1.2E1,4.3E1,7.4E1,4E0,2E0,7.2E1],"tree_param":{"num_deleted":"0","num_feature":"13","num_nodes":"9","size_leaf_vector":"0"}},{"base_weights":[3.2743896E1,3.661207E1,2.5340862E1,2.678044E1,3.8062584E1,1.5853245E1,2.7178057E1,7.1690063E0,1.7370771E1,2.975972E1,2.178585E1,3.1756336E1,1.8923384E1],"categories":[],"categories_nodes":[],"categories_segments":[],"categories_sizes":[],"default_left":[1,1,0,0,0,1,1,0,0,0,0,0,0],"id":21,"left_children":[1,3,5,-1,-1,7,9,-1,-1,11,-1,-1,-1],"loss_changes":[3.1389688E3,4.459297E2,5.156074E2,0E0,0E0,3.213208E1,5.023828E1,0E0,0E0,6.939258E1,0E0,0E0,0E0],"parents":[2147483647,0,0,1,1,2,2,5,5,6,6,9,9],"right_children":[2,4,6,-1,-1,8,10,-1,-1,12,-1,-1,-1],"split_conditions":[8.732832E6,2.5E0,1.2509632E7,8.2883275E-1,1.1780059E0,1E1,1E1,2.2187491E-1,5.376112E-1,1.3922278E8,6.742543E-1,9.8283273E-1,5.856633E-1],"split_indices":[12,7,12,0,0,2,2,0,0,12,0,0,0],"split_type":[0,0,0,0,0,0,0,0,0,0,0,0,0],"sum_hessian":[1.34E2,8.6E1,4.8E1,1.3E1,7.3E1,9E0,3.9E1,2E0,7E0,2.4E1,1.5E1,1.9E1,5E0],"tree_param":{"num_deleted":"0","num_feature":"13","num_nodes":"13","size_leaf_vector":"0"}},{"base_weights":[3.255546E1,2.3990046E1,3.6831196E1,3.567544E1,2.040212E1,3.377203E1,4.306689E1],"categories":[],"categories_nodes":[],"categories_segments":[],"categories_sizes":[],"default_left":[1,1,1,0,0,0,0],"id":22,"left_children":[1,3,5,-1,-1,-1,-1],"loss_changes":[3.6638438E3,1.1863027E3,3.5417188E2,0E0,0E0,0E0,0E0],"parents":[2147483647,0,0,1,1,2,2],"right_children":[2,4,6,-1,-1,-1,-1],"split_conditions":[1.5E0,1.5E0,2.5E0,1.1041259E0,6.31429E-1,1.0452168E0,1.3328851E0],"split_indices":[6,10,6,0,0,0,0],"split_type":[0,0,0,0,0,0,0],"sum_hessian":[1.18E2,4.1E1,7.7E1,8E0,3.3E1,5.5E1,2.2E1],"tree_param":{"num_deleted":"0","num_feature":"13","num_nodes":"7","size_leaf_vector":"0"}},{"base_weights":[3.073296E1,3.3636852E1,2.4630503E1,3.2510242E1,4.6984417E1,3.5026157E1,2.1158012E1,2.280063E1,1.5146517E1],"categories":[],"categories_nodes":[],"categories_segments":[],"categories_sizes":[],"default_left":[1,1,1,0,0,0,1,0,0],"id":23,"left_children":[1,3,5,-1,-1,-1,7,-1,-1],"loss_changes":[1.6032031E3,7.359375E1,1.00477344E3,0E0,0E0,0E0,7.521289E1,0E0,0E0],"parents":[2147483647,0,0,1,1,2,2,6,6],"right_children":[2,4,6,-1,-1,-1,8,-1,-1],"split_conditions":[4.5E7,4.5E0,1.5E0,1.0061655E0,1.4541293E0,1.084031E0,1.3E8,7.0566094E-1,4.6877235E-1],"split_indices":[3,0,10,0,0,0,3,0,0],"split_type":[0,0,0,0,0,0,0,0,0],"sum_hessian":[1.26E2,8.3E1,4.3E1,7.9E1,4E0,9E0,3.4E1,2.5E1,9E0],"tree_param":{"num_deleted":"0","num_feature":"13","num_nodes":"9","size_leaf_vector":"0"}},{"base_weights":[3.0442379E1,2.3187418E1,3.3610813E1,1.9622005E1,3.4028233E1,4.53967E1,3.2238003E1,1.0694738E1,3.2394154E1],"categories":[],"categories_nodes":[],"categories_segments":[],"categories_sizes":[],"default_left":[1,0,1,0,0,0,1,0,0],"id":24,"left_children":[1,3,5,-1,-1,-1,7,-1,-1],"loss_changes":[2.515836E3,1.1735273E3,3.6459375E2,0E0,0E0,0E0,1.9515625E1,0E0,0E0],"parents":[2147483647,0,0,1,1,2,2,6,6],"right_children":[2,4,6,-1,-1,-1,8,-1,-1],"split_conditions":[1.536E3,4.000001E0,5E-1,6.072851E-1,1.053146E0,1.4049909E0,5E-1,3.3099344E-1,1.0025727E0],"split_indices":[4,8,8,0,0,0,1,0,0],"split_type":[0,0,0,0,0,0,0,0,0],"sum_hessian":[1.35E2,4.3E1,9.2E1,3.4E1,9E0,7E0,8.5E1,1E0,8.4E1],"tree_param":{"num_deleted":"0","num_feature":"13","num_nodes":"9","size_leaf_vector":"0"}},{"base_weights":[2.9358995E1,3.217162E1,2.1896494E1,1.6822308E1,3.2880966E1,9.661265E0,2.3088047E1,2.4570898E1,1.5485966E1],"categories":[],"categories_nodes":[],"categories_segments":[],"categories_sizes":[],"default_left":[1,1,1,0,0,0,1,0,0],"id":25,"left_children":[1,3,5,-1,-1,-1,7,-1,-1],"loss_changes":[2.2398125E3,6.023672E2,3.9209766E2,0E0,0E0,0E0,9.653711E1,0E0,0E0],"parents":[2147483647,0,0,1,1,2,2,6,6],"right_children":[2,4,6,-1,-1,-1,8,-1,-1],"split_conditions":[1.5E0,5E-1,6E0,5.206367E-1,1.017639E0,2.9900828E-1,6E0,7.604493E-1,4.7927803E-1],"split_indices":[1,1,2,0,0,0,11,0,0],"split_type":[0,0,0,0,0,0,0,0,0],"sum_hessian":[1.32E2,9.4E1,3.8E1,5E0,8.9E1,4E0,3.4E1,2.7E1,7E0],"tree_param":{"num_deleted":"0","num_feature":"13","num_nodes":"9","size_leaf_vector":"0"}},{"base_weights":[2.842336E1,2.1254192E1,3.1769123E1,1.9542162E1,4.353542E1,3.562081E1,2.7961678E1,1.7806797E1,2.7488781E1,1.695222E1,3.712927E1],"categories":[],"categories_nodes":[],"categories_segments":[],"categories_sizes":[],"default_left":[1,1,1,1,0,1,0,0,0,0,0],"id":26,"left_children":[1,3,5,7,-1,9,-1,-1,-1,-1,-1],"loss_changes":[2.9003125E3,1.1618008E3,6.3108594E2,2.5114648E2,0E0,7.7214453E2,0E0,0E0,0E0,0E0,0E0],"parents":[2147483647,0,0,1,1,2,2,3,3,5,5],"right_children":[2,4,6,8,-1,10,-1,-1,-1,-1,-1],"split_conditions":[1.536E3,3.5E0,2.5E2,1.2E3,1.3473858E0,5E1,8.6539114E-1,5.5110586E-1,8.5075533E-1,5.246574E-1,1.1491206E0],"split_indices":[4,7,5,5,0,5,0,0,0,0,0],"split_type":[0,0,0,0,0,0,0,0,0,0,0],"sum_hessian":[1.42E2,4.7E1,9.5E1,4.5E1,2E0,4.4E1,5.1E1,3.9E1,6E0,4E0,4E1],"tree_param":{"num_deleted":"0","num_feature":"13","num_nodes":"11","size_leaf_vector":"0"}},{"base_weights":[2.7273499E1,3.0712734E1,2.0655489E1,3.194266E1,1.9851187E1,3.0166039E1,1.8153751E1,3.3016758E1,2.3928259E1,2.1628916E1,4.256488E1,1.9540192E1,1.2347256E1,8.374745E0,3.043554E1],"categories":[],"categories_nodes":[],"categories_segments":[],"categories_sizes":[],"default_left":[1,1,1,1,0,1,1,0,0,1,0,0,0,0,0],"id":27,"left_children":[1,3,5,7,-1,9,11,-1,-1,13,-1,-1,-1,-1,-1],"loss_changes":[2.529461E3,6.534531E2,7.114707E2,3.8773438E1,0E0,2.140625E2,1.3285156E2,0E0,0E0,5.930486E2,0E0,0E0,0E0,0E0,0E0],"parents":[2147483647,0,0,1,1,2,2,3,3,5,5,6,6,9,9],"right_children":[2,4,6,8,-1,10,12,-1,-1,14,-1,-1,-1,-1,-1],"split_conditions":[4.5E7,1E1,1.5E0,3E0,6.1437804E-1,3.5E0,1.95E8,1.0218418E0,7.405601E-1,1.95E8,1.3173484E0,6.04753E-1,3.821375E-1,2.5919154E-1,9.4195515E-1],"split_indices":[3,2,10,10,0,7,3,0,0,3,0,0,0,0,0],"split_type":[0,0,0,0,0,0,0,0,0,0,0,0,0,0,0],"sum_hessian":[1.32E2,8.5E1,4.7E1,7.5E1,1E1,8E0,3.9E1,6.4E1,1.1E1,6E0,2E0,3E1,9E0,3E0,3E0],"tree_param":{"num_deleted":"0","num_feature":"13","num_nodes":"15","size_leaf_vector":"0"}},{"base_weights":[2.6598433E1,2.9776403E1,1.9836306E1,3.1350023E1,2.157173E1,1.5026655E1,2.6485012E1,3.488073E1,2.6941452E1,1.6373838E1,8.975456E0,1.7437727E1,3.250313E1,2.041564E1,1.3831773E1],"categories":[],"categories_nodes":[],"categories_segments":[],"categories_sizes":[],"default_left":[1,1,1,1,0,1,1,0,0,1,0,0,0,0,0],"id":28,"left_children":[1,3,5,7,-1,9,11,-1,-1,13,-1,-1,-1,-1,-1],"loss_changes":[2.3946562E3,6.210156E2,1.1228008E3,4.0301562E2,0E0,1.1230762E2,5.2774316E2,0E0,0E0,4.449707E0,0E0,0E0,0E0,0E0,0E0],"parents":[2147483647,0,0,1,1,2,2,3,3,5,5,6,6,9,9],"right_children":[2,4,6,8,-1,10,12,-1,-1,14,-1,-1,-1,-1,-1],"split_conditions":[1.5E0,4.5E7,7E2,2.5E2,6.6762745E-1,1.95E8,5.5E7,1.0795301E0,8.33816E-1,2E2,2.7778307E-1,5.3968346E-1,1.0059454E0,6.318474E-1,4.2808208E-1],"split_indices":[1,3,5,5,0,3,3,0,0,5,0,0,0,0,0],"split_type":[0,0,0,0,0,0,0,0,0,0,0,0,0,0,0],"sum_hessian":[1.32E2,8.8E1,4.4E1,7.2E1,1.6E1,2.7E1,1.7E1,3.7E1,3.5E1,2.1E1,6E0,8E0,9E0,6E0,1.5E1],"tree_param":{"num_deleted":"0","num_feature":"13","num_nodes":"15","size_leaf_vector":"0"}},{"base_weights":[2.6219845E1,2.9324858E1,1.9747618E1,1.7968094E1,3.062231E1,2.3772459E1,1.3726244E1,2.0558823E1,8.938589E0,2.7882004E1,3.4676903E1,2.934944E1,1.9980509E1],"categories":[],"categories_nodes":[],"categories_segments":[],"categories_sizes":[],"default_left":[1,1,1,1,0,1,0,0,0,0,0,0,0],"id":29,"left_children":[1,3,5,7,9,11,-1,-1,-1,-1,-1,-1,-1],"loss_changes":[2.178414E3,8.5135156E2,8.317617E2,1.0938574E2,1.0221094E2,8.971484E1,0E0,0E0,0E0,0E0,0E0,0E0,0E0],"parents":[2147483647,0,0,1,1,2,2,3,3,4,4,5,5],"right_children":[2,4,6,8,10,12,-1,-1,-1,-1,-1,-1,-1],"split_conditions":[8.732832E6,5E1,4.5E7,1.3E8,4.208544E6,2.5E2,4.2481607E-1,6.362788E-1,2.7664205E-1,8.629253E-1,1.0732219E0,9.083412E-1,6.183804E-1],"split_indices":[12,5,3,3,12,5,0,0,0,0,0,0,0],"split_type":[0,0,0,0,0,0,0,0,0,0,0,0,0],"sum_hessian":[1.3E2,8.6E1,4.4E1,1E1,7.6E1,2.5E1,1.9E1,7E0,3E0,4.9E1,2.7E1,8E0,1.7E1],"tree_param":{"num_deleted":"0","num_feature":"13","num_nodes":"13","size_leaf_vector":"0"}},{"base_weights":[2.519069E1,1.827789E1,2.8805588E1,1.512344E1,2.4954756E1,3.3246742E1,2.4718025E1,3.8762634E0,1.5360292E1,1.042554E1,2.7968485E1,1.7847986E1,1.323873E1],"categories":[],"categories_nodes":[],"categories_segments":[],"categories_sizes":[],"default_left":[1,1,1,1,1,0,0,0,1,0,0,0,0],"id":30,"left_children":[1,3,5,7,9,-1,-1,-1,11,-1,-1,-1,-1],"loss_changes":[3.0590234E3,7.5530273E2,9.915703E2,4.9066895E1,4.20583E2,0E0,0E0,0E0,4.9804688E-2,0E0,0E0,0E0,0E0],"parents":[2147483647,0,0,1,1,2,2,3,3,4,4,8,8],"right_children":[2,4,6,8,10,-1,-1,-1,12,-1,-1,-1,-1],"split_conditions":[1.5E0,7E2,2.5E2,5E-1,3.84E2,1.0289595E0,7.650027E-1,1.1996719E-1,1.5E2,3.2266197E-1,8.656018E-1,5.523806E-1,4.097279E-1],"split_indices":[6,5,5,6,4,0,0,0,5,0,0,0,0],"split_type":[0,0,0,0,0,0,0,0,0,0,0,0,0],"sum_hessian":[1.38E2,4.9E1,8.9E1,3.5E1,1.4E1,4E1,4.9E1,1E0,3.4E1,3E0,1.1E1,1.3E1,2.1E1],"tree_param":{"num_deleted":"0","num_feature":"13","num_nodes":"13","size_leaf_vector":"0"}},{"base_weights":[2.4474295E1,1.8292719E1,2.7920263E1,2.2416445E1,1.4100482E1,2.586896E1,3.22518E1,7.6595445E0,1.5306201E1,2.3348513E1,3.6447475E1],"categories":[],"categories_nodes":[],"categories_segments":[],"categories_sizes":[],"default_left":[1,1,1,0,0,0,0,0,0,0,0],"id":31,"left_children":[1,3,5,-1,7,-1,9,-1,-1,-1,-1],"loss_changes":[2.4317031E3,6.150547E2,9.647266E1,0E0,1.168999E2,0E0,2.2731836E2,0E0,0E0,0E0,0E0],"parents":[2147483647,0,0,1,1,2,2,4,4,6,6],"right_children":[2,4,6,-1,8,-1,10,-1,-1,-1,-1],"split_conditions":[1.5E0,1.037856E7,2.5E0,6.937707E-1,1.1820352E7,8.006232E-1,8.7856E5,2.3705666E-1,4.7371444E-1,7.2261745E-1,1.1280197E0],"split_indices":[6,12,6,0,12,0,12,0,0,0,0],"split_type":[0,0,0,0,0,0,0,0,0,0,0],"sum_hessian":[1.32E2,4.9E1,8.3E1,2.3E1,2.6E1,6E1,2.3E1,5E0,2.1E1,9E0,1.4E1],"tree_param":{"num_deleted":"0","num_feature":"13","num_nodes":"11","size_leaf_vector":"0"}},{"base_weights":[2.360732E1,1.7432495E1,2.7380804E1,2.470479E1,1.6144604E1,2.495549E1,3.2787994E1],"categories":[],"categories_nodes":[],"categories_segments":[],"categories_sizes":[],"default_left":[1,1,1,0,0,0,0],"id":32,"left_children":[1,3,5,-1,-1,-1,-1],"loss_changes":[2.8628984E3,2.0329492E2,4.7634766E2,0E0,0E0,0E0,0E0],"parents":[2147483647,0,0,1,1,2,2],"right_children":[2,4,6,-1,-1,-1,-1],"split_conditions":[1.5E0,5E-1,2.5E0,7.645931E-1,4.996623E-1,7.723521E-1,1.0147617E0],"split_indices":[6,6,6,0,0,0,0],"split_type":[0,0,0,0,0,0,0],"sum_hessian":[1.38E2,5.4E1,8.4E1,6E0,4.8E1,6.1E1,2.3E1],"tree_param":{"num_deleted":"0","num_feature":"13","num_nodes":"7","size_leaf_vector":"0"}},{"base_weights":[2.3242344E1,1.7566317E1,2.5867504E1,2.7003275E1,1.4521087E1,2.6078215E1,4.268155E0,1.5860265E1,7.1702194E0,2.7297777E1,1.9246075E1],"categories":[],"categories_nodes":[],"categories_segments":[],"categories_sizes":[],"default_left":[1,1,1,0,1,1,0,0,0,0,0],"id":33,"left_children":[1,3,5,-1,7,9,-1,-1,-1,-1,-1],"loss_changes":[1.59575E3,9.535293E2,3.1304688E2,0E0,2.5403027E2,3.1505078E2,0E0,0E0,0E0,0E0,0E0],"parents":[2147483647,0,0,1,1,2,2,4,4,5,5],"right_children":[2,4,6,-1,8,10,-1,-1,-1,-1,-1],"split_conditions":[1.536E3,1.5E0,4.05E8,8.3572936E-1,1.95E8,3E0,1.3209592E-1,4.9086225E-1,2.2191244E-1,8.448439E-1,5.956503E-1],"split_indices":[4,10,3,0,3,10,0,0,0,0,0],"split_type":[0,0,0,0,0,0,0,0,0,0,0],"sum_hessian":[1.3E2,4.3E1,8.7E1,9E0,3.4E1,8.6E1,1E0,2.8E1,6E0,7.1E1,1.5E1],"tree_param":{"num_deleted":"0","num_feature":"13","num_nodes":"11","size_leaf_vector":"0"}},{"base_weights":[2.2038115E1,1.6755472E1,2.505374E1,1.3521946E1,2.2531197E1,2.8856716E1,2.1776705E1,1.1379471E1,2.6203667E1,2.1316698E1,3.7842354E1],"categories":[],"categories_nodes":[],"categories_segments":[],"categories_sizes":[],"default_left":[1,1,1,0,1,0,0,0,1,0,0],"id":34,"left_children":[1,3,5,-1,7,-1,-1,-1,9,-1,-1],"loss_changes":[1.8847734E3,7.4905566E2,5.934453E2,0E0,4.9646387E2,0E0,0E0,0E0,1.00259766E2,0E0,0E0],"parents":[2147483647,0,0,1,1,2,2,4,4,8,8],"right_children":[2,4,6,-1,8,-1,-1,-1,10,-1,-1],"split_conditions":[1.5E0,6E2,2.5E2,4.184932E-1,3.84E2,8.9309186E-1,6.7397124E-1,3.5218534E-1,3.5E0,6.597344E-1,1.17119E0],"split_indices":[6,5,5,0,4,0,0,0,7,0,0],"split_type":[0,0,0,0,0,0,0,0,0,0,0],"sum_hessian":[1.38E2,5.2E1,8.6E1,3.5E1,1.7E1,3.7E1,4.9E1,5E0,1.2E1,1E1,2E0],"tree_param":{"num_deleted":"0","num_feature":"13","num_nodes":"11","size_leaf_vector":"0"}},{"base_weights":[2.1196226E1,2.4182238E1,1.5037585E1,2.2999783E1,3.726141E1,1.6106884E1,1.0039479E1,1.4838952E1,2.3748817E1,1.1778366E1,1.8583347E1,4.4639287E0,1.1996223E1,2.4639267E1,1.8139267E1,7.124907E0,1.2992182E1],"categories":[],"categories_nodes":[],"categories_segments":[],"categories_sizes":[],"default_left":[1,1,1,1,0,1,1,0,1,1,0,0,0,0,0,0,0],"id":35,"left_children":[1,3,5,7,-1,9,11,-1,13,15,-1,-1,-1,-1,-1,-1,-1],"loss_changes":[2.067379E3,6.4558984E2,1.0838379E2,2.1398047E2,0E0,2.0280664E2,6.507477E1,0E0,1.1441406E1,1.1577393E1,0E0,0E0,0E0,0E0,0E0,0E0,0E0],"parents":[2147483647,0,0,1,1,2,2,3,3,5,5,6,6,8,8,9,9],"right_children":[2,4,6,8,-1,10,12,-1,14,16,-1,-1,-1,-1,-1,-1,-1],"split_conditions":[4.5E7,4.5E0,2.5E0,7.68E2,1.1532103E0,5E-1,3.5E0,4.5925346E-1,3E0,7.68E2,5.7513946E-1,1.3815495E-1,3.7127334E-1,7.625652E-1,5.613955E-1,2.2051007E-1,4.0209743E-1],"split_indices":[3,0,0,4,0,0,0,0,10,4,0,0,0,0,0,0,0],"split_type":[0,0,0,0,0,0,0,0,0,0,0,0,0,0,0,0,0],"sum_hessian":[1.27E2,8.4E1,4.3E1,7.9E1,5E0,3.4E1,9E0,8E0,7.1E1,1.4E1,2E1,3E0,6E0,5.9E1,1.2E1,4E0,1E1],"tree_param":{"num_deleted":"0","num_feature":"13","num_nodes":"17","size_leaf_vector":"0"}},{"base_weights":[2.0693481E1,2.357447E1,1.4818129E1,2.42759E1,1.7446991E1],"categories":[],"categories_nodes":[],"categories_segments":[],"categories_sizes":[],"default_left":[1,1,0,0,0],"id":36,"left_children":[1,3,-1,-1,-1],"loss_changes":[1.9762031E3,4.8347656E1,0E0,0E0,0E0],"parents":[2147483647,0,0,1,1],"right_children":[2,4,-1,-1,-1],"split_conditions":[4.5E7,3E0,4.5860898E-1,7.513193E-1,5.3997016E-1],"split_indices":[3,10,0,0,0],"split_type":[0,0,0,0,0],"sum_hessian":[1.32E2,8.7E1,4.5E1,7.6E1,1.1E1],"tree_param":{"num_deleted":"0","num_feature":"13","num_nodes":"5","size_leaf_vector":"0"}},{"base_weights":[1.984437E1,2.24131E1,1.5024165E1,2.1507498E1,3.6694534E1,1.874482E1,9.667467E0,2.333384E1,1.6520685E1,8.30639E0,1.9327076E1,1.997446E1,2.8664688E1],"categories":[],"categories_nodes":[],"categories_segments":[],"categories_sizes":[],"default_left":[1,1,1,1,0,0,0,0,0,0,0,0,0],"id":37,"left_children":[1,3,5,7,-1,9,-1,11,-1,-1,-1,-1,-1],"loss_changes":[1.3205977E3,4.447578E2,7.915498E2,4.1810547E2,0E0,3.807129E1,0E0,5.542246E2,0E0,0E0,0E0,0E0,0E0],"parents":[2147483647,0,0,1,1,2,2,3,3,5,5,7,7],"right_children":[2,4,6,8,-1,10,-1,12,-1,-1,-1,-1,-1],"split_conditions":[8.732832E6,3.5E0,4.5E7,6.5E7,1.1356659E0,1.2509632E7,2.9920024E-1,4.208544E6,5.1130176E-1,2.57076E-1,5.981572E-1,6.1819327E-1,8.8714874E-1],"split_indices":[12,7,3,3,0,12,0,12,0,0,0,0,0],"split_type":[0,0,0,0,0,0,0,0,0,0,0,0,0],"sum_hessian":[1.27E2,8.1E1,4.6E1,7.8E1,3E0,2.6E1,2E1,5.5E1,2.3E1,2E0,2.4E1,3.6E1,1.9E1],"tree_param":{"num_deleted":"0","num_feature":"13","num_nodes":"13","size_leaf_vector":"0"}},{"base_weights":[1.9610483E1,1.5242973E1,2.1565424E1,6.753629E0,2.1675673E1,2.1786701E1,6.8401475E0],"categories":[],"categories_nodes":[],"categories_segments":[],"categories_sizes":[],"default_left":[1,0,1,0,1,0,0],"id":38,"left_children":[1,-1,3,-1,5,-1,-1],"loss_changes":[8.5278516E2,0E0,2.9652344E1,0E0,2.7203125E1,0E0,0E0],"parents":[2147483647,0,0,2,2,4,4],"right_children":[2,-1,4,-1,6,-1,-1],"split_conditions":[1.536E3,4.717576E-1,5E-1,2.0901932E-1,1.5E0,6.7428064E-1,2.1169698E-1],"split_indices":[4,0,1,0,1,0,0],"split_type":[0,0,0,0,0,0,0],"sum_hessian":[1.29E2,4.2E1,8.7E1,1E0,8.6E1,8.5E1,1E0],"tree_param":{"num_deleted":"0","num_feature":"13","num_nodes":"7","size_leaf_vector":"0"}},{"base_weights":[1.8971785E1,2.1475082E1,1.3787413E1,2.5166737E1,1.7571129E1,1.082732E1,2.2071568E1,1.1468286E1,3.3774502E0,3.0668789E1,1.5692374E1,1.2512852E1,7.7427254E0,6.9365683E0,2.3539812E1,1.2798898E1,3.5369644E0,5.727954E0,1.0494459E1,9.544625E0,2.3884156E0],"categories":[],"categories_nodes":[],"categories_segments":[],"categories_sizes":[],"default_left":[1,1,1,0,0,1,1,1,0,0,1,1,1,1,0,0,0,0,0,0,0],"id":39,"left_children":[1,3,5,-1,-1,7,9,11,-1,-1,13,15,17,19,-1,-1,-1,-1,-1,-1,-1],"loss_changes":[1.4283555E3,8.7839453E2,8.878994E2,0E0,0E0,1.312063E2,2.1728174E2,4.453174E1,0E0,0E0,4.0752795E2,2.3322998E1,1.9760132E0,3.8954895E1,0E0,0E0,0E0,0E0,0E0,0E0,0E0],"parents":[2147483647,0,0,1,1,2,2,5,5,6,6,7,7,10,10,11,11,12,12,13,13],"right_children":[2,4,6,-1,-1,8,10,12,-1,-1,14,16,18,20,-1,-1,-1,-1,-1,-1,-1],"split_conditions":[4.5E7,2.5E2,7E2,7.7888995E-1,5.438121E-1,6E0,9E2,1.3E8,1.0452933E-1,9.49174E-1,1.95E8,5E2,3.25E8,1.3E3,7.28538E-1,3.9611545E-1,1.09466165E-1,1.7727551E-1,3.2479495E-1,2.9539838E-1,7.391951E-2],"split_indices":[3,5,5,0,0,11,5,3,0,0,3,5,3,5,0,0,0,0,0,0,0],"split_type":[0,0,0,0,0,0,0,0,0,0,0,0,0,0,0,0,0,0,0,0,0],"sum_hessian":[1.27E2,8.4E1,4.3E1,4.1E1,4.3E1,3.3E1,1E1,3E1,3E0,3E0,7E0,2.2E1,8E0,4E0,3E0,2.1E1,1E0,6E0,2E0,2E0,2E0],"tree_param":{"num_deleted":"0","num_feature":"13","num_nodes":"21","size_leaf_vector":"0"}},{"base_weights":[1.8216572E1,1.3089092E1,2.0787865E1,1.7100477E1,1.0118454E1,1.9922523E1,3.258546E1,1.3703557E1,2.1545376E1,1.2613978E1,7.091158E0,2.0948935E1,1.4028679E1,4.183591E0,2.8134756E1,7.841105E0,3.2944157E0,2.1188272E1,2.5261962E0,4.9992027E0,1.0120848E1,1.9094503E1,2.3918646E1,2.45266E1,4.6424313E0],"categories":[],"categories_nodes":[],"categories_segments":[],"categories_sizes":[],"default_left":[1,1,1,1,1,1,0,0,1,0,1,1,0,0,0,0,0,0,0,0,0,0,1,0,0],"id":40,"left_children":[1,3,5,7,9,11,-1,-1,13,-1,15,17,-1,-1,-1,19,-1,21,-1,-1,-1,-1,23,-1,-1],"loss_changes":[1.5524414E3,4.2303467E2,3.9196094E2,5.4222656E1,1.4793433E2,2.7858203E2,0E0,0E0,6.8385425E2,0E0,2.2013062E1,2.6609375E2,0E0,0E0,0E0,3.7005432E1,0E0,3.850586E1,0E0,0E0,0E0,0E0,2.2537207E2,0E0,0E0],"parents":[2147483647,0,0,1,1,2,2,3,3,4,4,5,5,8,8,10,10,11,11,15,15,17,17,22,22],"right_children":[2,4,6,8,10,12,-1,-1,14,-1,16,18,-1,-1,-1,20,-1,22,-1,-1,-1,-1,24,-1,-1],"split_conditions":[1.536E3,1.037856E7,4.5E0,1.95E8,8.5E7,1.6208544E7,1.0084934E0,4.2411393E-1,1.5E0,3.9039233E-1,2E0,4.05E8,4.3417618E-1,1.2947872E-1,8.7074775E-1,1.7140704E7,1.0195948E-1,4.208544E6,7.818371E-2,1.5472125E-1,3.1323197E-1,5.909593E-1,1.3E8,7.5907826E-1,1.4367945E-1],"split_indices":[4,12,0,3,3,12,0,0,0,0,0,3,0,0,0,12,0,12,0,0,0,0,3,0,0],"split_type":[0,0,0,0,0,0,0,0,0,0,0,0,0,0,0,0,0,0,0,0,0,0,0,0,0],"sum_hessian":[1.33E2,4.6E1,8.7E1,1.8E1,2.8E1,8.3E1,4E0,1.2E1,6E0,1.4E1,1.4E1,6.9E1,1.4E1,2E0,4E0,1.1E1,3E0,6.8E1,1E0,6E0,5E0,4.2E1,2.6E1,2.5E1,1E0],"tree_param":{"num_deleted":"0","num_feature":"13","num_nodes":"25","size_leaf_vector":"0"}},{"base_weights":[1.7730545E1,1.2718397E1,2.0710747E1,1.0089522E1,1.8592844E1,2.4606682E1,1.7314543E1,1.1336134E1,5.7462897E0,1.0463492E1,2.3224537E1,6.8495375E-1,1.17140465E1,2.9459625E1,1.6026003E1,1.4938698E1,9.722296E0,3.394621E1,9.570246E0,2.0296743E0,2.3020813E1],"categories":[],"categories_nodes":[],"categories_segments":[],"categories_sizes":[],"default_left":[1,1,1,1,1,0,0,1,0,0,1,0,1,1,1,0,0,0,0,0,0],"id":41,"left_children":[1,3,5,7,9,-1,-1,11,-1,-1,13,-1,15,17,19,-1,-1,-1,-1,-1,-1],"loss_changes":[1.748875E3,6.384707E2,7.379219E2,1.4853247E2,3.6766064E2,0E0,0E0,1.0557495E2,0E0,0E0,2.728418E1,0E0,5.9188232E1,8.471338E1,5.292489E2,0E0,0E0,0E0,0E0,0E0,0E0],"parents":[2147483647,0,0,1,1,2,2,3,3,4,4,7,7,10,10,12,12,13,13,14,14],"right_children":[2,4,6,8,10,-1,-1,12,-1,-1,14,-1,16,18,20,-1,-1,-1,-1,-1,-1],"split_conditions":[1.5E0,7E2,2.5E2,1.3E8,5.5E7,7.6155674E-1,5.3587097E-1,5E-1,1.7784297E-1,3.2383657E-1,1.2E3,2.119876E-2,2E2,5E-1,5E-1,4.623405E-1,3.0089712E-1,1.0506074E0,2.961913E-1,6.281676E-2,7.124754E-1],"split_indices":[6,5,5,3,3,0,0,6,0,0,5,0,5,6,6,0,0,0,0,0,0],"split_type":[0,0,0,0,0,0,0,0,0,0,0,0,0,0,0,0,0,0,0,0,0],"sum_hessian":[1.3E2,5E1,8E1,3.6E1,1.4E1,3.5E1,4.5E1,2.7E1,9E0,6E0,8E0,1E0,2.6E1,3E0,5E0,8E0,1.8E1,2E0,1E0,2E0,3E0],"tree_param":{"num_deleted":"0","num_feature":"13","num_nodes":"21","size_leaf_vector":"0"}},{"base_weights":[1.7359413E1,1.3061021E1,1.9378489E1,8.996618E0,1.5219314E1,1.8559202E1,3.111202E1,1.797039E1,9.329244E0,1.9511631E1,1.5020528E1,1.2460124E1,2.2053228E1,9.467596E0,2.0042963E1,1.4249958E1,3.9622245E0],"categories":[],"categories_nodes":[],"categories_segments":[],"categories_sizes":[],"default_left":[1,1,1,0,1,1,0,1,0,1,0,1,0,0,0,0,0],"id":42,"left_children":[1,3,5,-1,7,9,-1,11,-1,13,-1,15,-1,-1,-1,-1,-1],"loss_changes":[9.818164E2,2.95229E2,4.242422E2,0E0,3.3610205E2,6.486914E1,0E0,2.090332E2,0E0,2.0366992E2,0E0,1.0485217E2,0E0,0E0,0E0,0E0,0E0],"parents":[2147483647,0,0,1,1,2,2,4,4,5,5,7,7,9,9,11,11],"right_children":[2,4,6,-1,8,10,-1,12,-1,14,-1,16,-1,-1,-1,-1,-1],"split_conditions":[1.536E3,5E-1,4.5E0,2.78438E-1,2.5E0,3.5E0,9.6289164E-1,1.5E0,2.887325E-1,3E0,4.6487308E-1,7.68E2,6.8252945E-1,2.9301438E-1,6.2031335E-1,4.4102457E-1,1.22627616E-1],"split_indices":[4,0,0,0,0,0,0,0,0,11,0,4,0,0,0,0,0],"split_type":[0,0,0,0,0,0,0,0,0,0,0,0,0,0,0,0,0],"sum_hessian":[1.35E2,4.5E1,9E1,1.7E1,2.8E1,8.6E1,4E0,1.8E1,1E1,6.5E1,2.1E1,9E0,9E0,4E0,6.1E1,7E0,2E0],"tree_param":{"num_deleted":"0","num_feature":"13","num_nodes":"17","size_leaf_vector":"0"}},{"base_weights":[1.7333998E1,1.5622314E1,2.451275E1,1.2661806E1,1.7696297E1,2.126532E1,1.0568883E1,1.4511363E1,2.7223263E1,1.1874097E1,4.759325E0],"categories":[],"categories_nodes":[],"categories_segments":[],"categories_sizes":[],"default_left":[1,1,0,1,0,1,1,0,0,0,0],"id":43,"left_children":[1,3,-1,5,-1,7,9,-1,-1,-1,-1],"loss_changes":[1.371E3,5.1230664E2,0E0,7.0375684E2,0E0,4.6381348E1,2.6531006E2,0E0,0E0,0E0,0E0],"parents":[2147483647,0,0,1,1,3,3,5,5,6,6],"right_children":[2,4,-1,6,-1,8,10,-1,-1,-1,-1],"split_conditions":[2.5E0,1.5E0,7.5864965E-1,1.5E0,5.47686E-1,1.95E8,1.3E8,4.4911486E-1,8.4253776E-1,3.6749363E-1,1.4729723E-1],"split_indices":[6,6,0,10,0,3,3,0,0,0,0],"split_type":[0,0,0,0,0,0,0,0,0,0,0],"sum_hessian":[1.35E2,1.11E2,2.4E1,4.8E1,6.3E1,8E0,4E1,5E0,3E0,3.2E1,8E0],"tree_param":{"num_deleted":"0","num_feature":"13","num_nodes":"11","size_leaf_vector":"0"}},{"base_weights":[1.663574E1,1.4844202E1,2.3835102E1,1.1806596E1,1.6992416E1,2.9689524E1,2.023277E1,1.0337389E1,2.640928E1,1.9582535E1,1.5130728E1,8.7664455E-1,1.1016735E1,5.764081E0,3.2232613E1,3.6039032E-2,1.1692883E0,9.757478E0,2.1347548E1],"categories":[],"categories_nodes":[],"categories_segments":[],"categories_sizes":[],"default_left":[1,1,1,1,1,0,0,1,1,0,0,1,1,0,0,0,0,0,0],"id":44,"left_children":[1,3,5,7,9,-1,-1,11,13,-1,-1,15,17,-1,-1,-1,-1,-1,-1],"loss_changes":[1.4119805E3,5.4096484E2,5.6035156E1,7.9155225E2,6.2964844E1,0E0,0E0,2.7385596E2,3.0975098E2,0E0,0E0,8.9621663E-1,3.68708E2,0E0,0E0,0E0,0E0,0E0,0E0],"parents":[2147483647,0,0,1,1,2,2,3,3,4,4,7,7,8,8,11,11,12,12],"right_children":[2,4,6,8,10,-1,-1,12,14,-1,-1,16,18,-1,-1,-1,-1,-1,-1],"split_conditions":[2.5E0,1.5E0,1.5E2,3.5E0,2.5E2,9.188666E-1,6.2618774E-1,5E-1,5E2,6.060635E-1,4.6828368E-1,9.5E2,1.2E3,1.783936E-1,9.975731E-1,1.1153787E-3,3.618852E-2,3.0198598E-1,6.606892E-1],"split_indices":[6,6,5,7,5,0,0,6,5,0,0,5,5,0,0,0,0,0,0],"split_type":[0,0,0,0,0,0,0,0,0,0,0,0,0,0,0,0,0,0,0],"sum_hessian":[1.3E2,1.06E2,2.4E1,4.6E1,6E1,7E0,1.7E1,4.3E1,3E0,2.2E1,3.8E1,3E0,4E1,1E0,2E0,1E0,2E0,3.7E1,3E0],"tree_param":{"num_deleted":"0","num_feature":"13","num_nodes":"19","size_leaf_vector":"0"}},{"base_weights":[1.5971955E1,1.4663775E1,2.520045E1,9.94145E0,1.7083496E1,2.9482563E1,1.3824064E1,1.1837556E1,8.903451E0,1.9764503E1,1.4704957E1,4.5262327E0,9.249665E0],"categories":[],"categories_nodes":[],"categories_segments":[],"categories_sizes":[],"default_left":[0,1,1,1,1,0,0,0,1,0,0,0,0],"id":45,"left_children":[1,3,5,7,9,-1,-1,-1,11,-1,-1,-1,-1],"loss_changes":[1.3521953E3,1.2481895E3,4.520459E2,2.3432617E0,2.7664453E2,0E0,0E0,0E0,1.4127441E1,0E0,0E0,0E0,0E0],"parents":[2147483647,0,0,1,1,2,2,3,3,4,4,8,8],"right_children":[2,4,6,8,10,-1,-1,-1,12,-1,-1,-1,-1],"split_conditions":[4.000001E0,1.5E0,1.2E3,1.5E2,2.5E2,9.124613E-1,4.278435E-1,3.663627E-1,2.5E2,6.116953E-1,4.5510644E-1,1.4008321E-1,2.862696E-1],"split_indices":[8,6,5,5,5,0,0,0,5,0,0,0,0],"split_type":[0,0,0,0,0,0,0,0,0,0,0,0,0],"sum_hessian":[1.35E2,1.2E2,1.5E1,4.2E1,7.8E1,1E1,5E0,1.2E1,3E1,3.4E1,4.4E1,3E0,2.7E1],"tree_param":{"num_deleted":"0","num_feature":"13","num_nodes":"13","size_leaf_vector":"0"}},{"base_weights":[1.5634385E1,1.4264085E1,2.4486492E1,9.716273E0,1.6630026E1,5.8421392E0,1.0405242E1,2.033656E1,1.4786064E1,9.296842E0,3.3962004E0],"categories":[],"categories_nodes":[],"categories_segments":[],"categories_sizes":[],"default_left":[0,1,0,0,1,0,0,0,0,0,0],"id":46,"left_children":[1,3,-1,5,7,9,-1,-1,-1,-1,-1],"loss_changes":[1.2544336E3,1.066459E3,0E0,5.8961914E1,2.5705664E2,4.119159E1,0E0,0E0,0E0,0E0,0E0],"parents":[2147483647,0,0,1,1,3,3,4,4,5,5],"right_children":[2,4,-1,6,8,10,-1,-1,-1,-1,-1],"split_conditions":[4.000001E0,1.5E0,7.57837E-1,1.1820352E7,5.3392E5,1.037856E7,3.2203376E-1,6.2939996E-1,4.5761663E-1,2.8772968E-1,1.0510963E-1],"split_indices":[8,6,0,12,12,12,0,0,0,0,0],"split_type":[0,0,0,0,0,0,0,0,0,0,0],"sum_hessian":[1.25E2,1.1E2,1.5E1,3.9E1,7.1E1,7E0,3.2E1,2.1E1,5E1,2E0,5E0],"tree_param":{"num_deleted":"0","num_feature":"13","num_nodes":"11","size_leaf_vector":"0"}},{"base_weights":[1.5383581E1,1.4676946E1,2.8334473E1,1.2015393E1,1.5994574E1,1.4073725E1,7.236143E0,1.7725676E1,1.2258239E1,1.5703777E1,9.491726E0,3.9396517E0,9.141153E0,1.0038818E1,1.9563055E1,1.3041876E1,1.5547626E0,1.2916388E1,3.7218277E0],"categories":[],"categories_nodes":[],"categories_segments":[],"categories_sizes":[],"default_left":[1,1,0,1,1,1,1,1,1,0,0,0,0,1,0,0,0,0,0],"id":47,"left_children":[1,3,-1,5,7,9,11,13,15,-1,-1,-1,-1,17,-1,-1,-1,-1,-1],"loss_changes":[8.4640234E2,2.8132422E2,0E0,3.5155566E2,3.4725195E2,1.0664404E2,6.482709E1,5.928887E2,2.1723291E2,0E0,0E0,0E0,0E0,1.7673645E2,0E0,0E0,0E0,0E0,0E0],"parents":[2147483647,0,0,1,1,3,3,4,4,5,5,6,6,7,7,8,8,13,13],"right_children":[2,4,-1,6,8,10,12,14,16,-1,-1,-1,-1,18,-1,-1,-1,-1,-1],"split_conditions":[4.5E0,5E-1,8.769288E-1,6E7,2.5E0,6E2,3.5E2,5E1,8.5E7,4.860191E-1,2.9376116E-1,1.2192901E-1,2.8291124E-1,1.3E8,6.054606E-1,4.036354E-1,4.8118636E-2,3.9975166E-1,1.1518753E-1],"split_indices":[0,0,0,3,0,5,5,5,3,0,0,0,0,3,0,0,0,0,0],"split_type":[0,0,0,0,0,0,0,0,0,0,0,0,0,0,0,0,0,0,0],"sum_hessian":[1.27E2,1.22E2,5E0,4.3E1,7.9E1,2.9E1,1.4E1,5.2E1,2.7E1,2E1,9E0,6E0,8E0,1.1E1,4.1E1,2.5E1,2E0,7E0,4E0],"tree_param":{"num_deleted":"0","num_feature":"13","num_nodes":"19","size_leaf_vector":"0"}},{"base_weights":[1.4536704E1,1.6795786E1,1.0152773E1,1.3057677E1,7.8006663E0,1.5276976E1,8.924397E0,2.828561E0,8.795718E0,2.473647E0,9.50688E0,2.6111147E-1,4.134522E0,6.090977E-1,-2.0097053E-1],"categories":[],"categories_nodes":[],"categories_segments":[],"categories_sizes":[],"default_left":[1,0,1,0,1,0,0,0,0,0,0,0,0,0,0],"id":48,"left_children":[1,-1,3,5,7,-1,9,11,-1,-1,-1,13,-1,-1,-1],"loss_changes":[1.1726426E3,0E0,2.4050586E2,7.553247E1,1.1810339E2,0E0,1.4714233E1,1.8530106E1,0E0,0E0,0E0,5.4155785E-1,0E0,0E0,0E0],"parents":[2147483647,0,0,2,2,3,3,4,4,6,6,7,7,11,11],"right_children":[2,-1,4,6,8,-1,10,12,-1,-1,-1,14,-1,-1,-1],"split_conditions":[8.732832E6,5.1981586E-1,1.5E0,9.062563E7,1E1,4.7280994E-1,1.2583418E8,1.7140704E7,2.722203E-1,7.655736E-2,2.942302E-1,1.1164992E7,1.2796009E-1,1.8851077E-2,-6.219874E-3],"split_indices":[12,0,1,12,2,0,12,12,0,0,0,12,0,0,0],"split_type":[0,0,0,0,0,0,0,0,0,0,0,0,0,0,0],"sum_hessian":[1.31E2,8.5E1,4.6E1,1.9E1,2.7E1,1.1E1,8E0,5E0,2.2E1,1E0,7E0,2E0,3E0,1E0,1E0],"tree_param":{"num_deleted":"0","num_feature":"13","num_nodes":"15","size_leaf_vector":"0"}},{"base_weights":[1.41218195E1,1.78222E1,1.1942972E1,9.665773E0,2.0497751E1,1.8161669E1,1.0358584E1,1.2985228E1,2.2085094E1,1.2387134E1,8.492983E0,3.1045146E0,9.2414255E0],"categories":[],"categories_nodes":[],"categories_segments":[],"categories_sizes":[],"default_left":[1,1,1,0,0,0,0,0,0,0,0,0,0],"id":49,"left_children":[1,3,5,-1,7,-1,9,-1,-1,-1,11,-1,-1],"loss_changes":[8.649121E2,8.451162E2,6.6948535E2,0E0,1.8007715E2,0E0,1.7479883E2,0E0,0E0,0E0,1.3007056E2,0E0,0E0],"parents":[2147483647,0,0,1,1,2,2,4,4,6,6,10,10],"right_children":[2,4,6,-1,8,-1,10,-1,-1,-1,12,-1,-1],"split_conditions":[5.3392E5,5E1,1.5E2,2.991478E-1,2.42464E5,5.6208885E-1,1.037856E7,4.018822E-1,6.8351567E-1,3.8337168E-1,1.2509632E7,9.6082196E-2,2.860146E-1],"split_indices":[12,5,5,0,12,0,12,0,0,0,12,0,0],"split_type":[0,0,0,0,0,0,0,0,0,0,0,0,0],"sum_hessian":[1.27E2,4.5E1,8.2E1,1.2E1,3.3E1,1.5E1,6.7E1,7E0,2.6E1,3E1,3.7E1,5E0,3.2E1],"tree_param":{"num_deleted":"0","num_feature":"13","num_nodes":"13","size_leaf_vector":"0"}},{"base_weights":[1.3706615E1,1.318537E1,2.5094486E1,9.025255E0,1.4995138E1,1.3712091E1,7.5102024E0,1.5076825E1,4.5423946E0,6.1867504E0,1.5224088E1,6.1746917E0,8.907069E0,8.057475E0,1.6116441E0,7.646239E0,4.7957883E0,4.846421E0,9.688234E0,1.3157417E0,8.429623E0,5.112616E0,7.7756137E-1],"categories":[],"categories_nodes":[],"categories_segments":[],"categories_sizes":[],"default_left":[1,1,0,1,1,1,1,0,0,1,0,1,1,0,0,1,1,0,0,0,0,0,0],"id":50,"left_children":[1,3,-1,5,7,9,11,-1,-1,13,-1,15,17,-1,-1,19,21,-1,-1,-1,-1,-1,-1],"loss_changes":[5.0744336E2,8.343242E2,0E0,2.0247217E2,2.005664E1,2.6717407E1,1.6569092E1,0E0,0E0,1.3678947E1,0E0,9.622314E0,7.236206E0,0E0,0E0,2.9951843E1,1.1905029E1,0E0,0E0,0E0,0E0,0E0,0E0],"parents":[2147483647,0,0,1,1,3,3,4,4,5,5,6,6,9,9,11,11,12,12,15,15,16,16],"right_children":[2,4,-1,6,8,10,12,-1,-1,14,-1,16,18,-1,-1,20,22,-1,-1,-1,-1,-1,-1],"split_conditions":[3.5E0,1.536E3,7.766539E-1,3E0,1E1,1.2E1,7.68E2,4.6661544E-1,1.4058341E-1,6E0,4.711731E-1,3.84E2,1E1,2.4937229E-1,4.9879074E-2,1E1,6E0,1.4999276E-1,2.9984295E-1,4.0721133E-2,2.6088995E-1,1.582313E-1,2.4064891E-2],"split_indices":[7,4,0,11,2,2,4,0,0,2,0,4,2,0,0,2,11,0,0,0,0,0,0],"split_type":[0,0,0,0,0,0,0,0,0,0,0,0,0,0,0,0,0,0,0,0,0,0,0],"sum_hessian":[1.28E2,1.24E2,4E0,3.9E1,8.5E1,8E0,3.1E1,8.4E1,1E0,2E0,6E0,1.8E1,1.3E1,1E0,1E0,7E0,1.1E1,3E0,1E1,1E0,6E0,1E1,1E0],"tree_param":{"num_deleted":"0","num_feature":"13","num_nodes":"23","size_leaf_vector":"0"}},{"base_weights":[1.3124226E1,1.5359123E1,8.903652E0,8.648947E0,1.628106E1,1.4275134E1,7.679662E0,1.270815E1,1.8842928E1,3.0213172E0,8.437695E0,1.5074492E1,1.0052878E1,2.1284779E1,1.5101566E1,9.010478E0,5.1229634E0,2.867077E0,7.5709395E0,5.2127404E0,1.1740595E0],"categories":[],"categories_nodes":[],"categories_segments":[],"categories_sizes":[],"default_left":[1,1,1,0,0,0,0,0,1,0,1,0,0,0,0,0,1,1,0,0,0],"id":51,"left_children":[1,3,5,-1,7,-1,9,11,13,-1,15,-1,-1,-1,-1,-1,17,19,-1,-1,-1],"loss_changes":[1.1179219E3,4.0891797E2,2.2240332E2,0E0,4.8018945E2,0E0,1.2065991E2,8.8259766E1,1.2291113E2,0E0,2.828125E1,0E0,0E0,0E0,0E0,0E0,2.0565262E1,1.4215824E1,0E0,0E0,0E0],"parents":[2147483647,0,0,1,1,2,2,4,4,6,6,7,7,8,8,10,10,16,16,17,17],"right_children":[2,4,6,-1,8,-1,10,12,14,-1,16,-1,-1,-1,-1,-1,18,20,-1,-1,-1],"split_conditions":[1.037856E7,5E1,1.5E2,2.6767784E-1,9.2128E5,4.4180375E-1,1.1820352E7,5.3392E5,2.589696E6,9.3507305E-2,6E0,4.6654326E-1,3.1112838E-1,6.5874654E-1,4.6738118E-1,2.7886695E-1,6E2,3.5E2,2.3431441E-1,1.6133006E-1,3.6336184E-2],"split_indices":[12,5,5,0,12,0,12,12,12,0,11,0,0,0,0,0,5,5,0,0,0],"split_type":[0,0,0,0,0,0,0,0,0,0,0,0,0,0,0,0,0,0,0,0,0],"sum_hessian":[1.29E2,8.3E1,4.6E1,1.1E1,7.2E1,7E0,3.9E1,3.2E1,4E1,6E0,3.3E1,1.5E1,1.7E1,2.2E1,1.8E1,2.7E1,6E0,4E0,2E0,1E0,3E0],"tree_param":{"num_deleted":"0","num_feature":"13","num_nodes":"21","size_leaf_vector":"0"}},{"base_weights":[1.3119869E1,1.1566042E1,2.4709972E1,7.790974E0,1.345402E1,1.6653492E1,1.2254167E1],"categories":[],"categories_nodes":[],"categories_segments":[],"categories_sizes":[],"default_left":[0,1,0,0,0,0,0],"id":52,"left_children":[1,3,-1,-1,5,-1,-1],"loss_changes":[2.133211E3,7.5089355E2,0E0,0E0,1.3625684E2,0E0,0E0],"parents":[2147483647,0,0,1,1,4,4],"right_children":[2,4,-1,-1,6,-1,-1],"split_conditions":[4.000001E0,1.5E0,7.647535E-1,2.411243E-1,1.5E0,5.15412E-1,3.7925646E-1],"split_indices":[8,6,0,0,8,0,0],"split_type":[0,0,0,0,0,0,0],"sum_hessian":[1.3E2,1.16E2,1.4E1,4E1,7.6E1,1.8E1,5.8E1],"tree_param":{"num_deleted":"0","num_feature":"13","num_nodes":"7","size_leaf_vector":"0"}},{"base_weights":[1.2575912E1,1.1201451E1,1.799414E1,1.3155411E1,8.355012E0,1.0585445E1,2.16995E1,9.782464E0,1.400251E1,7.1700416E0,1.0180251E1,1.3231284E1,7.811197E0],"categories":[],"categories_nodes":[],"categories_segments":[],"categories_sizes":[],"default_left":[1,1,0,1,1,0,0,0,0,0,0,0,0],"id":53,"left_children":[1,3,5,7,9,-1,-1,-1,-1,-1,11,-1,-1],"loss_changes":[8.0249023E2,4.973916E2,5.017832E2,6.727637E1,4.0159912E1,0E0,0E0,0E0,0E0,0E0,3.3772095E1,0E0,0E0],"parents":[2147483647,0,0,1,1,2,2,3,3,4,4,10,10],"right_children":[2,4,6,8,10,-1,-1,-1,-1,-1,12,-1,-1],"split_conditions":[2.5E0,8.732832E6,8.7856E5,5E-1,1.5E0,3.276109E-1,6.715818E-1,3.027593E-1,4.3336627E-1,2.2190695E-1,1.6208544E7,4.0949747E-1,2.4175017E-1],"split_indices":[6,12,12,0,6,0,0,0,0,0,12,0,0],"split_type":[0,0,0,0,0,0,0,0,0,0,0,0,0],"sum_hessian":[1.28E2,1.04E2,2.4E1,6E1,4.4E1,9E0,1.5E1,1.4E1,4.6E1,2.9E1,1.5E1,5E0,1E1],"tree_param":{"num_deleted":"0","num_feature":"13","num_nodes":"13","size_leaf_vector":"0"}},{"base_weights":[1.2564296E1,1.12354E1,1.784383E1,1.303598E1,8.346904E0,1.0283858E1,2.1650331E1,1.3789548E1,8.799249E0,1.0499334E1,5.1614504E0,1.767836E1,1.2788153E1,6.0871367E0,2.2598858E0,1.3563452E1,4.090483E0,7.7737594E-1,3.6442437E0,1.3469287E0,8.134567E0,1.6669419E0,2.5797826E-1],"categories":[],"categories_nodes":[],"categories_segments":[],"categories_sizes":[],"default_left":[1,1,0,1,1,0,0,1,0,0,0,0,1,0,0,0,1,0,0,1,0,0,0],"id":54,"left_children":[1,3,5,7,9,-1,-1,11,-1,-1,13,-1,15,-1,17,-1,19,-1,-1,21,-1,-1,-1],"loss_changes":[7.548125E2,4.6564062E2,5.400913E2,1.09387695E2,2.5121118E2,0E0,0E0,2.9960938E1,0E0,0E0,3.974939E1,0E0,2.5885498E2,0E0,9.655092E0,0E0,4.448752E1,0E0,0E0,9.819617E-1,0E0,0E0,0E0],"parents":[2147483647,0,0,1,1,2,2,3,3,4,4,7,7,10,10,12,12,14,14,16,16,19,19],"right_children":[2,4,6,8,10,-1,-1,12,-1,-1,14,-1,16,-1,18,-1,20,-1,-1,22,-1,-1,-1],"split_conditions":[2.5E0,8.732832E6,8.7856E5,3E0,8.5E7,3.1827703E-1,6.700601E-1,1.5E0,2.7232957E-1,3.2494584E-1,4.735427E7,5.471308E-1,1.95E8,1.8839192E-1,9.443635E7,4.1977778E-1,1.5E0,2.4059152E-2,1.12786375E-1,3.65E8,2.5175822E-1,5.159049E-2,7.984217E-3],"split_indices":[6,12,12,10,3,0,0,10,0,0,12,0,3,0,12,0,6,0,0,3,0,0,0],"split_type":[0,0,0,0,0,0,0,0,0,0,0,0,0,0,0,0,0,0,0,0,0,0,0],"sum_hessian":[1.29E2,1.05E2,2.4E1,6.3E1,4.2E1,9E0,1.5E1,5.2E1,1.1E1,2.4E1,1.8E1,8E0,4.4E1,1.3E1,5E0,4E1,4E0,3E0,2E0,3E0,1E0,2E0,1E0],"tree_param":{"num_deleted":"0","num_feature":"13","num_nodes":"23","size_leaf_vector":"0"}},{"base_weights":[1.2017374E1,1.5520172E1,1.0302533E1,1.9904167E1,1.1184446E1,1.16236925E1,6.418896E0,8.764501E0,1.7127892E1,7.1716766E0,7.582639E-1,1.040837E1,2.5983157E0,1.5229144E0,2.0147264E1,1.0930859E1,2.1010609E0,1.4899531E1,-3.722681E0],"categories":[],"categories_nodes":[],"categories_segments":[],"categories_sizes":[],"default_left":[1,1,1,0,1,0,1,0,1,0,0,1,1,0,0,0,0,0,0],"id":55,"left_children":[1,3,5,-1,7,-1,9,11,13,-1,-1,15,17,-1,-1,-1,-1,-1,-1],"loss_changes":[6.6737305E2,6.212002E2,4.0782324E2,0E0,2.1101245E2,0E0,1.0135474E2,1.5918774E2,2.4834741E2,0E0,0E0,4.1960938E1,4.1448114E2,0E0,0E0,0E0,0E0,0E0,0E0],"parents":[2147483647,0,0,1,1,2,2,4,4,6,6,7,7,8,8,11,11,12,12],"right_children":[2,4,6,-1,8,-1,10,12,14,-1,-1,16,18,-1,-1,-1,-1,-1,-1],"split_conditions":[1.5E0,2.5E7,4.5E7,6.1601776E-1,2.35E8,3.597438E-1,6E0,2.000001E0,2.5E0,2.2195755E-1,2.3467649E-2,1.3E8,3E0,4.7132958E-2,6.235414E-1,3.3830115E-1,6.502612E-2,4.6112835E-1,-1.15213946E-1],"split_indices":[8,3,3,0,3,0,11,8,7,0,0,3,11,0,0,0,0,0,0],"split_type":[0,0,0,0,0,0,0,0,0,0,0,0,0,0,0,0,0,0,0],"sum_hessian":[1.31E2,4.1E1,9E1,1.9E1,2.2E1,6.6E1,2.4E1,1.7E1,5E0,2.1E1,3E0,1.3E1,4E0,1E0,4E0,1.2E1,1E0,1E0,3E0],"tree_param":{"num_deleted":"0","num_feature":"13","num_nodes":"19","size_leaf_vector":"0"}},{"base_weights":[1.1470549E1,1.1027663E1,2.1731306E1,7.4799237E0,1.2699453E1,2.6533876E1,1.0850741E1,1.103091E1,6.026837E0,1.49331875E1,1.0761219E1,7.994421E0,1.5819273E1,4.8611536E0,7.784924E0,3.935717E0,1.5769935E1,9.699979E0,1.5958295E0,4.9698396E0,1.4651583E0,4.9026504E0,1.011958E1,6.5139837E0,-2.4796422E0],"categories":[],"categories_nodes":[],"categories_segments":[],"categories_sizes":[],"default_left":[1,1,1,1,1,0,0,1,1,1,0,1,0,1,1,0,0,0,0,0,0,1,0,0,0],"id":56,"left_children":[1,3,5,7,9,-1,-1,11,13,15,-1,17,-1,19,21,-1,-1,-1,-1,-1,-1,23,-1,-1,-1],"loss_changes":[4.263672E2,7.01876E2,2.6010742E1,1.7425366E2,2.5523145E2,0E0,0E0,7.3017456E1,3.7782227E1,3.0862695E2,0E0,8.375842E1,0E0,2.3824463E0,4.071704E1,0E0,0E0,0E0,0E0,0E0,0E0,9.3153336E1,0E0,0E0,0E0],"parents":[2147483647,0,0,1,1,2,2,3,3,4,4,7,7,8,8,9,9,11,11,13,13,14,14,21,21],"right_children":[2,4,6,8,10,-1,-1,12,14,16,-1,18,-1,20,22,-1,-1,-1,-1,-1,-1,24,-1,-1,-1],"split_conditions":[3.5E0,1.536E3,1.536E3,3E0,2.5E2,8.2120186E-1,3.358216E-1,8E2,7E2,5E1,3.3305097E-1,7.68E2,4.895936E-1,5E2,7.68E2,1.2180723E-1,4.880666E-1,3.0020642E-1,4.9389623E-2,1.5381248E-1,4.5345455E-2,1.2E3,3.1319275E-1,2.0160249E-1,-7.67429E-2],"split_indices":[7,4,4,11,5,0,0,5,5,5,0,4,0,5,4,0,0,0,0,0,0,5,0,0,0],"split_type":[0,0,0,0,0,0,0,0,0,0,0,0,0,0,0,0,0,0,0,0,0,0,0,0,0],"sum_hessian":[1.34E2,1.3E2,4E0,4.3E1,8.7E1,2E0,2E0,1.1E1,3.2E1,3.8E1,4.9E1,8E0,3E0,2.1E1,1.1E1,3E0,3.5E1,6E0,2E0,2E1,1E0,6E0,5E0,5E0,1E0],"tree_param":{"num_deleted":"0","num_feature":"13","num_nodes":"25","size_leaf_vector":"0"}},{"base_weights":[1.1238644E1,1.06684E1,2.2835032E1,1.5047015E1,1.0176927E1,1.1134178E1,6.9289474E0,1.1824546E1,7.704928E0,1.5602541E0,7.2718863E0,7.8920565E0,4.8888016E0,6.4970207E0,9.575316E0],"categories":[],"categories_nodes":[],"categories_segments":[],"categories_sizes":[],"default_left":[1,1,0,0,1,1,1,0,0,0,1,1,0,0,0],"id":57,"left_children":[1,3,-1,-1,5,7,9,-1,-1,-1,11,13,-1,-1,-1],"loss_changes":[7.219004E2,1.6681152E2,0E0,0E0,3.1870605E2,1.4889062E2,4.6010986E1,0E0,0E0,0E0,1.1088379E1,4.7521973E-1,0E0,0E0,0E0],"parents":[2147483647,0,0,1,1,4,4,5,5,6,6,10,10,11,11],"right_children":[2,4,-1,-1,6,8,10,-1,-1,-1,12,14,-1,-1,-1],"split_conditions":[4.5E0,1.5E0,7.067256E-1,4.6569285E-1,6E0,3E0,1.2E1,3.6596006E-1,2.3846124E-1,4.828859E-2,2E0,5E-1,1.5130442E-1,2.0107749E-1,2.9634824E-1],"split_indices":[0,10,0,0,2,10,2,0,0,0,0,0,0,0,0],"split_type":[0,0,0,0,0,0,0,0,0,0,0,0,0,0,0],"sum_hessian":[1.37E2,1.32E2,5E0,1.1E1,1.21E2,9.2E1,2.9E1,7.5E1,1.7E1,2E0,2.7E1,2E1,7E0,1.3E1,7E0],"tree_param":{"num_deleted":"0","num_feature":"13","num_nodes":"15","size_leaf_vector":"0"}},{"base_weights":[1.0883481E1,1.0349668E1,2.1597832E1,1.173125E1,6.801201E0,3.6834147E0,2.4749447E1,6.2733927E0,1.1920158E1,1.0255184E0,7.632604E0,1.0346256E1,6.1533666E0,7.0237045E0,1.506042E1,1.52547E0,8.722248E0],"categories":[],"categories_nodes":[],"categories_segments":[],"categories_sizes":[],"default_left":[1,1,1,1,1,0,0,0,0,0,1,1,0,1,0,0,0],"id":58,"left_children":[1,3,5,7,9,-1,-1,-1,-1,-1,11,13,-1,15,-1,-1,-1],"loss_changes":[6.087012E2,5.8407227E2,2.5534521E2,3.8614258E1,1.801228E2,0E0,0E0,0E0,0E0,0E0,8.614282E1,8.664661E1,0E0,6.229187E1,0E0,0E0,0E0],"parents":[2147483647,0,0,1,1,2,2,3,3,4,4,10,10,11,11,13,13],"right_children":[2,4,6,8,10,-1,-1,-1,-1,-1,12,14,-1,16,-1,-1,-1],"split_conditions":[3.5E0,1.5E0,5E-1,5E-1,6E0,1.1399868E-1,7.659752E-1,1.941564E-1,3.689192E-1,3.173896E-2,3E0,2.5E0,1.9044168E-1,1.2E1,4.6610773E-1,4.7212053E-2,2.6994646E-1],"split_indices":[7,1,1,1,2,0,0,0,0,0,11,7,0,2,0,0,0],"split_type":[0,0,0,0,0,0,0,0,0,0,0,0,0,0,0,0,0],"sum_hessian":[1.36E2,1.31E2,5E0,9.3E1,3.8E1,1E0,4E0,4E0,8.9E1,5E0,3.3E1,1E1,2.3E1,7E0,3E0,2E0,5E0],"tree_param":{"num_deleted":"0","num_feature":"13","num_nodes":"17","size_leaf_vector":"0"}},{"base_weights":[1.0783412E1,1.2530954E1,7.73521E0,1.0035106E1,1.3849309E1,6.1376343E0,9.489896E0,1.2110969E1,7.6184597E0,1.011166E1,1.4539499E1,3.8869276E0,6.8589807E0,6.7816095E0,2.2554476E0,3.6346128E0,1.087049E0,-1.1952984E0,1.9371997E0],"categories":[],"categories_nodes":[],"categories_segments":[],"categories_sizes":[],"default_left":[1,0,1,0,1,0,0,0,0,0,0,0,0,0,1,0,1,0,0],"id":59,"left_children":[1,3,5,7,9,11,-1,-1,-1,-1,-1,13,-1,-1,15,-1,17,-1,-1],"loss_changes":[6.37334E2,1.6772949E2,9.7106445E1,8.775757E1,2.197461E1,2.6015503E1,0E0,0E0,0E0,0E0,0E0,2.956961E1,0E0,0E0,7.851288E0,0E0,1.1066399E1,0E0,0E0],"parents":[2147483647,0,0,1,1,2,2,3,3,4,4,5,5,11,11,14,14,16,16],"right_children":[2,4,6,8,10,12,-1,-1,-1,-1,-1,14,-1,-1,16,-1,18,-1,-1],"split_conditions":[6.208544E6,9.2128E5,1.536E3,5.3392E5,7.68E2,1.753392E7,2.9370454E-1,3.748246E-1,2.3578511E-1,3.1294763E-1,4.4998565E-1,1.037856E7,2.1227986E-1,2.0988528E-1,3.84E2,1.124883E-1,7.68E2,-3.699351E-2,5.995475E-2],"split_indices":[12,12,4,12,4,12,0,0,0,0,0,12,0,0,4,0,4,0,0],"split_type":[0,0,0,0,0,0,0,0,0,0,0,0,0,0,0,0,0,0,0],"sum_hessian":[1.33E2,8.3E1,5E1,3.1E1,5.2E1,2.8E1,2.2E1,1.5E1,1.6E1,1E1,4.2E1,8E0,2E1,2E0,6E0,2E0,4E0,1E0,3E0],"tree_param":{"num_deleted":"0","num_feature":"13","num_nodes":"19","size_leaf_vector":"0"}},{"base_weights":[1.0355116E1,9.274695E0,1.7460659E1,1.0704898E1,5.764305E0,2.1136074E1,1.3150185E1,1.1187635E1,6.673451E0,6.7152514E0,3.3835058E0,7.3552103E0,1.8020405E1,1.3803988E1,1.0261522E1,9.041743E0,5.59787E0,1.6596847E0,5.6398964E0,1.5004656E1,8.348136E0,7.372499E0,-5.0846696E-1],"categories":[],"categories_nodes":[],"categories_segments":[],"categories_sizes":[],"default_left":[0,1,1,1,1,0,1,0,0,0,1,0,0,1,0,0,0,0,1,0,0,0,0],"id":60,"left_children":[1,3,5,7,9,-1,11,13,-1,15,17,-1,-1,19,-1,-1,-1,-1,21,-1,-1,-1,-1],"loss_changes":[9.012373E2,5.4338477E2,4.9942383E1,1.0311328E2,6.335327E1,0E0,1.729906E2,6.6336914E1,0E0,2.5101807E1,3.8536713E1,0E0,0E0,1.2621826E1,0E0,0E0,0E0,0E0,5.379486E1,0E0,0E0,0E0,0E0],"parents":[2147483647,0,0,1,1,2,2,3,3,4,4,6,6,7,7,9,9,10,10,13,13,18,18],"right_children":[2,4,6,8,10,-1,12,14,-1,16,18,-1,-1,20,-1,-1,-1,-1,22,-1,-1,-1,-1],"split_conditions":[4.000001E0,7E7,5.5E7,3E0,1.3E8,6.541443E-1,1.95E8,1.5E0,2.0653787E-1,1.5E0,3.25E8,2.2763777E-1,5.5771685E-1,2.5E7,3.1758574E-1,2.7983457E-1,1.7324951E-1,5.1365886E-2,4.05E8,4.6438187E-1,2.5836802E-1,2.2817284E-1,-1.5736638E-2],"split_indices":[8,3,3,10,3,0,3,8,0,8,3,0,0,3,0,0,0,0,3,0,0,0,0],"split_type":[0,0,0,0,0,0,0,0,0,0,0,0,0,0,0,0,0,0,0,0,0,0,0],"sum_hessian":[1.33E2,1.17E2,1.6E1,8.2E1,3.5E1,7E0,9E0,7.2E1,1E1,2.4E1,1.1E1,5E0,4E0,1.6E1,5.6E1,6E0,1.8E1,7E0,4E0,1.2E1,4E0,3E0,1E0],"tree_param":{"num_deleted":"0","num_feature":"13","num_nodes":"23","size_leaf_vector":"0"}},{"base_weights":[1.0009491E1,9.502943E0,2.0307043E1,6.3579974E0,1.1168607E1,2.3321548E1,3.3254917E0,9.00254E0,5.0548816E0,1.8191534E1,1.0652336E1,6.801993E0,1.4013357E1,8.903665E-1,5.5910935E0,1.1152789E1,7.271754E0],"categories":[],"categories_nodes":[],"categories_segments":[],"categories_sizes":[],"default_left":[1,1,1,1,1,0,0,1,1,0,1,0,0,0,0,0,0],"id":61,"left_children":[1,3,5,7,9,-1,-1,11,13,-1,15,-1,-1,-1,-1,-1,-1],"loss_changes":[5.688086E2,6.4039355E2,2.3547876E2,1.2930444E2,1.6051465E2,0E0,0E0,8.891113E1,7.155884E1,0E0,7.536914E1,0E0,0E0,0E0,0E0,0E0,0E0],"parents":[2147483647,0,0,1,1,2,2,3,3,4,4,7,7,8,8,10,10],"right_children":[2,4,6,8,10,-1,-1,12,14,-1,16,-1,-1,-1,-1,-1,-1],"split_conditions":[3.5E0,1.5E0,3E0,3E0,3E0,7.217829E-1,1.02921255E-1,2.5E0,5E-1,5.6301314E-1,3E0,2.1051614E-1,4.33702E-1,2.7556118E-2,1.7303978E-1,3.4516972E-1,2.2505485E-1],"split_indices":[7,6,10,11,11,0,0,7,6,0,10,0,0,0,0,0,0],"split_type":[0,0,0,0,0,0,0,0,0,0,0,0,0,0,0,0,0],"sum_hessian":[1.37E2,1.32E2,5E0,4.7E1,8.5E1,4E0,1E0,1.4E1,3.3E1,4E0,8.1E1,1.1E1,3E0,4E0,2.9E1,6.9E1,1.2E1],"tree_param":{"num_deleted":"0","num_feature":"13","num_nodes":"17","size_leaf_vector":"0"}},{"base_weights":[1.0174625E1,9.674202E0,1.9789425E1,7.1933665E0,1.0596508E1,3.2675595E0,2.2717112E1,5.2976584E0,7.747694E0,1.0654251E1,3.0465975E0,-2.4308726E-1,5.883712E0],"categories":[],"categories_nodes":[],"categories_segments":[],"categories_sizes":[],"default_left":[1,1,1,1,1,0,0,1,0,0,0,0,0],"id":62,"left_children":[1,3,5,7,9,-1,-1,11,-1,-1,-1,-1,-1],"loss_changes":[4.8536328E2,2.3088184E2,2.21771E2,6.7716064E0,1.4366211E1,0E0,0E0,3.610446E1,0E0,0E0,0E0,0E0,0E0],"parents":[2147483647,0,0,1,1,2,2,3,3,4,4,7,7],"right_children":[2,4,6,8,10,-1,-1,12,-1,-1,-1,-1,-1],"split_conditions":[3.5E0,1.536E3,5E-1,1.2E1,1.5E0,1.011283E-1,7.0307606E-1,3.84E2,2.397848E-1,3.2974038E-1,9.4289705E-2,-7.5233527E-3,1.8209608E-1],"split_indices":[7,4,1,2,1,0,0,4,0,0,0,0,0],"split_type":[0,0,0,0,0,0,0,0,0,0,0,0,0],"sum_hessian":[1.31E2,1.26E2,5E0,3.6E1,9E1,1E0,4E0,1E1,2.6E1,8.9E1,1E0,1E0,9E0],"tree_param":{"num_deleted":"0","num_feature":"13","num_nodes":"13","size_leaf_vector":"0"}},{"base_weights":[9.122751E0,7.9161687E0,1.4126898E1,9.143174E0,5.8942013E0,7.4425893E0,1.7368263E1,8.780725E0,1.8973995E1,7.313982E0,2.6273184E0,6.6648906E-1,9.281525E0,3.0274644E0,7.5301967E0,3.4740412E0,8.4106547E-1,-4.93379E0,1.22800665E1,9.710927E0,5.73134E0,1.052394E1,6.556912E0,1.4758456E0,4.659279E0,-1.7698446E-1,3.2106366E0,8.47727E0,1.133474E1,5.6415945E-1,9.966708E0,3.0759776E0,6.9445605E0,6.861714E-1,2.509347E0,-2.5591272E-1,6.812071E-2,1.0613384E1,7.142369E0,1.0916433E0,-8.037103E-1],"categories":[],"categories_nodes":[],"categories_segments":[],"categories_sizes":[],"default_left":[1,1,0,1,1,0,0,1,0,0,0,1,1,0,0,0,1,0,0,0,1,0,0,1,0,1,0,0,0,1,0,0,0,0,0,0,0,0,0,0,0],"id":63,"left_children":[1,3,5,7,9,-1,-1,11,-1,13,15,17,19,-1,21,23,25,-1,-1,27,29,-1,31,33,-1,35,-1,37,-1,39,-1,-1,-1,-1,-1,-1,-1,-1,-1,-1,-1],"loss_changes":[7.450371E2,2.3794238E2,4.5809717E2,1.1567969E2,1.9276184E2,0E0,0E0,2.706123E2,0E0,1.0819458E1,2.007962E1,3.5771567E2,5.400244E1,0E0,3.0259888E1,1.7813759E1,1.4376559E1,0E0,0E0,3.7112793E1,1.8770715E2,0E0,1.5494385E1,2.560936E0,0E0,1.0595775E-1,0E0,4.029663E1,0E0,4.127794E0,0E0,0E0,0E0,0E0,0E0,0E0,0E0,0E0,0E0,0E0,0E0],"parents":[2147483647,0,0,1,1,2,2,3,3,4,4,7,7,9,9,10,10,11,11,12,12,14,14,15,15,16,16,19,19,20,20,22,22,23,23,25,25,27,27,29,29],"right_children":[2,4,6,8,10,-1,-1,12,-1,14,16,18,20,-1,22,24,26,-1,-1,28,30,-1,32,34,-1,36,-1,38,-1,40,-1,-1,-1,-1,-1,-1,-1,-1,-1,-1,-1],"split_conditions":[2.5E0,1.037856E7,8.7856E5,3.5E0,8.5E7,2.3034208E-1,5.375336E-1,5E-1,5.8722967E-1,1.2509632E7,4.7140704E7,1.95E8,1.3E8,9.3697555E-2,1.6208544E7,1.556784E7,3.25E8,-1.5269679E-1,3.8005805E-1,4.208544E6,2.5E0,3.2570738E-1,1.9708544E7,1.95E8,1.4420088E-1,1.5E0,9.936658E-2,5.3392E5,3.5080096E-1,3.65E8,3.084615E-1,9.5199E-2,2.149285E-1,2.1236446E-2,7.7662244E-2,-7.92029E-3,2.1082805E-3,3.284756E-1,2.2105049E-1,3.378547E-2,-2.4874179E-2],"split_indices":[6,12,12,7,3,0,0,6,0,12,12,3,3,0,12,12,3,0,0,12,7,0,12,3,0,6,0,12,0,3,0,0,0,0,0,0,0,0,0,0,0],"split_type":[0,0,0,0,0,0,0,0,0,0,0,0,0,0,0,0,0,0,0,0,0,0,0,0,0,0,0,0,0,0,0,0,0,0,0,0,0,0,0,0,0],"sum_hessian":[1.37E2,1.12E2,2.5E1,6.8E1,4.4E1,9E0,1.6E1,6.7E1,1E0,3E1,1.4E1,4E0,6.3E1,2E0,2.8E1,9E0,5E0,3E0,1E0,5.5E1,8E0,5E0,2.3E1,4E0,5E0,4E0,1E0,3.4E1,2.1E1,4E0,4E0,3E0,2E1,3E0,1E0,3E0,1E0,1.1E1,2.3E1,3E0,1E0],"tree_param":{"num_deleted":"0","num_feature":"13","num_nodes":"41","size_leaf_vector":"0"}},{"base_weights":[8.864318E0,7.949798E0,1.3027918E1,1.1992822E1,7.521796E0,1.3439188E1,6.1585665E0,6.573E0,1.6597511E1,8.8149605E0,4.874268E0,3.1291566E0,1.2959058E1,9.290508E0,6.3236976E0,5.6777124E0,2.794262E0,1.3811764E0,6.9883246E0,1.6984098E0,-7.897082E-1,1.1961032E0,3.1547058E0],"categories":[],"categories_nodes":[],"categories_segments":[],"categories_sizes":[],"default_left":[1,1,1,1,1,0,0,1,0,1,1,0,0,0,0,0,1,1,0,1,0,0,0],"id":64,"left_children":[1,3,5,7,9,-1,-1,11,-1,13,15,-1,-1,-1,-1,-1,17,19,-1,21,-1,-1,-1],"loss_changes":[4.479873E2,1.3028857E2,2.8972168E0,1.592677E2,3.3220215E2,0E0,0E0,9.55499E1,0E0,3.8225586E1,4.9139038E1,0E0,0E0,0E0,0E0,0E0,6.2298477E1,7.774542E0,0E0,3.4895287E0,0E0,0E0,0E0],"parents":[2147483647,0,0,1,1,2,2,3,3,4,4,7,7,9,9,10,10,16,16,17,17,19,19],"right_children":[2,4,6,8,10,-1,-1,12,-1,14,16,-1,-1,-1,-1,-1,18,20,-1,22,-1,-1,-1],"split_conditions":[2.5E0,1.5E0,6E7,1.95E8,7E7,4.159319E-1,1.9060262E-1,5E-1,5.1367944E-1,3E0,1.3E8,9.6844845E-2,4.0107226E-1,2.8753367E-1,1.9571328E-1,1.7572057E-1,1.5E0,3.9E8,2.1628295E-1,3.25E8,-2.4440825E-2,3.701842E-2,9.7635575E-2],"split_indices":[6,10,3,3,3,0,0,6,0,10,3,0,0,0,0,0,6,3,0,3,0,0,0],"split_type":[0,0,0,0,0,0,0,0,0,0,0,0,0,0,0,0,0,0,0,0,0,0,0],"sum_hessian":[1.38E2,1.15E2,2.3E1,9E0,1.06E2,2.1E1,2E0,5E0,4E0,7E1,3.6E1,4E0,1E0,5.7E1,1.3E1,2.5E1,1.1E1,9E0,2E0,8E0,1E0,7E0,1E0],"tree_param":{"num_deleted":"0","num_feature":"13","num_nodes":"23","size_leaf_vector":"0"}},{"base_weights":[8.587171E0,8.188102E0,1.7949957E1,9.420412E0,5.7939215E0,8.320706E0,1.0588457E1,1.7791452E0,6.364784E0,1.00175E1,7.2749267E0,8.106417E0,1.2316337E1,-7.2173464E-1,2.309119E0,9.752695E0,5.4101653E0,6.1431146E0,9.576134E0,1.2328278E0,5.6505175E0,3.185366E0,7.087473E0,6.790093E0,4.5205164E0,5.5264134E0,7.965292E-1,1.7643207E0,5.221314E0,3.386791E0,-3.5158128E-1],"categories":[],"categories_nodes":[],"categories_segments":[],"categories_sizes":[],"default_left":[1,1,0,0,0,0,1,1,0,0,0,1,0,0,0,0,0,1,0,0,1,1,0,0,0,0,0,0,0,0,0],"id":65,"left_children":[1,3,-1,5,7,9,11,13,15,-1,-1,17,-1,-1,-1,-1,19,21,-1,-1,23,25,-1,-1,27,-1,-1,29,-1,-1,-1],"loss_changes":[3.8196582E2,3.3755078E2,0E0,3.9191406E1,9.612036E1,2.6408691E1,8.4476074E1,1.0275997E1,8.766797E1,0E0,0E0,5.609619E0,0E0,0E0,0E0,0E0,2.7498657E1,9.774841E0,0E0,0E0,1.5794128E1,1.7701138E1,0E0,0E0,2.7181763E1,0E0,0E0,1.7322819E1,0E0,0E0,0E0],"parents":[2147483647,0,0,1,1,3,3,4,4,5,5,6,6,7,7,8,8,11,11,16,16,17,17,20,20,21,21,24,24,27,27],"right_children":[2,4,-1,6,8,10,12,14,16,-1,-1,18,-1,-1,-1,-1,20,22,-1,-1,24,26,-1,-1,28,-1,-1,30,-1,-1,-1],"split_conditions":[4.5E0,1.037856E7,5.555365E-1,4.208544E6,1.2509632E7,5.3392E5,1.536E3,1E1,1.6208544E7,3.1003344E-1,2.2515304E-1,1.5E0,3.8118058E-1,-2.23371E-2,7.146535E-2,3.0183795E-1,1.9659968E7,1.2E1,2.9637352E-1,3.8155016E-2,2E0,6E0,2.1935152E-1,2.1014784E-1,7.182035E7,1.7103799E-1,2.4651928E-2,7.037856E7,1.615954E-1,1.0481842E-1,-1.0881154E-2],"split_indices":[0,12,0,12,12,12,4,2,12,0,0,0,0,0,0,0,12,2,0,0,0,2,0,0,12,0,0,12,0,0,0],"split_type":[0,0,0,0,0,0,0,0,0,0,0,0,0,0,0,0,0,0,0,0,0,0,0,0,0,0,0,0,0,0,0],"sum_hessian":[1.32E2,1.28E2,4E0,8.3E1,4.5E1,4.6E1,3.7E1,6E0,3.9E1,1.5E1,3.1E1,1.7E1,2E1,1E0,5E0,7E0,3.2E1,9E0,8E0,2E0,3E1,3E0,6E0,1.3E1,1.7E1,1E0,2E0,4E0,1.3E1,2E0,2E0],"tree_param":{"num_deleted":"0","num_feature":"13","num_nodes":"31","size_leaf_vector":"0"}},{"base_weights":[8.237149E0,7.53793E0,1.3798916E1,8.680281E0,4.6137586E0,1.8041185E1,7.975327E0,9.154946E0,5.9246755E0,5.4773164E0,2.1471026E0,2.7998667E0,1.4648114E1,1.1223889E1,8.427176E0,7.3395934E0,4.5281205E0,6.242544E-1,4.4381323E0,1.2722196E1,7.179184E0,2.0685267E-2,8.735969E-1,6.670352E0,-9.9051017E-1,7.4153095E-1,-7.091616E-1],"categories":[],"categories_nodes":[],"categories_segments":[],"categories_sizes":[],"default_left":[0,1,1,1,1,0,1,0,0,0,1,0,0,1,0,0,0,1,1,0,0,1,0,0,0,0,0],"id":66,"left_children":[1,3,5,7,9,-1,11,13,-1,15,17,-1,-1,19,-1,-1,-1,21,23,-1,-1,25,-1,-1,-1,-1,-1],"loss_changes":[3.9668848E2,3.3893994E2,2.0390967E2,6.0916504E1,6.0684143E1,0E0,2.0217657E2,2.5586914E1,0E0,1.6219177E1,3.1957508E1,0E0,0E0,1.8619507E1,0E0,0E0,0E0,1.0057452E0,5.0895454E1,0E0,0E0,1.869148E0,0E0,0E0,0E0,0E0,0E0],"parents":[2147483647,0,0,1,1,2,2,3,3,4,4,6,6,7,7,9,9,10,10,13,13,17,17,18,18,21,21],"right_children":[2,4,6,8,10,-1,12,14,-1,16,18,-1,-1,20,-1,-1,-1,22,24,-1,-1,26,-1,-1,-1,-1,-1],"split_conditions":[4.000001E0,7E7,1.2E1,3E0,1.3E8,5.5836E-1,1.95E8,1.5E0,1.8336387E-1,1.5E0,3.4E8,8.665359E-2,4.533472E-1,2.5E7,2.6081425E-1,2.2715443E-1,1.4014164E-1,6E0,4.05E8,3.9374158E-1,2.2218989E-1,2.35E8,2.7037112E-2,2.0644195E-1,-3.0655483E-2,2.2949778E-2,-2.1947972E-2],"split_indices":[8,3,2,10,3,0,3,8,0,8,3,0,0,3,0,0,0,2,3,0,0,3,0,0,0,0,0],"split_type":[0,0,0,0,0,0,0,0,0,0,0,0,0,0,0,0,0,0,0,0,0,0,0,0,0,0,0],"sum_hessian":[1.22E2,1.1E2,1.2E1,7.8E1,3.2E1,6E0,6E0,6.5E1,1.3E1,2.3E1,9E0,4E0,2E0,1.4E1,5.1E1,6E0,1.7E1,6E0,3E0,9E0,5E0,2E0,4E0,2E0,1E0,1E0,1E0],"tree_param":{"num_deleted":"0","num_feature":"13","num_nodes":"27","size_leaf_vector":"0"}},{"base_weights":[8.310069E0,7.3202643E0,1.4815124E1,8.469844E0,4.173437E0,1.7965275E1,8.107762E0,1.0030104E1,6.9704022E0,5.5829625E0,3.543332E0,3.3209841E0,1.0708129E1,1.0592236E1,6.2172785E0,3.8160074E-1,3.8079484E0,1.0982116E1,4.380168E0],"categories":[],"categories_nodes":[],"categories_segments":[],"categories_sizes":[],"default_left":[0,1,1,1,1,0,0,1,0,0,1,0,1,0,0,0,0,0,0],"id":67,"left_children":[1,3,5,7,9,-1,-1,11,13,-1,15,-1,17,-1,-1,-1,-1,-1,-1],"loss_changes":[7.706914E2,3.949912E2,2.4135962E2,1.4404199E2,1.3747437E1,0E0,0E0,1.533252E2,7.372217E1,0E0,1.9600464E1,0E0,2.4671387E1,0E0,0E0,0E0,0E0,0E0,0E0],"parents":[2147483647,0,0,1,1,2,2,3,3,4,4,7,7,8,8,10,10,12,12],"right_children":[2,4,6,8,10,-1,-1,12,14,-1,16,-1,18,-1,-1,-1,-1,-1,-1],"split_conditions":[4.000001E0,1.5E0,1.2E3,3.5E2,1.5E2,5.560106E-1,2.5092864E-1,5E1,1.5E0,1.7278814E-1,2.5E2,1.0278175E-1,3E0,3.2782105E-1,1.924197E-1,1.1810232E-2,1.178529E-1,3.3988753E-1,1.3556263E-1],"split_indices":[8,1,5,5,5,0,0,5,8,0,5,0,10,0,0,0,0,0,0],"split_type":[0,0,0,0,0,0,0,0,0,0,0,0,0,0,0,0,0,0,0],"sum_hessian":[1.32E2,1.16E2,1.6E1,8.4E1,3.2E1,1E1,6E0,3.9E1,4.5E1,8E0,2.4E1,4E0,3.5E1,6E0,3.9E1,2E0,2.2E1,3.3E1,2E0],"tree_param":{"num_deleted":"0","num_feature":"13","num_nodes":"19","size_leaf_vector":"0"}},{"base_weights":[8.15303E0,7.1596837E0,1.4393962E1,8.437999E0,4.1408978E0,1.7394346E1,1.086402E1,1.0841392E1,7.6272116E0,4.3177304E0,-1.0311099E0,5.7821503E0,1.5243526E1,1.2274851E1,6.2134066E0,7.9985123E0,4.7195683E0,4.752031E0,2.8741195E0,7.928179E-1,6.0177264E0,-2.0894784E-2,1.13694E0,6.707584E-1,-7.034553E-1],"categories":[],"categories_nodes":[],"categories_segments":[],"categories_sizes":[],"default_left":[0,1,1,0,1,0,1,1,1,1,0,0,0,0,0,0,0,0,1,1,0,1,0,0,0],"id":68,"left_children":[1,3,5,7,9,-1,11,13,15,17,-1,-1,-1,-1,-1,-1,-1,-1,19,21,-1,23,-1,-1,-1],"loss_changes":[7.121084E2,4.0420605E2,3.0930664E1,8.734326E1,3.526367E1,0E0,1.4913928E2,5.8700684E1,3.629883E1,1.0569702E1,0E0,0E0,0E0,0E0,0E0,0E0,0E0,0E0,6.0260612E1,1.916081E0,0E0,1.6772326E0,0E0,0E0,0E0],"parents":[2147483647,0,0,1,1,2,2,3,3,4,4,6,6,7,7,8,8,9,9,18,18,19,19,21,21],"right_children":[2,4,6,8,10,-1,12,14,16,18,-1,-1,-1,-1,-1,-1,-1,-1,20,22,-1,24,-1,-1,-1],"split_conditions":[4.000001E0,4.5E7,6E0,1.5E0,4.05E8,5.383408E-1,1.95E8,2.5E7,3E0,1.3E8,-3.191201E-2,1.7895284E-1,4.7177473E-1,3.798966E-1,1.9229987E-1,2.4754743E-1,1.4606678E-1,1.4707148E-1,3.25E8,6E0,1.8624373E-1,2.35E8,3.5187367E-2,2.0759426E-2,-2.177137E-2],"split_indices":[8,3,2,8,3,0,3,3,10,3,0,0,0,0,0,0,0,0,3,2,0,3,0,0,0],"split_type":[0,0,0,0,0,0,0,0,0,0,0,0,0,0,0,0,0,0,0,0,0,0,0,0,0],"sum_hessian":[1.27E2,1.11E2,1.6E1,7.7E1,3.4E1,7E0,9E0,1.7E1,6E1,3.3E1,1E0,5E0,4E0,1.2E1,5E0,5.2E1,8E0,2.4E1,9E0,6E0,3E0,2E0,4E0,1E0,1E0],"tree_param":{"num_deleted":"0","num_feature":"13","num_nodes":"25","size_leaf_vector":"0"}},{"base_weights":[7.8411083E0,6.772979E0,1.272184E1,5.0001197E0,7.6574683E0,1.0716747E1,1.7181957E1,2.8835638E0,6.3886313E0,9.278135E0,4.9853687E0,4.1407127E0,2.0767603E0,6.8482594E0,1.0359915E1,5.961631E0,2.968209E-1,4.957607E0,1.1836333E1,9.297354E0,1.5481992E1,1.1319014E1,5.06595E0,-6.4950305E-1,2.7114458E0,7.0959244E0,2.225988E-1,1.0513885E1,2.2395687E0,7.581634E-1,-1.0131462E0],"categories":[],"categories_nodes":[],"categories_segments":[],"categories_sizes":[],"default_left":[1,1,1,1,1,0,0,1,0,1,1,0,0,1,1,1,1,1,0,1,0,0,0,0,0,0,1,0,0,0,0],"id":69,"left_children":[1,3,5,7,9,-1,-1,11,-1,13,15,-1,-1,17,19,21,23,25,-1,27,-1,-1,-1,-1,-1,-1,29,-1,-1,-1,-1],"loss_changes":[6.200698E2,1.4240332E2,6.0693848E1,9.965234E1,2.749131E2,0E0,0E0,1.0337601E1,0E0,5.9973633E1,1.303429E2,0E0,0E0,1.0321405E2,4.4834473E1,6.9560974E1,1.456733E1,1.2813501E2,0E0,2.030315E2,0E0,0E0,0E0,0E0,0E0,0E0,3.7577264E0,0E0,0E0,0E0,0E0],"parents":[2147483647,0,0,1,1,2,2,3,3,4,4,7,7,9,9,10,10,13,13,14,14,15,15,16,16,17,17,19,19,26,26],"right_children":[2,4,6,8,10,-1,-1,12,-1,14,16,-1,-1,18,20,22,24,26,-1,28,-1,-1,-1,-1,-1,-1,30,-1,-1,-1,-1],"split_conditions":[2.5E0,5E-1,4.5E0,1.5E0,2.5E0,3.316746E-1,5.3176755E-1,5.5E7,1.9772293E-1,3E0,7E7,1.2815168E-1,6.4274035E-2,1.5E0,1.95E8,3E0,3.25E8,1.3E8,3.6632487E-1,1.5E0,4.7915503E-1,3.5031423E-1,1.5678702E-1,-2.010159E-2,8.391704E-2,2.1961308E-1,3.65E8,3.2539615E-1,6.9312826E-2,2.3464538E-2,-3.1356048E-2],"split_indices":[6,0,0,6,0,0,0,3,0,11,3,0,0,0,3,11,3,3,0,0,0,0,0,0,0,0,3,0,0,0,0],"split_type":[0,0,0,0,0,0,0,0,0,0,0,0,0,0,0,0,0,0,0,0,0,0,0,0,0,0,0,0,0,0,0],"sum_hessian":[1.31E2,1.09E2,2.2E1,3.8E1,7.1E1,1.7E1,5E0,1.6E1,2.2E1,4.3E1,2.8E1,5E0,1.1E1,1.5E1,2.8E1,2.3E1,5E0,1.2E1,3E0,2.5E1,3E0,2E0,2.1E1,4E0,1E0,8E0,4E0,2.1E1,4E0,3E0,1E0],"tree_param":{"num_deleted":"0","num_feature":"13","num_nodes":"31","size_leaf_vector":"0"}},{"base_weights":[7.505628E0,6.664571E0,1.1249767E1,1.1023879E1,6.3829007E0,1.2693516E1,9.937782E-1,-4.847747E0,1.5134845E1,4.8379903E0,7.3898373E0,1.6075981E1,1.0068662E1,2.158796E1,4.448681E0,4.1417174E0,1.1545335E1,9.280897E0,6.146434E0,-3.725685E0,1.0678489E1,3.7371788E0,5.1689677E0,4.7389684E0,2.9814384E0,2.2797978E0,7.822618E0,6.5239506E0,2.410906E0,3.2196438E-1,3.2513943E0,5.925893E-1,3.075896E0,5.3106637E0,2.7600708E0,1.1739807E0,3.1852717E0,-9.0784365E-1,2.9274838E0,3.381079E0,4.9492013E-1],"categories":[],"categories_nodes":[],"categories_segments":[],"categories_sizes":[],"default_left":[1,1,1,1,1,1,0,0,1,1,1,0,0,0,1,1,0,0,0,0,0,1,1,1,1,0,0,0,1,0,1,0,0,0,1,1,1,0,0,0,0],"id":70,"left_children":[1,3,5,7,9,11,-1,-1,13,15,17,-1,-1,-1,19,21,-1,-1,-1,-1,-1,23,25,27,29,-1,-1,-1,31,-1,33,-1,-1,-1,35,37,39,-1,-1,-1,-1],"loss_changes":[3.6934033E2,8.383203E1,3.422644E2,4.3388586E2,1.3989551E2,5.876367E1,0E0,0E0,2.5480554E2,1.7197803E2,1.0566089E2,0E0,0E0,0E0,1.7229231E2,2.3588867E0,0E0,0E0,0E0,0E0,0E0,1.3842255E1,6.1105377E1,4.087863E1,1.4103165E1,0E0,0E0,0E0,6.778221E0,0E0,7.6140594E0,0E0,0E0,0E0,8.409988E0,1.9500843E1,5.4308014E0,0E0,0E0,0E0,0E0],"parents":[2147483647,0,0,1,1,2,2,3,3,4,4,5,5,8,8,9,9,10,10,14,14,15,15,21,21,22,22,23,23,24,24,28,28,30,30,34,34,35,35,36,36],"right_children":[2,4,6,8,10,12,-1,-1,14,16,18,-1,-1,-1,20,22,-1,-1,-1,-1,-1,24,26,28,30,-1,-1,-1,32,-1,34,-1,-1,-1,36,38,40,-1,-1,-1,-1],"split_conditions":[2.5E0,5E-1,6E2,5.5E2,1.5E0,1.5E2,3.0756626E-2,-1.5003382E-1,1.2E3,1.2E3,2.5E2,4.975385E-1,3.1161687E-1,6.6812974E-1,7.68E2,7E2,3.573187E-1,2.872362E-1,1.9022712E-1,-1.1530691E-1,3.3049053E-1,1.5E2,3.84E2,7.68E2,2.5E2,7.0557885E-2,2.4210365E-1,2.0191096E-1,1.536E3,9.964535E-3,3.84E2,1.8340155E-2,9.519647E-2,1.6436072E-1,3.5E2,7.68E2,5E2,-2.809702E-2,9.060324E-2,1.0464164E-1,1.5317375E-2],"split_indices":[6,6,5,5,6,5,0,0,5,5,5,0,0,0,4,5,0,0,0,0,0,5,4,4,5,0,0,0,4,0,4,0,0,0,5,4,5,0,0,0,0],"split_type":[0,0,0,0,0,0,0,0,0,0,0,0,0,0,0,0,0,0,0,0,0,0,0,0,0,0,0,0,0,0,0,0,0,0,0,0,0,0,0,0,0],"sum_hessian":[1.35E2,1.12E2,2.3E1,5E0,1.07E2,2E1,3E0,1E0,4E0,4.4E1,6.3E1,7E0,1.3E1,2E0,2E0,4.1E1,3E0,2.3E1,4E1,1E0,1E0,3.2E1,9E0,1.2E1,2E1,5E0,4E0,6E0,6E0,2E0,1.8E1,2E0,4E0,2E0,1.6E1,4E0,1.2E1,2E0,2E0,1.1E1,1E0],"tree_param":{"num_deleted":"0","num_feature":"13","num_nodes":"41","size_leaf_vector":"0"}},{"base_weights":[7.406838E0,6.519716E0,1.450897E1,7.481247E0,4.901453E0,7.919912E0,4.7240486E0,5.606999E-2,5.364342E0,9.4888854E-1,-8.5240453E-1,7.8231635E0,4.6021013E0,1.6715764E0,4.8455787E0,5.7710857E0,4.0154047E0,1.249976E0,4.6983066E0,2.7657566E0,-6.1538076E-1],"categories":[],"categories_nodes":[],"categories_segments":[],"categories_sizes":[],"default_left":[0,1,0,1,0,0,0,0,0,0,0,0,0,0,0,0,0,0,0,0,0],"id":71,"left_children":[1,3,-1,5,7,-1,-1,9,11,-1,-1,-1,13,-1,15,-1,17,19,-1,-1,-1],"loss_changes":[7.441909E2,1.5322803E2,0E0,5.7757324E1,1.0243713E2,0E0,0E0,4.5024176E0,5.03385E1,0E0,0E0,0E0,1.7809692E1,0E0,5.6502075E0,0E0,3.0898804E1,1.4827497E1,0E0,0E0,0E0],"parents":[2147483647,0,0,1,1,3,3,4,4,7,7,8,8,12,12,14,14,16,16,17,17],"right_children":[2,4,-1,6,8,-1,-1,10,12,-1,-1,-1,14,-1,16,-1,18,20,-1,-1,-1],"split_conditions":[4.000001E0,1.037856E7,4.490408E-1,3E0,1.1820352E7,2.4511482E-1,1.4620546E-1,1.1164992E7,1.6208544E7,2.9367326E-2,-2.6381226E-2,2.4212053E-1,1.9659968E7,5.1733926E-2,6.6829984E7,1.786104E-1,7.182035E7,7.037856E7,1.4540876E-1,8.559791E-2,-1.9045534E-2],"split_indices":[8,12,0,10,12,0,0,12,12,0,0,0,12,0,12,0,12,12,0,0,0],"split_type":[0,0,0,0,0,0,0,0,0,0,0,0,0,0,0,0,0,0,0,0,0],"sum_hessian":[1.29E2,1.16E2,1.3E1,7.1E1,4.5E1,6E1,1.1E1,4E0,4.1E1,2E0,2E0,8E0,3.3E1,3E0,3E1,1.2E1,1.8E1,4E0,1.4E1,2E0,2E0],"tree_param":{"num_deleted":"0","num_feature":"13","num_nodes":"21","size_leaf_vector":"0"}},{"base_weights":[7.222871E0,8.525305E0,4.9635096E0,3.8303108E0,9.1213665E0,9.134531E0,3.8951385E0,2.204012E0,6.391482E0,7.189439E0,1.2502317E1,1.8108711E0,4.347162E0,2.790914E0,1.0084761E0,9.573178E0,5.5537257E0,1.3914598E1,5.7420115E0,5.0315003E0,2.8374907E-1,4.709338E0,1.3826256E0,4.0281972E-1,1.5141816E0,1.2323411E1,2.0783247E1,-1.6336849E0,1.3522171E0,5.560062E0,3.792746E0,-5.2104324E-1,1.9938594E0,1.7720677E0,5.541425E-1,3.3052256E0,6.5521765E0,5.3581295E0,2.5350785E0,3.4930117E0,4.7695333E-1,1.3356861E0,3.8245022E0,-5.70438E-1,1.3159004E0,-7.1640503E-1,3.113141E0,-1.2048374E0,5.0052924E0],"categories":[],"categories_nodes":[],"categories_segments":[],"categories_sizes":[],"default_left":[1,1,1,1,0,0,0,1,0,1,1,0,1,0,1,0,0,1,0,0,1,0,0,0,0,0,0,0,1,1,1,0,0,0,0,0,0,0,0,0,0,1,0,0,0,0,1,0,0],"id":72,"left_children":[1,3,5,7,9,-1,11,13,-1,15,17,19,21,-1,23,-1,-1,25,-1,-1,27,29,31,-1,-1,-1,-1,-1,33,35,37,-1,39,-1,-1,-1,-1,-1,41,-1,43,45,-1,-1,-1,-1,47,-1,-1],"loss_changes":[3.6079736E2,2.0731592E2,1.9863892E2,3.3946777E1,4.120874E2,0E0,3.3245544E1,3.2705345E0,0E0,1.4889673E2,1.8405298E2,4.205668E1,3.1208496E1,0E0,6.8289995E-1,0E0,0E0,2.8175049E1,0E0,0E0,1.5598777E1,6.841858E0,6.364832E0,0E0,0E0,0E0,0E0,0E0,8.3775043E-1,1.4000519E1,2.247963E1,0E0,7.2941427E0,0E0,0E0,0E0,0E0,0E0,1.2698868E1,0E0,3.0227697E0,2.6449678E1,0E0,0E0,0E0,0E0,3.5539047E1,0E0,0E0],"parents":[2147483647,0,0,1,1,2,2,3,3,4,4,6,6,7,7,9,9,10,10,11,11,12,12,14,14,17,17,20,20,21,21,22,22,28,28,29,29,30,30,32,32,38,38,40,40,41,41,46,46],"right_children":[2,4,6,8,10,-1,12,14,-1,16,18,20,22,-1,24,-1,-1,26,-1,-1,28,30,32,-1,-1,-1,-1,-1,34,36,38,-1,40,-1,-1,-1,-1,-1,42,-1,44,46,-1,-1,-1,-1,48,-1,-1],"split_conditions":[6.208544E6,5E1,1.5E2,2.4E1,4.208544E6,2.827063E-1,1.2509632E7,6E0,1.9781116E-1,3E2,1.3E3,1.037856E7,9E2,8.637652E-2,1.2E1,2.9628205E-1,1.7188329E-1,1E1,1.7771058E-1,1.5572083E-1,1E1,2.503392E7,4.1708544E7,1.2466942E-2,4.6862688E-2,3.813995E-1,6.4322454E-1,-5.0561216E-2,5E2,3.5E2,3.5E2,-1.6125863E-2,9.062563E7,5.4844048E-2,1.7150259E-2,1.02294035E-1,2.0278452E-1,1.6582973E-1,7.182035E7,1.0810587E-1,1.2583418E8,6E2,1.1836523E-1,-1.7654592E-2,4.0726047E-2,-2.2172151E-2,1E1,-3.7288737E-2,1.5490972E-1],"split_indices":[12,5,5,2,12,0,12,2,0,5,5,12,5,0,2,0,0,2,0,0,2,12,12,0,0,0,0,0,5,5,5,0,12,0,0,0,0,0,12,0,12,5,0,0,0,0,2,0,0],"split_type":[0,0,0,0,0,0,0,0,0,0,0,0,0,0,0,0,0,0,0,0,0,0,0,0,0,0,0,0,0,0,0,0,0,0,0,0,0,0,0,0,0,0,0,0,0,0,0,0,0],"sum_hessian":[1.33E2,8.3E1,5E1,1E1,7.3E1,9E0,4.1E1,7E0,3E0,4.8E1,2.5E1,8E0,3.3E1,4E0,3E0,1.8E1,3E1,2E1,5E0,2E0,6E0,2.9E1,4E0,2E0,1E0,1.8E1,2E0,2E0,4E0,1.3E1,1.6E1,1E0,3E0,2E0,2E0,5E0,8E0,6E0,1E1,1E0,2E0,6E0,4E0,1E0,1E0,3E0,3E0,1E0,2E0],"tree_param":{"num_deleted":"0","num_feature":"13","num_nodes":"49","size_leaf_vector":"0"}},{"base_weights":[6.6805954E0,7.897303E0,4.7292094E0,6.714672E0,9.04281E0,1.9016616E0,5.3706846E0,1.0629286E1,6.310321E0,6.414126E0,1.074546E1,3.6229594E0,1.1888372E0,1.1954792E1,4.981541E0,7.0925765E0,2.919716E0,7.0771146E0,4.200212E0,5.3366823E0,1.2110429E1,1.920427E0,7.528348E-1,7.762626E0,4.2267013E0,6.3616824E0,1.0189728E1,7.9802895E0,4.4560795E0,1.15912996E-1,1.2349329E0,1.5328045E0,4.4506145E0,8.180563E0,4.575526E0,1.5301462E0,-8.213684E-1,4.8394575E0,2.5188873E0,5.4155293E0,9.417553E0,4.0770593E0,1.2036037E0,2.6562922E0,-5.8569103E-1],"categories":[],"categories_nodes":[],"categories_segments":[],"categories_sizes":[],"default_left":[1,0,0,1,1,0,1,0,0,1,1,0,1,0,0,0,0,1,0,0,0,0,1,0,0,0,0,0,0,0,0,0,1,0,0,0,0,0,1,0,0,0,0,0,0],"id":73,"left_children":[1,3,5,7,9,11,13,-1,15,17,19,-1,21,-1,23,25,-1,27,-1,-1,-1,-1,29,-1,31,33,-1,-1,-1,35,-1,-1,37,39,-1,-1,-1,-1,41,-1,-1,-1,43,-1,-1],"loss_changes":[2.7911914E2,5.956543E1,8.598059E1,1.4037964E1,1.1555322E2,9.877544E0,6.0789795E1,0E0,8.941809E1,1.539856E0,1.1058154E2,0E0,1.6765718E0,0E0,6.0120667E1,2.1590698E1,0E0,2.6171875E-1,0E0,0E0,0E0,0E0,1.9695458E0,0E0,1.5075867E1,6.1172363E1,0E0,0E0,0E0,5.9820337E0,0E0,0E0,1.3650574E1,4.0929565E0,0E0,0E0,0E0,0E0,1.0077019E1,0E0,0E0,0E0,1.3623999E1,0E0,0E0],"parents":[2147483647,0,0,1,1,2,2,3,3,4,4,5,5,6,6,8,8,9,9,10,10,12,12,14,14,15,15,17,17,22,22,24,24,25,25,29,29,32,32,33,33,38,38,42,42],"right_children":[2,4,6,8,10,12,14,-1,16,18,20,-1,22,-1,24,26,-1,28,-1,-1,-1,-1,30,-1,32,34,-1,-1,-1,36,-1,-1,38,40,-1,-1,-1,-1,42,-1,-1,-1,44,-1,-1],"split_conditions":[6.208544E6,4.208544E6,1.2509632E7,3E0,1.536E3,1.037856E7,3E0,3.2896772E-1,2.589696E6,3E0,3E0,1.1212764E-1,3.84E2,3.6999106E-1,1.6208544E7,9.2128E5,9.0362824E-2,7.68E2,1.2999314E-1,1.6516596E-1,3.748079E-1,5.9435647E-2,7.68E2,2.4024695E-1,1.9659968E7,5.3392E5,3.1536376E-1,2.4698345E-1,1.3791202E-1,2.000001E0,3.8220167E-2,4.743905E-2,6E0,2.42464E5,1.416088E-1,4.7356777E-2,-2.5420683E-2,1.4977726E-1,3.84E2,1.6760622E-1,2.9146558E-1,1.2618166E-1,7.037856E7,8.221008E-2,-1.812666E-2],"split_indices":[12,12,12,11,4,12,11,0,12,11,11,0,4,0,12,12,0,4,0,0,0,0,4,0,12,12,0,0,0,9,0,0,11,12,0,0,0,0,4,0,0,0,12,0,0],"split_type":[0,0,0,0,0,0,0,0,0,0,0,0,0,0,0,0,0,0,0,0,0,0,0,0,0,0,0,0,0,0,0,0,0,0,0,0,0,0,0,0,0,0,0,0,0],"sum_hessian":[1.29E2,7.8E1,5.1E1,4.1E1,3.7E1,1E1,4.1E1,2E0,3.9E1,1.6E1,2.1E1,2E0,8E0,1E0,4E1,3.1E1,8E0,1.1E1,5E0,5E0,1.6E1,2E0,6E0,7E0,3.3E1,2.7E1,4E0,7E0,4E0,3E0,3E0,3E0,3E1,1.2E1,1.5E1,1E0,2E0,2.4E1,6E0,5E0,7E0,2E0,4E0,2E0,2E0],"tree_param":{"num_deleted":"0","num_feature":"13","num_nodes":"45","size_leaf_vector":"0"}},{"base_weights":[6.8191185E0,8.210217E0,4.5465875E0,3.7596982E0,8.869981E0,8.73732E0,3.6257505E0,5.820486E0,-2.0663346E-1,6.836212E0,1.2349505E1,4.597245E0,2.266261E0,3.6364946E-1,-1.3286378E0,9.037509E0,5.2918873E0,1.3980237E1,6.415841E0,4.9956527E0,2.1168678E0,2.8315644E0,-7.1096164E-1,7.8467727E0,1.3275608E1,1.0392326E1,4.6095243E0,1.0647404E1,1.6835543E1,1.0625183E1,8.8719803E-1,1.8776139E0,5.2501135E0,-5.386698E-1,2.9308138E0,3.0836587E0,-6.448071E-1,9.259745E0,5.4685135E0,6.1258993E0,3.9426422E0,-5.2342343E0,1.0066504E1,1.8770218E0,4.137514E0,7.467063E0,3.525056E0,3.0053523E0,4.595814E0,7.873899E-1,4.0114E0,4.1864433E0,8.411032E-1,2.9742375E-1,1.410036E0,-1.7609288E0,1.2045724E0,2.0148199E0,1.8885912E-1,2.6456198E-1,2.1471167E0],"categories":[],"categories_nodes":[],"categories_segments":[],"categories_sizes":[],"default_left":[1,1,1,1,0,0,1,0,1,1,1,1,1,0,0,0,1,1,1,0,0,1,0,0,0,0,0,0,0,0,1,0,0,0,0,1,0,0,0,1,0,0,0,0,0,0,0,1,0,0,0,0,0,1,0,0,1,0,0,0,0],"id":74,"left_children":[1,3,5,7,9,-1,11,-1,13,15,17,19,21,-1,-1,23,25,27,29,31,33,35,-1,37,-1,-1,39,-1,-1,-1,41,-1,-1,-1,-1,43,-1,-1,-1,45,47,-1,-1,49,-1,-1,-1,51,-1,53,-1,-1,-1,55,57,-1,59,-1,-1,-1,-1],"loss_changes":[3.8759766E2,2.1128467E2,1.7520264E2,9.7193344E1,4.2821533E2,0E0,4.9726196E1,0E0,3.431614E0,1.1847754E2,1.700874E2,1.6271301E1,3.4848152E1,0E0,0E0,8.811157E0,6.2950745E1,3.947632E1,1.5038272E2,8.828796E0,1.1550566E1,1.6246841E1,0E0,1.3691406E1,0E0,0E0,8.320923E0,0E0,0E0,0E0,2.5312569E2,0E0,0E0,0E0,0E0,1.403035E1,0E0,0E0,0E0,3.1961823E0,1.9930725E0,0E0,0E0,1.7958374E1,0E0,0E0,0E0,2.4811943E1,0E0,1.7415652E0,0E0,0E0,0E0,1.0566164E1,1.7549734E0,0E0,2.904746E0,0E0,0E0,0E0,0E0],"parents":[2147483647,0,0,1,1,2,2,3,3,4,4,6,6,8,8,9,9,10,10,11,11,12,12,15,15,16,16,17,17,18,18,19,19,20,20,21,21,23,23,26,26,30,30,35,35,39,39,40,40,43,43,47,47,49,49,53,53,54,54,56,56],"right_children":[2,4,6,8,10,-1,12,-1,14,16,18,20,22,-1,-1,24,26,28,30,32,34,36,-1,38,-1,-1,40,-1,-1,-1,42,-1,-1,-1,-1,44,-1,-1,-1,46,48,-1,-1,50,-1,-1,-1,52,-1,54,-1,-1,-1,56,58,-1,60,-1,-1,-1,-1],"split_conditions":[6.208544E6,5E1,1.5E2,1.3E8,4.208544E6,2.7041292E-1,8.5E7,1.801393E-1,3.65E8,3E2,1.3E3,9E2,6E0,1.1254654E-2,-4.1120257E-2,1.259712E6,3E0,1.5E2,3E0,1.2509632E7,4.1708544E7,9E2,-2.2003682E-2,5.3392E5,4.1086924E-1,3.2163402E-1,5.3392E5,3.2952845E-1,5.2104634E-1,3.2884076E-1,1.95E8,5.811062E-2,1.6248673E-1,-1.6671391E-2,9.0706296E-2,3.5E2,-1.9956253E-2,2.8658155E-1,1.6924603E-1,2.5E7,8.48416E5,-1.6199529E-1,3.1155008E-1,2.4640704E7,1.2805268E-1,2.3109952E-1,1.0909761E-1,6E2,1.4223671E-1,1.7140704E7,1.2414957E-1,1.2956701E-1,2.6031459E-2,1.95E8,2.3640704E7,-5.449931E-2,2.5E2,6.235703E-2,5.845036E-3,8.187978E-3,6.645151E-2],"split_indices":[12,5,5,3,12,0,3,0,3,5,5,5,11,0,0,12,11,5,11,12,12,5,0,12,0,0,12,0,0,0,3,0,0,0,0,5,0,0,0,3,12,0,0,12,0,0,0,5,0,12,0,0,0,3,12,0,5,0,0,0,0],"split_type":[0,0,0,0,0,0,0,0,0,0,0,0,0,0,0,0,0,0,0,0,0,0,0,0,0,0,0,0,0,0,0,0,0,0,0,0,0,0,0,0,0,0,0,0,0,0,0,0,0,0,0,0,0,0,0,0,0,0,0,0,0],"sum_hessian":[1.31E2,8E1,5.1E1,1.1E1,6.9E1,8E0,4.3E1,7E0,4E0,4.5E1,2.4E1,2.4E1,1.9E1,3E0,1E0,1.7E1,2.8E1,1.8E1,6E0,2E1,4E0,1.6E1,3E0,1.5E1,2E0,2E0,2.6E1,1E1,8E0,3E0,3E0,2E0,1.8E1,1E0,3E0,1.5E1,1E0,8E0,7E0,6E0,2E1,2E0,1E0,8E0,7E0,3E0,3E0,1E1,1E1,6E0,2E0,6E0,4E0,4E0,2E0,1E0,3E0,1E0,1E0,2E0,1E0],"tree_param":{"num_deleted":"0","num_feature":"13","num_nodes":"61","size_leaf_vector":"0"}},{"base_weights":[6.655885E0,6.2228966E0,1.5338713E1,8.07662E0,5.24211E0,1.7683619E1,2.3292248E0,9.476897E0,4.5947957E0,5.0609736E0,1.159432E1,4.669408E0,1.0082244E1,3.5256102E0,6.036145E0,5.8628373E0,4.2783537E0,5.9767537E0,1.1093111E1,7.817915E-1,4.1531935E0,4.01553E0,6.8553553E0,1.1169761E0,4.9248796E0,-2.5496162E-2,1.2473847E0,6.5535126E0,3.0479646E0,8.679435E0,5.387546E0,-1.585195E0,2.0961485E0,7.3445935E0,4.189201E0,9.800277E0,4.883467E0,1.3849063E0,4.4533563E0,5.561209E0,3.3369546E0,1.8581626E0,4.0969024E0,2.374702E0,-6.3357496E-1],"categories":[],"categories_nodes":[],"categories_segments":[],"categories_sizes":[],"default_left":[1,1,1,1,1,0,0,1,1,0,0,0,0,1,0,0,0,0,0,1,1,0,1,1,0,0,0,0,0,0,0,0,0,0,0,0,0,0,1,0,0,1,0,0,0],"id":75,"left_children":[1,3,5,7,9,-1,-1,11,13,15,-1,-1,17,19,-1,21,23,-1,-1,25,27,-1,29,31,33,-1,-1,-1,-1,35,-1,-1,-1,-1,37,-1,-1,-1,39,-1,41,43,-1,-1,-1],"loss_changes":[4.2505615E2,1.9943115E2,1.4423242E2,1.747417E2,5.3126465E1,0E0,0E0,5.0095215E1,4.7036743E0,3.3722412E1,0E0,0E0,5.5486816E1,1.4313179E1,0E0,5.1551636E1,8.9291016E1,0E0,0E0,1.0684099E0,5.117874E0,0E0,3.0022583E1,2.5802288E1,4.3352966E1,0E0,0E0,0E0,0E0,4.428894E0,0E0,0E0,0E0,0E0,1.8008423E1,0E0,0E0,0E0,1.9942444E1,0E0,1.1817535E1,9.890512E0,0E0,0E0,0E0],"parents":[2147483647,0,0,1,1,2,2,3,3,4,4,7,7,8,8,9,9,12,12,13,13,15,15,16,16,19,19,20,20,22,22,23,23,24,24,29,29,34,34,38,38,40,40,41,41],"right_children":[2,4,6,8,10,-1,-1,12,14,16,-1,-1,18,20,-1,22,24,-1,-1,26,28,-1,30,32,34,-1,-1,-1,-1,36,-1,-1,-1,-1,38,-1,-1,-1,40,-1,42,44,-1,-1,-1],"split_conditions":[3.5E0,5.3392E5,7.289539E7,6E0,4.5E0,5.472936E-1,7.208761E-2,2.5E0,2.4E1,1.037856E7,3.5883477E-1,1.4451437E-1,2.42464E5,1.5E0,1.8681377E-1,8.48416E5,1.2509632E7,1.8497565E-1,3.4332275E-1,1.2E1,1.2E1,1.2427738E-1,2E0,1E1,1.6208544E7,-7.8908546E-4,3.8605537E-2,2.0282587E-1,9.433202E-2,6.208544E6,1.6674016E-1,-4.906049E-2,6.487409E-2,2.2730918E-1,1.9659968E7,3.0331057E-1,1.5113933E-1,4.2861722E-2,2E0,1.721149E-1,1.2583418E8,3.5E0,1.2679578E-1,7.349509E-2,-1.9608628E-2],"split_indices":[7,12,12,2,0,0,0,7,2,12,0,0,12,0,0,12,12,0,0,2,2,0,0,2,12,0,0,0,0,12,0,0,0,0,12,0,0,0,0,0,12,0,0,0,0],"split_type":[0,0,0,0,0,0,0,0,0,0,0,0,0,0,0,0,0,0,0,0,0,0,0,0,0,0,0,0,0,0,0,0,0,0,0,0,0,0,0,0,0,0,0,0,0],"sum_hessian":[1.32E2,1.27E2,5E0,4.2E1,8.5E1,4E0,1E0,2.9E1,1.3E1,8.4E1,1E0,4E0,2.5E1,9E0,4E0,3.9E1,4.5E1,6E0,1.9E1,2E0,7E0,1.5E1,2.4E1,8E0,3.7E1,1E0,1E0,1E0,6E0,9E0,1.5E1,2E0,6E0,7E0,3E1,6E0,3E0,3E0,2.7E1,1.2E1,1.5E1,6E0,9E0,5E0,1E0],"tree_param":{"num_deleted":"0","num_feature":"13","num_nodes":"45","size_leaf_vector":"0"}},{"base_weights":[6.29326E0,7.2121334E0,4.3391833E0,1.2135373E1,6.8645773E0,6.882801E0,3.621004E0,7.1890903E0,4.148284E0,4.1493044E0,9.648583E0,3.7959752E0,-1.3868383E0,7.418744E0,5.0964212E0,3.4939034E0,5.5570645E0,4.038003E0,2.743331E0,2.8696254E-1,3.0837507E0],"categories":[],"categories_nodes":[],"categories_segments":[],"categories_sizes":[],"default_left":[1,1,1,0,1,1,1,1,0,0,0,1,0,0,0,1,0,0,1,0,0],"id":76,"left_children":[1,3,5,-1,7,9,11,13,-1,-1,-1,15,-1,-1,-1,17,-1,-1,19,-1,-1],"loss_changes":[2.1051172E2,8.5501465E1,6.061493E1,0E0,5.0686523E1,3.5262146E1,3.54368E1,6.093994E0,0E0,0E0,0E0,3.4218445E0,0E0,0E0,0E0,4.374054E0,0E0,0E0,1.2504868E1,0E0,0E0],"parents":[2147483647,0,0,1,1,2,2,4,4,5,5,6,6,7,7,11,11,15,15,18,18],"right_children":[2,4,6,-1,8,10,12,14,-1,-1,-1,16,-1,-1,-1,18,-1,-1,20,-1,-1],"split_conditions":[4.5E7,1.5E0,1.5E0,3.755799E-1,3E0,1.95E8,4.05E8,1E1,1.28386E-1,1.2841758E-1,2.9861578E-1,2.4E1,-4.2921513E-2,2.2960408E-1,1.5773009E-1,6E0,1.7198661E-1,1.249729E-1,1.2E1,8.881257E-3,9.543957E-2],"split_indices":[3,10,10,0,10,3,3,2,0,0,0,2,0,0,0,2,0,0,2,0,0],"split_type":[0,0,0,0,0,0,0,0,0,0,0,0,0,0,0,0,0,0,0,0,0],"sum_hessian":[1.3E2,8.7E1,4.3E1,4E0,8.3E1,8E0,3.5E1,7.3E1,1E1,5E0,3E0,3.4E1,1E0,6.4E1,9E0,3.1E1,3E0,1.6E1,1.5E1,2E0,1.3E1],"tree_param":{"num_deleted":"0","num_feature":"13","num_nodes":"21","size_leaf_vector":"0"}},{"base_weights":[6.473478E0,5.5834327E0,1.2968513E1,7.271175E0,4.828942E0,5.2629533E0,3.5253136E0,3.6747577E0,5.790418E0,6.2670434E-1,3.769175E0,6.631014E0,4.627525E0,2.8137486E0,4.3949184E0,4.7558403E0,8.72436E0,1.19277E0,5.8750825E0,4.323971E0,1.4267887E0,2.209794E0,9.21517E0,2.019475E0,7.781566E-1,6.946321E0,4.406051E0,-6.7846966E-1,2.4186025E0,-4.1507352E-2,1.6754134E0,5.651515E-1,4.843512E0,3.38499E0,-6.9288343E-1,1.3411754E0,-9.1462517E-1],"categories":[],"categories_nodes":[],"categories_segments":[],"categories_sizes":[],"default_left":[0,1,0,0,0,0,0,0,0,0,0,0,0,0,0,0,0,0,0,0,0,0,0,0,0,0,0,0,0,0,0,0,0,0,0,0,0],"id":77,"left_children":[1,3,-1,-1,5,7,9,-1,11,-1,13,15,17,19,-1,-1,21,23,25,-1,27,-1,-1,-1,29,-1,31,-1,33,35,-1,-1,-1,-1,-1,-1,-1],"loss_changes":[7.286748E2,1.2652734E2,0E0,0E0,3.412256E1,3.6064087E1,1.4971985E1,0E0,2.0917725E1,0E0,3.4153748E0,6.50354E1,8.78714E1,1.7781403E1,0E0,0E0,1.8642517E1,1.1021976E0,1.0588989E0,0E0,1.5424087E1,0E0,0E0,0E0,4.302496E0,0E0,1.2620651E1,0E0,1.6184244E1,5.5118155E0,0E0,0E0,0E0,0E0,0E0,0E0,0E0],"parents":[2147483647,0,0,1,1,4,4,5,5,6,6,8,8,10,10,11,11,12,12,13,13,16,16,17,17,18,18,20,20,24,24,26,26,28,28,29,29],"right_children":[2,4,-1,-1,6,8,10,-1,12,-1,14,16,18,20,-1,-1,22,24,26,-1,28,-1,-1,-1,30,-1,32,-1,34,36,-1,-1,-1,-1,-1,-1,-1],"split_conditions":[4.000001E0,5.3392E5,4.013649E-1,2.2503693E-1,2.503392E7,8.48416E5,2.5820352E7,1.1373076E-1,1.037856E7,1.9395988E-2,1.2583418E8,4.208544E6,1.2509632E7,7.037856E7,1.3601914E-1,1.4718938E-1,2.000001E0,1.1164992E7,1.6208544E7,1.3382336E-1,7.182035E7,6.839132E-2,2.85202E-1,6.25011E-2,1.1820352E7,2.1498297E-1,1.9659968E7,-2.0998083E-2,9.482957E7,2.000001E0,5.1852677E-2,1.749098E-2,1.4990275E-1,1.0476268E-1,-2.1444177E-2,4.1508287E-2,-2.8306903E-2],"split_indices":[8,12,0,0,12,12,12,0,12,0,12,12,12,12,0,0,9,12,12,0,12,0,0,0,12,0,12,0,12,9,0,0,0,0,0,0,0],"split_type":[0,0,0,0,0,0,0,0,0,0,0,0,0,0,0,0,0,0,0,0,0,0,0,0,0,0,0,0,0,0,0,0,0,0,0,0,0],"sum_hessian":[1.35E2,1.2E2,1.5E1,3.5E1,8.5E1,6.2E1,2.3E1,1.7E1,4.5E1,2E0,2.1E1,2.4E1,2.1E1,1E1,1.1E1,1.4E1,1E1,6E0,1.5E1,4E0,6E0,1E0,9E0,1E0,5E0,7E0,8E0,2E0,4E0,3E0,2E0,1E0,7E0,3E0,1E0,1E0,2E0],"tree_param":{"num_deleted":"0","num_feature":"13","num_nodes":"37","size_leaf_vector":"0"}},{"base_weights":[5.977373E0,5.2985277E0,1.0836973E1,3.5111713E0,6.228657E0,4.588521E0,1.3405403E1,2.2552757E0,3.707943E0,8.204405E0,5.2284193E0,2.5939813E0,6.01803E0,-3.7508387E-2,3.7014077E0,4.1750355E0,2.9102962E0,5.337251E0,9.100261E0,3.242215E0,5.931813E0,3.0124712E0,4.8648458E0,4.243336E0,1.7551299E0,5.8388677E0,1.0908306E0,6.772146E0,2.9012194E0,3.4920418E0,-6.7345536E-1,-3.6323088E-1,2.0286431E0,4.7430363E0,8.339291E0,1.1545722E0,3.5421424E0,1.0379366E0,2.4036086E0,8.580156E0,2.6906028E0,1.1846897E-1,2.0212142E0],"categories":[],"categories_nodes":[],"categories_segments":[],"categories_sizes":[],"default_left":[0,1,1,0,1,1,0,1,1,0,0,0,0,0,0,0,0,1,0,0,0,0,0,0,0,0,0,0,0,0,0,0,1,0,1,0,0,0,0,0,0,0,0],"id":78,"left_children":[1,3,5,7,9,11,-1,13,15,17,19,-1,-1,-1,-1,21,23,25,-1,-1,27,29,-1,-1,31,-1,-1,33,35,-1,-1,-1,37,-1,39,-1,-1,41,-1,-1,-1,-1,-1],"loss_changes":[4.000244E2,1.8214087E2,2.054248E2,4.07666E0,1.20390625E2,4.3468094E0,0E0,2.5892612E1,3.8931274E0,2.5920654E1,6.0194458E1,0E0,0E0,0E0,0E0,5.280365E0,1.8510025E1,1.1618027E1,0E0,0E0,8.3494385E1,1.910817E1,0E0,0E0,6.2368927E0,0E0,0E0,6.3969727E1,7.76828E0,0E0,0E0,0E0,1.322689E0,0E0,3.536621E0,0E0,0E0,3.2282624E0,0E0,0E0,0E0,0E0,0E0],"parents":[2147483647,0,0,1,1,2,2,3,3,4,4,5,5,7,7,8,8,9,9,10,10,15,15,16,16,17,17,20,20,21,21,24,24,27,27,28,28,32,32,34,34,37,37],"right_children":[2,4,6,8,10,12,-1,14,16,18,20,-1,-1,-1,-1,22,24,26,-1,-1,28,30,-1,-1,32,-1,-1,34,36,-1,-1,-1,38,-1,40,-1,-1,42,-1,-1,-1,-1,-1],"split_conditions":[4.000001E0,1.5E0,5E-1,1.1820352E7,5.3392E5,7.68E2,4.148863E-1,7.68E2,7.68E2,2.42464E5,8.48416E5,8.028161E-2,1.8625313E-1,-1.160854E-3,1.1455555E-1,7.182035E7,7.037856E7,2.5E0,2.8164566E-1,1.00343905E-1,1.6208544E7,4.8927136E7,1.5056302E-1,1.313278E-1,1.0756282E8,1.807082E-1,3.3760317E-2,4.208544E6,4.1708544E7,1.0807585E-1,-2.0842895E-2,-1.12417E-2,1.536E3,1.4679311E-1,2.5E0,3.573307E-2,1.0962642E-1,1.5E0,7.4389726E-2,2.6554886E-1,8.3271965E-2,3.666518E-3,6.255493E-2],"split_indices":[8,6,6,12,12,4,0,4,4,12,12,0,0,0,0,12,12,6,0,0,12,12,0,0,12,0,0,12,12,0,0,0,4,0,6,0,0,8,0,0,0,0,0],"split_type":[0,0,0,0,0,0,0,0,0,0,0,0,0,0,0,0,0,0,0,0,0,0,0,0,0,0,0,0,0,0,0,0,0,0,0,0,0,0,0,0,0,0,0],"sum_hessian":[1.34E2,1.19E2,1.5E1,4.2E1,7.7E1,5E0,1E1,7E0,3.5E1,2.4E1,5.3E1,3E0,2E0,3E0,4E0,2E1,1.5E1,7E0,1.7E1,1.5E1,3.8E1,9E0,1.1E1,6E0,9E0,6E0,1E0,2.9E1,9E0,8E0,1E0,1E0,8E0,1.4E1,1.5E1,3E0,6E0,3E0,5E0,1.4E1,1E0,2E0,1E0],"tree_param":{"num_deleted":"0","num_feature":"13","num_nodes":"43","size_leaf_vector":"0"}},{"base_weights":[5.6962304E0,6.6244802E0,3.8192294E0,5.223856E0,7.305088E0,1.0803644E1,3.4680302E0,6.9713626E0,3.442865E0,7.3701177E0,2.1068175E0,8.810386E-1,4.0273814E0,-1.693032E0,1.8347619E0,4.438954E0,2.1022072E0,3.8154745E0,5.7415843E0,9.0655226E-1,3.1821668E0,5.6714463E0,2.9998004E0,1.6921092E0,6.1452336E0,2.211367E0,-6.517874E-1,1.1805615E0,4.208589E0,2.2396147E0,1.5127666E-1,-1.1416813E0,1.4019506E0,-1.2678501E-1,-1.6574873E0,2.9336448E0,-7.425208E-1],"categories":[],"categories_nodes":[],"categories_segments":[],"categories_sizes":[],"default_left":[1,0,1,0,1,0,0,0,0,0,0,1,1,0,0,1,0,0,0,0,0,0,0,0,0,0,0,0,0,0,0,0,0,0,0,0,0],"id":79,"left_children":[1,3,5,7,9,-1,11,-1,-1,-1,-1,13,15,-1,-1,17,19,21,23,25,-1,-1,27,-1,-1,-1,-1,29,-1,-1,31,33,35,-1,-1,-1,-1],"loss_changes":[2.0646484E2,5.2133057E1,8.0736206E1,7.714618E1,6.7961426E0,0E0,6.0590454E1,0E0,0E0,0E0,0E0,2.3958338E1,2.1100403E1,0E0,0E0,6.3583374E0,7.8010178E0,1.9754242E1,4.6356506E0,1.0831832E1,0E0,0E0,3.3034164E1,0E0,0E0,0E0,0E0,8.21371E0,0E0,0E0,8.96703E0,1.2901847E0,1.0811892E1,0E0,0E0,0E0,0E0],"parents":[2147483647,0,0,1,1,2,2,3,3,4,4,6,6,11,11,12,12,15,15,16,16,17,17,18,18,19,19,22,22,27,27,30,30,31,31,32,32],"right_children":[2,4,6,8,10,-1,12,-1,-1,-1,-1,14,16,-1,-1,18,20,22,24,26,-1,-1,28,-1,-1,-1,-1,30,-1,-1,32,34,36,-1,-1,-1,-1],"split_conditions":[1.037856E7,8.48416E5,3E0,5.3392E5,5E-1,3.3436397E-1,1.2509632E7,2.1575798E-1,1.0655386E-1,2.2809914E-1,6.5204285E-2,1E1,6E0,-5.2397963E-2,5.6784384E-2,1E1,7.182035E7,1.6208544E7,2.1281408E7,7.037856E7,9.848547E-2,1.7552663E-1,1.2583418E8,5.23694E-2,1.9018997E-1,6.8440005E-2,-2.0172289E-2,2.3640704E7,1.302524E-1,6.931425E-2,4.450963E7,2.4820352E7,9.062563E7,-3.9238925E-3,-5.129788E-2,9.0793915E-2,-2.2980414E-2],"split_indices":[12,12,11,12,9,0,12,0,0,0,0,2,11,0,0,2,12,12,12,12,0,0,12,0,0,0,0,12,0,0,12,12,12,0,0,0,0],"split_type":[0,0,0,0,0,0,0,0,0,0,0,0,0,0,0,0,0,0,0,0,0,0,0,0,0,0,0,0,0,0,0,0,0,0,0,0,0],"sum_hessian":[1.29E2,8.5E1,4.4E1,3E1,5.5E1,1E0,4.3E1,1.4E1,1.6E1,5.4E1,1E0,8E0,3.5E1,2E0,6E0,2.8E1,7E0,2.1E1,7E0,4E0,3E0,5E0,1.6E1,1E0,6E0,2E0,2E0,7E0,9E0,3E0,4E0,2E0,2E0,1E0,1E0,1E0,1E0],"tree_param":{"num_deleted":"0","num_feature":"13","num_nodes":"37","size_leaf_vector":"0"}},{"base_weights":[5.7196016E0,4.950282E0,1.0672267E1,5.813205E0,2.8602164E0,1.3249805E1,7.774292E0,7.6221905E0,4.928695E0,1.1429735E0,3.4253619E0,4.3276124E0,8.09472E0,3.5341406E0,5.4206505E0,2.070115E0,8.5415834E-1,3.7706532E0,1.7229539E0,6.374505E0,3.4718423E0,4.8372993E-1,1.5193123E0,-6.3725716E-1,3.103934E0,7.744946E0,4.5093484E0,1.7641667E0,4.4831686E0,9.207953E-1,-5.278507E-2,6.0487432E0,9.95751E0,2.293962E0,-7.2958595E-1,1.0711263E0,3.3155918E0],"categories":[],"categories_nodes":[],"categories_segments":[],"categories_sizes":[],"default_left":[0,1,1,1,0,0,0,1,0,0,1,0,0,0,0,0,0,0,0,1,0,0,0,0,0,1,0,1,0,0,0,0,0,0,0,0,0],"id":80,"left_children":[1,3,5,7,9,-1,-1,11,13,15,17,-1,-1,-1,19,-1,21,-1,23,25,27,29,-1,-1,-1,31,-1,33,-1,-1,-1,-1,-1,35,-1,-1,-1],"loss_changes":[4.5344434E2,1.9229053E2,4.5320435E1,9.8473145E1,3.0709747E1,0E0,0E0,1.1366943E1,2.3388306E1,1.2445459E0,1.0106628E1,0E0,0E0,0E0,5.6752563E1,0E0,1.5916E0,0E0,2.0364424E1,3.8764893E1,1.9376999E1,1.6268605E0,0E0,0E0,0E0,4.928406E0,0E0,1.0252878E1,0E0,0E0,0E0,0E0,0E0,4.458338E0,0E0,0E0,0E0],"parents":[2147483647,0,0,1,1,2,2,3,3,4,4,7,7,8,8,9,9,10,10,14,14,16,16,18,18,19,19,20,20,21,21,25,25,27,27,33,33],"right_children":[2,4,6,8,10,-1,-1,12,14,16,18,-1,-1,-1,20,-1,22,-1,24,26,28,30,-1,-1,-1,32,-1,34,-1,-1,-1,-1,-1,36,-1,-1,-1],"split_conditions":[4.000001E0,1.5E0,1.5E0,5.3392E5,1.5961056E7,4.100707E-1,2.4060799E-1,5E-1,8.48416E5,1.037856E7,7.037856E7,1.3393608E-1,2.5052497E-1,1.0937877E-1,1.6208544E7,6.406838E-2,1.1820352E7,1.16698645E-1,7.182035E7,2.5E0,1.2583418E8,1.1164992E7,4.7021475E-2,-1.972259E-2,9.6064225E-2,5E-1,1.3956065E-1,2.5E0,1.3875042E-1,2.8497864E-2,-1.6336548E-3,1.8720368E-1,3.0817682E-1,1.9708544E7,-2.258009E-2,3.3150487E-2,1.02614865E-1],"split_indices":[8,1,1,12,12,0,0,0,12,12,12,0,0,0,12,0,12,0,12,0,12,12,0,0,0,0,0,0,0,0,0,0,0,12,0,0,0],"split_type":[0,0,0,0,0,0,0,0,0,0,0,0,0,0,0,0,0,0,0,0,0,0,0,0,0,0,0,0,0,0,0,0,0,0,0,0,0],"sum_hessian":[1.29E2,1.13E2,1.6E1,7.9E1,3.4E1,7E0,9E0,2.4E1,5.5E1,9E0,2.5E1,4E0,2E1,1.6E1,3.9E1,1E0,8E0,2E1,5E0,2.5E1,1.4E1,6E0,2E0,2E0,3E0,1.3E1,1.2E1,6E0,8E0,3E0,3E0,9E0,4E0,5E0,1E0,3E0,2E0],"tree_param":{"num_deleted":"0","num_feature":"13","num_nodes":"37","size_leaf_vector":"0"}},{"base_weights":[5.7811794E0,5.354773E0,1.598011E1,3.2600303E0,6.3497143E0,1.3338621E0,3.7573245E0,6.6567674E0,3.7900498E0,2.4316898E-1,3.016671E0,3.4276788E0,5.1324034E0,6.7092514E0,1.5969442E0,3.8648443E0,-9.0334696E-1,2.645943E-1,3.65626E0,9.910428E0,6.4613204E0,-1.6985091E0,4.3082643E-1,-3.528641E-1,7.6643443E-1,2.7076123E0,4.398803E0,1.0190238E1,6.234526E0,-3.377274E-1,3.5797226E0,1.6471068E0,6.5021873E0],"categories":[],"categories_nodes":[],"categories_segments":[],"categories_sizes":[],"default_left":[1,1,0,1,1,1,1,1,0,1,0,1,0,1,0,0,1,1,1,0,1,0,0,0,0,1,0,0,1,0,0,0,0],"id":81,"left_children":[1,3,-1,5,7,9,11,13,-1,15,-1,17,-1,19,-1,-1,21,23,25,-1,27,-1,-1,-1,-1,29,-1,-1,31,-1,-1,-1,-1],"loss_changes":[4.9358203E2,2.439768E2,0E0,3.6124268E1,4.6250977E1,1.7374294E1,1.1949768E0,1.1270996E1,0E0,3.084987E1,0E0,2.0054565E1,0E0,8.032227E0,0E0,0E0,6.696631E0,1.0704151E0,9.61203E0,0E0,9.672119E0,0E0,0E0,0E0,0E0,3.7527916E1,0E0,0E0,7.490332E1,0E0,0E0,0E0,0E0],"parents":[2147483647,0,0,1,1,3,3,4,4,5,5,6,6,7,7,9,9,11,11,13,13,16,16,17,17,18,18,20,20,25,25,28,28],"right_children":[2,4,-1,6,8,10,12,14,-1,16,-1,18,-1,20,-1,-1,22,24,26,-1,28,-1,-1,-1,-1,30,-1,-1,32,-1,-1,-1,-1],"split_conditions":[3.5E0,1.536E3,4.945714E-1,6E0,3E0,3E0,2.4E1,1E1,1.1729895E-1,2.5E0,9.336351E-2,2.5E0,1.588437E-1,1.5E0,4.9424123E-2,1.1961378E-1,7.68E2,1.2E1,7.68E2,3.0671966E-1,1.5E0,-5.256747E-2,1.3333727E-2,-1.0920856E-2,2.3720521E-2,1.5E0,1.3613938E-1,3.1537956E-1,2.5E0,-1.0452388E-2,1.107895E-1,5.097661E-2,2.012374E-1],"split_indices":[7,4,0,2,