{"learner":{"attributes":{"best_iteration":"299","best_ntree_limit":"300"},"feature_names":["ssl_mode","family","patch_size","n_parameters","z_dim","epochs","pretraining_data","projection1_arch","projection2_arch","finetuning_data","nviews","n_augmentations"],"feature_types":["c","c","int","float","int","float","c","c","c","c","int","float"],"gradient_booster":{"model":{"gbtree_model_param":{"num_parallel_tree":"1","num_trees":"300","size_leaf_vector":"0"},"tree_info":[0,0,0,0,0,0,0,0,0,0,0,0,0,0,0,0,0,0,0,0,0,0,0,0,0,0,0,0,0,0,0,0,0,0,0,0,0,0,0,0,0,0,0,0,0,0,0,0,0,0,0,0,0,0,0,0,0,0,0,0,0,0,0,0,0,0,0,0,0,0,0,0,0,0,0,0,0,0,0,0,0,0,0,0,0,0,0,0,0,0,0,0,0,0,0,0,0,0,0,0,0,0,0,0,0,0,0,0,0,0,0,0,0,0,0,0,0,0,0,0,0,0,0,0,0,0,0,0,0,0,0,0,0,0,0,0,0,0,0,0,0,0,0,0,0,0,0,0,0,0,0,0,0,0,0,0,0,0,0,0,0,0,0,0,0,0,0,0,0,0,0,0,0,0,0,0,0,0,0,0,0,0,0,0,0,0,0,0,0,0,0,0,0,0,0,0,0,0,0,0,0,0,0,0,0,0,0,0,0,0,0,0,0,0,0,0,0,0,0,0,0,0,0,0,0,0,0,0,0,0,0,0,0,0,0,0,0,0,0,0,0,0,0,0,0,0,0,0,0,0,0,0,0,0,0,0,0,0,0,0,0,0,0,0,0,0,0,0,0,0,0,0,0,0,0,0,0,0,0,0,0,0,0,0,0,0,0,0,0,0,0,0,0,0,0,0,0,0,0,0],"trees":[{"base_weights":[7.0192513E0,7.3556805E0,-2.8664815E-1,8.224256E0,5.4928355E0,-3.3326566E-1,-7.336105E-2,7.155635E0,-8.494564E-2,8.884764E0,4.797003E0,3.6493996E-1,-1.8328653E-1,3.7941497E-6,9.378327E0,2.2673316E0,6.1052E0,-3.587549E-1,2.0586348E-1],"categories":[],"categories_nodes":[],"categories_segments":[],"categories_sizes":[],"default_left":[1,1,1,0,1,0,0,1,1,1,1,0,1,0,0,0,0,0,0],"id":0,"left_children":[1,3,5,-1,7,-1,-1,9,11,13,15,-1,17,-1,-1,-1,-1,-1,-1],"loss_changes":[3.4341504E2,1.23177246E2,3.0627608E-2,0E0,4.464148E2,0E0,0E0,6.561279E1,7.0905983E-1,8.33241E1,3.848828E1,0E0,9.672841E-1,0E0,0E0,0E0,0E0,0E0,0E0],"parents":[2147483647,0,0,1,1,2,2,4,4,7,7,8,8,9,9,10,10,12,12],"right_children":[2,4,6,-1,8,-1,-1,10,12,14,16,-1,18,-1,-1,-1,-1,-1,-1],"split_conditions":[3.072E3,5.5E7,2.05E8,3.4565076E-1,1.536E3,-1.400656E-2,-3.0832335E-3,7.68E2,7.5E7,1.5E0,1.95E8,1.5337774E-2,1.3E8,1.5946132E-7,3.941543E-1,9.529189E-2,2.5659063E-1,-1.5077827E-2,8.652073E-3],"split_indices":[4,3,3,0,4,0,0,4,3,1,3,0,3,0,0,0,0,0,0],"split_type":[0,0,0,0,0,0,0,0,0,0,0,0,0,0,0,0,0,0,0],"sum_hessian":[1.36E2,1.3E2,6E0,8.4E1,4.6E1,4E0,2E0,3.5E1,1.1E1,1.7E1,1.8E1,1E0,1E1,1E0,1.6E1,8E0,1E1,7E0,3E0],"tree_param":{"num_deleted":"0","num_feature":"12","num_nodes":"19","size_leaf_vector":"0"}},{"base_weights":[6.8871813E0,1.6836742E1,5.64257E0,9.050474E0,4.720939E0,4.0932894E0,1.2614564E1,5.1254654E0,2.435385E0,7.977259E0,1.332013E0,2.5200722E0,3.035144E-1],"categories":[],"categories_nodes":[],"categories_segments":[],"categories_sizes":[],"default_left":[1,0,0,1,1,0,0,0,1,0,0,0,0],"id":1,"left_children":[1,-1,3,5,7,9,-1,-1,11,-1,-1,-1,-1],"loss_changes":[1.4816455E3,0E0,3.0082056E2,3.207168E2,6.840234E1,1.18169754E2,0E0,0E0,1.899826E0,0E0,0E0,0E0,0E0],"parents":[2147483647,0,0,2,2,3,3,4,4,5,5,8,8],"right_children":[2,-1,4,6,8,10,-1,-1,12,-1,-1,-1,-1],"split_conditions":[1.5E0,7.076182E-1,1.5E0,2.5E0,3E0,5E-1,5.301676E-1,2.1541414E-1,3.5E0,3.3526993E-1,5.5982124E-2,1.0591413E-1,1.2756167E-2],"split_indices":[10,0,7,6,10,7,0,0,6,0,0,0,0],"split_type":[0,0,0,0,0,0,0,0,0,0,0,0,0],"sum_hessian":[1.33E2,1.2E1,1.21E2,2.2E1,9.9E1,1.1E1,1.1E1,8.2E1,1.7E1,3E0,8E0,1.6E1,1E0],"tree_param":{"num_deleted":"0","num_feature":"12","num_nodes":"13","size_leaf_vector":"0"}},{"base_weights":[6.4884706E0,6.8076053E0,-3.9935505E-1,9.129671E0,6.2298284E0,6.3584914E0,1.8368862E0],"categories":[],"categories_nodes":[],"categories_segments":[],"categories_sizes":[],"default_left":[1,1,0,0,1,0,0],"id":2,"left_children":[1,3,-1,-1,5,-1,-1],"loss_changes":[3.0878662E2,6.3276367E1,0E0,0E0,3.9930176E1,0E0,0E0],"parents":[2147483647,0,0,1,1,4,4],"right_children":[2,4,-1,-1,6,-1,-1],"split_conditions":[3.072E3,3E0,-1.6784178E-2,3.8370374E-1,6E0,2.6723602E-1,7.720104E-2],"split_indices":[4,11,0,0,11,0,0],"split_type":[0,0,0,0,0,0,0],"sum_hessian":[1.36E2,1.3E2,6E0,2E1,1.1E2,1.06E2,4E0],"tree_param":{"num_deleted":"0","num_feature":"12","num_nodes":"7","size_leaf_vector":"0"}},{"base_weights":[6.222368E0,5.1877084E0,2.3951292E1,2.4474685E0,6.3684835E0,3.2591317E0,1.2866398E0,6.6139073E0,6.868177E-1,-8.3392E-2,1.9835157E0,7.510656E0,4.602997E0,-1.7238595E-1,1.2025087E0,6.414605E-2,-2.9984173E-1,6.2718143E0,1.2722526E1,5.071569E0,8.817209E-1,1.3929609E0,2.102214E-1],"categories":[],"categories_nodes":[],"categories_segments":[],"categories_sizes":[],"default_left":[1,1,0,1,1,0,1,1,1,1,0,1,1,0,1,0,0,0,0,0,0,0,0],"id":3,"left_children":[1,3,-1,5,7,-1,9,11,13,15,-1,17,19,-1,21,-1,-1,-1,-1,-1,-1,-1,-1],"loss_changes":[2.2644116E3,3.9591187E2,0E0,3.2124115E1,1.1780298E2,0E0,2.0381767E1,8.770288E1,3.0738835E0,3.2594094E-1,0E0,2.0835498E2,4.6851196E1,0E0,1.7014456E-1,0E0,0E0,0E0,0E0,0E0,0E0,0E0,0E0],"parents":[2147483647,0,0,1,1,3,3,4,4,6,6,7,7,8,8,9,9,11,11,12,12,14,14],"right_children":[2,4,-1,6,8,-1,10,12,14,16,-1,18,20,-1,22,-1,-1,-1,-1,-1,-1,-1,-1],"split_conditions":[4.5E0,5E-1,1.00663E0,2.5E7,3.25E8,1.3697547E-1,1.5E0,2.5E0,1.5E0,6E7,8.3363615E-2,1.5E0,8.5E7,-7.245073E-3,3E0,2.6959437E-3,-1.2601811E-2,2.6359314E-1,5.34705E-1,2.1314897E-1,3.7057154E-2,5.8543656E-2,8.835229E-3],"split_indices":[0,0,0,3,3,0,1,0,0,3,0,0,3,0,0,0,0,0,0,0,0,0,0],"split_type":[0,0,0,0,0,0,0,0,0,0,0,0,0,0,0,0,0,0,0,0,0,0,0],"sum_hessian":[1.35E2,1.3E2,5E0,4.1E1,8.9E1,2.2E1,1.9E1,8.5E1,4E0,7E0,1.2E1,5.5E1,3E1,2E0,2E0,5E0,2E0,4.8E1,7E0,2.6E1,4E0,1E0,1E0],"tree_param":{"num_deleted":"0","num_feature":"12","num_nodes":"23","size_leaf_vector":"0"}},{"base_weights":[6.052983E0,1.6846067E1,3.8443847E0,1.1196612E1,2.138418E1,4.0479984E0,-3.9545068E-1,8.074858E-1,4.093895E0,1.2189103E0,-1.4237103E-1],"categories":[],"categories_nodes":[],"categories_segments":[],"categories_sizes":[],"default_left":[1,1,1,0,0,0,0,1,0,0,0],"id":4,"left_children":[1,3,5,-1,-1,7,-1,9,-1,-1,-1],"loss_changes":[3.0408242E3,8.49126E1,1.0075635E2,0E0,0E0,9.447266E0,0E0,1.9109392E0,0E0,0E0,0E0],"parents":[2147483647,0,0,1,1,2,2,5,5,7,7],"right_children":[2,4,6,-1,-1,8,-1,10,-1,-1,-1],"split_conditions":[5E-1,1.536E3,3.072E3,4.7057357E-1,8.9873886E-1,2.000001E0,-1.6620085E-2,7.68E2,1.7205907E-1,5.122862E-2,-5.9835995E-3],"split_indices":[8,4,4,0,0,9,0,4,0,0,0],"split_type":[0,0,0,0,0,0,0,0,0,0,0],"sum_hessian":[1.31E2,2E1,1.11E2,1.2E1,8E0,1.06E2,5E0,2E0,1.04E2,1E0,1E0],"tree_param":{"num_deleted":"0","num_feature":"12","num_nodes":"11","size_leaf_vector":"0"}},{"base_weights":[5.6494102E0,1.6148304E1,3.7015715E0,2.0665277E1,1.01879835E1,4.060089E0,1.6416982E0,1.2166598E0,1.0732638E1,4.362854E0,2.5054445E0,-4.3924123E-1,2.0373292E0,-4.0984255E-1,2.855462E0],"categories":[],"categories_nodes":[],"categories_segments":[],"categories_sizes":[],"default_left":[1,1,1,0,1,1,0,0,0,0,1,0,0,0,0],"id":5,"left_children":[1,3,5,-1,7,9,11,-1,-1,-1,13,-1,-1,-1,-1],"loss_changes":[2.702526E3,1.4407617E2,7.454358E1,0E0,3.7395874E1,2.5194702E1,1.908081E1,0E0,0E0,0E0,2.3771683E1,0E0,0E0,0E0,0E0],"parents":[2147483647,0,0,1,1,2,2,4,4,5,5,6,6,10,10],"right_children":[2,4,6,-1,8,10,12,-1,-1,-1,14,-1,-1,-1,-1],"split_conditions":[5E-1,6E0,3E0,8.685247E-1,1.2E1,6E0,1.5E0,5.1134035E-2,4.510736E-1,1.8336295E-1,1.2E1,-1.8460523E-2,8.56253E-2,-1.7224949E-2,1.20009966E-1],"split_indices":[8,2,10,0,2,2,8,0,0,0,2,0,0,0,0],"split_type":[0,0,0,0,0,0,0,0,0,0,0,0,0,0,0],"sum_hessian":[1.36E2,1.9E1,1.17E2,8E0,1.1E1,9.8E1,1.9E1,1E0,1E1,7.9E1,1.9E1,3E0,1.6E1,2E0,1.7E1],"tree_param":{"num_deleted":"0","num_feature":"12","num_nodes":"15","size_leaf_vector":"0"}},{"base_weights":[5.520842E0,1.1162535E1,4.7554045E0,1.1702646E1,1.1996219E0,6.5062885E0,1.868739E0,1.1715059E1,5.4721413E0,3.3527186E0,1.0410762E0,8.250626E-1,4.95677E0,-3.793095E-1,2.5895553E0,-2.930807E-1,6.342337E0,-7.5595313E-1,-1.0985522E-1],"categories":[],"categories_nodes":[],"categories_segments":[],"categories_sizes":[],"default_left":[1,1,1,0,0,0,1,0,0,1,1,0,0,0,0,0,0,0,0],"id":6,"left_children":[1,3,5,-1,-1,7,9,-1,-1,11,13,-1,15,17,-1,-1,-1,-1,-1],"loss_changes":[4.8971045E2,5.262805E1,6.074514E2,0E0,0E0,2.8648682E2,5.4428116E1,0E0,0E0,6.0746964E1,7.894867E1,0E0,7.646898E1,1.8636951E0,0E0,0E0,0E0,0E0,0E0],"parents":[2147483647,0,0,1,1,2,2,5,5,6,6,9,9,10,10,12,12,13,13],"right_children":[2,4,6,-1,-1,8,10,-1,-1,12,14,-1,16,18,-1,-1,-1,-1,-1],"split_conditions":[5E-1,4.65E8,2.5E7,4.918413E-1,5.0417963E-2,1.5E0,8.5E7,4.9236298E-1,2.2998431E-1,3.5E7,1.2E1,3.4675904E-2,1.5E0,1.5E0,1.0883438E-1,-1.2317657E-2,2.665571E-1,-3.1771358E-2,-4.617018E-3],"split_indices":[7,3,3,0,0,7,3,0,0,3,2,0,7,7,0,0,0,0,0],"split_type":[0,0,0,0,0,0,0,0,0,0,0,0,0,0,0,0,0,0,0],"sum_hessian":[1.36E2,1.3E1,1.23E2,1.2E1,1E0,7.5E1,4.8E1,9E0,6.6E1,1.5E1,3.3E1,7E0,8E0,1.8E1,1.5E1,2E0,6E0,6E0,1.2E1],"tree_param":{"num_deleted":"0","num_feature":"12","num_nodes":"19","size_leaf_vector":"0"}},{"base_weights":[5.3630447E0,4.4135933E0,2.1731085E1,1.8865265E0,5.471268E0,4.960278E0,1.2375501E1,3.2355406E0,5.195892E0,1.5376211E1,1.22955814E-1,8.394369E-1,6.075768E0,5.878794E0,3.9106426E0],"categories":[],"categories_nodes":[],"categories_segments":[],"categories_sizes":[],"default_left":[1,1,0,0,1,1,1,1,1,0,0,0,0,0,0],"id":7,"left_children":[1,3,-1,-1,5,7,9,11,13,-1,-1,-1,-1,-1,-1],"loss_changes":[1.9371482E3,3.3215918E2,0E0,0E0,2.017334E2,2.5239258E0,1.8009277E2,9.868927E1,1.98208E1,0E0,0E0,0E0,0E0,0E0,0E0],"parents":[2147483647,0,0,1,1,4,4,5,5,6,6,7,7,8,8],"right_children":[2,4,-1,-1,6,8,10,12,14,-1,-1,-1,-1,-1,-1],"split_conditions":[4.5E0,5E-1,9.1331863E-1,7.9287335E-2,3.5E0,2.5E0,3E0,1.2E1,2.5E0,6.4623463E-1,5.167613E-3,3.528003E-2,2.5535366E-1,2.470752E-1,1.6435732E-1],"split_indices":[0,0,0,0,6,6,0,2,0,0,0,0,0,0,0],"split_type":[0,0,0,0,0,0,0,0,0,0,0,0,0,0,0],"sum_hessian":[1.35E2,1.3E2,5E0,4E1,9E1,8.7E1,3E0,1.4E1,7.3E1,2E0,1E0,9E0,5E0,4.3E1,3E1],"tree_param":{"num_deleted":"0","num_feature":"12","num_nodes":"15","size_leaf_vector":"0"}},{"base_weights":[5.2057776E0,4.248712E0,2.1078827E1,1.9597942E0,5.2185373E0,5.9412627E0,3.6537576E0,3.8063304E0,6.3989058E0,6.2697644E0,3.080259E0,6.3868E0,2.0962732E0],"categories":[],"categories_nodes":[],"categories_segments":[],"categories_sizes":[],"default_left":[1,1,0,0,1,1,1,0,0,0,0,0,0],"id":8,"left_children":[1,3,-1,-1,5,7,9,11,-1,-1,-1,-1,-1],"loss_changes":[1.8260786E3,2.614568E2,0E0,0E0,5.6078857E1,6.949951E0,1.0862457E1,3.940338E1,0E0,0E0,0E0,0E0,0E0],"parents":[2147483647,0,0,1,1,4,4,5,5,6,6,7,7],"right_children":[2,4,-1,-1,6,8,10,12,-1,-1,-1,-1,-1],"split_conditions":[4.5E0,5E-1,8.859054E-1,8.2366645E-2,2.5E0,3E0,3E0,1E-6,2.6893455E-1,2.6350698E-1,1.2945777E-1,2.6842576E-1,8.810261E-2],"split_indices":[0,0,0,0,0,11,11,9,0,0,0,0,0],"split_type":[0,0,0,0,0,0,0,0,0,0,0,0,0],"sum_hessian":[1.3E2,1.25E2,5E0,3.9E1,8.6E1,5.5E1,3.1E1,1.3E1,4.2E1,2E0,2.9E1,3E0,1E1],"tree_param":{"num_deleted":"0","num_feature":"12","num_nodes":"13","size_leaf_vector":"0"}},{"base_weights":[4.8506827E0,6.704717E0,3.4315112E0,2.599966E0,7.483923E0,5.684999E0,1.9270756E0,6.052656E0,-6.3997E-1,7.885818E0,-6.788029E-1,3.0683568E0,8.42351E0,8.947655E-1,2.6484318E0,1.6399367E-1,8.2457E0,4.0568914E0,1.3670114E0,1.119397E0,-4.0654853E-1,2.7753117E0,-3.013304E-1,9.442595E0,5.374197E0,-2.7049077E-1,1.6090691E0,2.984184E-1,1.3386111E0],"categories":[],"categories_nodes":[],"categories_segments":[],"categories_sizes":[],"default_left":[1,1,1,1,1,1,1,0,0,1,0,1,0,1,1,0,1,0,0,1,0,0,0,0,0,0,0,0,0],"id":9,"left_children":[1,3,5,7,9,11,13,-1,-1,15,-1,17,-1,19,21,-1,23,-1,25,27,-1,-1,-1,-1,-1,-1,-1,-1,-1],"loss_changes":[3.0654053E2,1.4017749E2,2.492981E2,1.4200328E2,1.6162231E2,1.7042151E2,3.323642E1,0E0,0E0,1.1957056E2,0E0,2.0858582E1,0E0,7.926672E0,1.2527725E1,0E0,4.2799316E1,0E0,4.835188E0,2.980173E0,0E0,0E0,0E0,0E0,0E0,0E0,0E0,0E0,0E0],"parents":[2147483647,0,0,1,1,2,2,3,3,4,4,5,5,6,6,9,9,11,11,13,13,14,14,16,16,18,18,19,19],"right_children":[2,4,6,8,10,12,14,-1,-1,16,-1,18,-1,20,22,-1,24,-1,26,28,-1,-1,-1,-1,-1,-1,-1,-1,-1],"split_conditions":[2.5E2,5E1,1.536E3,7.68E2,3.072E3,5E2,6E2,2.543823E-1,-2.6896795E-2,1.536E3,-2.8528871E-2,7.68E2,3.5402504E-1,3.072E3,3.072E3,6.8923607E-3,1.5E2,1.7050388E-1,2.000001E0,3.5E2,-1.7086508E-2,1.1664139E-1,-1.2664377E-2,3.9685535E-1,2.2586788E-1,-1.1368243E-2,6.76263E-2,1.2541992E-2,5.625943E-2],"split_indices":[5,5,4,4,4,5,5,0,0,4,0,4,0,4,4,0,5,0,9,5,0,0,0,0,0,0,0,0,0],"split_type":[0,0,0,0,0,0,0,0,0,0,0,0,0,0,0,0,0,0,0,0,0,0,0,0,0,0,0,0,0],"sum_hessian":[1.32E2,5.4E1,7.8E1,1E1,4.4E1,2.9E1,4.9E1,4E0,6E0,4.2E1,2E0,1.7E1,1.2E1,2.2E1,2.7E1,2E0,4E1,9E0,8E0,1.9E1,3E0,2.6E1,1E0,2.5E1,1.5E1,1E0,7E0,5E0,1.4E1],"tree_param":{"num_deleted":"0","num_feature":"12","num_nodes":"29","size_leaf_vector":"0"}},{"base_weights":[4.7489443E0,8.131707E0,3.6056938E0,1.0022462E1,5.782546E0,3.9494262E0,1.8872362E0,6.384018E0,1.5442971E0,5.6121624E-1,1.9677008E0],"categories":[],"categories_nodes":[],"categories_segments":[],"categories_sizes":[],"default_left":[1,1,1,0,1,0,0,0,0,0,0],"id":10,"left_children":[1,3,5,-1,7,-1,9,-1,-1,-1,-1],"loss_changes":[4.5568506E2,2.6158447E1,4.592566E1,0E0,2.8708069E1,0E0,3.0830383E-2,0E0,0E0,0E0,0E0],"parents":[2147483647,0,0,1,1,2,2,4,4,6,6],"right_children":[2,4,6,-1,8,-1,10,-1,-1,-1,-1],"split_conditions":[1.5E0,5E-1,1.5E0,4.2122614E-1,1.5E0,1.6598731E-1,2.000001E0,2.6830885E-1,6.490404E-2,2.3586914E-2,8.269895E-2],"split_indices":[7,7,1,0,1,0,9,0,0,0,0],"split_type":[0,0,0,0,0,0,0,0,0,0,0],"sum_hessian":[1.31E2,3E1,1.01E2,1.3E1,1.7E1,8.2E1,1.9E1,1.4E1,3E0,2E0,1.7E1],"tree_param":{"num_deleted":"0","num_feature":"12","num_nodes":"11","size_leaf_vector":"0"}},{"base_weights":[4.6293583E0,1.3982632E1,2.806939E0,9.852583E0,2.0014957E1,9.940268E-1,3.7111201E0,1.7622485E0,-4.746368E-1,5.047611E-1,2.133288E0,-6.8897355E-1,-3.191286E-1],"categories":[],"categories_nodes":[],"categories_segments":[],"categories_sizes":[],"default_left":[1,1,1,0,0,1,0,0,0,0,0,0,0],"id":11,"left_children":[1,3,5,-1,-1,7,-1,9,11,-1,-1,-1,-1],"loss_changes":[2.2737676E3,1.534961E2,1.8604535E2,0E0,0E0,4.906213E1,0E0,1.0909821E1,9.332752E-2,0E0,0E0,0E0,0E0],"parents":[2147483647,0,0,1,1,2,2,5,5,7,7,8,8],"right_children":[2,4,6,-1,-1,8,-1,10,12,-1,-1,-1,-1],"split_conditions":[5E-1,3.5E0,5E-1,4.1408643E-1,8.4119284E-1,3E0,1.5597174E-1,1.5E0,1.5E0,2.1214206E-2,8.9658275E-2,-2.8956326E-2,-1.3412404E-2],"split_indices":[8,0,0,0,0,10,0,8,8,0,0,0,0],"split_type":[0,0,0,0,0,0,0,0,0,0,0,0,0],"sum_hessian":[1.36E2,2E1,1.16E2,1.5E1,5E0,4E1,7.6E1,2.6E1,1.4E1,7E0,1.9E1,3E0,1.1E1],"tree_param":{"num_deleted":"0","num_feature":"12","num_nodes":"13","size_leaf_vector":"0"}},{"base_weights":[4.438913E0,1.3509146E1,2.6573982E0,1.7681131E1,8.59817E0,3.46172E0,4.9022985E-1,9.103722E0,6.748566E-1,5.422977E0,3.0866754E0,8.71918E-1,-2.6049578E-1,6.871174E0,-5.4722786E-1,6.488994E-1,3.4363532E0,-8.1791E-1,1.6905388E-1,1.4807593E0,-3.6844054E-1,3.0892081E0,5.47877E0,6.2310165E-1,-4.434273E-1],"categories":[],"categories_nodes":[],"categories_segments":[],"categories_sizes":[],"default_left":[1,1,1,0,1,0,1,0,0,1,0,0,0,0,0,1,1,0,1,0,0,0,0,0,0],"id":12,"left_children":[1,3,5,-1,7,9,11,-1,-1,13,15,-1,17,-1,-1,19,21,-1,23,-1,-1,-1,-1,-1,-1],"loss_changes":[2.1419268E3,1.4653687E2,2.005487E2,0E0,4.378882E1,2.9025208E1,1.0197352E1,0E0,0E0,1.0264163E2,6.0323853E1,0E0,3.3896832E0,0E0,0E0,1.1248245E1,1.2925171E1,0E0,3.0561352E0,0E0,0E0,0E0,0E0,0E0,0E0],"parents":[2147483647,0,0,1,1,2,2,4,4,5,5,6,6,9,9,10,10,12,12,15,15,16,16,18,18],"right_children":[2,4,6,-1,8,10,12,-1,-1,14,16,-1,18,-1,-1,20,22,-1,24,-1,-1,-1,-1,-1,-1],"split_conditions":[5E-1,5.5E7,8.5E7,7.431063E-1,4.65E8,1.5E0,1.3E8,3.8261312E-1,2.8363016E-2,3E7,1.5E0,3.6645155E-2,1.5E0,2.8878313E-1,-2.2999007E-2,2.5E7,3.5E7,-3.4375295E-2,3.25E8,6.2233664E-2,-1.54848965E-2,1.2983389E-1,2.3026289E-1,2.6187848E-2,-1.8636456E-2],"split_indices":[8,3,3,0,3,7,3,0,0,3,8,0,7,0,0,3,3,0,3,0,0,0,0,0,0],"split_type":[0,0,0,0,0,0,0,0,0,0,0,0,0,0,0,0,0,0,0,0,0,0,0,0,0],"sum_hessian":[1.35E2,2E1,1.15E2,8E0,1.2E1,8.3E1,3.2E1,1.1E1,1E0,9E0,7.4E1,2.1E1,1.1E1,7E0,2E0,1E1,6.4E1,4E0,7E0,5E0,5E0,5.9E1,5E0,4E0,3E0],"tree_param":{"num_deleted":"0","num_feature":"12","num_nodes":"25","size_leaf_vector":"0"}},{"base_weights":[4.223083E0,1.2973431E1,2.580201E0,1.7086718E1,7.812337E0,3.3641331E0,4.6854937E-1,8.296897E0,6.6540605E-1,-1.4989468E0,1.5398916E0,-9.822564E-2,-1.5992824E0,1.9935405E0,1.9081672E-1,-5.2680206E-1,6.056466E-1],"categories":[],"categories_nodes":[],"categories_segments":[],"categories_sizes":[],"default_left":[1,1,1,0,1,0,1,0,0,1,1,0,0,0,0,0,0],"id":13,"left_children":[1,3,5,-1,7,-1,9,-1,-1,11,13,-1,-1,-1,15,-1,-1],"loss_changes":[1.8881365E3,1.7869946E2,1.9052844E2,0E0,3.397644E1,0E0,7.628909E1,0E0,0E0,1.512846E0,1.3315624E1,0E0,0E0,0E0,3.0203784E0,0E0,0E0],"parents":[2147483647,0,0,1,1,2,2,4,4,6,6,9,9,10,10,14,14],"right_children":[2,4,6,-1,8,-1,10,-1,-1,12,14,-1,-1,-1,16,-1,-1],"split_conditions":[5E-1,1.5E0,8.5E7,7.1812415E-1,4.65E8,1.4138849E-1,1.5E0,3.4870374E-1,2.7965825E-2,5E-1,1.95E8,-4.128248E-3,-6.721498E-2,8.3784945E-2,1.5E0,-2.2140548E-2,2.5454244E-2],"split_indices":[8,1,3,0,3,0,1,0,0,1,3,0,0,0,8,0,0],"split_type":[0,0,0,0,0,0,0,0,0,0,0,0,0,0,0,0,0],"sum_hessian":[1.34E2,1.9E1,1.15E2,8E0,1.1E1,8.3E1,3.2E1,1E1,1E0,1.1E1,2.1E1,1E0,1E1,1.5E1,6E0,2E0,4E0],"tree_param":{"num_deleted":"0","num_feature":"12","num_nodes":"17","size_leaf_vector":"0"}},{"base_weights":[3.8169746E0,1.1571477E1,2.3597884E0,1.651229E1,5.9896045E0,2.5528166E0,-9.083168E-1,2.7686682E0,1.5887067E0,3.2254753E0,2.646956E-1,-5.157352E-1,4.4989097E-1],"categories":[],"categories_nodes":[],"categories_segments":[],"categories_sizes":[],"default_left":[1,1,1,0,0,1,0,0,1,0,0,0,0],"id":14,"left_children":[1,3,5,-1,-1,7,-1,-1,9,-1,11,-1,-1],"loss_changes":[1.4821346E3,3.8126782E2,7.844891E1,0E0,0E0,1.4297363E1,0E0,0E0,5.247155E1,0E0,2.7770205E0,0E0,0E0],"parents":[2147483647,0,0,1,1,2,2,5,5,8,8,10,10],"right_children":[2,4,6,-1,-1,8,-1,-1,10,-1,12,-1,-1],"split_conditions":[5E-1,1.5E0,3.072E3,6.9398195E-1,2.5173235E-1,1.5E0,-3.817493E-2,1.1636217E-1,7.68E2,1.3556096E-1,1.5E0,-2.1675428E-2,1.8908113E-2],"split_indices":[8,1,4,0,0,1,0,0,4,0,8,0,0],"split_type":[0,0,0,0,0,0,0,0,0,0,0,0,0],"sum_hessian":[1.34E2,1.9E1,1.15E2,8E0,1.1E1,1.09E2,6E0,8.6E1,2.3E1,9E0,1.4E1,2E0,1.2E1],"tree_param":{"num_deleted":"0","num_feature":"12","num_nodes":"13","size_leaf_vector":"0"}},{"base_weights":[3.9052472E0,4.137841E0,-8.7968993E-1,5.716816E0,3.7678354E0,3.264521E0,7.3520846E0,3.859977E0,8.5314804E-1,4.568465E0,4.3740228E-1,5.746065E0,3.5275476E0,8.9188695E-1,6.001816E0,-3.508633E-1,3.575261E0],"categories":[],"categories_nodes":[],"categories_segments":[],"categories_sizes":[],"default_left":[1,1,0,1,1,1,0,1,0,0,0,0,0,0,0,0,0],"id":15,"left_children":[1,3,-1,5,7,9,-1,11,-1,-1,-1,13,15,-1,-1,-1,-1],"loss_changes":[1.5975977E2,3.342871E1,0E0,3.618695E1,2.3489258E1,4.02424E1,0E0,2.71521E1,0E0,0E0,0E0,5.4281006E0,2.0460815E1,0E0,0E0,0E0,0E0],"parents":[2147483647,0,0,1,1,3,3,4,4,5,5,7,7,11,11,12,12],"right_children":[2,4,-1,6,8,10,-1,12,-1,-1,-1,14,16,-1,-1,-1,-1],"split_conditions":[3.072E3,3E0,-3.6971793E-2,1.536E3,6E0,7.68E2,3.0899498E-1,7.68E2,3.5856284E-2,1.9200443E-1,1.8383235E-2,2.000001E0,2.000001E0,3.748441E-2,2.5224558E-1,-1.4746157E-2,1.5026183E-1],"split_indices":[4,11,0,4,11,4,0,4,0,0,0,9,9,0,0,0,0],"split_type":[0,0,0,0,0,0,0,0,0,0,0,0,0,0,0,0,0],"sum_hessian":[1.35E2,1.29E2,6E0,1.9E1,1.1E2,1E1,9E0,1.06E2,4E0,6E0,4E0,1.1E1,9.5E1,1E0,1E1,1E0,9.4E1],"tree_param":{"num_deleted":"0","num_feature":"12","num_nodes":"17","size_leaf_vector":"0"}},{"base_weights":[3.8210647E0,8.269374E0,3.2063863E0,1.0758313E1,3.4010806E0,5.0106454E0,1.8826848E0,-3.2029936E-1,6.1964517E0,5.5706334E0,1.621789E0,1.2654159E1,5.215993E0,1.0388964E0,2.194944E0,-9.434193E-1,1.1407431E0,4.0685678E0,1.8234167E0],"categories":[],"categories_nodes":[],"categories_segments":[],"categories_sizes":[],"default_left":[1,1,1,0,0,1,1,0,1,0,1,0,0,0,0,0,0,0,0],"id":16,"left_children":[1,3,5,-1,-1,7,9,-1,11,-1,13,-1,-1,15,17,-1,-1,-1,-1],"loss_changes":[3.1333508E2,1.085437E2,2.70109E2,0E0,0E0,3.2005286E2,5.215985E1,0E0,1.2751184E2,0E0,1.9157242E1,0E0,0E0,1.0027756E1,8.821915E0,0E0,0E0,0E0,0E0],"parents":[2147483647,0,0,1,1,2,2,5,5,6,6,8,8,10,10,13,13,14,14],"right_children":[2,4,6,-1,-1,8,10,-1,12,-1,14,-1,-1,16,18,-1,-1,-1,-1],"split_conditions":[5E-1,1.2E3,2.5E2,4.5215267E-1,1.4294134E-1,5E1,3E0,-1.3461609E-2,3E0,2.3412375E-1,5E2,5.318316E-1,2.1921885E-1,1.5E0,1.5E0,-3.9650224E-2,4.7943395E-2,1.7099462E-1,7.663494E-2],"split_indices":[7,5,5,0,0,5,11,0,11,0,5,0,0,7,7,0,0,0,0],"split_type":[0,0,0,0,0,0,0,0,0,0,0,0,0,0,0,0,0,0,0],"sum_hessian":[1.32E2,1.3E1,1.19E2,7E0,6E0,4.8E1,7.1E1,9E0,3.9E1,2E0,6.9E1,2E0,3.7E1,3.7E1,3.2E1,1E0,3.6E1,2E0,3E1],"tree_param":{"num_deleted":"0","num_feature":"12","num_nodes":"19","size_leaf_vector":"0"}},{"base_weights":[3.6922095E0,6.3222437E0,2.7522862E0,8.957655E0,4.282538E0,3.4727721E0,3.5135219E-1,7.405097E0,-4.7056383E-1,3.7349002E0,-9.61278E-1,2.764594E0,-8.28848E-1,7.854985E0,5.184579E-1,1.0457747E0,-1.3006674E0,1.9487281E-1,-1.6087393E0,-8.118913E-2,4.059511E-1,-1.901555E0,-4.9654645E-1],"categories":[],"categories_nodes":[],"categories_segments":[],"categories_sizes":[],"default_left":[1,1,1,0,1,1,1,1,1,0,0,0,1,0,0,0,0,1,1,0,0,0,0],"id":17,"left_children":[1,3,5,-1,7,9,11,13,15,-1,-1,-1,17,-1,-1,-1,-1,19,21,-1,-1,-1,-1],"loss_changes":[2.989048E2,1.06002686E2,1.757337E2,0E0,3.4835373E2,9.90072E1,7.863992E1,3.522888E1,1.6569487E1,0E0,0E0,0E0,1.5797777E1,0E0,0E0,0E0,0E0,6.4873576E-1,1.6931686E0,0E0,0E0,0E0,0E0],"parents":[2147483647,0,0,1,1,2,2,4,4,5,5,6,6,7,7,8,8,12,12,17,17,18,18],"right_children":[2,4,6,-1,8,10,12,14,16,-1,-1,-1,18,-1,-1,-1,-1,20,22,-1,-1,-1,-1],"split_conditions":[1.5E0,3E7,8.5E7,3.764742E-1,5E-1,3.072E3,7.68E2,4.65E8,7.68E2,1.5697117E-1,-4.0400796E-2,1.1619094E-1,1.536E3,3.3013096E-1,2.1789858E-2,4.395204E-2,-5.4664724E-2,1.95E8,2.2E8,-3.4122341E-3,1.70614E-2,-7.991895E-2,-2.0868959E-2],"split_indices":[7,3,3,0,7,4,4,3,4,0,0,0,4,0,0,0,0,3,3,0,0,0,0],"split_type":[0,0,0,0,0,0,0,0,0,0,0,0,0,0,0,0,0,0,0,0,0,0,0],"sum_hessian":[1.33E2,3.2E1,1.01E2,1.1E1,2.1E1,7.7E1,2.4E1,1.2E1,9E0,7.3E1,4E0,7E0,1.7E1,1.1E1,1E0,3E0,6E0,8E0,9E0,4E0,4E0,6E0,3E0],"tree_param":{"num_deleted":"0","num_feature":"12","num_nodes":"23","size_leaf_vector":"0"}},{"base_weights":[3.2983327E0,2.7504873E0,1.42487135E1,6.246228E-1,3.6945455E0,7.86885E-1,-6.3819224E-1,5.961519E0,3.1274388E0,1.6854557E0,5.8782786E-1,6.229372E0,6.4753574E-1,3.2567334E0,-8.6033595E-1,3.061585E-1,6.485905E-1,3.8299923E0,1.8816315E0],"categories":[],"categories_nodes":[],"categories_segments":[],"categories_sizes":[],"default_left":[1,1,0,1,1,1,0,1,1,0,1,0,0,1,0,0,0,0,0],"id":18,"left_children":[1,3,-1,5,7,9,-1,11,13,-1,15,-1,-1,17,-1,-1,-1,-1,-1],"loss_changes":[7.3745776E2,2.603004E2,0E0,9.816235E0,7.96814E1,4.9933033E0,0E0,1.4703186E1,4.53089E1,0E0,2.0166016E-1,0E0,0E0,4.4700684E1,0E0,0E0,0E0,0E0,0E0],"parents":[2147483647,0,0,1,1,3,3,4,4,5,5,7,7,8,8,10,10,13,13],"right_children":[2,4,-1,6,8,10,-1,12,14,-1,16,-1,-1,18,-1,-1,-1,-1,-1],"split_conditions":[4.5E0,5E-1,5.988479E-1,3.072E3,7.68E2,7.68E2,-2.6822077E-2,6E0,3.072E3,7.0836686E-2,1.536E3,2.6180935E-1,2.721477E-2,3.5E0,-3.615838E-2,1.2867294E-2,2.7259098E-2,1.6096772E-1,7.90816E-2],"split_indices":[0,0,0,4,4,4,0,11,4,0,4,0,0,0,0,0,0,0,0],"split_type":[0,0,0,0,0,0,0,0,0,0,0,0,0,0,0,0,0,0,0],"sum_hessian":[1.34E2,1.3E2,4E0,4.1E1,8.9E1,3.7E1,4E0,1.4E1,7.5E1,4E0,3.3E1,1.3E1,1E0,7.3E1,2E0,8E0,2.5E1,4.9E1,2.4E1],"tree_param":{"num_deleted":"0","num_feature":"12","num_nodes":"19","size_leaf_vector":"0"}},{"base_weights":[3.4986274E0,7.5460396E0,2.9389834E0,3.3147364E0,1.2308348E0,4.877823E0,2.9146476E0,-2.0953493E-2,1.6283181E0,3.4576508E-1,-5.604962E-1],"categories":[],"categories_nodes":[],"categories_segments":[],"categories_sizes":[],"default_left":[1,0,1,0,1,0,0,1,0,0,0],"id":19,"left_children":[1,-1,3,5,7,-1,-1,9,-1,-1,-1],"loss_changes":[2.5914526E2,0E0,6.949902E1,3.2835815E1,1.2508007E1,0E0,0E0,1.9709585E0,0E0,0E0,0E0],"parents":[2147483647,0,0,2,2,3,3,4,4,7,7],"right_children":[2,-1,4,6,8,-1,-1,10,-1,-1,-1],"split_conditions":[5E-1,3.1714654E-1,1.5E0,1.5E0,1.2E1,2.0500617E-1,1.22497424E-1,6E0,6.84353E-2,1.4531888E-2,-2.3556653E-2],"split_indices":[7,0,1,7,2,0,0,2,0,0,0],"split_type":[0,0,0,0,0,0,0,0,0,0,0],"sum_hessian":[1.32E2,1.3E1,1.19E2,9.6E1,2.3E1,1.5E1,8.1E1,6E0,1.7E1,4E0,2E0],"tree_param":{"num_deleted":"0","num_feature":"12","num_nodes":"11","size_leaf_vector":"0"}},{"base_weights":[3.2024834E0,2.6658158E0,1.23287945E1,2.8563948E0,-9.7831374E-1,4.263026E0,2.4731262E0,6.131582E-1,7.256707E0,3.4580808E0,2.280141E0,2.5731542E0,-1.2552347E0,1.2832704E0,2.471854E0],"categories":[],"categories_nodes":[],"categories_segments":[],"categories_sizes":[],"default_left":[1,1,0,0,0,1,1,1,0,0,1,0,0,0,0],"id":20,"left_children":[1,3,-1,5,-1,7,9,11,-1,-1,13,-1,-1,-1,-1],"loss_changes":[6.003336E2,9.657196E1,0E0,4.6291504E1,0E0,2.5334583E2,3.7992554E0,5.4074745E1,0E0,0E0,1.123468E1,0E0,0E0,0E0,0E0],"parents":[2147483647,0,0,1,1,3,3,5,5,6,6,7,7,10,10],"right_children":[2,4,-1,6,-1,8,10,12,-1,-1,14,-1,-1,-1,-1],"split_conditions":[3.5E0,3.072E3,5.181572E-1,1.5E0,-4.1116778E-2,2.5E0,7.68E2,7.68E2,3.0498642E-1,1.4533696E-1,1.536E3,1.08145066E-1,-5.275527E-2,5.3933557E-2,1.038876E-1],"split_indices":[6,4,0,7,0,6,4,4,0,0,4,0,0,0,0],"split_type":[0,0,0,0,0,0,0,0,0,0,0,0,0,0,0],"sum_hessian":[1.34E2,1.29E2,5E0,1.23E2,6E0,2.2E1,1.01E2,1.1E1,1.1E1,1.1E1,9E1,5E0,6E0,1.7E1,7.3E1],"tree_param":{"num_deleted":"0","num_feature":"12","num_nodes":"15","size_leaf_vector":"0"}},{"base_weights":[3.1502216E0,4.4570847E0,2.1925225E0,6.435539E0,8.142702E-1,7.7449685E-1,3.4141493E0,1.1338559E1,5.3022485E0,1.7453924E0,-9.185506E-1,1.2944236E0,9.909383E-2,2.4737518E0,4.9020967E0,-1.6981816E-1,2.4726472E0,3.6355722E-1,3.8101096E0,1.1167399E0,-4.9661952E-1,5.2224584E0,1.9238205E0,9.892653E0,1.2879914E0,-7.124651E-1,8.4965134E-1,-7.581319E-1,2.7735144E-1,1.9992195E0,-6.2455315E-2,1.7470889E0,1.0822281E1,-1.3869497E0,2.6378374E0],"categories":[],"categories_nodes":[],"categories_segments":[],"categories_sizes":[],"default_left":[1,1,1,1,1,1,1,0,0,1,0,1,1,1,1,0,0,1,0,0,1,0,1,1,1,0,0,0,0,0,0,0,0,0,0],"id":21,"left_children":[1,3,5,7,9,11,13,-1,-1,15,-1,17,19,21,23,-1,-1,25,-1,-1,27,-1,29,31,33,-1,-1,-1,-1,-1,-1,-1,-1,-1,-1],"loss_changes":[1.5191199E2,3.931217E2,1.3849118E2,7.972974E1,3.8706665E1,1.4141293E1,3.730133E1,0E0,0E0,2.17347E1,0E0,5.109142E1,1.3235106E1,2.6755066E1,2.4506912E2,0E0,0E0,1.1149979E1,0E0,0E0,3.2546813E0,0E0,4.5932007E0,7.6052856E0,4.7044273E1,0E0,0E0,0E0,0E0,0E0,0E0,0E0,0E0,0E0,0E0],"parents":[2147483647,0,0,1,1,2,2,3,3,4,4,5,5,6,6,9,9,11,11,12,12,13,13,14,14,17,17,20,20,22,22,23,23,24,24],"right_children":[2,4,6,8,10,12,14,-1,-1,16,-1,18,20,22,24,-1,-1,26,-1,-1,28,-1,30,32,34,-1,-1,-1,-1,-1,-1,-1,-1,-1,-1],"split_conditions":[2.5E2,2.5E7,5E2,3E0,1.3E8,8.5E7,6.5E7,4.7653934E-1,2.2284402E-1,3.5E7,-3.8605038E-2,4E7,3.5E2,3E0,9E2,-7.1371538E-3,1.0392094E-1,3.5E2,1.601321E-1,4.693458E-2,6E0,2.1949059E-1,3E7,7E2,1.3E3,-2.9943634E-2,3.5709325E-2,-3.186293E-2,1.1656585E-2,8.402362E-2,-2.6248852E-3,7.342702E-2,4.548411E-1,-5.8291014E-2,1.1086359E-1],"split_indices":[5,3,5,11,3,3,3,0,0,3,0,3,5,11,5,0,0,5,0,0,11,0,3,5,5,0,0,0,0,0,0,0,0,0,0],"split_type":[0,0,0,0,0,0,0,0,0,0,0,0,0,0,0,0,0,0,0,0,0,0,0,0,0,0,0,0,0,0,0,0,0,0,0],"sum_hessian":[1.35E2,5.4E1,8.1E1,3.4E1,2E1,3.9E1,4.2E1,3E0,3.1E1,1.3E1,7E0,2.1E1,1.8E1,2.9E1,1.3E1,4E0,9E0,1.7E1,4E0,6E0,1.2E1,2E0,2.7E1,4E0,9E0,5E0,1.2E1,9E0,3E0,2.6E1,1E0,1E0,3E0,3E0,6E0],"tree_param":{"num_deleted":"0","num_feature":"12","num_nodes":"35","size_leaf_vector":"0"}},{"base_weights":[3.037706E0,2.534201E0,1.1734433E1,3.870687E0,1.5519679E0,9.4111896E-1,4.6444197E0,5.087567E0,1.1805165E0,1.1533433E1,3.7454486E0,7.2148037E-1,1.6129222E0,1.5574895E-1,8.996607E-1],"categories":[],"categories_nodes":[],"categories_segments":[],"categories_sizes":[],"default_left":[1,1,0,1,1,0,1,0,1,0,0,1,0,0,0],"id":22,"left_children":[1,3,-1,5,7,-1,9,-1,11,-1,-1,13,-1,-1,-1],"loss_changes":[5.447749E2,1.6257452E2,0E0,1.1592413E2,9.304663E1,0E0,1.7985919E2,0E0,1.2558182E1,0E0,0E0,3.7517986E0,0E0,0E0,0E0],"parents":[2147483647,0,0,1,1,3,3,4,4,6,6,8,8,11,11],"right_children":[2,4,-1,6,8,-1,10,-1,12,-1,-1,14,-1,-1,-1],"split_conditions":[3.5E0,2.5E2,4.9317724E-1,5E1,3E0,3.9553545E-2,3E0,2.1382134E-1,5E2,4.8472956E-1,1.5741451E-1,3.5E2,6.7788236E-2,6.5458496E-3,3.781113E-2],"split_indices":[6,5,0,5,11,0,11,0,5,0,0,5,0,0,0],"split_type":[0,0,0,0,0,0,0,0,0,0,0,0,0,0,0],"sum_hessian":[1.36E2,1.31E2,5E0,5.3E1,7.8E1,1.2E1,4.1E1,5E0,7.3E1,2E0,3.9E1,3.8E1,3.5E1,1E1,2.8E1],"tree_param":{"num_deleted":"0","num_feature":"12","num_nodes":"15","size_leaf_vector":"0"}},{"base_weights":[3.0402524E0,4.624014E0,2.354879E0,7.200081E0,1.1542228E0,1.4687726E0,3.4404907E0,-1.2931077E-1,2.6089284E0,2.344033E0,-6.701671E-2,1.8950626E0,6.7148323E0,1.1268418E0,-1.7609755E0,3.6530042E0,-5.228259E-1,3.6569588E0,1.2267302E0,-1.5664991E0,5.236274E-1,2.4235318E0,-1.2026783E0,1.0499783E0,7.5536923E0,-2.6998278E-1,2.6582754E0,3.678174E0,3.2328314E-1,-1.7246883E0,-2.0564029E-1,-2.675924E-1,6.559892E-1,1.3904973E0,2.766385E0,-8.416758E-2,-1.3926466E0,8.24123E0,2.2573537E-1],"categories":[],"categories_nodes":[],"categories_segments":[],"categories_sizes":[],"default_left":[1,1,1,0,1,1,1,1,1,1,1,1,1,1,0,0,0,0,1,1,1,1,1,0,1,0,0,0,0,0,0,0,0,0,0,0,0,0,0],"id":23,"left_children":[1,3,5,-1,7,9,11,13,15,17,19,21,23,25,-1,-1,-1,-1,27,29,31,33,35,-1,37,-1,-1,-1,-1,-1,-1,-1,-1,-1,-1,-1,-1,-1,-1],"loss_changes":[1.2583374E2,3.319779E2,8.512323E1,0E0,3.615351E1,7.82805E1,1.921318E2,2.8569017E1,3.3254154E1,4.530075E1,2.2012787E1,5.822094E1,4.5909912E1,1.8552002E1,0E0,0E0,0E0,0E0,4.8562298E1,7.9740906E-1,2.236508E0,2.2194824E0,1.0405712E0,0E0,5.170392E1,0E0,0E0,0E0,0E0,0E0,0E0,0E0,0E0,0E0,0E0,0E0,0E0,0E0,0E0],"parents":[2147483647,0,0,1,1,2,2,4,4,5,5,6,6,7,7,8,8,9,9,10,10,11,11,12,12,13,13,18,18,19,19,20,20,21,21,22,22,24,24],"right_children":[2,4,6,-1,8,10,12,14,16,18,20,22,24,26,-1,-1,-1,-1,28,30,32,34,36,-1,38,-1,-1,-1,-1,-1,-1,-1,-1,-1,-1,-1,-1,-1,-1],"split_conditions":[1.5E2,2.5E7,5E2,3.0260652E-1,1.5E0,8.5E7,1.5E0,6.5E7,1.95E8,2.5E2,1.5E0,3E7,5.5E7,3.5E7,-7.401065E-2,1.5352923E-1,-2.1973437E-2,1.5369543E-1,5E-1,3.65E8,2.5E2,9E2,6.5E7,4.412871E-2,4.65E8,-1.1346893E-2,1.1172256E-1,1.5458708E-1,1.3587012E-2,-7.2485566E-2,-8.642693E-3,-1.124643E-2,2.7570054E-2,5.8440115E-2,1.1626621E-1,-3.5374127E-3,-5.8530442E-2,3.4636414E-1,9.487254E-3],"split_indices":[5,3,5,0,1,3,1,3,3,5,1,3,3,3,0,0,0,0,1,3,5,5,3,0,3,0,0,0,0,0,0,0,0,0,0,0,0,0,0],"split_type":[0,0,0,0,0,0,0,0,0,0,0,0,0,0,0,0,0,0,0,0,0,0,0,0,0,0,0,0,0,0,0,0,0,0,0,0,0,0,0],"sum_hessian":[1.34E2,3.7E1,9.7E1,2E1,1.7E1,5.6E1,4.1E1,1E1,7E0,3.5E1,2.1E1,3E1,1.1E1,6E0,4E0,5E0,2E0,1.4E1,2.1E1,5E0,1.6E1,2.6E1,4E0,2E0,9E0,4E0,2E0,4E0,1.7E1,4E0,1E0,2E0,1.4E1,9E0,1.7E1,1E0,3E0,8E0,1E0],"tree_param":{"num_deleted":"0","num_feature":"12","num_nodes":"39","size_leaf_vector":"0"}},{"base_weights":[2.9281228E0,6.6504655E0,2.4529052E0,9.406074E0,2.2314844E0,3.6738558E0,1.4723493E0,4.4259095E0,1.2171101E1,-5.2761155E-1,4.4442263E0,7.836383E-1,2.1756794E0,5.4783583E0,-2.7909076E-1,6.8779583E0,3.546036E0,-1.1133866E0,8.9219147E-1,4.418477E0,1.8484414E0,3.622565E-1,1.0555557E0],"categories":[],"categories_nodes":[],"categories_segments":[],"categories_sizes":[],"default_left":[1,1,1,1,0,1,1,1,0,0,0,0,0,0,0,0,1,0,1,0,0,0,0],"id":24,"left_children":[1,3,5,7,-1,9,11,13,-1,-1,15,17,-1,-1,-1,-1,19,-1,21,-1,-1,-1,-1],"loss_changes":[2.0439209E2,1.2848804E2,1.352362E2,2.3772583E0,0E0,1.7624078E2,3.0980392E1,3.277642E1,0E0,0E0,4.956195E1,1.0019356E1,0E0,0E0,0E0,0E0,3.8456146E1,0E0,2.524622E0,0E0,0E0,0E0,0E0],"parents":[2147483647,0,0,1,1,2,2,3,3,5,5,6,6,7,7,10,10,11,11,16,16,18,18],"right_children":[2,4,6,8,-1,10,12,14,-1,-1,16,18,-1,-1,-1,-1,20,-1,22,-1,-1,-1,-1],"split_conditions":[5E-1,1.2E3,2.5E2,5.5E2,9.37853E-2,5E1,5E2,2E2,5.1152956E-1,-2.2174569E-2,1.5E0,1.5E0,9.143992E-2,2.3024559E-1,-1.1729686E-2,2.8906828E-1,1.5E2,-4.6793647E-2,3.5E2,1.8570068E-1,7.768668E-2,1.5224992E-2,4.436312E-2],"split_indices":[7,5,5,5,0,5,5,5,0,0,7,7,0,0,0,0,5,0,5,0,0,0,0],"split_type":[0,0,0,0,0,0,0,0,0,0,0,0,0,0,0,0,0,0,0,0,0,0,0],"sum_hessian":[1.32E2,1.2E1,1.2E2,6E0,6E0,5.1E1,6.9E1,4E0,2E0,8E0,4.3E1,3.7E1,3.2E1,3E0,1E0,8E0,3.5E1,1E0,3.6E1,2.1E1,1.4E1,1E1,2.6E1],"tree_param":{"num_deleted":"0","num_feature":"12","num_nodes":"23","size_leaf_vector":"0"}},{"base_weights":[2.743972E0,8.992975E0,1.9501085E0,5.885693E0,1.2850896E1,4.0627527E0,1.419934E0,1.7663558E0,6.356018E0,1.7759076E0,-1.392046E-1,2.163577E0,1.9132516E-1,1.891828E0,1.096391E0],"categories":[],"categories_nodes":[],"categories_segments":[],"categories_sizes":[],"default_left":[1,1,0,1,0,0,1,1,0,1,0,0,0,0,0],"id":25,"left_children":[1,3,5,7,-1,-1,9,11,-1,13,-1,-1,-1,-1,-1],"loss_changes":[6.495082E2,2.84646E1,1.2846542E2,7.838745E-1,0E0,0E0,5.766165E1,1.6749039E0,0E0,2.4658508E0,0E0,0E0,0E0,0E0,0E0],"parents":[2147483647,0,0,1,1,2,2,3,3,6,6,7,7,9,9],"right_children":[2,4,6,8,-1,-1,10,12,-1,14,-1,-1,-1,-1,-1],"split_conditions":[1.5E0,1.5E0,1.5E0,1.2E1,5.4010016E-1,1.7075023E-1,3E0,6E0,2.6713207E-1,1E1,-5.8505205E-3,9.0931274E-2,8.041054E-3,7.9510145E-2,4.6079352E-2],"split_indices":[10,7,7,2,0,0,10,2,0,2,0,0,0,0,0],"split_type":[0,0,0,0,0,0,0,0,0,0,0,0,0,0,0],"sum_hessian":[1.36E2,1.3E1,1.23E2,1E1,3E0,2.2E1,1.01E2,2E0,8E0,8.2E1,1.9E1,1E0,1E0,6.7E1,1.5E1],"tree_param":{"num_deleted":"0","num_feature":"12","num_nodes":"15","size_leaf_vector":"0"}},{"base_weights":[2.6492414E0,2.1800506E0,1.0805148E1,2.3535383E0,1.5597376E0,-6.428402E-1,1.2927128E1,-1.1976857E-1,2.542276E0,3.5671496E0,1.148476E0,2.6111038E0,-1.6462357E0,1.810842E-1,1.200887E0,5.203038E-1,1.2655414E0],"categories":[],"categories_nodes":[],"categories_segments":[],"categories_sizes":[],"default_left":[1,1,1,1,0,0,0,1,0,0,0,0,0,0,1,0,0],"id":26,"left_children":[1,3,5,7,9,-1,-1,11,-1,-1,13,-1,-1,-1,15,-1,-1],"loss_changes":[4.8094586E2,6.966919E0,1.8670648E2,4.7290527E1,2.0697449E1,0E0,0E0,4.6124542E1,0E0,0E0,1.187336E0,0E0,0E0,0E0,2.3994446E-3,0E0,0E0],"parents":[2147483647,0,0,1,1,2,2,3,3,4,4,7,7,10,10,14,14],"right_children":[2,4,6,8,10,-1,-1,12,-1,-1,14,-1,-1,-1,16,-1,-1],"split_conditions":[3.5E0,1.5E0,5E-1,2.5E0,5E-1,-2.7017424E-2,5.433041E-1,1.5E0,1.0684731E-1,1.4992091E-1,2.000001E0,1.0974002E-1,-6.918834E-2,7.610645E-3,2.5E0,2.1867437E-2,5.3188443E-2],"split_indices":[6,1,1,6,9,0,0,6,0,0,9,0,0,0,6,0,0],"split_type":[0,0,0,0,0,0,0,0,0,0,0,0,0,0,0,0,0],"sum_hessian":[1.36E2,1.31E2,5E0,9.8E1,3.3E1,1E0,4E0,7E0,9.1E1,3E0,3E1,2E0,5E0,2E0,2.8E1,4E0,2.4E1],"tree_param":{"num_deleted":"0","num_feature":"12","num_nodes":"17","size_leaf_vector":"0"}},{"base_weights":[2.6316028E0,9.628374E0,1.2227342E0,1.2261999E1,1.9533337E0,-7.403474E-1,1.4068602E0,1.3753836E1,3.477219E0,1.7092367E-1,2.1590629E0,-1.5074173E0,1.3555546E0,1.9286528E0,1.0862516E0,1.1770326E0,2.591124E0,5.2687025E-1,1.6310546E0,3.7599826E-1,1.6120551E0,4.435137E0,1.6306885E0,-1.0194838E0,8.3223295E-1,3.1699812E0,1.3366388E0],"categories":[],"categories_nodes":[],"categories_segments":[],"categories_sizes":[],"default_left":[1,1,1,1,1,1,1,0,0,0,0,0,0,1,1,0,0,0,0,0,0,0,0,0,0,0,0],"id":27,"left_children":[1,3,5,7,9,11,13,-1,-1,-1,-1,-1,-1,15,17,19,21,23,25,-1,-1,-1,-1,-1,-1,-1,-1],"loss_changes":[1.2875037E3,3.9678186E2,4.292917E1,1.1399487E2,2.1954727E0,2.1775942E1,1.3205948E1,0E0,0E0,0E0,0E0,0E0,0E0,1.2320526E1,1.9308548E1,6.1052494E0,1.7407692E1,1.9169857E1,6.926033E0,0E0,0E0,0E0,0E0,0E0,0E0,0E0,0E0],"parents":[2147483647,0,0,1,1,2,2,3,3,4,4,5,5,6,6,13,13,14,14,15,15,16,16,17,17,18,18],"right_children":[2,4,6,8,10,12,14,-1,-1,-1,-1,-1,-1,16,18,20,22,24,26,-1,-1,-1,-1,-1,-1,-1,-1],"split_conditions":[5E-1,1.2E3,5E1,2.4E1,1.2E1,1.2E1,2.5E2,5.780491E-1,1.461413E-1,7.183616E-3,9.074155E-2,-6.335405E-2,5.6971535E-2,1.5E2,5E2,1.5E0,1.5E0,1.5E0,1.5E0,1.5802534E-2,6.775179E-2,1.8640086E-1,6.8534926E-2,-4.2847082E-2,3.497726E-2,1.3322864E-1,5.617654E-2],"split_indices":[8,5,5,2,2,2,5,0,0,0,0,0,0,5,5,8,8,8,8,0,0,0,0,0,0,0,0],"split_type":[0,0,0,0,0,0,0,0,0,0,0,0,0,0,0,0,0,0,0,0,0,0,0,0,0,0,0],"sum_hessian":[1.31E2,2E1,1.11E2,1.4E1,6E0,9E0,1.02E2,1.1E1,3E0,1E0,5E0,7E0,2E0,3.5E1,6.7E1,1.9E1,1.6E1,3.5E1,3.2E1,8E0,1.1E1,3E0,1.3E1,5E0,3E1,2E0,3E1],"tree_param":{"num_deleted":"0","num_feature":"12","num_nodes":"27","size_leaf_vector":"0"}},{"base_weights":[2.4147167E0,3.208567E0,1.3204161E0,3.2453818E0,9.045159E-1,-3.580453E-1,3.3241062E0,2.6799626E0,-1.0431249E0,3.4549365E0,-6.566737E-1,-2.3139756E-2,-1.478031E0,-1.2033879E0,1.8743443E0,-2.1229644E0,-1.4624317E-1],"categories":[],"categories_nodes":[],"categories_segments":[],"categories_sizes":[],"default_left":[1,1,1,0,0,1,0,1,1,0,0,1,1,0,0,0,0],"id":28,"left_children":[1,3,5,-1,-1,7,-1,9,11,-1,-1,13,15,-1,-1,-1,-1],"loss_changes":[1.1053601E2,7.4176025E-1,2.0753604E2,0E0,0E0,7.84417E1,0E0,2.2644062E1,1.3240028E1,0E0,0E0,2.9151106E1,1.7416924E1,0E0,0E0,0E0,0E0],"parents":[2147483647,0,0,1,1,2,2,5,5,7,7,8,8,11,11,12,12],"right_children":[2,4,6,-1,-1,8,-1,10,12,-1,-1,14,16,-1,-1,-1,-1],"split_conditions":[2.5E7,1.5E0,1.2E1,1.3639759E-1,3.8015187E-2,5E-1,1.3970624E-1,2.15E8,5E7,1.452048E-1,-2.7598822E-2,3.5E7,1.5E0,-5.057624E-2,7.877534E-2,-8.92244E-2,-6.146339E-3],"split_indices":[3,1,2,0,0,1,0,3,3,0,0,3,1,0,0,0,0],"split_type":[0,0,0,0,0,0,0,0,0,0,0,0,0,0,0,0,0],"sum_hessian":[1.35E2,7.6E1,5.9E1,7.4E1,2E0,3.3E1,2.6E1,5E0,2.8E1,4E0,1E0,9E0,1.9E1,6E0,3E0,1.2E1,7E0],"tree_param":{"num_deleted":"0","num_feature":"12","num_nodes":"17","size_leaf_vector":"0"}},{"base_weights":[2.2433994E0,8.195971E0,1.593563E0,1.1582059E1,1.9835185E0,3.4244907E0,1.1181853E0,1.8596252E0,1.2439185E1,6.2341666E-1,5.9138966E0,1.4541304E0,-3.3208916E-1,3.3057523E0,-7.093929E-1,6.8175282E0,1.7404324E0,1.8418505E0,1.1944555E0,1.6613369E-1,-1.9924932E0,-1.146284E0,3.035209E0,5.450246E-1,1.6829867E0,-6.768786E-1,5.037208E-1],"categories":[],"categories_nodes":[],"categories_segments":[],"categories_sizes":[],"default_left":[1,1,0,0,0,1,1,0,0,0,1,1,1,0,0,0,1,0,1,1,0,0,0,0,0,0,0],"id":29,"left_children":[1,3,5,7,-1,9,11,-1,-1,13,15,17,19,-1,-1,-1,21,-1,23,25,-1,-1,-1,-1,-1,-1,-1],"loss_changes":[5.0381042E2,2.27518E2,1.020061E2,2.03844E1,0E0,1.6695557E2,5.1149887E1,0E0,0E0,5.4747944E1,2.5285858E1,4.0546417E0,1.8035725E1,0E0,0E0,0E0,2.5655447E1,0E0,1.5931694E1,5.805296E0,0E0,0E0,0E0,0E0,0E0,0E0,0E0],"parents":[2147483647,0,0,1,1,2,2,3,3,5,5,6,6,9,9,10,10,11,11,12,12,16,16,18,18,19,19],"right_children":[2,4,6,8,-1,10,12,-1,-1,14,16,18,20,-1,-1,-1,22,-1,24,26,-1,-1,-1,-1,-1,-1,-1],"split_conditions":[1.5E0,1.2E3,1.5E0,1.5E0,8.3363734E-2,5E1,3E0,7.8156725E-2,5.227967E-1,5E-1,3E2,2.5E2,6E2,1.3893485E-1,-2.9814515E-2,2.8652853E-1,6E2,7.7409685E-2,5E2,3E2,-8.374092E-2,-4.8176266E-2,1.275644E-1,2.2906408E-2,7.073292E-2,-2.8447995E-2,2.1170486E-2],"split_indices":[10,5,7,7,0,5,10,0,0,7,5,5,5,0,0,0,5,0,5,5,0,0,0,0,0,0,0],"split_type":[0,0,0,0,0,0,0,0,0,0,0,0,0,0,0,0,0,0,0,0,0,0,0,0,0,0,0],"sum_hessian":[1.35E2,1.1E1,1.24E2,6E0,5E0,2.3E1,1.01E2,1E0,5E0,1.2E1,1.1E1,8.2E1,1.9E1,3E0,9E0,8E0,3E0,2.8E1,5.4E1,1.6E1,3E0,1E0,2E0,2.5E1,2.9E1,4E0,1.2E1],"tree_param":{"num_deleted":"0","num_feature":"12","num_nodes":"27","size_leaf_vector":"0"}},{"base_weights":[2.2762535E0,1.8447546E0,9.822746E0,1.8705204E0,7.851523E-2,1.7776531E0,3.2120728E0,-7.713408E-2,1.9374996E0,2.4418879E0,-1.0694921E0,2.0407014E0,1.2712883E0],"categories":[],"categories_nodes":[],"categories_segments":[],"categories_sizes":[],"default_left":[1,1,0,1,0,1,0,1,1,0,0,0,0],"id":30,"left_children":[1,3,-1,5,-1,7,-1,9,11,-1,-1,-1,-1],"loss_changes":[4.1311084E2,5.758789E0,0E0,4.8941345E0,0E0,3.7952576E1,0E0,3.5226624E1,2.852539E0,0E0,0E0,0E0,0E0],"parents":[2147483647,0,0,1,1,3,3,5,5,7,7,8,8],"right_children":[2,4,-1,6,-1,8,-1,10,12,-1,-1,-1,-1],"split_conditions":[3.5E0,5E-1,4.1283244E-1,2.4E1,3.2998547E-3,2.5E0,1.3499768E-1,1.5E0,6E0,1.0262818E-1,-4.494884E-2,8.576703E-2,5.3429972E-2],"split_indices":[6,9,0,2,0,6,0,6,2,0,0,0,0],"split_type":[0,0,0,0,0,0,0,0,0,0,0,0,0],"sum_hessian":[1.36E2,1.31E2,5E0,1.29E2,2E0,1.25E2,4E0,1E1,1.15E2,2E0,8E0,9.6E1,1.9E1],"tree_param":{"num_deleted":"0","num_feature":"12","num_nodes":"13","size_leaf_vector":"0"}},{"base_weights":[2.0978963E0,9.074303E0,8.694052E-1,3.1414328E0,9.751427E0,1.1547123E0,-6.2978464E-1,1.7336832E-1,1.2734362E0,-1.0873908E0,-4.2103943E-1,2.3905892E0,-6.645866E-1,1.8327602E0,1.1082662E0,-3.018881E-1,-7.755542E-1,2.0819077E0,1.0368787E0],"categories":[],"categories_nodes":[],"categories_segments":[],"categories_sizes":[],"default_left":[1,1,1,0,0,1,0,1,0,0,1,0,0,0,1,0,0,0,0],"id":31,"left_children":[1,3,5,-1,-1,7,9,11,13,-1,15,-1,-1,-1,17,-1,-1,-1,-1],"loss_changes":[1.1412335E3,1.904663E1,5.150022E1,0E0,0E0,1.1092712E1,9.943509E-1,2.7334799E1,4.0650177E0,0E0,2.4959946E-1,0E0,0E0,0E0,7.5400543E-1,0E0,0E0,0E0,0E0],"parents":[2147483647,0,0,1,1,2,2,5,5,6,6,7,7,8,8,10,10,14,14],"right_children":[2,4,6,-1,-1,8,10,12,14,-1,16,-1,-1,-1,18,-1,-1,-1,-1],"split_conditions":[5E-1,2.5E0,3E0,1.320288E-1,4.09835E-1,2.5E0,1.5E0,1.5E0,1.5E0,-4.570109E-2,3.5E0,1.0047219E-1,-2.7931387E-2,7.7027634E-2,1.5E0,-1.2687817E-2,-3.2595154E-2,8.749886E-2,4.3578155E-2],"split_indices":[8,6,10,0,0,6,8,6,8,0,6,0,0,0,10,0,0,0,0],"split_type":[0,0,0,0,0,0,0,0,0,0,0,0,0,0,0,0,0,0,0],"sum_hessian":[1.33E2,1.8E1,1.15E2,3E0,1.5E1,9.7E1,1.8E1,1.1E1,8.6E1,3E0,1.5E1,2E0,9E0,1.5E1,7.1E1,1.4E1,1E0,1E0,7E1],"tree_param":{"num_deleted":"0","num_feature":"12","num_nodes":"19","size_leaf_vector":"0"}},{"base_weights":[2.0846643E0,1.6766313E0,9.298422E0,1.586927E0,3.0607462E0,-6.2398776E-2,1.72541E0,2.3403685E0,-1.0111951E0,1.8973509E0,8.794806E-1,-1.3460218E0,6.6728E-1,5.508329E-2,9.494113E-1],"categories":[],"categories_nodes":[],"categories_segments":[],"categories_sizes":[],"default_left":[1,1,0,1,0,1,1,0,1,0,0,0,0,0,0],"id":32,"left_children":[1,3,-1,5,-1,7,9,-1,11,-1,13,-1,-1,-1,-1],"loss_changes":[3.7794434E2,6.9174805E0,0E0,2.9908234E1,0E0,3.209562E1,1.4114746E1,0E0,7.418103E0,0E0,1.2790279E0,0E0,0E0,0E0,0E0],"parents":[2147483647,0,0,1,1,3,3,5,5,6,6,8,8,10,10],"right_children":[2,4,-1,6,-1,8,10,-1,12,-1,14,-1,-1,-1,-1],"split_conditions":[3.5E0,2.4E1,3.9079604E-1,2.5E0,1.2863769E-1,1.5E0,6E0,9.83615E-2,1.2E1,7.974227E-2,2.000001E0,-5.6570888E-2,2.8044585E-2,2.315052E-3,3.9902057E-2],"split_indices":[6,2,0,6,0,6,2,0,2,0,9,0,0,0,0],"split_type":[0,0,0,0,0,0,0,0,0,0,0,0,0,0,0],"sum_hessian":[1.37E2,1.32E2,5E0,1.28E2,4E0,1E1,1.18E2,2E0,8E0,9.6E1,2.2E1,7E0,1E0,2E0,2E1],"tree_param":{"num_deleted":"0","num_feature":"12","num_nodes":"15","size_leaf_vector":"0"}},{"base_weights":[2.0940838E0,1.8783699E0,2.7603445E0,2.0320191E0,-2.8038654E-1,2.956814E0,5.392612E-2,-8.629657E-2,-4.010893E-1],"categories":[],"categories_nodes":[],"categories_segments":[],"categories_sizes":[],"default_left":[1,1,1,0,1,0,0,0,0],"id":33,"left_children":[1,3,5,-1,7,-1,-1,-1,-1],"loss_changes":[9.170166E0,3.729492E1,1.51017E1,0E0,1.4160526E-1,0E0,0E0,0E0,0E0],"parents":[2147483647,0,0,1,1,2,2,4,4],"right_children":[2,4,6,-1,8,-1,-1,-1,-1],"split_conditions":[1.2E1,1.5E0,5E-1,8.540213E-2,6E0,1.24269605E-1,2.2664184E-3,-3.6268905E-3,-1.6857067E-2],"split_indices":[2,1,9,0,2,0,0,0,0],"split_type":[0,0,0,0,0,0,0,0,0],"sum_hessian":[1.34E2,1.07E2,2.7E1,1E2,7E0,2.5E1,2E0,4E0,3E0],"tree_param":{"num_deleted":"0","num_feature":"12","num_nodes":"9","size_leaf_vector":"0"}},{"base_weights":[1.9275559E0,1.2737011E0,1.3704396E1,-3.20669E-1,1.9990859E0,1.5900923E0,-6.558142E-1,4.0782275E0,1.5150756E0,-5.56255E-1,-1.0011955E0,1.920862E0,5.7130563E-1,2.094104E0,-1.2480801E0,1.8900348E0,3.038265E-1],"categories":[],"categories_nodes":[],"categories_segments":[],"categories_sizes":[],"default_left":[1,1,0,1,1,0,1,0,1,0,0,1,1,0,0,0,0],"id":34,"left_children":[1,3,-1,5,7,-1,9,-1,11,-1,-1,13,15,-1,-1,-1,-1],"loss_changes":[1.02002454E3,1.539465E2,0E0,2.9624098E1,7.921176E1,0E0,1.9218636E-1,0E0,2.7292938E1,0E0,0E0,3.4327774E1,8.022287E0,0E0,0E0,0E0,0E0],"parents":[2147483647,0,0,1,1,3,3,4,4,6,6,8,8,11,11,12,12],"right_children":[2,4,-1,6,8,-1,10,-1,12,-1,-1,14,16,-1,-1,-1,-1],"split_conditions":[4.5E0,5E-1,5.7597125E-1,7.68E2,7.68E2,6.6828735E-2,3.072E3,1.714006E-1,3.5E0,-2.3378402E-2,-4.2078458E-2,3.072E3,1.536E3,8.801144E-2,-5.2454576E-2,7.943478E-2,1.2769285E-2],"split_indices":[0,0,0,4,4,0,4,0,0,0,0,4,4,0,0,0,0],"split_type":[0,0,0,0,0,0,0,0,0,0,0,0,0,0,0,0,0],"sum_hessian":[1.35E2,1.3E2,5E0,4.1E1,8.9E1,5E0,3.6E1,1.4E1,7.5E1,3.2E1,4E0,5.1E1,2.4E1,4.9E1,2E0,2E0,2.2E1],"tree_param":{"num_deleted":"0","num_feature":"12","num_nodes":"17","size_leaf_vector":"0"}},{"base_weights":[1.8138119E0,7.148789E0,1.1107858E0,1.0841123E1,1.2069727E0,1.4833562E0,-8.817426E-1,1.6471429E0,5.11009E-1,2.2324126E0,7.756605E-1,2.6028862E0,-1.8030192E0,3.9548695E-1,2.8227162E0,-1.3994954E-3,1.3773222E0,1.94269E0,-1.2506326E0,3.152261E0,-1.3894488E0,1.7111181E0,-4.6839124E-1,2.1314437E0,8.151313E-1],"categories":[],"categories_nodes":[],"categories_segments":[],"categories_sizes":[],"default_left":[1,1,1,0,1,1,1,0,0,1,1,0,0,1,1,1,1,0,0,0,0,0,0,0,0],"id":35,"left_children":[1,3,5,-1,7,9,11,-1,-1,13,15,-1,-1,17,19,21,23,-1,-1,-1,-1,-1,-1,-1,-1],"loss_changes":[4.7919632E2,3.0292834E2,9.095888E1,0E0,7.666769E-1,5.0075836E1,7.360184E1,0E0,0E0,4.9815796E1,2.5718426E1,0E0,0E0,4.052156E1,5.873828E1,2.239791E1,9.666359E0,0E0,0E0,0E0,0E0,0E0,0E0,0E0,0E0],"parents":[2147483647,0,0,1,1,2,2,4,4,5,5,6,6,9,9,10,10,13,13,14,14,15,15,16,16],"right_children":[2,4,6,-1,8,10,12,-1,-1,14,16,-1,-1,18,20,22,24,-1,-1,-1,-1,-1,-1,-1,-1],"split_conditions":[1.5E0,1.2E3,3E0,4.5563298E-1,7.68E2,2.5E2,1.536E3,6.9226466E-2,2.1476794E-2,5E1,5E2,1.0939465E-1,-7.577767E-2,7.68E2,3.072E3,7.68E2,9E2,8.164778E-2,-5.2561853E-2,1.3248388E-1,-5.8396045E-2,7.191523E-2,-1.9685647E-2,8.958077E-2,3.425851E-2],"split_indices":[10,5,10,0,4,5,4,0,0,5,5,0,0,4,4,4,5,0,0,0,0,0,0,0,0],"split_type":[0,0,0,0,0,0,0,0,0,0,0,0,0,0,0,0,0,0,0,0,0,0,0,0,0],"sum_hessian":[1.3E2,1.3E1,1.17E2,7E0,6E0,9.9E1,1.8E1,2E0,4E0,4.6E1,5.3E1,3E0,1.5E1,1.2E1,3.4E1,2.4E1,2.9E1,6E0,6E0,3.2E1,2E0,4E0,2E1,1E1,1.9E1],"tree_param":{"num_deleted":"0","num_feature":"12","num_nodes":"25","size_leaf_vector":"0"}},{"base_weights":[1.8084048E0,1.1817682E0,1.3106132E1,-3.900198E-1,1.9239315E0,2.8880578E-2,-4.1134295E-1,2.2694516E0,8.987891E-1,8.990545E-1,2.6372223E0,4.506576E0,2.223984E-1,2.758735E0,1.0627601E-1,2.8623078E0,-5.0650625E-3],"categories":[],"categories_nodes":[],"categories_segments":[],"categories_sizes":[],"default_left":[1,1,0,0,1,0,0,1,1,0,1,0,0,0,0,0,0],"id":36,"left_children":[1,3,-1,5,7,-1,-1,9,11,13,15,-1,-1,-1,-1,-1,-1],"loss_changes":[9.3891425E2,1.5548418E2,0E0,4.1680574E-1,2.779712E1,0E0,0E0,2.8519196E1,6.1444336E1,2.4478409E1,3.036148E1,0E0,0E0,0E0,0E0,0E0,0E0],"parents":[2147483647,0,0,1,1,3,3,4,4,7,7,8,8,9,9,10,10],"right_children":[2,4,-1,6,8,-1,-1,10,12,14,16,-1,-1,-1,-1,-1,-1],"split_conditions":[4.5E0,5E-1,5.5082726E-1,2.000001E0,3.5E0,1.213799E-3,-1.7288009E-2,3E0,3E0,1E-6,6E0,1.8940333E-1,9.347007E-3,1.1594469E-1,4.4665905E-3,1.2029768E-1,-2.1287551E-4],"split_indices":[0,0,0,9,0,0,0,11,11,9,11,0,0,0,0,0,0],"split_type":[0,0,0,0,0,0,0,0,0,0,0,0,0,0,0,0,0],"sum_hessian":[1.35E2,1.3E2,5E0,4.2E1,8.8E1,2E0,4E1,6.4E1,2.4E1,1.5E1,4.9E1,2E0,2.2E1,3E0,1.2E1,4.5E1,4E0],"tree_param":{"num_deleted":"0","num_feature":"12","num_nodes":"17","size_leaf_vector":"0"}},{"base_weights":[1.748719E0,7.9136906E0,5.9245765E-1,4.7341566E0,1.1099967E1,8.258097E-1,-5.3070194E-1,1.8594611E0,7.757595E-1,-1.0817116E0,-3.1861803E-1,1.0334476E0,6.9739157E-1,-3.257511E-1,7.904141E-1],"categories":[],"categories_nodes":[],"categories_segments":[],"categories_sizes":[],"default_left":[1,1,1,0,0,1,0,0,0,0,0,0,0,0,0],"id":37,"left_children":[1,3,5,-1,-1,7,9,-1,11,-1,-1,-1,13,-1,-1],"loss_changes":[9.458207E2,1.07598755E2,3.101791E1,0E0,0E0,2.0798264E0,1.7644811E0,0E0,4.7618866E-1,0E0,0E0,0E0,8.034233E0,0E0,0E0],"parents":[2147483647,0,0,1,1,2,2,5,5,6,6,8,8,12,12],"right_children":[2,4,6,-1,-1,8,10,-1,12,-1,-1,-1,14,-1,-1],"split_conditions":[5E-1,5E-1,3E0,1.9896813E-1,4.6651176E-1,1.5E0,1.5E0,7.8149825E-2,1.5E0,-4.5462407E-2,-1.3390946E-2,4.3433953E-2,1.5E0,-1.3690736E-2,3.321969E-2],"split_indices":[8,7,10,0,0,10,8,0,7,0,0,0,8,0,0],"split_type":[0,0,0,0,0,0,0,0,0,0,0,0,0,0,0],"sum_hessian":[1.32E2,1.9E1,1.13E2,1.2E1,7E0,9.4E1,1.9E1,1E0,9.3E1,3E0,1.6E1,1.6E1,7.7E1,6E0,7.1E1],"tree_param":{"num_deleted":"0","num_feature":"12","num_nodes":"15","size_leaf_vector":"0"}},{"base_weights":[1.6666443E0,7.467291E0,5.6618017E-1,2.5698333E0,7.969868E0,2.1241448E0,5.0321674E-1,-8.0585164E-1,6.272366E-1,6.583708E-1,-9.0102017E-1,9.615469E-1,5.7543445E-1],"categories":[],"categories_nodes":[],"categories_segments":[],"categories_sizes":[],"default_left":[1,1,1,0,0,0,1,0,1,0,0,0,0],"id":38,"left_children":[1,3,5,-1,-1,-1,7,-1,9,11,-1,-1,-1],"loss_changes":[8.788401E2,1.3165283E1,9.53429E0,0E0,0E0,0E0,2.0006742E1,0E0,6.3259354E0,1.5831795E0,0E0,0E0,0E0],"parents":[2147483647,0,0,1,1,2,2,6,6,8,8,9,9],"right_children":[2,4,6,-1,-1,-1,8,-1,10,12,-1,-1,-1],"split_conditions":[5E-1,2.5E0,1.5E0,1.08005494E-1,3.349593E-1,8.9274004E-2,2.5E0,-3.3868503E-2,3.5E0,1.5E0,-3.7868265E-2,4.0412094E-2,2.418448E-2],"split_indices":[8,6,6,0,0,0,6,0,6,8,0,0,0],"split_type":[0,0,0,0,0,0,0,0,0,0,0,0,0],"sum_hessian":[1.37E2,2E1,1.17E2,3E0,1.7E1,2E0,1.15E2,9E0,1.06E2,1.05E2,1E0,1.8E1,8.7E1],"tree_param":{"num_deleted":"0","num_feature":"12","num_nodes":"13","size_leaf_vector":"0"}},{"base_weights":[1.6283991E0,1.0519614E0,1.3668507E1,-4.445003E-1,1.768142E0,-6.8685806E-1,3.162558E-1,1.3137574E0,3.3037183E0,-4.2716473E-1,-2.0217853E0,-3.091497E-1,1.3153162E0,-1.4083767E0,1.650265E0,4.201915E0,-4.3184932E-2,-1.1850569E0,-9.343074E-3,-5.806935E-1,-1.2997223E-1,2.3646324E0,1.1166965E0,1.920149E0,5.7179008E0,-2.4049309E-1,3.1440407E-1],"categories":[],"categories_nodes":[],"categories_segments":[],"categories_sizes":[],"default_left":[1,1,0,1,1,1,1,1,1,1,0,1,0,0,1,1,1,0,0,0,0,0,0,0,0,0,0],"id":39,"left_children":[1,3,-1,5,7,9,11,13,15,17,-1,19,-1,-1,21,23,25,-1,-1,-1,-1,-1,-1,-1,-1,-1,-1],"loss_changes":[9.0818365E2,1.4197166E2,0E0,8.54744E0,5.3414062E1,1.0058935E1,8.312327E0,7.060568E1,5.7484146E1,9.794802E0,0E0,2.869091E-1,0E0,0E0,1.949176E1,2.9919281E1,5.747327E-1,0E0,0E0,0E0,0E0,0E0,0E0,0E0,0E0,0E0,0E0],"parents":[2147483647,0,0,1,1,3,3,4,4,5,5,6,6,7,7,8,8,9,9,11,11,14,14,15,15,16,16],"right_children":[2,4,-1,6,8,10,12,14,16,18,-1,20,-1,-1,22,24,26,-1,-1,-1,-1,-1,-1,-1,-1,-1,-1],"split_conditions":[4.5E0,5E-1,5.744629E-1,1E1,1.2E1,6E2,5E2,5E1,2.5E0,1.5E2,-8.497202E-2,2.5E2,5.5280387E-2,-5.9191555E-2,2.5E2,5.5E2,6E2,-4.9805824E-2,-3.9267266E-4,-2.4405507E-2,-5.4625003E-3,9.938127E-2,4.6932757E-2,8.070043E-2,2.4031314E-1,-1.0107494E-2,1.321384E-2],"split_indices":[0,0,0,2,2,5,5,5,0,5,0,5,0,0,5,5,5,0,0,0,0,0,0,0,0,0,0],"split_type":[0,0,0,0,0,0,0,0,0,0,0,0,0,0,0,0,0,0,0,0,0,0,0,0,0,0,0],"sum_hessian":[1.33E2,1.29E2,4E0,4.2E1,8.7E1,3.2E1,1E1,7E1,1.7E1,2.9E1,3E0,7E0,3E0,7E0,6.3E1,1.3E1,4E0,9E0,2E1,1E0,6E0,2.4E1,3.9E1,7E0,6E0,3E0,1E0],"tree_param":{"num_deleted":"0","num_feature":"12","num_nodes":"27","size_leaf_vector":"0"}},{"base_weights":[1.5618902E0,6.6290016E0,9.740277E-1,9.687279E0,8.0226076E-1,1.5293941E0,-3.9258367E-1,-9.2431647E-1,2.5590997E0,1.9345903E0,-3.0635187E-1,6.7582285E-1,-8.224412E-1,3.6625347E0,-2.507465E-1,-1.0327162E0,2.0457177E0,-1.6728964E0,2.9840417E0,1.6745993E0,-8.8117695E-1,-5.478153E-1,-1.8662076E0,2.6706836E0,1.3798797E0,-4.7601575E-1,-1.9126909E0,-8.073077E-1,1.2178824E0],"categories":[],"categories_nodes":[],"categories_segments":[],"categories_sizes":[],"default_left":[1,1,1,0,1,1,1,0,1,1,1,1,1,0,0,0,1,1,0,0,0,1,0,0,0,0,0,0,0],"id":40,"left_children":[1,3,5,-1,7,9,11,-1,13,15,17,19,21,-1,-1,-1,23,25,-1,-1,-1,27,-1,-1,-1,-1,-1,-1,-1],"loss_changes":[3.981517E2,2.339458E2,9.683272E1,0E0,2.5970617E1,6.813234E1,1.856486E1,0E0,1.4243551E1,2.862967E1,9.0931946E1,2.1616055E1,5.9804993E0,0E0,0E0,0E0,2.258667E1,2.1963692E0,0E0,0E0,0E0,1.3422789E1,0E0,0E0,0E0,0E0,0E0,0E0,0E0],"parents":[2147483647,0,0,1,1,2,2,4,4,5,5,6,6,8,8,9,9,10,10,11,11,12,12,16,16,17,17,21,21],"right_children":[2,4,6,-1,8,10,12,-1,14,16,18,20,22,-1,-1,-1,24,26,-1,-1,-1,28,-1,-1,-1,-1,-1,-1,-1],"split_conditions":[1.5E0,1.2E3,8.5E7,4.07139E-1,1.95E8,3E0,5E1,-3.884737E-2,4.65E8,5E1,4E7,1.3E8,9E2,1.5392978E-1,-1.0538426E-2,-4.3403212E-2,2.5E2,3E2,1.2541394E-1,7.038041E-2,-3.703429E-2,5E2,-7.8433365E-2,1.12244055E-1,5.7993874E-2,-2.000609E-2,-8.0386974E-2,-3.39297E-2,5.1185418E-2],"split_indices":[10,5,3,0,3,10,5,0,3,5,3,3,5,0,0,0,5,5,0,0,0,5,0,0,0,0,0,0,0],"split_type":[0,0,0,0,0,0,0,0,0,0,0,0,0,0,0,0,0,0,0,0,0,0,0,0,0,0,0,0,0],"sum_hessian":[1.36E2,1.2E1,1.24E2,7E0,5E0,8.8E1,3.6E1,3E0,2E0,7.2E1,1.6E1,1E1,2.6E1,1E0,1E0,2E0,7E1,1.2E1,4E0,6E0,4E0,2.3E1,3E0,3.3E1,3.7E1,3E0,9E0,2.1E1,2E0],"tree_param":{"num_deleted":"0","num_feature":"12","num_nodes":"29","size_leaf_vector":"0"}},{"base_weights":[1.5073607E0,7.5861673E0,3.808305E-1,4.8961725E0,1.156571E1,-7.329925E-1,9.640158E-1,-1.1273221E0,1.00845344E-1,2.0959904E0,8.271514E-1,-1.5160422E0,-7.428409E-1,1.1809433E0,-8.429421E-2,1.2723122E0,6.089796E-1],"categories":[],"categories_nodes":[],"categories_segments":[],"categories_sizes":[],"default_left":[1,1,1,0,0,1,1,0,0,0,1,0,0,1,0,0,0],"id":41,"left_children":[1,3,5,-1,-1,7,9,11,-1,-1,13,-1,-1,15,-1,-1,-1],"loss_changes":[9.1870123E2,1.114928E2,7.6764435E1,0E0,0E0,1.3708994E1,8.46006E0,1.9312057E0,0E0,0E0,2.341687E1,0E0,0E0,1.1669998E0,0E0,0E0,0E0],"parents":[2147483647,0,0,1,1,2,2,5,5,6,6,7,7,10,10,13,13],"right_children":[2,4,6,-1,-1,8,10,12,-1,-1,14,-1,-1,16,-1,-1,-1],"split_conditions":[5E-1,3.5E0,5E-1,2.0577738E-1,4.860861E-1,1.5E0,5E-1,1.5E0,4.2383494E-3,8.8090725E-2,3.5E0,-6.3716546E-2,-3.1220274E-2,1.5E0,-3.5427348E-3,5.3473003E-2,2.5594322E-2],"split_indices":[8,0,0,0,0,1,1,8,0,0,0,0,0,1,0,0,0],"split_type":[0,0,0,0,0,0,0,0,0,0,0,0,0,0,0,0,0],"sum_hessian":[1.33E2,1.9E1,1.14E2,1.4E1,5E0,3.9E1,7.5E1,2.6E1,1.3E1,5E0,7E1,1E1,1.6E1,5E1,2E1,4.1E1,9E0],"tree_param":{"num_deleted":"0","num_feature":"12","num_nodes":"17","size_leaf_vector":"0"}},{"base_weights":[1.4059417E0,6.5650425E0,4.117634E-1,9.805419E0,3.312056E0,2.0330794E0,3.0305734E-1,-3.1579968E-1,3.6397054E0,2.3048902E-1,6.3396233E-1,-7.4703924E-2,3.3005592E-1,-5.371729E-4,-4.6369216E-1,3.6251506E-1,-1.4780924E-1],"categories":[],"categories_nodes":[],"categories_segments":[],"categories_sizes":[],"default_left":[1,1,1,0,1,0,1,0,0,0,0,1,1,0,0,0,0],"id":42,"left_children":[1,3,5,-1,7,-1,9,-1,-1,11,-1,13,15,-1,-1,-1,-1],"loss_changes":[6.972785E2,1.6692096E2,1.938806E1,0E0,1.8942993E1,0E0,2.397089E0,0E0,0E0,2.9361558E0,0E0,7.207856E-1,1.2240486E0,0E0,0E0,0E0,0E0],"parents":[2147483647,0,0,1,1,2,2,4,4,6,6,9,9,11,11,12,12],"right_children":[2,4,6,-1,8,-1,10,-1,-1,12,-1,14,16,-1,-1,-1,-1],"split_conditions":[5E-1,1.5E0,5E-1,4.1210422E-1,1.2E1,8.544669E-2,1.2E1,-1.3272496E-2,1.5297031E-1,1.5E0,2.6644303E-2,1.5E0,1.5E0,-2.2576416E-5,-1.9488152E-2,1.523586E-2,-6.2121577E-3],"split_indices":[8,1,1,0,2,0,2,0,0,8,0,1,1,0,0,0,0],"split_type":[0,0,0,0,0,0,0,0,0,0,0,0,0,0,0,0,0],"sum_hessian":[1.35E2,2E1,1.15E2,8E0,1.2E1,5E0,1.1E2,1E0,1.1E1,9.3E1,1.7E1,2.3E1,7E1,2.1E1,2E0,6.6E1,4E0],"tree_param":{"num_deleted":"0","num_feature":"12","num_nodes":"17","size_leaf_vector":"0"}},{"base_weights":[1.3343036E0,1.000191E0,7.1568403E0,1.1349545E0,-1.3385093E0,2.7392201E0,9.099025E0,1.8350217E0,9.8143286E-1,1.2209642E0,-4.1621423E-1,4.7289446E-2,1.3026972E0,-2.5950345E-1,-9.741976E-1],"categories":[],"categories_nodes":[],"categories_segments":[],"categories_sizes":[],"default_left":[1,1,1,1,0,0,0,0,1,1,1,0,0,0,0],"id":43,"left_children":[1,3,5,7,-1,-1,-1,-1,9,11,13,-1,-1,-1,-1],"loss_changes":[2.48304E2,4.4012833E1,1.0190491E1,9.723007E0,0E0,0E0,0E0,0E0,3.650409E1,8.606293E0,9.806962E-1,0E0,0E0,0E0,0E0],"parents":[2147483647,0,0,1,1,2,2,3,3,8,8,9,9,10,10],"right_children":[2,4,6,8,-1,-1,-1,-1,10,12,14,-1,-1,-1,-1],"split_conditions":[3.5E0,3.072E3,1E1,7.68E2,-5.625515E-2,1.1512452E-1,3.8241574E-1,7.712268E-2,6E0,2.5E0,1.536E3,1.9874908E-3,5.4750033E-2,-1.0906466E-2,-4.0943783E-2],"split_indices":[6,4,2,4,0,0,0,0,2,6,4,0,0,0,0],"split_type":[0,0,0,0,0,0,0,0,0,0,0,0,0,0,0],"sum_hessian":[1.33E2,1.28E2,5E0,1.22E2,6E0,3E0,2E0,1.8E1,1.04E2,8.9E1,1.5E1,6E0,8.3E1,1.4E1,1E0],"tree_param":{"num_deleted":"0","num_feature":"12","num_nodes":"15","size_leaf_vector":"0"}},{"base_weights":[1.3655804E0,3.6061125E0,1.0748351E0,2.6684902E0,8.2572615E-1,6.6168934E-1,6.8176084E0,2.6965642E0,6.0774887E-1,7.600777E-1,2.9346412E-1,1.9179416E0,5.0064534E-1,5.270342E-1,-7.525401E-2],"categories":[],"categories_nodes":[],"categories_segments":[],"categories_sizes":[],"default_left":[1,0,1,0,0,1,0,0,1,0,0,0,1,0,0],"id":44,"left_children":[1,-1,3,5,7,9,-1,-1,11,-1,-1,-1,13,-1,-1],"loss_changes":[8.2140656E1,0E0,4.5215164E1,1.24205605E2,4.1986664E1,2.4638653E-2,0E0,0E0,1.2391869E1,0E0,0E0,0E0,1.5535316E0,0E0,0E0],"parents":[2147483647,0,0,2,2,3,3,4,4,5,5,8,8,12,12],"right_children":[2,-1,4,6,8,10,-1,-1,12,-1,-1,-1,14,-1,-1],"split_conditions":[5E-1,1.5155846E-1,3E0,1.5E0,1.5E0,1.5E0,2.865319E-1,1.1333177E-1,5E-1,3.1944707E-2,1.2333772E-2,8.060765E-2,6E0,2.2150306E-2,-3.1627913E-3],"split_indices":[7,0,11,7,7,1,0,0,1,0,0,0,11,0,0],"split_type":[0,0,0,0,0,0,0,0,0,0,0,0,0,0,0],"sum_hessian":[1.36E2,1.3E1,1.23E2,1.4E1,1.09E2,1.1E1,3E0,9E0,1E2,7E0,4E0,5E0,9.5E1,9.1E1,4E0],"tree_param":{"num_deleted":"0","num_feature":"12","num_nodes":"15","size_leaf_vector":"0"}},{"base_weights":[1.31145E0,7.916307E-1,1.0811532E1,5.6191516E-1,6.4460726E0,-5.230735E-1,1.0916386E0,8.832119E0,-1.0332512E0,-7.6834E-1,2.5902563E-1,1.372221E0,6.5019923E-1,5.71426E-1,1.637149E0,-4.389606E-1,9.244651E-1],"categories":[],"categories_nodes":[],"categories_segments":[],"categories_sizes":[],"default_left":[1,1,0,1,1,1,1,0,0,0,0,1,1,0,0,0,0],"id":45,"left_children":[1,3,-1,5,7,9,11,-1,-1,-1,-1,13,15,-1,-1,-1,-1],"loss_changes":[6.6436707E2,1.655083E2,0E0,7.586012E1,1.07514435E2,8.838716E0,9.1143265E0,0E0,0E0,0E0,0E0,9.160049E0,1.2163799E1,0E0,0E0,0E0,0E0],"parents":[2147483647,0,0,1,1,3,3,4,4,5,5,6,6,11,11,12,12],"right_children":[2,4,-1,6,8,10,12,-1,-1,-1,-1,14,16,-1,-1,-1,-1],"split_conditions":[4.5E0,3.5E0,4.5438936E-1,5E-1,3E0,1E1,1.5E0,3.7119815E-1,-4.3425698E-2,-3.2291956E-2,1.0886384E-2,2.5E0,2.5E0,2.4016012E-2,6.880644E-2,-1.8448729E-2,3.8853616E-2],"split_indices":[0,6,0,0,0,2,0,0,0,0,0,6,0,0,0,0,0],"split_type":[0,0,0,0,0,0,0,0,0,0,0,0,0,0,0,0,0],"sum_hessian":[1.36E2,1.31E2,5E0,1.28E2,3E0,4.2E1,8.6E1,2E0,1E0,3.2E1,1E1,5E1,3.6E1,1.4E1,3.6E1,7E0,2.9E1],"tree_param":{"num_deleted":"0","num_feature":"12","num_nodes":"17","size_leaf_vector":"0"}},{"base_weights":[1.2396832E0,1.9859858E0,6.930898E-1,6.6440836E-2,2.5064619E0,2.9919047E0,2.0652992E-1,2.0476408E0,-8.4630984E-1,2.765742E0,-1.468845E0,1.0935853E0,5.1578093E0,-7.114156E-1,9.4912374E-1,7.669403E-2,-1.2115662E0,-6.570667E-1,2.9697497E0,2.4191847E-1,1.5805758E0,6.8065615E0,9.293696E-1,-5.2906178E-2,-9.2649627E-1,1.1201142E0,-3.6465546E-1,3.4467366E0,1.8232528E0,1.1972729E0,7.877224E0,-5.423911E-1,1.22061804E-1,-1.4941695E0,-6.1975163E-1,2.3599494E0,8.0780035E-1],"categories":[],"categories_nodes":[],"categories_segments":[],"categories_sizes":[],"default_left":[1,1,1,0,1,1,1,0,1,1,0,1,1,1,1,0,0,0,1,0,0,1,0,0,1,1,0,0,0,0,0,0,0,0,0,0,0],"id":46,"left_children":[1,3,5,7,9,11,13,-1,15,17,-1,19,21,23,25,-1,-1,-1,27,-1,-1,29,-1,31,33,35,-1,-1,-1,-1,-1,-1,-1,-1,-1,-1,-1],"loss_changes":[5.231566E1,5.5616272E1,8.936416E1,2.8786959E1,5.3482666E1,4.6279243E1,4.8386677E1,0E0,3.8948274E0,3.3233612E1,0E0,3.3828335E0,2.9179047E1,4.4343204E0,9.578785E0,0E0,0E0,0E0,9.299042E0,0E0,0E0,5.156067E0,0E0,9.890374E-1,2.3261929E0,9.738037E0,0E0,0E0,0E0,0E0,0E0,0E0,0E0,0E0,0E0,0E0,0E0],"parents":[2147483647,0,0,1,1,2,2,3,3,4,4,5,5,6,6,8,8,9,9,11,11,12,12,13,13,14,14,18,18,21,21,23,23,24,24,25,25],"right_children":[2,4,6,8,10,12,14,-1,16,18,-1,20,22,24,26,-1,-1,-1,28,-1,-1,30,-1,32,34,36,-1,-1,-1,-1,-1,-1,-1,-1,-1,-1,-1],"split_conditions":[2.5E2,5E1,7.68E2,1E-6,3.072E3,5E2,6E2,8.6058676E-2,7.68E2,1.536E3,-6.173293E-2,3.5E2,1.2E3,1.536E3,1.3E3,3.2233128E-3,-5.091996E-2,-2.7615339E-2,1.5E2,1.01674E-2,6.642877E-2,7E2,3.9059743E-2,2.000001E0,3.5E2,1.536E3,-1.5325817E-2,1.4486018E-1,7.662805E-2,5.031924E-2,3.3106562E-1,-2.279573E-2,5.130039E-3,-6.279727E-2,-2.6047053E-2,9.9184446E-2,3.3950403E-2],"split_indices":[5,5,4,9,4,5,5,0,4,4,0,5,5,4,5,0,0,0,5,0,0,5,0,9,5,4,0,0,0,0,0,0,0,0,0,0,0],"split_type":[0,0,0,0,0,0,0,0,0,0,0,0,0,0,0,0,0,0,0,0,0,0,0,0,0,0,0,0,0,0,0,0,0,0,0,0,0],"sum_hessian":[1.33E2,5.4E1,7.9E1,1.2E1,4.2E1,1.2E1,6.7E1,3E0,9E0,4E1,2E0,8E0,4E0,3E1,3.7E1,3E0,6E0,2E0,3.8E1,4E0,4E0,2E0,2E0,8E0,2.2E1,3.3E1,4E0,2.4E1,1.4E1,1E0,1E0,1E0,7E0,5E0,1.7E1,4E0,2.9E1],"tree_param":{"num_deleted":"0","num_feature":"12","num_nodes":"37","size_leaf_vector":"0"}},{"base_weights":[1.1586646E0,4.8380194E0,7.2799546E-1,7.963907E0,1.994261E0,1.2195679E0,-5.0707173E-1,2.33151E0,-3.469886E-1,1.5783012E0,-3.9073023E-1,-2.5446665E0,6.7461324E-1,1.7829162E0,8.221724E-2,2.6373594E0,-1.6327854E0,-2.8451953E0,-8.653534E-1,9.2208576E-1,-2.252014E-1,1.8073683E0,5.0617576E-1,-6.4969057E-1,9.0866846E-1,-1.7448819E0,-4.799235E-1],"categories":[],"categories_nodes":[],"categories_segments":[],"categories_sizes":[],"default_left":[1,1,1,0,1,1,1,0,0,1,1,1,1,1,1,0,1,0,0,0,0,0,0,0,0,0,0],"id":47,"left_children":[1,3,5,-1,7,9,11,-1,-1,13,15,17,19,21,23,-1,25,-1,-1,-1,-1,-1,-1,-1,-1,-1,-1],"loss_changes":[2.1004163E2,9.267703E1,7.712892E1,0E0,9.5158E0,5.322493E1,9.2526764E1,0E0,0E0,2.2359985E1,7.632126E1,2.1389694E0,5.9828186E0,1.9845581E-1,7.835905E0,0E0,1.3356018E-1,0E0,0E0,0E0,0E0,0E0,0E0,0E0,0E0,0E0,0E0],"parents":[2147483647,0,0,1,1,2,2,4,4,5,5,6,6,9,9,10,10,11,11,12,12,13,13,14,14,16,16],"right_children":[2,4,6,-1,8,10,12,-1,-1,14,16,18,20,22,24,-1,26,-1,-1,-1,-1,-1,-1,-1,-1,-1,-1],"split_conditions":[1.5E0,1.5E0,8.5E7,3.3470875E-1,4.65E8,3E0,1.5E0,9.7989194E-2,-1.4583309E-2,2.5E7,5E-1,3.65E8,1.95E8,1.5E0,3.5E7,1.10843495E-1,2.5E7,-1.19578466E-1,-3.6369257E-2,3.8753614E-2,-9.4648115E-3,7.596046E-2,2.1273661E-2,-2.7305333E-2,3.818971E-2,-7.333426E-2,-2.0170325E-2],"split_indices":[10,1,3,0,3,10,1,0,0,3,1,3,3,1,3,0,3,0,0,0,0,0,0,0,0,0,0],"split_type":[0,0,0,0,0,0,0,0,0,0,0,0,0,0,0,0,0,0,0,0,0,0,0,0,0,0,0],"sum_hessian":[1.35E2,1.2E1,1.23E2,4E0,8E0,8.8E1,3.5E1,7E0,1E0,7.2E1,1.6E1,1.2E1,2.3E1,6.3E1,9E0,4E0,1.2E1,9E0,3E0,1.8E1,5E0,6.1E1,2E0,5E0,4E0,1E1,2E0],"tree_param":{"num_deleted":"0","num_feature":"12","num_nodes":"27","size_leaf_vector":"0"}},{"base_weights":[1.2214389E0,6.3963947E0,6.636437E-1,9.140101E-1,-7.42151E-1,1.0138618E0,-1.528162E0,2.5634787E0,-1.8891008E0,1.6458277E0,8.8738865E-1,-2.129986E0,-5.0697726E-1,-9.9395305E-1,1.9764344E0,1.1938465E0,-6.983333E-1],"categories":[],"categories_nodes":[],"categories_segments":[],"categories_sizes":[],"default_left":[1,0,1,1,1,1,0,0,1,1,1,0,0,0,0,0,0],"id":48,"left_children":[1,-1,3,5,7,9,-1,-1,11,13,15,-1,-1,-1,-1,-1,-1],"loss_changes":[3.8408142E2,0E0,4.5353394E1,2.9193352E1,8.552365E1,5.389717E0,0E0,0E0,3.1663055E0,1.7023346E1,4.589109E1,0E0,0E0,0E0,0E0,0E0,0E0],"parents":[2147483647,0,0,2,2,3,3,4,4,5,5,8,8,9,9,10,10],"right_children":[2,-1,4,6,8,10,-1,-1,12,14,16,-1,-1,-1,-1,-1,-1],"split_conditions":[1.5E0,2.6882902E-1,3E0,3.072E3,1.536E3,7.68E2,-6.422591E-2,1.0773843E-1,3.072E3,1.5E0,1.5E0,-8.95195E-2,-2.1307347E-2,-4.1774068E-2,8.3066E-2,5.017523E-2,-2.93497E-2],"split_indices":[10,0,10,4,4,4,0,0,4,1,1,0,0,0,0,0,0],"split_type":[0,0,0,0,0,0,0,0,0,0,0,0,0,0,0,0,0],"sum_hessian":[1.34E2,1.1E1,1.23E2,1.05E2,1.8E1,1.02E2,3E0,4E0,1.4E1,1.3E1,8.9E1,1.1E1,3E0,1E0,1.2E1,7.5E1,1.4E1],"tree_param":{"num_deleted":"0","num_feature":"12","num_nodes":"17","size_leaf_vector":"0"}},{"base_weights":[1.1661675E0,6.6400844E-1,1.0157113E1,3.144304E0,2.8577885E-1,-6.08934E-1,7.4314433E-1,-9.71206E-2,-1.448931E0,9.881682E-1,2.1617801E-1,-1.1602229E0,3.171634E-1,1.2981685E0,7.78233E-1,-6.746196E-2,1.2312137E0],"categories":[],"categories_nodes":[],"categories_segments":[],"categories_sizes":[],"default_left":[1,1,0,0,1,1,1,0,0,0,1,0,0,0,0,0,0],"id":49,"left_children":[1,3,-1,-1,5,7,9,11,-1,13,15,-1,-1,-1,-1,-1,-1],"loss_changes":[5.9601794E2,1.20158676E2,0E0,0E0,4.796534E1,1.6915773E1,9.514843E0,1.2628454E1,0E0,1.3624535E0,7.939999E0,0E0,0E0,0E0,0E0,0E0,0E0],"parents":[2147483647,0,0,1,1,4,4,5,5,6,6,7,7,9,9,10,10],"right_children":[2,4,-1,-1,6,8,10,12,-1,14,16,-1,-1,-1,-1,-1,-1],"split_conditions":[4.5E0,5E-1,4.268853E-1,1.3214947E-1,5E-1,3E0,3.5E0,1.5E0,-6.0895976E-2,1.5E0,3E0,-4.8762094E-2,1.332981E-2,5.45597E-2,3.270774E-2,-2.8353054E-3,5.174571E-2],"split_indices":[0,8,0,0,0,10,0,8,0,8,10,0,0,0,0,0,0],"split_type":[0,0,0,0,0,0,0,0,0,0,0,0,0,0,0,0,0],"sum_hessian":[1.33E2,1.28E2,5E0,1.5E1,1.13E2,3.8E1,7.5E1,2.5E1,1.3E1,5E1,2.5E1,6E0,1.9E1,1.6E1,3.4E1,2.1E1,4E0],"tree_param":{"num_deleted":"0","num_feature":"12","num_nodes":"17","size_leaf_vector":"0"}},{"base_weights":[1.1115873E0,8.1336945E-1,6.246084E0,2.0085468E0,5.132909E-1,2.8478682E-2,7.2726455E0,-2.9340725E-2,3.8940146E0,6.2372077E-1,-8.0313885E-1,-1.4170527E0,1.7631782E0,1.8964721E0,5.576721E-1,5.899463E-1,3.3825973E-1],"categories":[],"categories_nodes":[],"categories_segments":[],"categories_sizes":[],"default_left":[1,0,0,1,0,0,0,1,0,1,0,0,0,0,1,0,0],"id":50,"left_children":[1,3,5,7,9,-1,-1,11,-1,13,-1,-1,-1,-1,15,-1,-1],"loss_changes":[1.9348433E2,4.3844093E1,4.4272522E1,9.6292595E1,1.6266836E1,0E0,0E0,3.9828087E1,0E0,6.1218224E0,0E0,0E0,0E0,0E0,2.8046608E-1,0E0,0E0],"parents":[2147483647,0,0,1,1,2,2,3,3,4,4,7,7,9,9,14,14],"right_children":[2,4,6,8,10,-1,-1,12,-1,14,-1,-1,-1,-1,16,-1,-1],"split_conditions":[3.5E0,1.5E0,1.5E0,2.5E0,4.000001E0,1.1969081E-3,3.0565628E-1,1.2E1,1.6365847E-1,2E0,-3.375449E-2,-5.9556194E-2,7.410323E-2,7.970533E-2,1E1,2.4794389E-2,1.4216451E-2],"split_indices":[6,7,7,6,7,0,0,2,0,6,0,0,0,0,2,0,0],"split_type":[0,0,0,0,0,0,0,0,0,0,0,0,0,0,0,0,0],"sum_hessian":[1.31E2,1.26E2,5E0,2.3E1,1.03E2,1E0,4E0,1.2E1,1.1E1,9.6E1,7E0,7E0,5E0,2E0,9.4E1,7.9E1,1.5E1],"tree_param":{"num_deleted":"0","num_feature":"12","num_nodes":"17","size_leaf_vector":"0"}},{"base_weights":[8.841182E-1,1.7115428E0,2.6211593E-1,-2.6028356E-2,2.1659427E0,4.27222E-1,-1.5815223E0,-1.3707374E0,1.7102565E0,2.6531405E0,1.1942234E0,-3.3165548E-2,1.7875601E0,-1.5226673E0,-4.193177E-1,1.3549238E0,-5.6596416E-1,-1.1598725E0,1.9352509E-1,-3.691388E-1,4.844898E0,3.020129E-1,1.4938255E-2,-1.0381448E-3,-4.793477E-1],"categories":[],"categories_nodes":[],"categories_segments":[],"categories_sizes":[],"default_left":[1,1,1,1,1,1,0,1,0,0,1,1,1,0,0,0,0,0,1,1,0,0,0,0,0],"id":51,"left_children":[1,3,5,7,9,11,-1,13,-1,-1,15,17,19,-1,-1,-1,-1,-1,21,23,-1,-1,-1,-1,-1],"loss_changes":[6.90966E1,4.590779E1,2.5704184E1,3.7381474E1,1.5437149E1,4.7090614E1,0E0,2.3378372E-2,0E0,0E0,6.9093494E0,1.526352E1,1.2886844E2,0E0,0E0,0E0,0E0,0E0,9.597193E-1,5.264362E-1,0E0,0E0,0E0,0E0,0E0],"parents":[2147483647,0,0,1,1,2,2,3,3,4,4,5,5,7,7,10,10,11,11,12,12,18,18,19,19],"right_children":[2,4,6,8,10,12,-1,14,-1,-1,16,18,20,-1,-1,-1,-1,-1,22,24,-1,-1,-1,-1,-1],"split_conditions":[2.5E2,5E1,1.3E3,1.2E1,1.5E2,1E1,-6.646855E-2,6E0,7.187902E-2,1.1150675E-1,1E1,3.5E2,5E2,-6.399498E-2,-1.7623173E-2,5.6945026E-2,-2.3786461E-2,-4.874737E-2,9E2,3.5E2,2.036224E-1,1.26930615E-2,6.278281E-4,-4.3631368E-5,-2.0146126E-2],"split_indices":[5,5,5,2,5,2,0,2,0,0,2,5,5,0,0,0,0,0,5,5,0,0,0,0,0],"split_type":[0,0,0,0,0,0,0,0,0,0,0,0,0,0,0,0,0,0,0,0,0,0,0,0,0],"sum_hessian":[1.34E2,5.6E1,7.8E1,1.2E1,4.4E1,7.3E1,5E0,7E0,5E0,2.7E1,1.7E1,5.6E1,1.7E1,5E0,2E0,1.6E1,1E0,8E0,4.8E1,1.1E1,6E0,2.9E1,1.9E1,3E0,8E0],"tree_param":{"num_deleted":"0","num_feature":"12","num_nodes":"25","size_leaf_vector":"0"}},{"base_weights":[9.8070294E-1,4.923622E-1,9.698326E0,-5.706729E-1,1.0006107E0,-8.545939E-1,1.5288166E-2,1.3257219E0,1.6787636E-1,2.8525224E-1,1.6389679E0,4.043598E0,-4.6583477E-1,-1.4769646E0,1.2657204E0,1.8149025E0,-1.9753751E-1,1.1145838E0,-8.730587E-1],"categories":[],"categories_nodes":[],"categories_segments":[],"categories_sizes":[],"default_left":[1,1,0,1,1,0,0,1,1,1,1,0,1,0,0,0,0,0,0],"id":52,"left_children":[1,3,-1,5,7,-1,-1,9,11,13,15,-1,17,-1,-1,-1,-1,-1,-1],"loss_changes":[5.6091E2,7.084029E1,0E0,7.1801147E0,2.3379288E1,0E0,0E0,1.959793E1,7.0086945E1,3.3115772E1,1.6226898E1,0E0,1.8037764E1,0E0,0E0,0E0,0E0,0E0,0E0],"parents":[2147483647,0,0,1,1,3,3,4,4,7,7,8,8,9,9,10,10,12,12],"right_children":[2,4,-1,6,8,-1,-1,10,12,14,16,-1,18,-1,-1,-1,-1,-1,-1],"split_conditions":[4.5E0,5E-1,4.076033E-1,1.5E0,3.5E0,-3.591705E-2,6.425342E-4,3E0,3E0,1.5E0,6E0,1.699452E-1,5E-1,-6.207418E-2,5.3195965E-2,7.627711E-2,-8.302148E-3,4.6843965E-2,-3.6693096E-2],"split_indices":[0,0,0,1,0,0,0,11,11,1,11,0,1,0,0,0,0,0,0],"split_type":[0,0,0,0,0,0,0,0,0,0,0,0,0,0,0,0,0,0,0],"sum_hessian":[1.32E2,1.27E2,5E0,4.1E1,8.6E1,2.7E1,1.4E1,6.1E1,2.5E1,1.5E1,4.6E1,2E0,2.3E1,5E0,1E1,4.2E1,4E0,4E0,1.9E1],"tree_param":{"num_deleted":"0","num_feature":"12","num_nodes":"19","size_leaf_vector":"0"}},{"base_weights":[1.0186265E0,5.2336345E0,2.1546708E-1,3.2483878E0,9.44332E0,6.6904104E-1,1.2586764E-1,-9.623713E-1,2.666163E-1,-7.694852E-2,2.76067E-1],"categories":[],"categories_nodes":[],"categories_segments":[],"categories_sizes":[],"default_left":[1,1,0,0,0,0,0,0,0,0,0],"id":53,"left_children":[1,3,5,-1,-1,-1,7,-1,9,-1,-1],"loss_changes":[4.6492203E2,1.2248151E2,4.6270423E0,0E0,0E0,0E0,1.5983652E1,0E0,3.3798552E-1,0E0,0E0],"parents":[2147483647,0,0,1,1,2,2,6,6,8,8],"right_children":[2,4,6,-1,-1,-1,8,-1,10,-1,-1],"split_conditions":[5E-1,1.5E0,1.5E0,1.3652393E-1,3.9688587E-1,2.8118597E-2,1.5E0,-4.0446743E-2,2.000001E0,-3.2340088E-3,1.1602602E-2],"split_indices":[8,7,7,0,0,0,8,0,9,0,0],"split_type":[0,0,0,0,0,0,0,0,0,0,0],"sum_hessian":[1.36E2,2E1,1.16E2,1.6E1,4E0,1.7E1,9.9E1,1E1,8.9E1,2E0,8.7E1],"tree_param":{"num_deleted":"0","num_feature":"12","num_nodes":"11","size_leaf_vector":"0"}},{"base_weights":[5.12851E-1,3.8905567E-1,2.9822888E0,4.9088013E-1,-1.2608554E0,1.3416677E0,3.1781352E-1,-3.5824415E-1,4.6764818E-1,1.8247313E0,3.9186537E-1],"categories":[],"categories_nodes":[],"categories_segments":[],"categories_sizes":[],"default_left":[1,1,0,1,0,0,1,0,1,0,0],"id":54,"left_children":[1,3,-1,5,-1,-1,7,-1,9,-1,-1],"loss_changes":[3.8031445E1,2.2742983E1,0E0,1.7110498E1,0E0,0E0,1.0870268E1,0E0,7.413698E0,0E0,0E0],"parents":[2147483647,0,0,1,1,3,3,6,6,8,8],"right_children":[2,4,-1,6,-1,-1,8,-1,10,-1,-1],"split_conditions":[3.5E0,3.072E3,1.2534027E-1,7.68E2,-5.29915E-2,5.638789E-2,1.536E3,-1.50563605E-2,1.5E0,7.66902E-2,1.64694E-2],"split_indices":[6,4,0,4,0,0,4,0,6,0,0],"split_type":[0,0,0,0,0,0,0,0,0,0,0],"sum_hessian":[1.3E2,1.26E2,4E0,1.2E2,6E0,1.8E1,1.02E2,1.8E1,8.4E1,2E0,8.2E1],"tree_param":{"num_deleted":"0","num_feature":"12","num_nodes":"11","size_leaf_vector":"0"}},{"base_weights":[1.0234241E0,4.330296E0,6.000252E-1,2.0491579E0,8.071503E0,1.7156178E0,3.0617073E-1,2.914909E0,1.2094318E0,5.323429E-1,-5.84576E-1,1.4480245E0,1.3020022E-1,6.480034E-1,1.4566232E-1,1.5363619E0,-1.4394662E0],"categories":[],"categories_nodes":[],"categories_segments":[],"categories_sizes":[],"default_left":[1,1,0,0,0,0,1,0,1,1,1,0,0,0,0,0,0],"id":55,"left_children":[1,3,5,-1,-1,7,9,-1,11,13,15,-1,-1,-1,-1,-1,-1],"loss_changes":[1.8381897E2,9.492389E1,3.8943485E1,0E0,0E0,8.122292E0,2.0567768E1,0E0,5.030451E0,3.3890514E0,4.250452E1,0E0,0E0,0E0,0E0,0E0,0E0],"parents":[2147483647,0,0,1,1,2,2,5,5,6,6,8,8,9,9,10,10],"right_children":[2,4,6,-1,-1,8,10,-1,12,14,16,-1,-1,-1,-1,-1,-1],"split_conditions":[1.5E0,1.5E0,1.5E0,8.612244E-2,3.392308E-1,5E-1,3E0,1.2250841E-1,1.5E0,1.5E0,5E-1,6.085788E-2,5.4720826E-3,2.7234424E-2,6.121927E-3,6.4570546E-2,-6.049819E-2],"split_indices":[10,7,7,0,0,7,10,0,1,1,1,0,0,0,0,0,0],"split_type":[0,0,0,0,0,0,0,0,0,0,0,0,0,0,0,0,0],"sum_hessian":[1.33E2,1.3E1,1.2E2,1E1,3E0,2.3E1,9.7E1,4E0,1.9E1,7.8E1,1.9E1,1.5E1,4E0,5.9E1,1.9E1,5E0,1.4E1],"tree_param":{"num_deleted":"0","num_feature":"12","num_nodes":"17","size_leaf_vector":"0"}},{"base_weights":[9.156999E-1,2.6383357E0,6.925235E-1,2.1091192E0,4.73861E-1,2.7244133E-1,6.0398135E0,2.006923E0,2.9748845E-1,1.4902482E0,2.0430103E-1,2.2660051E-1,-2.0568724E-1],"categories":[],"categories_nodes":[],"categories_segments":[],"categories_sizes":[],"default_left":[1,0,1,0,0,0,0,0,1,0,1,0,0],"id":56,"left_children":[1,-1,3,5,7,-1,-1,-1,9,-1,11,-1,-1],"loss_changes":[4.90139E1,0E0,3.64101E1,1.1222647E2,2.854843E1,0E0,0E0,0E0,1.0617016E1,0E0,9.7096777E-1,0E0,0E0],"parents":[2147483647,0,0,2,2,3,3,4,4,8,8,10,10],"right_children":[2,-1,4,6,8,-1,-1,-1,10,-1,12,-1,-1],"split_conditions":[5E-1,1.1088453E-1,3E0,1.5E0,1.5E0,1.1450222E-2,2.5384256E-1,8.434738E-2,5E-1,6.2632464E-2,6E0,9.523614E-3,-8.6446665E-3],"split_indices":[7,0,11,7,7,0,0,0,1,0,11,0,0],"split_type":[0,0,0,0,0,0,0,0,0,0,0,0,0],"sum_hessian":[1.35E2,1.3E1,1.22E2,1.4E1,1.08E2,1.1E1,3E0,9E0,9.9E1,5E0,9.4E1,9E1,4E0],"tree_param":{"num_deleted":"0","num_feature":"12","num_nodes":"13","size_leaf_vector":"0"}},{"base_weights":[8.282756E-1,2.5161054E0,5.424449E-1,2.637589E0,1.09707125E-1,6.583583E-1,-1.2157874E0,8.757347E-1,-3.6700052E-1,2.5451994E0,6.5868825E-1,-9.845283E-1,-1.0582129E-1,1.2839167E0,6.1266667E-1,7.198788E-2,-9.832639E-1],"categories":[],"categories_nodes":[],"categories_segments":[],"categories_sizes":[],"default_left":[1,1,1,0,0,1,0,1,1,0,1,0,1,0,0,0,0],"id":57,"left_children":[1,3,5,-1,-1,7,-1,9,11,-1,13,-1,15,-1,-1,-1,-1],"loss_changes":[6.2397774E1,4.975685E0,2.5650791E1,0E0,0E0,2.5606995E1,0E0,3.0344086E1,3.1786935E0,0E0,8.7164307E-1,0E0,2.794138E0,0E0,0E0,0E0,0E0],"parents":[2147483647,0,0,1,1,2,2,5,5,7,7,8,8,10,10,12,12],"right_children":[2,4,6,-1,-1,8,-1,10,12,-1,14,-1,16,-1,-1,-1,-1],"split_conditions":[7.68E2,6E0,3.072E3,1.1085314E-1,4.610794E-3,1.5E0,-5.109737E-2,3E0,3E0,1.06970176E-1,1.536E3,-4.137796E-2,1.536E3,5.3960722E-2,2.5749285E-2,3.025522E-3,-4.1324824E-2],"split_indices":[4,11,4,0,0,1,0,11,11,0,4,0,4,0,0,0,0],"split_type":[0,0,0,0,0,0,0,0,0,0,0,0,0,0,0,0,0],"sum_hessian":[1.33E2,1.7E1,1.16E2,1.6E1,1E0,1.1E2,6E0,9.1E1,1.9E1,8E0,8.3E1,4E0,1.5E1,2E0,8.1E1,1.4E1,1E0],"tree_param":{"num_deleted":"0","num_feature":"12","num_nodes":"17","size_leaf_vector":"0"}},{"base_weights":[8.236326E-1,4.867977E0,8.987397E-2,2.8541431E0,8.949777E0,2.3524702E-1,-6.03989E-1,1.8542597E0,3.7522821E0,1.2998217E0,1.9784139E-1,4.9593392E-1,1.2302714E-1,-6.477507E-1,2.0197195E-1],"categories":[],"categories_nodes":[],"categories_segments":[],"categories_sizes":[],"default_left":[1,1,1,1,0,1,0,0,0,0,0,0,0,0,0],"id":58,"left_children":[1,3,5,7,-1,9,-1,-1,-1,-1,11,-1,13,-1,-1],"loss_changes":[4.0568555E2,1.2151242E2,1.2187008E1,1.3437958E0,0E0,3.4277053E0,0E0,0E0,0E0,0E0,2.06348E0,0E0,5.190648E0,0E0,0E0],"parents":[2147483647,0,0,1,1,2,2,3,3,5,5,10,10,12,12],"right_children":[2,4,6,8,-1,10,-1,-1,-1,-1,12,-1,14,-1,-1],"split_conditions":[5E-1,1.5E0,3E0,1.5E0,3.761431E-1,1.5E0,-2.5384577E-2,7.793122E-2,1.577017E-1,5.462918E-2,1.5E0,2.0843215E-2,1.5E0,-2.7223801E-2,8.48852E-3],"split_indices":[8,7,10,10,0,10,0,0,0,0,7,0,8,0,0],"split_type":[0,0,0,0,0,0,0,0,0,0,0,0,0,0,0],"sum_hessian":[1.35E2,1.9E1,1.16E2,1.5E1,4E0,9.7E1,1.9E1,1E1,5E0,1E0,9.6E1,1.7E1,7.9E1,6E0,7.3E1],"tree_param":{"num_deleted":"0","num_feature":"12","num_nodes":"15","size_leaf_vector":"0"}},{"base_weights":[8.175909E-1,2.0968995E0,5.739762E-1,-9.9296324E-2,4.532291E0,8.641956E-1,-6.8726397E-1,7.1225786E-1,-9.983843E-1,7.537953E-1,5.9359016E0,2.748408E0,5.55653E-1,-2.1279228E0,-4.2822877E-1,2.6464188E0,-1.0428275E0,1.1794348E0,7.1897545E0,1.320465E0,-2.1704894E-1,-1.3107356E-1,1.867373E0,1.5235379E0,-1.420894E0,-7.3025906E-1,8.7249595E-1],"categories":[],"categories_nodes":[],"categories_segments":[],"categories_sizes":[],"default_left":[1,1,1,1,1,1,1,0,0,1,0,1,1,0,0,0,0,1,0,1,1,0,0,0,0,0,0],"id":59,"left_children":[1,3,5,7,9,11,13,-1,-1,15,-1,17,19,-1,-1,-1,-1,21,-1,23,25,-1,-1,-1,-1,-1,-1],"loss_changes":[3.9977318E1,1.1322766E2,4.4015274E1,1.0909525E1,4.408745E1,5.275506E1,6.7600365E0,0E0,0E0,2.2528648E1,0E0,7.362708E1,5.080687E1,0E0,0E0,0E0,0E0,1.1309504E1,0E0,2.8270782E1,2.5879026E1,0E0,0E0,0E0,0E0,0E0,0E0],"parents":[2147483647,0,0,1,1,2,2,3,3,4,4,5,5,6,6,9,9,11,11,12,12,17,17,19,19,20,20],"right_children":[2,4,6,8,10,12,14,-1,-1,16,-1,18,20,-1,-1,-1,-1,22,-1,24,26,-1,-1,-1,-1,-1,-1],"split_conditions":[3E0,5E1,9E2,7.68E2,1.536E3,7.68E2,7.68E2,2.9934924E-2,-4.1960306E-2,7.68E2,2.4947533E-1,7E2,2.5E2,-8.943279E-2,-1.799769E-2,1.1122425E-1,-4.3828174E-2,3.5E2,3.021725E-1,3.072E3,6E2,-5.5087875E-3,7.8482345E-2,6.403157E-2,-5.9717633E-2,-3.0691482E-2,3.6669444E-2],"split_indices":[11,5,5,4,4,4,4,0,0,4,0,5,5,0,0,0,0,5,0,4,5,0,0,0,0,0,0],"split_type":[0,0,0,0,0,0,0,0,0,0,0,0,0,0,0,0,0,0,0,0,0,0,0,0,0,0,0],"sum_hessian":[1.34E2,1.9E1,1.15E2,1.1E1,8E0,9.4E1,2.1E1,6E0,5E0,3E0,5E0,1.1E1,8.3E1,1E0,2E1,1E0,2E0,1E1,1E0,4.1E1,4.2E1,4E0,6E0,3.9E1,2E0,2.9E1,1.3E1],"tree_param":{"num_deleted":"0","num_feature":"12","num_nodes":"27","size_leaf_vector":"0"}},{"base_weights":[7.682746E-1,3.4707743E-1,8.610265E0,-6.557367E-1,8.1914145E-1,-8.43366E-1,-2.5848573E-1,1.2939639E0,-1.5203558E-1,1.7959194E0,4.6075585E-1,-9.041577E-1,7.1310914E-1,1.8863904E0,-5.1699626E-1,-6.667592E-2,2.2407405E0,1.2894243E0,-1.5148524E0,1.8429542E0,-1.2660832E0],"categories":[],"categories_nodes":[],"categories_segments":[],"categories_sizes":[],"default_left":[1,1,0,1,1,0,0,1,1,1,1,0,1,0,0,0,0,0,0,0,0],"id":60,"left_children":[1,3,-1,5,7,-1,-1,9,11,13,15,17,19,-1,-1,-1,-1,-1,-1,-1,-1],"loss_changes":[4.531439E2,6.45101E1,0E0,2.8434086E0,4.281883E1,0E0,0E0,2.4275017E1,2.2113325E1,9.903526E0,2.4709465E1,2.802353E1,4.0451107E1,0E0,0E0,0E0,0E0,0E0,0E0,0E0,0E0],"parents":[2147483647,0,0,1,1,3,3,4,4,7,7,8,8,9,9,10,10,11,11,12,12],"right_children":[2,4,-1,6,8,-1,-1,10,12,14,16,18,20,-1,-1,-1,-1,-1,-1,-1,-1],"split_conditions":[4.5E0,5E-1,3.61874E-1,6E7,8.5E7,-3.5445165E-2,-1.0863693E-2,3.5E0,1.5E0,5E7,3.5E7,1E-6,2.5E0,7.928161E-2,-2.1728428E-2,-2.8022695E-3,9.417432E-2,5.4192197E-2,-6.366654E-2,7.7456065E-2,-5.3211212E-2],"split_indices":[0,0,0,3,3,0,0,0,0,3,3,9,0,0,0,0,0,0,0,0,0],"split_type":[0,0,0,0,0,0,0,0,0,0,0,0,0,0,0,0,0,0,0,0,0],"sum_hessian":[1.37E2,1.32E2,5E0,4.2E1,9E1,2.7E1,1.5E1,6E1,3E1,3.6E1,2.4E1,1.6E1,1.4E1,3.5E1,1E0,2E1,4E0,3E0,1.3E1,9E0,5E0],"tree_param":{"num_deleted":"0","num_feature":"12","num_nodes":"21","size_leaf_vector":"0"}},{"base_weights":[7.944593E-1,5.541102E-1,5.1332536E0,1.7234505E0,5.099299E-1,1.1242739E0,7.5767684E0,-2.8354648E-1,5.947119E-1,-1.397894E0,1.2301791E0,7.278345E-1,-2.4226172E-2,-1.5748942E0,-3.8902473E-1,2.293369E-1,1.3204756E0,-5.895653E-1,5.509599E-2],"categories":[],"categories_nodes":[],"categories_segments":[],"categories_sizes":[],"default_left":[1,1,1,0,1,0,0,1,1,1,1,0,1,0,0,0,0,0,0],"id":61,"left_children":[1,3,5,-1,7,-1,-1,9,11,13,15,-1,17,-1,-1,-1,-1,-1,-1],"loss_changes":[1.3821886E2,5.112339E0,5.153682E1,0E0,9.150246E0,0E0,0E0,2.7058884E1,9.840351E0,3.812542E-1,2.6679993E-2,0E0,1.0964701E0,0E0,0E0,0E0,0E0,0E0,0E0],"parents":[2147483647,0,0,1,1,2,2,4,4,7,7,8,8,9,9,10,10,12,12],"right_children":[2,4,6,-1,8,-1,-1,10,12,14,16,-1,18,-1,-1,-1,-1,-1,-1],"split_conditions":[3.5E0,1.5E0,1E1,7.2433546E-2,2.5E0,4.725122E-2,3.1843802E-1,1.2E1,6E0,6E0,2.4E1,3.0589582E-2,1.2E1,-6.618998E-2,-1.6350014E-2,9.63862E-3,5.5497225E-2,-2.4778374E-2,2.315586E-3],"split_indices":[6,6,2,0,6,0,0,2,2,2,2,0,2,0,0,0,0,0,0],"split_type":[0,0,0,0,0,0,0,0,0,0,0,0,0,0,0,0,0,0,0],"sum_hessian":[1.36E2,1.31E2,5E0,2E0,1.29E2,3E0,2E0,1.2E1,1.17E2,7E0,5E0,9.6E1,2.1E1,5E0,2E0,1E0,4E0,1E0,2E1],"tree_param":{"num_deleted":"0","num_feature":"12","num_nodes":"19","size_leaf_vector":"0"}},{"base_weights":[3.8698035E-1,1.9575986E0,9.844215E-2,2.041045E0,9.615057E-2,1.8653029E-1,-1.1482303E0,2.0928588E0,3.5203037E-1,8.859551E-1,8.384382E-2,-9.566801E-1,1.8143488E0,-5.304893E-1,1.0094522E-1,3.9485383E-1,3.8309775E-2],"categories":[],"categories_nodes":[],"categories_segments":[],"categories_sizes":[],"default_left":[1,1,1,1,0,1,0,0,0,1,0,0,0,0,1,0,0],"id":62,"left_children":[1,3,5,7,-1,9,-1,-1,-1,11,13,-1,-1,-1,15,-1,-1],"loss_changes":[6.1247826E1,2.8694077E0,1.3277348E1,2.7600098E-1,0E0,7.823613E0,0E0,0E0,0E0,2.742536E1,1.1472671E0,0E0,0E0,0E0,1.7738416E0,0E0,0E0],"parents":[2147483647,0,0,1,1,2,2,3,3,5,5,9,9,10,10,14,14],"right_children":[2,4,6,8,-1,10,-1,-1,-1,12,14,-1,-1,-1,16,-1,-1],"split_conditions":[7.68E2,6E0,3.072E3,5E-1,4.0410366E-3,3E0,-4.8258066E-2,8.795911E-2,1.47952065E-2,1.536E3,2.000001E0,-4.0207554E-2,7.625383E-2,-2.2295518E-2,1.536E3,1.6595E-2,1.6100913E-3],"split_indices":[4,11,4,9,0,11,0,0,0,4,9,0,0,0,4,0,0],"split_type":[0,0,0,0,0,0,0,0,0,0,0,0,0,0,0,0,0],"sum_hessian":[1.34E2,1.9E1,1.15E2,1.8E1,1E0,1.09E2,6E0,1.7E1,1E0,1.2E1,9.7E1,4E0,8E0,1E0,9.6E1,1.5E1,8.1E1],"tree_param":{"num_deleted":"0","num_feature":"12","num_nodes":"17","size_leaf_vector":"0"}},{"base_weights":[7.01419E-1,3.7984078E0,3.154366E-1,1.3769727E0,8.089112E0,1.3806852E0,4.5501564E-2,-1.0036128E0,6.638658E0,-3.2785216E-1,3.0081143E0,2.1428989E-1,-6.178841E-1,3.022317E-1,-1.2158815E0,1.1708637E0,-9.4953793E-1,3.406128E0,-5.8927226E-1,1.6864399E0,1.3530073E-1,-4.632628E-1,-1.2363318E0],"categories":[],"categories_nodes":[],"categories_segments":[],"categories_sizes":[],"default_left":[1,1,0,1,0,1,1,0,0,0,1,1,1,0,0,0,0,0,0,0,0,0,0],"id":63,"left_children":[1,3,5,7,-1,9,11,13,-1,15,17,19,21,-1,-1,-1,-1,-1,-1,-1,-1,-1,-1],"loss_changes":[1.6137115E2,1.3356705E2,3.553057E1,1.6365927E2,0E0,7.14901E1,1.1574255E1,3.50764E0,0E0,1.5270264E1,2.2631973E1,9.078787E0,8.620539E-1,0E0,0E0,0E0,0E0,0E0,0E0,0E0,0E0,0E0,0E0],"parents":[2147483647,0,0,1,1,2,2,3,3,5,5,6,6,7,7,9,9,10,10,11,11,12,12],"right_children":[2,4,6,8,-1,10,12,14,-1,16,18,20,22,-1,-1,-1,-1,-1,-1,-1,-1,-1,-1],"split_conditions":[1.5E0,3.5E0,1.5E0,1.5E0,3.3997092E-1,2.5E0,3E0,2.000001E0,2.7901092E-1,5E-1,3.5E0,2E0,3.5E0,1.2702257E-2,-5.1101323E-2,4.9209308E-2,-3.990738E-2,1.4315346E-1,-2.476606E-2,7.087805E-2,5.6864475E-3,-1.9470107E-2,-5.1960815E-2],"split_indices":[10,6,7,7,0,6,10,7,0,7,6,6,6,0,0,0,0,0,0,0,0,0,0],"split_type":[0,0,0,0,0,0,0,0,0,0,0,0,0,0,0,0,0,0,0,0,0,0,0],"sum_hessian":[1.35E2,1.3E1,1.22E2,1E1,3E0,2.3E1,9.9E1,8E0,2E0,1.2E1,1.1E1,8E1,1.9E1,1E0,7E0,3E0,9E0,1E1,1E0,2E0,7.8E1,1.8E1,1E0],"tree_param":{"num_deleted":"0","num_feature":"12","num_nodes":"23","size_leaf_vector":"0"}},{"base_weights":[6.676619E-1,3.7162192E0,2.9112E-1,6.2386713E0,1.664198E0,1.3488877E0,1.3339053E-1,2.526048E0,4.4975662E-1,3.7552285E-1,-1.0785149E0,5.874643E-1,-7.310852E-1,1.2240481E0,-1.4934683E0,7.072157E-1,-1.4913603E0,-1.7136406E0,-2.7947685E-1],"categories":[],"categories_nodes":[],"categories_segments":[],"categories_sizes":[],"default_left":[1,1,1,0,1,0,1,0,0,1,1,1,0,0,1,0,0,0,0],"id":64,"left_children":[1,3,5,-1,7,-1,9,-1,-1,11,13,15,-1,-1,17,-1,-1,-1,-1],"loss_changes":[1.5624786E2,5.6870773E1,2.0495266E1,0E0,9.241005E0,0E0,3.338287E1,0E0,0E0,2.2906174E1,2.1813204E1,2.2026388E1,0E0,0E0,3.5857773E0,0E0,0E0,0E0,0E0],"parents":[2147483647,0,0,1,1,2,2,4,4,6,6,9,9,10,10,11,11,14,14],"right_children":[2,4,6,-1,8,-1,10,-1,-1,12,14,16,-1,-1,18,-1,-1,-1,-1],"split_conditions":[1.5E0,1.5E0,7.68E2,2.622002E-1,7.68E2,5.6691337E-2,3E0,1.06165275E-1,1.8902466E-2,1.5E0,1.536E3,3.072E3,-3.0726202E-2,5.1444553E-2,3.072E3,2.9723011E-2,-6.267921E-2,-7.2021246E-2,-1.1745912E-2],"split_indices":[10,1,4,0,4,0,10,0,0,1,4,4,0,0,4,0,0,0,0],"split_type":[0,0,0,0,0,0,0,0,0,0,0,0,0,0,0,0,0,0,0],"sum_hessian":[1.36E2,1.3E1,1.23E2,4E0,9E0,1.4E1,1.09E2,4E0,5E0,9.2E1,1.7E1,7.8E1,1.4E1,2E0,1.5E1,7.5E1,3E0,1.2E1,3E0],"tree_param":{"num_deleted":"0","num_feature":"12","num_nodes":"19","size_leaf_vector":"0"}},{"base_weights":[6.851651E-1,4.2367244E0,1.1360318E-2,1.6660745E0,6.9877534E0,1.2737896E0,-1.5560265E-1,2.2522223E0,4.3625718E-1,-2.1025749E-1,1.7167329E0,-7.860911E-2,-1.078969E0,-1.0178301E0,1.4250315E0,1.8661729E0,7.4019976E-2,4.9488688E-1,-1.3924249E-1,-1.1576834E0,3.5520077E0,5.478208E-1,-2.8732142E-1],"categories":[],"categories_nodes":[],"categories_segments":[],"categories_sizes":[],"default_left":[1,1,1,1,0,0,1,0,1,0,1,1,0,0,0,0,0,0,0,0,0,0,0],"id":65,"left_children":[1,3,5,7,-1,9,11,-1,13,-1,15,17,-1,-1,-1,-1,-1,19,21,-1,-1,-1,-1],"loss_changes":[3.3014856E2,1.3229272E2,2.5268824E1,8.126545E0,0E0,9.926035E0,7.366231E0,0E0,1.2968739E1,0E0,2.4242172E0,3.6152434E0,0E0,0E0,0E0,0E0,0E0,5.8756393E1,9.6751585E0,0E0,0E0,0E0,0E0],"parents":[2147483647,0,0,1,1,2,2,3,3,5,5,6,6,8,8,10,10,11,11,17,17,18,18],"right_children":[2,4,6,8,-1,10,12,-1,14,-1,16,18,-1,-1,-1,-1,-1,20,22,-1,-1,-1,-1],"split_conditions":[5E-1,1.536E3,7.68E2,7.68E2,2.9368278E-1,1.5E0,3.072E3,9.465688E-2,3E0,-8.836746E-3,6E0,3E0,-4.5347136E-2,-4.277758E-2,5.9891526E-2,7.843191E-2,3.110927E-3,1.5E0,1.5E0,-4.865536E-2,1.4928453E-1,2.3023928E-2,-1.2075605E-2],"split_indices":[8,4,4,4,0,8,4,0,11,0,11,11,0,0,0,0,0,8,8,0,0,0,0],"split_type":[0,0,0,0,0,0,0,0,0,0,0,0,0,0,0,0,0,0,0,0,0,0,0],"sum_hessian":[1.36E2,2E1,1.16E2,1.2E1,8E0,1.2E1,1.04E2,7E0,5E0,3E0,9E0,9.8E1,6E0,2E0,3E0,8E0,1E0,8E0,9E1,6E0,2E0,1.5E1,7.5E1],"tree_param":{"num_deleted":"0","num_feature":"12","num_nodes":"23","size_leaf_vector":"0"}},{"base_weights":[6.4001036E-1,3.5222557E0,2.7807915E-1,5.919107E0,1.5740336E0,7.4543625E-1,-8.065475E-1,1.8943431E0,-5.4293007E-1,3.6406426E0,4.010396E-1,-2.4625616E-2,-1.0840333E0,5.0665396E-1,3.07896E0,5.315731E0,-1.1112545E0,1.4954613E-1,2.6267335E0,5.285489E-1,-7.539427E-1,-1.1502415E0,-3.1928495E-1,2.5035846E0,-6.609661E-1,-7.855321E-1,4.4376755E0,4.8060107E-1,-1.3378307E0,-3.6077023E-1,-5.1076625E-2],"categories":[],"categories_nodes":[],"categories_segments":[],"categories_sizes":[],"default_left":[1,1,1,0,1,1,1,1,0,1,1,1,1,1,1,0,0,1,0,0,0,0,1,0,0,0,0,0,0,0,0],"id":66,"left_children":[1,3,5,-1,7,9,11,13,-1,15,17,19,21,23,25,-1,-1,27,-1,-1,-1,-1,29,-1,-1,-1,-1,-1,-1,-1,-1],"loss_changes":[1.3991287E2,5.1404587E1,6.3553486E1,0E0,9.517986E0,8.3826996E1,8.191782E0,1.3318958E1,0E0,8.346974E1,4.399436E1,5.6392407E0,6.8281555E-1,1.9636007E1,3.3236206E1,0E0,0E0,3.7725155E1,0E0,0E0,0E0,0E0,1.8770158E-2,0E0,0E0,0E0,0E0,0E0,0E0,0E0,0E0],"parents":[2147483647,0,0,1,1,2,2,4,4,5,5,6,6,7,7,9,9,10,10,11,11,12,12,13,13,14,14,17,17,22,22],"right_children":[2,4,6,-1,8,10,12,14,-1,16,18,20,22,24,26,-1,-1,28,-1,-1,-1,-1,30,-1,-1,-1,-1,-1,-1,-1,-1],"split_conditions":[1.5E0,5.5E7,8.5E7,2.4876948E-1,4.65E8,3E0,3E0,1.95E8,-2.281838E-2,3E7,3.5E7,1.3E8,6E0,3E0,3E0,2.2341067E-1,-4.6704035E-2,3E0,1.10396914E-1,2.2213964E-2,-3.1686865E-2,-4.8342593E-2,1.95E8,1.0522118E-1,-2.7779223E-2,-3.301451E-2,1.8650757E-1,2.0198803E-2,-5.622663E-2,-1.5162528E-2,-2.1466592E-3],"split_indices":[10,3,3,0,3,11,11,3,0,3,3,3,11,11,11,0,0,10,0,0,0,0,3,0,0,0,0,0,0,0,0],"split_type":[0,0,0,0,0,0,0,0,0,0,0,0,0,0,0,0,0,0,0,0,0,0,0,0,0,0,0,0,0,0,0],"sum_hessian":[1.34E2,1.3E1,1.21E2,4E0,9E0,8.5E1,3.6E1,8E0,1E0,7E0,7.8E1,1E1,2.6E1,5E0,3E0,5E0,2E0,7.2E1,6E0,6E0,4E0,2.3E1,3E0,1E0,4E0,1E0,2E0,6E1,1.2E1,2E0,1E0],"tree_param":{"num_deleted":"0","num_feature":"12","num_nodes":"31","size_leaf_vector":"0"}},{"base_weights":[6.198353E-1,3.4351718E0,2.6924288E-1,1.1114936E0,7.6366405E0,7.374551E-1,-8.7153774E-1,4.9569626E0,-1.2722238E0,9.816909E-1,-3.3498976E-1,-2.5170248E-2,-1.1831275E0,-2.7870798E0,1.0546045E0,1.0969485E0,3.6159374E-2,-1.2896404E0,2.0039792E0,5.11891E-1,-7.328224E-1,1.7197118E0,-5.3532696E-1,1.1498777E0,-7.632182E-1,-7.210428E-1,1.0817002E0,-1.4342582E0,-2.1085864E-1],"categories":[],"categories_nodes":[],"categories_segments":[],"categories_sizes":[],"default_left":[1,1,1,1,0,1,1,0,1,1,1,1,0,0,1,1,1,1,0,0,0,0,0,0,0,0,0,0,0],"id":67,"left_children":[1,3,5,7,-1,9,11,-1,13,15,17,19,-1,-1,21,23,25,27,-1,-1,-1,-1,-1,-1,-1,-1,-1,-1,-1],"loss_changes":[1.3337416E2,1.294683E2,6.751868E1,1.2262966E2,0E0,2.397015E1,9.698345E0,0E0,3.7609673E1,7.876274E0,4.5366848E1,5.3117986E0,0E0,0E0,7.130995E0,8.156113E0,9.47867E0,1.5791245E0,0E0,0E0,0E0,0E0,0E0,0E0,0E0,0E0,0E0,0E0,0E0],"parents":[2147483647,0,0,1,1,2,2,3,3,5,5,6,6,8,8,9,9,10,10,11,11,14,14,15,15,16,16,17,17],"right_children":[2,4,6,8,-1,10,12,-1,14,16,18,20,-1,-1,22,24,26,28,-1,-1,-1,-1,-1,-1,-1,-1,-1,-1,-1],"split_conditions":[1.5E0,3.5E0,8.5E7,5.5E7,3.2095435E-1,3E0,2.5E0,2.0833227E-1,1.95E8,2.5E7,4E7,1.3E8,-4.972473E-2,-1.1713598E-1,4.65E8,3.5E0,3.5E7,2.5E7,8.422366E-2,2.1513863E-2,-3.0799216E-2,7.2276406E-2,-2.2498835E-2,4.83273E-2,-3.2076698E-2,-3.030414E-2,4.5461923E-2,-6.0279306E-2,-8.862011E-3],"split_indices":[10,6,3,3,0,10,6,0,3,3,3,3,0,0,3,6,3,3,0,0,0,0,0,0,0,0,0,0,0],"split_type":[0,0,0,0,0,0,0,0,0,0,0,0,0,0,0,0,0,0,0,0,0,0,0,0,0,0,0,0,0],"sum_hessian":[1.35E2,1.3E1,1.22E2,1E1,3E0,8.7E1,3.5E1,3E0,7E0,7.1E1,1.6E1,1E1,2.5E1,4E0,3E0,6.3E1,8E0,1.2E1,4E0,6E0,4E0,2E0,1E0,6.2E1,1E0,5E0,3E0,1E1,2E0],"tree_param":{"num_deleted":"0","num_feature":"12","num_nodes":"29","size_leaf_vector":"0"}},{"base_weights":[6.0110575E-1,3.3524203E0,2.6399785E-1,5.5956674E0,1.5188847E0,6.832026E-1,-7.4273974E-1,2.393622E0,3.3493268E-1,9.085752E-1,-3.1923398E-1,1.0150232E0,-1.7379794E0,-3.5532148E0,2.1677105E0,1.0081099E0,-1.3369628E0,-1.2453216E0,1.9478414E0,-6.700654E-1,-2.4812083E0,2.9178972E0,-5.278304E-1,1.0431514E0,-4.930904E-1,-1.3840305E0,-2.0642897E-1,-9.215882E-1,-2.8238538E-1,-2.8482692E0,-6.8093634E-1],"categories":[],"categories_nodes":[],"categories_segments":[],"categories_sizes":[],"default_left":[1,1,1,0,1,1,1,0,1,1,1,0,1,0,1,1,0,1,0,1,1,0,0,0,0,0,0,0,0,0,0],"id":68,"left_children":[1,3,5,-1,7,9,11,-1,13,15,17,-1,19,-1,21,23,-1,25,-1,27,29,-1,-1,-1,-1,-1,-1,-1,-1,-1,-1],"loss_changes":[1.2715107E2,4.4692413E1,5.419169E1,0E0,9.788994E0,2.0913677E1,7.0009476E1,0E0,6.530546E1,1.9237194E1,4.264806E1,0E0,1.6516418E1,0E0,1.5217596E1,4.8169174E0,0E0,1.4458694E0,0E0,7.469497E-1,5.370781E0,0E0,0E0,0E0,0E0,0E0,0E0,0E0,0E0,0E0,0E0],"parents":[2147483647,0,0,1,1,2,2,4,4,5,5,6,6,8,8,9,9,10,10,12,12,14,14,15,15,17,17,19,19,20,20],"right_children":[2,4,6,-1,8,10,12,-1,14,16,18,-1,20,-1,22,24,-1,26,-1,28,30,-1,-1,-1,-1,-1,-1,-1,-1,-1,-1],"split_conditions":[1.5E0,5.5E7,8.5E7,2.351759E-1,7.68E2,3E0,7.68E2,1.0059965E-1,1.95E8,3.072E3,4E7,4.265961E-2,1.536E3,-1.4933527E-1,4.65E8,5E7,-5.6190155E-2,2.5E7,8.186429E-2,1.95E8,3.65E8,1.22634E-1,-2.2183768E-2,4.3841787E-2,-2.0723706E-2,-5.8168326E-2,-8.675841E-3,-3.8732704E-2,-1.1868153E-2,-1.1970766E-1,-2.8618537E-2],"split_indices":[10,3,3,0,4,10,4,0,3,4,3,0,4,0,3,3,0,3,0,3,3,0,0,0,0,0,0,0,0,0,0],"split_type":[0,0,0,0,0,0,0,0,0,0,0,0,0,0,0,0,0,0,0,0,0,0,0,0,0,0,0,0,0,0,0],"sum_hessian":[1.37E2,1.3E1,1.24E2,4E0,9E0,8.8E1,3.6E1,4E0,5E0,7.2E1,1.6E1,1.3E1,2.3E1,1E0,4E0,7E1,2E0,1.2E1,4E0,1.1E1,1.2E1,3E0,1E0,6.9E1,1E0,1E1,2E0,5E0,6E0,9E0,3E0],"tree_param":{"num_deleted":"0","num_feature":"12","num_nodes":"31","size_leaf_vector":"0"}},{"base_weights":[5.5256563E-1,9.4079876E-1,-2.391576E-1,3.4719841E0,6.5398324E-1,-8.4078014E-1,1.1563628E0,5.10184E0,-1.1164112E0,1.3796552E0,4.9695164E-2,-3.2651383E-2,-1.1747609E0,5.1794295E0,-1.2485912E0,1.1404847E0,3.4880626E0,-1.7584133E0,3.3513057E-1,4.6376804E-1,-6.8362254E-1,-1.8836248E0,-8.445313E-1,9.1398E-1,5.6665874E0,-2.4320102E0,5.4838973E-1,1.4593486E0,-1.0464246E0,8.4602304E-2,1.8932762E0,-1.0668678E0,2.4921885E-1,2.4740353E0,-4.0745316E0,-1.0200393E0,1.8425411E0],"categories":[],"categories_nodes":[],"categories_segments":[],"categories_sizes":[],"default_left":[1,1,1,1,1,1,1,0,0,1,1,1,1,1,1,1,0,0,1,0,0,0,1,0,0,1,1,0,0,0,0,0,0,0,0,0,0],"id":69,"left_children":[1,3,5,7,9,11,13,-1,-1,15,17,19,21,23,25,27,-1,-1,29,-1,-1,-1,31,-1,-1,33,35,-1,-1,-1,-1,-1,-1,-1,-1,-1,-1],"loss_changes":[4.2868153E1,6.297332E1,4.140679E1,7.87133E1,3.7575607E1,9.100145E0,1.5808295E2,0E0,0E0,1.17061E1,2.6468748E1,4.512719E0,2.4348984E0,2.105606E0,2.6063978E1,2.9555294E1,0E0,0E0,1.6855743E1,0E0,0E0,0E0,5.396E0,0E0,0E0,7.659108E1,1.5942383E1,0E0,0E0,0E0,0E0,0E0,0E0,0E0,0E0,0E0,0E0],"parents":[2147483647,0,0,1,1,2,2,3,3,4,4,5,5,6,6,9,9,10,10,11,11,12,12,13,13,14,14,15,15,18,18,22,22,25,25,26,26],"right_children":[2,4,6,8,10,12,14,-1,-1,16,18,20,22,24,26,28,-1,-1,30,-1,-1,-1,32,-1,-1,34,36,-1,-1,-1,-1,-1,-1,-1,-1,-1,-1],"split_conditions":[8.5E7,3E0,5E2,3E7,2.5E2,5E1,9E2,2.1442121E-1,-4.6920765E-2,3.5E7,3.5E2,1.3E8,2.5E2,7E2,1.95E8,2.5E7,1.4659703E-1,-7.3902965E-2,4.5E7,1.9491341E-2,-2.8731432E-2,-7.916538E-2,1.95E8,3.8412943E-2,2.3815653E-1,3E0,3E0,6.133381E-2,-4.3979354E-2,3.5556834E-3,7.957101E-2,-4.4838548E-2,1.0474223E-2,1.03979275E-1,-1.7124528E-1,-4.287043E-2,7.7438705E-2],"split_indices":[3,11,5,3,5,5,5,0,0,3,5,3,5,5,3,3,0,0,3,0,0,0,3,0,0,11,11,0,0,0,0,0,0,0,0,0,0],"split_type":[0,0,0,0,0,0,0,0,0,0,0,0,0,0,0,0,0,0,0,0,0,0,0,0,0,0,0,0,0,0,0,0,0,0,0,0,0],"sum_hessian":[1.36E2,9.1E1,4.5E1,7E0,8.4E1,3.2E1,1.3E1,5E0,2E0,3.7E1,4.7E1,1E1,2.2E1,4E0,9E0,3.6E1,1E0,5E0,4.2E1,6E0,4E0,4E0,1.8E1,1E0,3E0,5E0,4E0,3.2E1,4E0,3.8E1,4E0,1.5E1,3E0,1E0,4E0,2E0,2E0],"tree_param":{"num_deleted":"0","num_feature":"12","num_nodes":"37","size_leaf_vector":"0"}},{"base_weights":[5.854643E-1,9.4158036E-1,-1.8444769E-1,1.0497031E0,-9.9394274E-1,-1.873675E0,9.7501945E-1,1.5334213E0,9.786207E-1,-7.4020404E-1,-2.4113696E0,1.9136692E0,-2.3707244E-1,1.8402396E0,3.062966E-1,1.0074257E0,-4.705513E-1,-2.8396757E0,-6.756028E-1,-2.1366463E0,1.7217963E0],"categories":[],"categories_nodes":[],"categories_segments":[],"categories_sizes":[],"default_left":[1,1,1,1,0,1,1,1,1,0,1,0,1,0,0,0,0,0,0,0,0],"id":70,"left_children":[1,3,5,7,-1,9,11,13,15,-1,17,-1,19,-1,-1,-1,-1,-1,-1,-1,-1],"loss_changes":[3.791028E1,2.1759987E1,9.179551E1,9.14917E-2,0E0,8.008514E0,3.2765728E1,1.8844872E0,4.4551544E0,0E0,5.082855E0,0E0,5.946094E1,0E0,0E0,0E0,0E0,0E0,0E0,0E0,0E0],"parents":[2147483647,0,0,1,1,2,2,3,3,5,5,6,6,7,7,8,8,10,10,12,12],"right_children":[2,4,6,8,-1,10,12,14,16,-1,18,-1,20,-1,-1,-1,-1,-1,-1,-1,-1],"split_conditions":[8.5E7,3.072E3,1.2E1,1.536E3,-4.1773636E-2,1.536E3,7.68E2,1E1,5E7,-3.1109452E-2,3.65E8,8.042809E-2,1.95E8,7.734198E-2,1.2873097E-2,4.2340297E-2,-1.977643E-2,-1.19346485E-1,-2.8394377E-2,-8.979942E-2,7.236402E-2],"split_indices":[3,4,2,4,0,4,4,2,3,0,3,0,3,0,0,0,0,0,0,0,0],"split_type":[0,0,0,0,0,0,0,0,0,0,0,0,0,0,0,0,0,0,0,0,0],"sum_hessian":[1.35E2,9.2E1,4.3E1,8.8E1,4E0,1.7E1,2.6E1,6E0,8.2E1,7E0,1E1,1.4E1,1.2E1,4E0,2E0,8.1E1,1E0,7E0,3E0,6E0,6E0],"tree_param":{"num_deleted":"0","num_feature":"12","num_nodes":"21","size_leaf_vector":"0"}},{"base_weights":[5.2366114E-1,8.933878E-1,-2.3856339E-1,2.243659E0,6.1435956E-1,1.4429739E0,-9.1695523E-1,2.926906E0,-1.0985973E0,4.0938932E-1,2.3308E0,3.1084843E0,-5.8344406E-1,-7.323621E-1,-1.694284E0,9.0229386E-1,4.3492258E-2,3.0014496E0,-7.878677E-1,-3.483719E-1,6.7385306E0,-1.8979616E0,9.645357E-1,-8.9404434E-1,8.058196E-1,1.2620633E0,-1.0172999E0,-1.7358723E0,3.606792E-1,9.388013E-1,-2.261019E0,1.5774761E0,-4.9578884E-1,-1.2337335E0,-5.49315E-1],"categories":[],"categories_nodes":[],"categories_segments":[],"categories_sizes":[],"default_left":[1,0,1,1,1,1,1,0,0,1,1,1,1,1,0,1,1,0,0,1,0,0,1,1,0,0,0,0,0,0,0,0,0,0,0],"id":71,"left_children":[1,3,5,7,9,11,13,-1,-1,15,17,19,21,23,-1,25,27,-1,-1,29,-1,-1,31,33,-1,-1,-1,-1,-1,-1,-1,-1,-1,-1,-1],"loss_changes":[3.8753662E1,3.190422E1,5.512337E1,4.0691467E1,2.5884567E1,5.0883842E1,2.3956509E0,0E0,0E0,1.3087404E1,2.1467167E1,1.0510152E2,1.9944769E1,9.151649E0,0E0,2.3979136E1,2.6086845E1,0E0,0E0,1.902231E1,0E0,0E0,6.0416865E0,2.0398254E0,0E0,0E0,0E0,0E0,0E0,0E0,0E0,0E0,0E0,0E0,0E0],"parents":[2147483647,0,0,1,1,2,2,3,3,4,4,5,5,6,6,9,9,10,10,11,11,12,12,13,13,15,15,16,16,19,19,22,22,23,23],"right_children":[2,4,6,8,10,12,14,-1,-1,16,18,20,22,24,-1,26,28,-1,-1,30,-1,-1,32,34,-1,-1,-1,-1,-1,-1,-1,-1,-1,-1,-1],"split_conditions":[8.5E7,1.5E0,5E-1,3E7,3.5E7,1.2E3,9E2,1.23012625E-1,-4.617208E-2,2.5E2,7E2,5.5E2,1.95E8,5E2,-7.1207725E-2,2.5E7,3.5E2,1.2614556E-1,-3.311267E-2,1.5E2,2.832084E-1,-7.9767935E-2,4.65E8,2.5E2,3.3867154E-2,5.3042263E-2,-4.2755295E-2,-7.295561E-2,1.5158702E-2,3.945614E-2,-9.502658E-2,6.62985E-2,-2.0837119E-2,-5.185161E-2,-2.3086727E-2],"split_indices":[3,7,7,3,3,5,5,0,0,5,5,5,3,5,0,3,5,0,0,5,0,0,3,5,0,0,0,0,0,0,0,0,0,0,0],"split_type":[0,0,0,0,0,0,0,0,0,0,0,0,0,0,0,0,0,0,0,0,0,0,0,0,0,0,0,0,0,0,0,0,0,0,0],"sum_hessian":[1.34E2,9E1,4.4E1,1.3E1,7.7E1,1.2E1,3.2E1,1.1E1,2E0,7.1E1,6E0,6E0,6E0,2.9E1,3E0,2.9E1,4.2E1,5E0,1E0,4E0,2E0,3E0,3E0,2.7E1,2E0,2.5E1,4E0,5E0,3.7E1,3E0,1E0,2E0,1E0,1.1E1,1.6E1],"tree_param":{"num_deleted":"0","num_feature":"12","num_nodes":"35","size_leaf_vector":"0"}},{"base_weights":[5.561788E-1,1.8440776E-1,7.353489E0,1.8008496E0,-5.5680346E-2,-7.8953314E-1,3.5134125E-1,-1.603639E0,-4.3485022E-1,5.90194E-1,-1.002832E-1,-8.354092E-1,9.4389725E-1,3.1837275E0,-5.97927E-1],"categories":[],"categories_nodes":[],"categories_segments":[],"categories_sizes":[],"default_left":[1,1,0,0,1,0,1,0,0,1,1,0,0,0,0],"id":72,"left_children":[1,3,-1,-1,5,7,9,-1,-1,11,13,-1,-1,-1,-1],"loss_changes":[3.409672E2,5.104073E1,0E0,0E0,3.520399E1,1.0732294E1,8.316828E0,0E0,0E0,2.6790674E1,4.9571053E1,0E0,0E0,0E0,0E0],"parents":[2147483647,0,0,1,1,4,4,5,5,6,6,9,9,10,10],"right_children":[2,4,-1,-1,6,8,10,-1,-1,12,14,-1,-1,-1,-1],"split_conditions":[4.5E0,5E-1,3.09054E-1,7.5686485E-2,5E-1,1.5E0,3.5E0,-6.739808E-2,-1.8275976E-2,3E0,3E0,-3.5110757E-2,3.967031E-2,1.3380638E-1,-2.51298E-2],"split_indices":[0,8,0,0,0,8,0,0,0,11,11,0,0,0,0],"split_type":[0,0,0,0,0,0,0,0,0,0,0,0,0,0,0],"sum_hessian":[1.34E2,1.29E2,5E0,1.5E1,1.14E2,4E1,7.4E1,1E1,3E1,4.8E1,2.6E1,9E0,3.9E1,2E0,2.4E1],"tree_param":{"num_deleted":"0","num_feature":"12","num_nodes":"15","size_leaf_vector":"0"}},{"base_weights":[6.074019E-1,4.2697015E0,-6.0354166E-2,6.057913E0,2.236901E0,2.4334574E-1,-8.1603545E-1,2.5518458E0,-5.140645E-1,8.8895306E-2,1.3837955E0,9.3204565E-2,-2.2990172E0,8.697323E-1,2.9191093E0,1.7020401E-1,-9.298204E-1,-1.0579683E0,2.2587564E0,8.130138E-1,-5.855863E-1,-2.55881E0,-4.348676E-1,6.709097E-1,2.863887E-2,-2.4224684E-1,1.2185781E0,-8.33449E-1,-2.2223832E-1],"categories":[],"categories_nodes":[],"categories_segments":[],"categories_sizes":[],"default_left":[1,1,1,0,1,1,1,0,0,1,0,1,1,0,0,0,0,0,0,0,1,0,0,0,0,0,0,0,0],"id":73,"left_children":[1,3,5,-1,7,9,11,13,-1,15,17,19,21,-1,-1,23,-1,-1,-1,25,27,-1,-1,-1,-1,-1,-1,-1,-1],"loss_changes":[3.3310977E2,4.9222626E1,2.7249218E1,0E0,1.38895035E1,1.4726187E1,4.6275593E1,2.3333206E0,0E0,6.694755E0,2.6149363E1,1.2191149E1,4.069542E0,0E0,0E0,5.1360545E0,0E0,0E0,0E0,5.7269845E0,8.0021954E-1,0E0,0E0,0E0,0E0,0E0,0E0,0E0,0E0],"parents":[2147483647,0,0,1,1,2,2,4,4,5,5,6,6,7,7,9,9,10,10,11,11,12,12,15,15,19,19,20,20],"right_children":[2,4,6,-1,8,10,12,14,-1,16,18,20,22,-1,-1,24,-1,-1,-1,26,28,-1,-1,-1,-1,-1,-1,-1,-1],"split_conditions":[5E-1,5.5E7,8.5E7,2.5460324E-1,4.65E8,3.5E7,1.536E3,1E-6,-2.160521E-2,3.072E3,1.5E0,7.68E2,3.65E8,3.6553293E-2,1.2268494E-1,1.5E0,-3.907869E-2,-4.4464514E-2,9.493149E-2,1.5E0,1.95E8,-1.0754221E-1,-1.8276706E-2,2.8197134E-2,1.2036405E-3,-1.0181202E-2,5.1214658E-2,-3.5028372E-2,-9.340279E-3],"split_indices":[8,3,3,0,3,3,4,8,0,4,8,4,3,0,0,8,0,0,0,8,3,0,0,0,0,0,0,0,0],"split_type":[0,0,0,0,0,0,0,0,0,0,0,0,0,0,0,0,0,0,0,0,0,0,0,0,0,0,0,0,0],"sum_hessian":[1.34E2,1.9E1,1.15E2,8E0,1.1E1,8.3E1,3.2E1,1E1,1E0,7.5E1,8E0,2.1E1,1.1E1,3E0,7E0,7.1E1,4E0,2E0,6E0,1E1,1.1E1,9E0,2E0,1.4E1,5.7E1,3E0,7E0,5E0,6E0],"tree_param":{"num_deleted":"0","num_feature":"12","num_nodes":"29","size_leaf_vector":"0"}},{"base_weights":[5.5213267E-1,2.9348338E0,2.525556E-1,5.0827594E0,1.229259E0,1.713593E0,2.0363128E-3,1.5042729E0,-5.0686574E-1,4.5913315E0,-9.984745E-2,2.9586744E-1,-8.4809655E-1,3.3139467E-1,2.54426E0,-1.0357426E0,2.5870678E-1,8.6164154E-2,2.1875687E0,-8.9196146E-1,-2.8945214E-1,2.3730729E0,-8.001602E-1,-9.3749017E-1,3.883321E0,8.757654E-1,-5.474444E-1,3.7689757E-1,-1.2343634E0],"categories":[],"categories_nodes":[],"categories_segments":[],"categories_sizes":[],"default_left":[1,1,1,0,1,1,1,1,0,0,1,1,1,1,1,0,1,1,0,0,0,0,0,0,0,0,0,0,0],"id":74,"left_children":[1,3,5,-1,7,9,11,13,-1,-1,15,17,19,21,23,-1,25,27,-1,-1,-1,-1,-1,-1,-1,-1,-1,-1,-1],"loss_changes":[9.5594696E1,4.2452515E1,4.5013683E1,0E0,6.7784805E0,9.48587E1,2.7230572E1,1.0511927E1,0E0,0E0,4.8990407E0,3.175564E1,1.6949272E-1,1.9974686E1,